Language model created by QuickLM on Wed Dec  5 08:53:14 EST 2012
Copyright (c) 1996-2010 Carnegie Mellon University and Alexander I. Rudnicky

The model is in standard ARPA format, designed by Doug Paul while he was at MITRE.

The code that was used to produce this language model is available in Open Source.
Please visit http://www.speech.cs.cmu.edu/tools/ for more information

The (fixed) discount mass is 0.5. The backoffs are computed using the ratio method.
This model based on a corpus of 86 sentences and 98 words

\data\
ngram 1=98
ngram 2=183
ngram 3=103

\1-grams:
-0.8090 </s> -0.3010
-0.8090 <s> -0.2268
-2.7435 A -0.2971
-2.7435 AFFIRMATIVE -0.2278
-2.4425 ALBERT -0.2963
-2.7435 ALL -0.2278
-2.7435 AM -0.2278
-2.4425 AND -0.2987
-2.7435 ARE -0.2278
-2.7435 AYE -0.2278
-2.7435 BE -0.2278
-2.7435 BEEN -0.2278
-2.7435 BEING -0.2278
-2.7435 BOTH -0.2278
-2.7435 CALLED -0.2278
-2.7435 CERTAINLY -0.2278
-2.7435 COLLEGE -0.2278
-2.7435 COURSE -0.2278
-2.7435 COURT -0.2278
-2.7435 DISTRICT -0.2995
-2.7435 DONT -0.2278
-2.7435 EARLS -0.3002
-2.7435 ETHOS -0.2278
-2.7435 FALSE -0.2278
-2.7435 FINE -0.2278
-2.7435 FOOD -0.2278
-2.7435 GLOUCESTER -0.3002
-2.7435 GYM -0.2278
-2.7435 HALL -0.2278
-2.7435 HALLS -0.2278
-2.7435 HE -0.2278
-2.4425 HISTORY -0.2971
-2.7435 HOME -0.2278
-2.7435 HYDE -0.3002
-2.7435 I -0.2278
-2.7435 IM -0.2278
-2.7435 IMPERIAL -0.3002
-2.7435 INDEED -0.2278
-2.7435 INDUBITABLY -0.2278
-2.7435 IS -0.2278
-2.7435 IT -0.2278
-2.7435 ITS -0.2278
-2.7435 JA -0.2278
-2.7435 KENSINGTON -0.2278
-2.7435 LECTURES -0.2278
-2.4425 LINE -0.2278
-2.7435 MAYBE -0.2278
-2.7435 ME -0.2278
-2.7435 MINE -0.2278
-2.0445 MUSEUM -0.2278
-2.7435 MY -0.2278
-2.7435 NAME -0.2278
-2.7435 NATURAL -0.2995
-2.7435 NAY -0.2278
-2.7435 NEGATIVE -0.2278
-2.7435 NEIN -0.2278
-2.7435 NO -0.2278
-2.7435 NON -0.2278
-2.7435 NONE -0.2278
-2.7435 NOPE -0.2278
-2.7435 NOT -0.2278
-2.7435 NOTHING -0.2278
-2.7435 OH -0.2278
-2.7435 OKAY -0.2278
-2.7435 PARK -0.2278
-2.7435 PICADDILLY -0.2995
-2.7435 PROBABLY -0.2278
-2.7435 ROAD -0.2278
-2.7435 ROGER -0.2278
-2.7435 ROYAL -0.2995
-2.7435 SCHOOL -0.2278
-2.7435 SCIENCE -0.2971
-2.7435 SHE -0.2278
-2.7435 SHOPPING -0.2278
-2.7435 SI -0.2278
-2.7435 SOUTH -0.3002
-2.7435 SURE -0.2278
-2.7435 THAT -0.2278
-2.7435 THINK -0.2278
-2.7435 THIS -0.2278
-2.7435 TRAIN -0.2278
-2.7435 TUBE -0.2278
-2.7435 UNDERGROUND -0.2278
-2.7435 UNION -0.2278
-2.7435 UNIVERSITY -0.2278
-2.7435 US -0.2278
-2.7435 V -0.2995
-2.7435 VICTORIA -0.2995
-2.7435 WAS -0.2278
-2.4425 WE -0.2278
-2.7435 WERE -0.2278
-2.7435 WHOM -0.2278
-2.7435 WHOSE -0.2278
-2.7435 WORK -0.2278
-2.7435 YEAH -0.2278
-2.7435 YEP -0.2278
-2.7435 YES -0.2278
-2.7435 YOU -0.2278

\2-grams:
-2.2355 <s> AFFIRMATIVE 0.0000
-2.2355 <s> ALL 0.0000
-2.2355 <s> AM 0.0000
-2.2355 <s> ARE 0.0000
-2.2355 <s> AYE 0.0000
-2.2355 <s> BE 0.0000
-2.2355 <s> BEEN 0.0000
-2.2355 <s> BEING 0.0000
-2.2355 <s> BOTH 0.0000
-2.2355 <s> CALLED 0.0000
-2.2355 <s> CERTAINLY 0.0000
-2.2355 <s> COURSE 0.0000
-2.2355 <s> DISTRICT 0.0000
-2.2355 <s> DONT 0.0000
-2.2355 <s> EARLS 0.0000
-2.2355 <s> ETHOS 0.0000
-2.2355 <s> FALSE 0.0000
-2.2355 <s> FINE 0.0000
-2.2355 <s> FOOD 0.0000
-2.2355 <s> GLOUCESTER 0.0000
-2.2355 <s> GYM 0.0000
-2.2355 <s> HALLS 0.0000
-2.2355 <s> HE 0.0000
-2.2355 <s> HISTORY 0.0000
-2.2355 <s> HOME 0.0000
-2.2355 <s> HYDE 0.0000
-2.2355 <s> I 0.0000
-2.2355 <s> IM 0.0000
-2.2355 <s> IMPERIAL 0.0000
-2.2355 <s> INDEED 0.0000
-2.2355 <s> INDUBITABLY 0.0000
-2.2355 <s> IS 0.0000
-2.2355 <s> IT 0.0000
-2.2355 <s> ITS 0.0000
-2.2355 <s> JA 0.0000
-2.2355 <s> LECTURES 0.0000
-2.2355 <s> MAYBE 0.0000
-2.2355 <s> ME 0.0000
-2.2355 <s> MINE 0.0000
-2.2355 <s> MY 0.0000
-2.2355 <s> NAME 0.0000
-2.2355 <s> NATURAL 0.0000
-2.2355 <s> NAY 0.0000
-2.2355 <s> NEGATIVE 0.0000
-2.2355 <s> NEIN 0.0000
-2.2355 <s> NO 0.0000
-2.2355 <s> NON 0.0000
-2.2355 <s> NONE 0.0000
-2.2355 <s> NOPE 0.0000
-2.2355 <s> NOT 0.0000
-2.2355 <s> NOTHING 0.0000
-2.2355 <s> OH 0.0000
-2.2355 <s> OKAY 0.0000
-2.2355 <s> PICADDILLY 0.0000
-2.2355 <s> PROBABLY 0.0000
-2.2355 <s> ROGER 0.0000
-2.2355 <s> ROYAL 0.0000
-2.2355 <s> SCHOOL 0.0000
-2.2355 <s> SCIENCE 0.0000
-2.2355 <s> SHE 0.0000
-2.2355 <s> SHOPPING 0.0000
-2.2355 <s> SI 0.0000
-2.2355 <s> SOUTH 0.0000
-2.2355 <s> SURE 0.0000
-2.2355 <s> THAT 0.0000
-2.2355 <s> THINK 0.0000
-2.2355 <s> THIS 0.0000
-2.2355 <s> TRAIN 0.0000
-2.2355 <s> TUBE 0.0000
-2.2355 <s> UNDERGROUND 0.0000
-2.2355 <s> UNION 0.0000
-2.2355 <s> UNIVERSITY 0.0000
-2.2355 <s> US 0.0000
-2.2355 <s> V 0.0000
-2.2355 <s> VICTORIA 0.0000
-2.2355 <s> WAS 0.0000
-1.9345 <s> WE 0.0000
-2.2355 <s> WERE 0.0000
-2.2355 <s> WHOM 0.0000
-2.2355 <s> WHOSE 0.0000
-2.2355 <s> WORK 0.0000
-2.2355 <s> YEAH 0.0000
-2.2355 <s> YEP 0.0000
-2.2355 <s> YES 0.0000
-2.2355 <s> YOU 0.0000
-0.3010 A MUSEUM 0.0000
-0.3010 AFFIRMATIVE </s> -0.3010
-0.6021 ALBERT HALL 0.0000
-0.6021 ALBERT MUSEUM 0.0000
-0.3010 ALL </s> -0.3010
-0.3010 AM </s> -0.3010
-0.6021 AND A 0.0000
-0.6021 AND ALBERT -0.1761
-0.3010 ARE </s> -0.3010
-0.3010 AYE </s> -0.3010
-0.3010 BE </s> -0.3010
-0.3010 BEEN </s> -0.3010
-0.3010 BEING </s> -0.3010
-0.3010 BOTH </s> -0.3010
-0.3010 CALLED </s> -0.3010
-0.3010 CERTAINLY </s> -0.3010
-0.3010 COLLEGE </s> -0.3010
-0.3010 COURSE </s> -0.3010
-0.3010 COURT </s> -0.3010
-0.3010 DISTRICT LINE 0.0000
-0.3010 DONT </s> -0.3010
-0.3010 EARLS COURT 0.0000
-0.3010 ETHOS </s> -0.3010
-0.3010 FALSE </s> -0.3010
-0.3010 FINE </s> -0.3010
-0.3010 FOOD </s> -0.3010
-0.3010 GLOUCESTER ROAD 0.0000
-0.3010 GYM </s> -0.3010
-0.3010 HALL </s> -0.3010
-0.3010 HALLS </s> -0.3010
-0.3010 HE </s> -0.3010
-0.3010 HISTORY MUSEUM 0.0000
-0.3010 HOME </s> -0.3010
-0.3010 HYDE PARK 0.0000
-0.3010 I </s> -0.3010
-0.3010 IM </s> -0.3010
-0.3010 IMPERIAL COLLEGE 0.0000
-0.3010 INDEED </s> -0.3010
-0.3010 INDUBITABLY </s> -0.3010
-0.3010 IS </s> -0.3010
-0.3010 IT </s> -0.3010
-0.3010 ITS </s> -0.3010
-0.3010 JA </s> -0.3010
-0.3010 KENSINGTON </s> -0.3010
-0.3010 LECTURES </s> -0.3010
-0.3010 LINE </s> -0.3010
-0.3010 MAYBE </s> -0.3010
-0.3010 ME </s> -0.3010
-0.3010 MINE </s> -0.3010
-0.3010 MUSEUM </s> -0.3010
-0.3010 MY </s> -0.3010
-0.3010 NAME </s> -0.3010
-0.3010 NATURAL HISTORY 0.0000
-0.3010 NAY </s> -0.3010
-0.3010 NEGATIVE </s> -0.3010
-0.3010 NEIN </s> -0.3010
-0.3010 NO </s> -0.3010
-0.3010 NON </s> -0.3010
-0.3010 NONE </s> -0.3010
-0.3010 NOPE </s> -0.3010
-0.3010 NOT </s> -0.3010
-0.3010 NOTHING </s> -0.3010
-0.3010 OH </s> -0.3010
-0.3010 OKAY </s> -0.3010
-0.3010 PARK </s> -0.3010
-0.3010 PICADDILLY LINE 0.0000
-0.3010 PROBABLY </s> -0.3010
-0.3010 ROAD </s> -0.3010
-0.3010 ROGER </s> -0.3010
-0.3010 ROYAL ALBERT -0.1761
-0.3010 SCHOOL </s> -0.3010
-0.3010 SCIENCE MUSEUM 0.0000
-0.3010 SHE </s> -0.3010
-0.3010 SHOPPING </s> -0.3010
-0.3010 SI </s> -0.3010
-0.3010 SOUTH KENSINGTON 0.0000
-0.3010 SURE </s> -0.3010
-0.3010 THAT </s> -0.3010
-0.3010 THINK </s> -0.3010
-0.3010 THIS </s> -0.3010
-0.3010 TRAIN </s> -0.3010
-0.3010 TUBE </s> -0.3010
-0.3010 UNDERGROUND </s> -0.3010
-0.3010 UNION </s> -0.3010
-0.3010 UNIVERSITY </s> -0.3010
-0.3010 US </s> -0.3010
-0.3010 V AND -0.1761
-0.3010 VICTORIA AND -0.1761
-0.3010 WAS </s> -0.3010
-0.3010 WE </s> -0.3010
-0.3010 WERE </s> -0.3010
-0.3010 WHOM </s> -0.3010
-0.3010 WHOSE </s> -0.3010
-0.3010 WORK </s> -0.3010
-0.3010 YEAH </s> -0.3010
-0.3010 YEP </s> -0.3010
-0.3010 YES </s> -0.3010
-0.3010 YOU </s> -0.3010

\3-grams:
-0.3010 <s> AFFIRMATIVE </s>
-0.3010 <s> ALL </s>
-0.3010 <s> AM </s>
-0.3010 <s> ARE </s>
-0.3010 <s> AYE </s>
-0.3010 <s> BE </s>
-0.3010 <s> BEEN </s>
-0.3010 <s> BEING </s>
-0.3010 <s> BOTH </s>
-0.3010 <s> CALLED </s>
-0.3010 <s> CERTAINLY </s>
-0.3010 <s> COURSE </s>
-0.3010 <s> DISTRICT LINE
-0.3010 <s> DONT </s>
-0.3010 <s> EARLS COURT
-0.3010 <s> ETHOS </s>
-0.3010 <s> FALSE </s>
-0.3010 <s> FINE </s>
-0.3010 <s> FOOD </s>
-0.3010 <s> GLOUCESTER ROAD
-0.3010 <s> GYM </s>
-0.3010 <s> HALLS </s>
-0.3010 <s> HE </s>
-0.3010 <s> HISTORY MUSEUM
-0.3010 <s> HOME </s>
-0.3010 <s> HYDE PARK
-0.3010 <s> I </s>
-0.3010 <s> IM </s>
-0.3010 <s> IMPERIAL COLLEGE
-0.3010 <s> INDEED </s>
-0.3010 <s> INDUBITABLY </s>
-0.3010 <s> IS </s>
-0.3010 <s> IT </s>
-0.3010 <s> ITS </s>
-0.3010 <s> JA </s>
-0.3010 <s> LECTURES </s>
-0.3010 <s> MAYBE </s>
-0.3010 <s> ME </s>
-0.3010 <s> MINE </s>
-0.3010 <s> MY </s>
-0.3010 <s> NAME </s>
-0.3010 <s> NATURAL HISTORY
-0.3010 <s> NAY </s>
-0.3010 <s> NEGATIVE </s>
-0.3010 <s> NEIN </s>
-0.3010 <s> NO </s>
-0.3010 <s> NON </s>
-0.3010 <s> NONE </s>
-0.3010 <s> NOPE </s>
-0.3010 <s> NOT </s>
-0.3010 <s> NOTHING </s>
-0.3010 <s> OH </s>
-0.3010 <s> OKAY </s>
-0.3010 <s> PICADDILLY LINE
-0.3010 <s> PROBABLY </s>
-0.3010 <s> ROGER </s>
-0.3010 <s> ROYAL ALBERT
-0.3010 <s> SCHOOL </s>
-0.3010 <s> SCIENCE MUSEUM
-0.3010 <s> SHE </s>
-0.3010 <s> SHOPPING </s>
-0.3010 <s> SI </s>
-0.3010 <s> SOUTH KENSINGTON
-0.3010 <s> SURE </s>
-0.3010 <s> THAT </s>
-0.3010 <s> THINK </s>
-0.3010 <s> THIS </s>
-0.3010 <s> TRAIN </s>
-0.3010 <s> TUBE </s>
-0.3010 <s> UNDERGROUND </s>
-0.3010 <s> UNION </s>
-0.3010 <s> UNIVERSITY </s>
-0.3010 <s> US </s>
-0.3010 <s> V AND
-0.3010 <s> VICTORIA AND
-0.3010 <s> WAS </s>
-0.3010 <s> WE </s>
-0.3010 <s> WERE </s>
-0.3010 <s> WHOM </s>
-0.3010 <s> WHOSE </s>
-0.3010 <s> WORK </s>
-0.3010 <s> YEAH </s>
-0.3010 <s> YEP </s>
-0.3010 <s> YES </s>
-0.3010 <s> YOU </s>
-0.3010 A MUSEUM </s>
-0.3010 ALBERT HALL </s>
-0.3010 ALBERT MUSEUM </s>
-0.3010 AND A MUSEUM
-0.3010 AND ALBERT MUSEUM
-0.3010 DISTRICT LINE </s>
-0.3010 EARLS COURT </s>
-0.3010 GLOUCESTER ROAD </s>
-0.3010 HISTORY MUSEUM </s>
-0.3010 HYDE PARK </s>
-0.3010 IMPERIAL COLLEGE </s>
-0.3010 NATURAL HISTORY MUSEUM
-0.3010 PICADDILLY LINE </s>
-0.3010 ROYAL ALBERT HALL
-0.3010 SCIENCE MUSEUM </s>
-0.3010 SOUTH KENSINGTON </s>
-0.3010 V AND A
-0.3010 VICTORIA AND ALBERT

\end\
