Language model created by QuickLM on Thu Nov 29 07:51:00 EST 2012
Copyright (c) 1996-2010 Carnegie Mellon University and Alexander I. Rudnicky

The model is in standard ARPA format, designed by Doug Paul while he was at MITRE.

The code that was used to produce this language model is available in Open Source.
Please visit http://www.speech.cs.cmu.edu/tools/ for more information

The (fixed) discount mass is 0.5. The backoffs are computed using the ratio method.
This model based on a corpus of 286 sentences and 297 words

\data\
ngram 1=297
ngram 2=582
ngram 3=303

\1-grams:
-0.7877 </s> -0.3010
-0.7877 <s> -0.2234
-3.2440 A -0.2998
-3.2440 AARON -0.2237
-3.2440 ABBIE -0.2237
-3.2440 ABIGAIL -0.2237
-3.2440 ADAM -0.2237
-3.2440 AFFIRMATIVE -0.2237
-3.2440 AIDAN -0.2237
-3.2440 AIMEE -0.2237
-2.9430 ALBERT -0.2995
-3.2440 ALEX -0.2237
-3.2440 ALEXANDER -0.2237
-3.2440 ALEXANDRA -0.2237
-3.2440 ALICE -0.2237
-3.2440 ALICIA -0.2237
-3.2440 ALL -0.2237
-3.2440 AM -0.2237
-3.2440 AMBER -0.2237
-3.2440 AMELIA -0.2237
-3.2440 AMY -0.2237
-2.9430 AND -0.3003
-3.2440 ANDREW -0.2237
-3.2440 ANNA -0.2237
-3.2440 ANTHONY -0.2237
-3.2440 ARE -0.2237
-3.2440 ASHLEIGH -0.2237
-3.2440 ASHLEY -0.2237
-3.2440 AYE -0.2237
-3.2440 BE -0.2237
-3.2440 BEEN -0.2237
-3.2440 BEING -0.2237
-3.2440 BEN -0.2237
-3.2440 BENJAMIN -0.2237
-3.2440 BETH -0.2237
-3.2440 BETHAN -0.2237
-3.2440 BETHANY -0.2237
-3.2440 BILLY -0.2237
-3.2440 BOTH -0.2237
-3.2440 BRADLEY -0.2237
-3.2440 BRANDON -0.2237
-3.2440 CAITLIN -0.2237
-3.2440 CALLED -0.2237
-3.2440 CALLUM -0.2237
-3.2440 CALUM -0.2237
-3.2440 CAMERON -0.2237
-3.2440 CATHERINE -0.2237
-3.2440 CERTAINLY -0.2237
-3.2440 CHANTELLE -0.2237
-3.2440 CHARLES -0.2237
-3.2440 CHARLIE -0.2237
-3.2440 CHARLOTTE -0.2237
-3.2440 CHELSEA -0.2237
-3.2440 CHLOE -0.2237
-3.2440 CHRISTIAN -0.2237
-3.2440 CHRISTOPHER -0.2237
-3.2440 CLAIRE -0.2237
-3.2440 COLLEGE -0.2237
-3.2440 CONNOR -0.2237
-3.2440 CONOR -0.2237
-3.2440 COURSE -0.2237
-3.2440 COURT -0.2237
-3.2440 COURTNEY -0.2237
-3.2440 CRAIG -0.2237
-3.2440 CURTIS -0.2237
-3.2440 DAISY -0.2237
-3.2440 DANIEL -0.2237
-3.2440 DANIELLE -0.2237
-3.2440 DANNY -0.2237
-3.2440 DAVID -0.2237
-3.2440 DEAN -0.2237
-3.2440 DECLAN -0.2237
-3.2440 DEMI -0.2237
-3.2440 DISTRICT -0.3005
-3.2440 DOMINIC -0.2237
-3.2440 DONT -0.2237
-3.2440 DYLAN -0.2237
-3.2440 EARLS -0.3008
-3.2440 EDWARD -0.2237
-3.2440 ELEANOR -0.2237
-3.2440 ELIZABETH -0.2237
-3.2440 ELLA -0.2237
-3.2440 ELLEN -0.2237
-3.2440 ELLIE -0.2237
-3.2440 ELLIOT -0.2237
-3.2440 ELLIOTT -0.2237
-3.2440 EMILY -0.2237
-3.2440 EMMA -0.2237
-3.2440 ERIN -0.2237
-3.2440 ETHAN -0.2237
-3.2440 ETHOS -0.2237
-3.2440 FALSE -0.2237
-3.2440 FINE -0.2237
-3.2440 FOOD -0.2237
-3.2440 FRANCESCA -0.2237
-3.2440 GABRIELLE -0.2237
-3.2440 GEMMA -0.2237
-3.2440 GEORGE -0.2237
-3.2440 GEORGIA -0.2237
-3.2440 GEORGINA -0.2237
-3.2440 GLOUCESTER -0.3008
-3.2440 GRACE -0.2237
-3.2440 GYM -0.2237
-3.2440 HALL -0.2237
-3.2440 HALLS -0.2237
-3.2440 HANNAH -0.2237
-3.2440 HARRIET -0.2237
-3.2440 HARRISON -0.2237
-3.2440 HARRY -0.2237
-3.2440 HAYLEY -0.2237
-3.2440 HE -0.2237
-3.2440 HEATHER -0.2237
-3.2440 HENRY -0.2237
-2.9430 HISTORY -0.2998
-3.2440 HOLLIE -0.2237
-3.2440 HOLLY -0.2237
-3.2440 HOME -0.2237
-3.2440 HYDE -0.3008
-3.2440 I -0.2237
-3.2440 IM -0.2237
-3.2440 IMOGEN -0.2237
-3.2440 IMPERIAL -0.3008
-3.2440 INDEED -0.2237
-3.2440 INDUBITABLY -0.2237
-3.2440 IS -0.2237
-3.2440 ISOBEL -0.2237
-3.2440 IT -0.2237
-3.2440 ITS -0.2237
-3.2440 JA -0.2237
-3.2440 JACK -0.2237
-3.2440 JACOB -0.2237
-3.2440 JADE -0.2237
-3.2440 JAKE -0.2237
-3.2440 JAMES -0.2237
-3.2440 JAMIE -0.2237
-3.2440 JASMINE -0.2237
-3.2440 JASON -0.2237
-3.2440 JAY -0.2237
-3.2440 JENNIFER -0.2237
-3.2440 JESSICA -0.2237
-3.2440 JODIE -0.2237
-3.2440 JOE -0.2237
-3.2440 JOEL -0.2237
-3.2440 JOHN -0.2237
-3.2440 JONATHAN -0.2237
-3.2440 JORDAN -0.2237
-3.2440 JOSEPH -0.2237
-3.2440 JOSH -0.2237
-3.2440 JOSHUA -0.2237
-3.2440 KANE -0.2237
-3.2440 KATE -0.2237
-3.2440 KATHERINE -0.2237
-3.2440 KATHRYN -0.2237
-3.2440 KATIE -0.2237
-3.2440 KAYLEIGH -0.2237
-3.2440 KELLY -0.2237
-3.2440 KENSINGTON -0.2237
-3.2440 KIERAN -0.2237
-3.2440 KIMBERLEY -0.2237
-3.2440 KIRSTY -0.2237
-3.2440 KYLE -0.2237
-3.2440 LAURA -0.2237
-3.2440 LAUREN -0.2237
-3.2440 LEAH -0.2237
-3.2440 LEANNE -0.2237
-3.2440 LECTURES -0.2237
-3.2440 LEE -0.2237
-3.2440 LEWIS -0.2237
-3.2440 LIAM -0.2237
-3.2440 LILY -0.2237
-2.9430 LINE -0.2237
-3.2440 LOUIS -0.2237
-3.2440 LOUISE -0.2237
-3.2440 LUCY -0.2237
-3.2440 LUKE -0.2237
-3.2440 LYDIA -0.2237
-3.2440 MACAULEY -0.2237
-3.2440 MADELEINE -0.2237
-3.2440 MARCUS -0.2237
-3.2440 MARIA -0.2237
-3.2440 MARK -0.2237
-3.2440 MATTHEW -0.2237
-3.2440 MAX -0.2237
-3.2440 MAYBE -0.2237
-3.2440 ME -0.2237
-3.2440 MEGAN -0.2237
-3.2440 MELISSA -0.2237
-3.2440 MICHAEL -0.2237
-3.2440 MINE -0.2237
-3.2440 MITCHELL -0.2237
-3.2440 MOHAMMAD -0.2237
-3.2440 MOHAMMED -0.2237
-3.2440 MOLLIE -0.2237
-3.2440 MOLLY -0.2237
-2.5451 MUSEUM -0.2237
-3.2440 MY -0.2237
-3.2440 NAME -0.2237
-3.2440 NAOMI -0.2237
-3.2440 NATALIE -0.2237
-3.2440 NATASHA -0.2237
-3.2440 NATHAN -0.2237
-3.2440 NATURAL -0.3005
-3.2440 NAY -0.2237
-3.2440 NEGATIVE -0.2237
-3.2440 NEIN -0.2237
-3.2440 NICHOLAS -0.2237
-3.2440 NICOLA -0.2237
-3.2440 NICOLE -0.2237
-3.2440 NO -0.2237
-3.2440 NON -0.2237
-3.2440 NONE -0.2237
-3.2440 NOPE -0.2237
-3.2440 NOT -0.2237
-3.2440 NOTHING -0.2237
-3.2440 OH -0.2237
-3.2440 OKAY -0.2237
-3.2440 OLIVER -0.2237
-3.2440 OLIVIA -0.2237
-3.2440 OWEN -0.2237
-3.2440 PAIGE -0.2237
-3.2440 PARK -0.2237
-3.2440 PATRICK -0.2237
-3.2440 PAUL -0.2237
-3.2440 PETER -0.2237
-3.2440 PHOEBE -0.2237
-3.2440 PICADDILLY -0.3005
-3.2440 POPPY -0.2237
-3.2440 PROBABLY -0.2237
-3.2440 RACHAEL -0.2237
-3.2440 RACHEL -0.2237
-3.2440 REBECCA -0.2237
-3.2440 REECE -0.2237
-3.2440 RHIANNON -0.2237
-3.2440 RHYS -0.2237
-3.2440 RICHARD -0.2237
-3.2440 ROAD -0.2237
-3.2440 ROBERT -0.2237
-3.2440 ROBYN -0.2237
-3.2440 ROGER -0.2237
-3.2440 RORY -0.2237
-3.2440 ROSIE -0.2237
-3.2440 ROSS -0.2237
-3.2440 ROYAL -0.3005
-3.2440 RYAN -0.2237
-3.2440 SAM -0.2237
-3.2440 SAMANTHA -0.2237
-3.2440 SAMUEL -0.2237
-3.2440 SARAH -0.2237
-3.2440 SCHOOL -0.2237
-3.2440 SCIENCE -0.2998
-3.2440 SCOTT -0.2237
-3.2440 SEAN -0.2237
-3.2440 SHANE -0.2237
-3.2440 SHANNON -0.2237
-3.2440 SHAUN -0.2237
-3.2440 SHE -0.2237
-3.2440 SHOPPING -0.2237
-3.2440 SI -0.2237
-3.2440 SIAN -0.2237
-3.2440 SIMON -0.2237
-3.2440 SOPHIA -0.2237
-3.2440 SOPHIE -0.2237
-3.2440 SOUTH -0.3008
-3.2440 STACEY -0.2237
-3.2440 STEPHANIE -0.2237
-3.2440 STEPHEN -0.2237
-3.2440 STEVEN -0.2237
-3.2440 SURE -0.2237
-3.2440 THAT -0.2237
-3.2440 THINK -0.2237
-3.2440 THIS -0.2237
-3.2440 THOMAS -0.2237
-3.2440 TIMOTHY -0.2237
-3.2440 TOBY -0.2237
-3.2440 TRAIN -0.2237
-3.2440 TUBE -0.2237
-3.2440 TYLER -0.2237
-3.2440 UNDERGROUND -0.2237
-3.2440 UNION -0.2237
-3.2440 UNIVERSITY -0.2237
-3.2440 US -0.2237
-3.2440 V -0.3005
-2.9430 VICTORIA -0.2231
-3.2440 WAS -0.2237
-2.9430 WE -0.2237
-3.2440 WERE -0.2237
-3.2440 WHOM -0.2237
-3.2440 WHOSE -0.2237
-3.2440 WILLIAM -0.2237
-3.2440 WORK -0.2237
-3.2440 YASMIN -0.2237
-3.2440 YEAH -0.2237
-3.2440 YEP -0.2237
-3.2440 YES -0.2237
-3.2440 YOU -0.2237
-3.2440 ZACHARY -0.2237
-3.2440 ZOE -0.2237

\2-grams:
-2.7574 <s> AARON 0.0000
-2.7574 <s> ABBIE 0.0000
-2.7574 <s> ABIGAIL 0.0000
-2.7574 <s> ADAM 0.0000
-2.7574 <s> AFFIRMATIVE 0.0000
-2.7574 <s> AIDAN 0.0000
-2.7574 <s> AIMEE 0.0000
-2.7574 <s> ALEX 0.0000
-2.7574 <s> ALEXANDER 0.0000
-2.7574 <s> ALEXANDRA 0.0000
-2.7574 <s> ALICE 0.0000
-2.7574 <s> ALICIA 0.0000
-2.7574 <s> ALL 0.0000
-2.7574 <s> AM 0.0000
-2.7574 <s> AMBER 0.0000
-2.7574 <s> AMELIA 0.0000
-2.7574 <s> AMY 0.0000
-2.7574 <s> ANDREW 0.0000
-2.7574 <s> ANNA 0.0000
-2.7574 <s> ANTHONY 0.0000
-2.7574 <s> ARE 0.0000
-2.7574 <s> ASHLEIGH 0.0000
-2.7574 <s> ASHLEY 0.0000
-2.7574 <s> AYE 0.0000
-2.7574 <s> BE 0.0000
-2.7574 <s> BEEN 0.0000
-2.7574 <s> BEING 0.0000
-2.7574 <s> BEN 0.0000
-2.7574 <s> BENJAMIN 0.0000
-2.7574 <s> BETH 0.0000
-2.7574 <s> BETHAN 0.0000
-2.7574 <s> BETHANY 0.0000
-2.7574 <s> BILLY 0.0000
-2.7574 <s> BOTH 0.0000
-2.7574 <s> BRADLEY 0.0000
-2.7574 <s> BRANDON 0.0000
-2.7574 <s> CAITLIN 0.0000
-2.7574 <s> CALLED 0.0000
-2.7574 <s> CALLUM 0.0000
-2.7574 <s> CALUM 0.0000
-2.7574 <s> CAMERON 0.0000
-2.7574 <s> CATHERINE 0.0000
-2.7574 <s> CERTAINLY 0.0000
-2.7574 <s> CHANTELLE 0.0000
-2.7574 <s> CHARLES 0.0000
-2.7574 <s> CHARLIE 0.0000
-2.7574 <s> CHARLOTTE 0.0000
-2.7574 <s> CHELSEA 0.0000
-2.7574 <s> CHLOE 0.0000
-2.7574 <s> CHRISTIAN 0.0000
-2.7574 <s> CHRISTOPHER 0.0000
-2.7574 <s> CLAIRE 0.0000
-2.7574 <s> CONNOR 0.0000
-2.7574 <s> CONOR 0.0000
-2.7574 <s> COURSE 0.0000
-2.7574 <s> COURTNEY 0.0000
-2.7574 <s> CRAIG 0.0000
-2.7574 <s> CURTIS 0.0000
-2.7574 <s> DAISY 0.0000
-2.7574 <s> DANIEL 0.0000
-2.7574 <s> DANIELLE 0.0000
-2.7574 <s> DANNY 0.0000
-2.7574 <s> DAVID 0.0000
-2.7574 <s> DEAN 0.0000
-2.7574 <s> DECLAN 0.0000
-2.7574 <s> DEMI 0.0000
-2.7574 <s> DISTRICT 0.0000
-2.7574 <s> DOMINIC 0.0000
-2.7574 <s> DONT 0.0000
-2.7574 <s> DYLAN 0.0000
-2.7574 <s> EARLS 0.0000
-2.7574 <s> EDWARD 0.0000
-2.7574 <s> ELEANOR 0.0000
-2.7574 <s> ELIZABETH 0.0000
-2.7574 <s> ELLA 0.0000
-2.7574 <s> ELLEN 0.0000
-2.7574 <s> ELLIE 0.0000
-2.7574 <s> ELLIOT 0.0000
-2.7574 <s> ELLIOTT 0.0000
-2.7574 <s> EMILY 0.0000
-2.7574 <s> EMMA 0.0000
-2.7574 <s> ERIN 0.0000
-2.7574 <s> ETHAN 0.0000
-2.7574 <s> ETHOS 0.0000
-2.7574 <s> FALSE 0.0000
-2.7574 <s> FINE 0.0000
-2.7574 <s> FOOD 0.0000
-2.7574 <s> FRANCESCA 0.0000
-2.7574 <s> GABRIELLE 0.0000
-2.7574 <s> GEMMA 0.0000
-2.7574 <s> GEORGE 0.0000
-2.7574 <s> GEORGIA 0.0000
-2.7574 <s> GEORGINA 0.0000
-2.7574 <s> GLOUCESTER 0.0000
-2.7574 <s> GRACE 0.0000
-2.7574 <s> GYM 0.0000
-2.7574 <s> HALLS 0.0000
-2.7574 <s> HANNAH 0.0000
-2.7574 <s> HARRIET 0.0000
-2.7574 <s> HARRISON 0.0000
-2.7574 <s> HARRY 0.0000
-2.7574 <s> HAYLEY 0.0000
-2.7574 <s> HE 0.0000
-2.7574 <s> HEATHER 0.0000
-2.7574 <s> HENRY 0.0000
-2.7574 <s> HISTORY 0.0000
-2.7574 <s> HOLLIE 0.0000
-2.7574 <s> HOLLY 0.0000
-2.7574 <s> HOME 0.0000
-2.7574 <s> HYDE 0.0000
-2.7574 <s> I 0.0000
-2.7574 <s> IM 0.0000
-2.7574 <s> IMOGEN 0.0000
-2.7574 <s> IMPERIAL 0.0000
-2.7574 <s> INDEED 0.0000
-2.7574 <s> INDUBITABLY 0.0000
-2.7574 <s> IS 0.0000
-2.7574 <s> ISOBEL 0.0000
-2.7574 <s> IT 0.0000
-2.7574 <s> ITS 0.0000
-2.7574 <s> JA 0.0000
-2.7574 <s> JACK 0.0000
-2.7574 <s> JACOB 0.0000
-2.7574 <s> JADE 0.0000
-2.7574 <s> JAKE 0.0000
-2.7574 <s> JAMES 0.0000
-2.7574 <s> JAMIE 0.0000
-2.7574 <s> JASMINE 0.0000
-2.7574 <s> JASON 0.0000
-2.7574 <s> JAY 0.0000
-2.7574 <s> JENNIFER 0.0000
-2.7574 <s> JESSICA 0.0000
-2.7574 <s> JODIE 0.0000
-2.7574 <s> JOE 0.0000
-2.7574 <s> JOEL 0.0000
-2.7574 <s> JOHN 0.0000
-2.7574 <s> JONATHAN 0.0000
-2.7574 <s> JORDAN 0.0000
-2.7574 <s> JOSEPH 0.0000
-2.7574 <s> JOSH 0.0000
-2.7574 <s> JOSHUA 0.0000
-2.7574 <s> KANE 0.0000
-2.7574 <s> KATE 0.0000
-2.7574 <s> KATHERINE 0.0000
-2.7574 <s> KATHRYN 0.0000
-2.7574 <s> KATIE 0.0000
-2.7574 <s> KAYLEIGH 0.0000
-2.7574 <s> KELLY 0.0000
-2.7574 <s> KIERAN 0.0000
-2.7574 <s> KIMBERLEY 0.0000
-2.7574 <s> KIRSTY 0.0000
-2.7574 <s> KYLE 0.0000
-2.7574 <s> LAURA 0.0000
-2.7574 <s> LAUREN 0.0000
-2.7574 <s> LEAH 0.0000
-2.7574 <s> LEANNE 0.0000
-2.7574 <s> LECTURES 0.0000
-2.7574 <s> LEE 0.0000
-2.7574 <s> LEWIS 0.0000
-2.7574 <s> LIAM 0.0000
-2.7574 <s> LILY 0.0000
-2.7574 <s> LOUIS 0.0000
-2.7574 <s> LOUISE 0.0000
-2.7574 <s> LUCY 0.0000
-2.7574 <s> LUKE 0.0000
-2.7574 <s> LYDIA 0.0000
-2.7574 <s> MACAULEY 0.0000
-2.7574 <s> MADELEINE 0.0000
-2.7574 <s> MARCUS 0.0000
-2.7574 <s> MARIA 0.0000
-2.7574 <s> MARK 0.0000
-2.7574 <s> MATTHEW 0.0000
-2.7574 <s> MAX 0.0000
-2.7574 <s> MAYBE 0.0000
-2.7574 <s> ME 0.0000
-2.7574 <s> MEGAN 0.0000
-2.7574 <s> MELISSA 0.0000
-2.7574 <s> MICHAEL 0.0000
-2.7574 <s> MINE 0.0000
-2.7574 <s> MITCHELL 0.0000
-2.7574 <s> MOHAMMAD 0.0000
-2.7574 <s> MOHAMMED 0.0000
-2.7574 <s> MOLLIE 0.0000
-2.7574 <s> MOLLY 0.0000
-2.7574 <s> MY 0.0000
-2.7574 <s> NAME 0.0000
-2.7574 <s> NAOMI 0.0000
-2.7574 <s> NATALIE 0.0000
-2.7574 <s> NATASHA 0.0000
-2.7574 <s> NATHAN 0.0000
-2.7574 <s> NATURAL 0.0000
-2.7574 <s> NAY 0.0000
-2.7574 <s> NEGATIVE 0.0000
-2.7574 <s> NEIN 0.0000
-2.7574 <s> NICHOLAS 0.0000
-2.7574 <s> NICOLA 0.0000
-2.7574 <s> NICOLE 0.0000
-2.7574 <s> NO 0.0000
-2.7574 <s> NON 0.0000
-2.7574 <s> NONE 0.0000
-2.7574 <s> NOPE 0.0000
-2.7574 <s> NOT 0.0000
-2.7574 <s> NOTHING 0.0000
-2.7574 <s> OH 0.0000
-2.7574 <s> OKAY 0.0000
-2.7574 <s> OLIVER 0.0000
-2.7574 <s> OLIVIA 0.0000
-2.7574 <s> OWEN 0.0000
-2.7574 <s> PAIGE 0.0000
-2.7574 <s> PATRICK 0.0000
-2.7574 <s> PAUL 0.0000
-2.7574 <s> PETER 0.0000
-2.7574 <s> PHOEBE 0.0000
-2.7574 <s> PICADDILLY 0.0000
-2.7574 <s> POPPY 0.0000
-2.7574 <s> PROBABLY 0.0000
-2.7574 <s> RACHAEL 0.0000
-2.7574 <s> RACHEL 0.0000
-2.7574 <s> REBECCA 0.0000
-2.7574 <s> REECE 0.0000
-2.7574 <s> RHIANNON 0.0000
-2.7574 <s> RHYS 0.0000
-2.7574 <s> RICHARD 0.0000
-2.7574 <s> ROBERT 0.0000
-2.7574 <s> ROBYN 0.0000
-2.7574 <s> ROGER 0.0000
-2.7574 <s> RORY 0.0000
-2.7574 <s> ROSIE 0.0000
-2.7574 <s> ROSS 0.0000
-2.7574 <s> ROYAL 0.0000
-2.7574 <s> RYAN 0.0000
-2.7574 <s> SAM 0.0000
-2.7574 <s> SAMANTHA 0.0000
-2.7574 <s> SAMUEL 0.0000
-2.7574 <s> SARAH 0.0000
-2.7574 <s> SCHOOL 0.0000
-2.7574 <s> SCIENCE 0.0000
-2.7574 <s> SCOTT 0.0000
-2.7574 <s> SEAN 0.0000
-2.7574 <s> SHANE 0.0000
-2.7574 <s> SHANNON 0.0000
-2.7574 <s> SHAUN 0.0000
-2.7574 <s> SHE 0.0000
-2.7574 <s> SHOPPING 0.0000
-2.7574 <s> SI 0.0000
-2.7574 <s> SIAN 0.0000
-2.7574 <s> SIMON 0.0000
-2.7574 <s> SOPHIA 0.0000
-2.7574 <s> SOPHIE 0.0000
-2.7574 <s> SOUTH 0.0000
-2.7574 <s> STACEY 0.0000
-2.7574 <s> STEPHANIE 0.0000
-2.7574 <s> STEPHEN 0.0000
-2.7574 <s> STEVEN 0.0000
-2.7574 <s> SURE 0.0000
-2.7574 <s> THAT 0.0000
-2.7574 <s> THINK 0.0000
-2.7574 <s> THIS 0.0000
-2.7574 <s> THOMAS 0.0000
-2.7574 <s> TIMOTHY 0.0000
-2.7574 <s> TOBY 0.0000
-2.7574 <s> TRAIN 0.0000
-2.7574 <s> TUBE 0.0000
-2.7574 <s> TYLER 0.0000
-2.7574 <s> UNDERGROUND 0.0000
-2.7574 <s> UNION 0.0000
-2.7574 <s> UNIVERSITY 0.0000
-2.7574 <s> US 0.0000
-2.7574 <s> V 0.0000
-2.4564 <s> VICTORIA 0.0000
-2.7574 <s> WAS 0.0000
-2.4564 <s> WE 0.0000
-2.7574 <s> WERE 0.0000
-2.7574 <s> WHOM 0.0000
-2.7574 <s> WHOSE 0.0000
-2.7574 <s> WILLIAM 0.0000
-2.7574 <s> WORK 0.0000
-2.7574 <s> YASMIN 0.0000
-2.7574 <s> YEAH 0.0000
-2.7574 <s> YEP 0.0000
-2.7574 <s> YES 0.0000
-2.7574 <s> YOU 0.0000
-2.7574 <s> ZACHARY 0.0000
-2.7574 <s> ZOE 0.0000
-0.3010 A MUSEUM 0.0000
-0.3010 AARON </s> -0.3010
-0.3010 ABBIE </s> -0.3010
-0.3010 ABIGAIL </s> -0.3010
-0.3010 ADAM </s> -0.3010
-0.3010 AFFIRMATIVE </s> -0.3010
-0.3010 AIDAN </s> -0.3010
-0.3010 AIMEE </s> -0.3010
-0.6021 ALBERT HALL 0.0000
-0.6021 ALBERT MUSEUM 0.0000
-0.3010 ALEX </s> -0.3010
-0.3010 ALEXANDER </s> -0.3010
-0.3010 ALEXANDRA </s> -0.3010
-0.3010 ALICE </s> -0.3010
-0.3010 ALICIA </s> -0.3010
-0.3010 ALL </s> -0.3010
-0.3010 AM </s> -0.3010
-0.3010 AMBER </s> -0.3010
-0.3010 AMELIA </s> -0.3010
-0.3010 AMY </s> -0.3010
-0.6021 AND A 0.0000
-0.6021 AND ALBERT -0.1761
-0.3010 ANDREW </s> -0.3010
-0.3010 ANNA </s> -0.3010
-0.3010 ANTHONY </s> -0.3010
-0.3010 ARE </s> -0.3010
-0.3010 ASHLEIGH </s> -0.3010
-0.3010 ASHLEY </s> -0.3010
-0.3010 AYE </s> -0.3010
-0.3010 BE </s> -0.3010
-0.3010 BEEN </s> -0.3010
-0.3010 BEING </s> -0.3010
-0.3010 BEN </s> -0.3010
-0.3010 BENJAMIN </s> -0.3010
-0.3010 BETH </s> -0.3010
-0.3010 BETHAN </s> -0.3010
-0.3010 BETHANY </s> -0.3010
-0.3010 BILLY </s> -0.3010
-0.3010 BOTH </s> -0.3010
-0.3010 BRADLEY </s> -0.3010
-0.3010 BRANDON </s> -0.3010
-0.3010 CAITLIN </s> -0.3010
-0.3010 CALLED </s> -0.3010
-0.3010 CALLUM </s> -0.3010
-0.3010 CALUM </s> -0.3010
-0.3010 CAMERON </s> -0.3010
-0.3010 CATHERINE </s> -0.3010
-0.3010 CERTAINLY </s> -0.3010
-0.3010 CHANTELLE </s> -0.3010
-0.3010 CHARLES </s> -0.3010
-0.3010 CHARLIE </s> -0.3010
-0.3010 CHARLOTTE </s> -0.3010
-0.3010 CHELSEA </s> -0.3010
-0.3010 CHLOE </s> -0.3010
-0.3010 CHRISTIAN </s> -0.3010
-0.3010 CHRISTOPHER </s> -0.3010
-0.3010 CLAIRE </s> -0.3010
-0.3010 COLLEGE </s> -0.3010
-0.3010 CONNOR </s> -0.3010
-0.3010 CONOR </s> -0.3010
-0.3010 COURSE </s> -0.3010
-0.3010 COURT </s> -0.3010
-0.3010 COURTNEY </s> -0.3010
-0.3010 CRAIG </s> -0.3010
-0.3010 CURTIS </s> -0.3010
-0.3010 DAISY </s> -0.3010
-0.3010 DANIEL </s> -0.3010
-0.3010 DANIELLE </s> -0.3010
-0.3010 DANNY </s> -0.3010
-0.3010 DAVID </s> -0.3010
-0.3010 DEAN </s> -0.3010
-0.3010 DECLAN </s> -0.3010
-0.3010 DEMI </s> -0.3010
-0.3010 DISTRICT LINE 0.0000
-0.3010 DOMINIC </s> -0.3010
-0.3010 DONT </s> -0.3010
-0.3010 DYLAN </s> -0.3010
-0.3010 EARLS COURT 0.0000
-0.3010 EDWARD </s> -0.3010
-0.3010 ELEANOR </s> -0.3010
-0.3010 ELIZABETH </s> -0.3010
-0.3010 ELLA </s> -0.3010
-0.3010 ELLEN </s> -0.3010
-0.3010 ELLIE </s> -0.3010
-0.3010 ELLIOT </s> -0.3010
-0.3010 ELLIOTT </s> -0.3010
-0.3010 EMILY </s> -0.3010
-0.3010 EMMA </s> -0.3010
-0.3010 ERIN </s> -0.3010
-0.3010 ETHAN </s> -0.3010
-0.3010 ETHOS </s> -0.3010
-0.3010 FALSE </s> -0.3010
-0.3010 FINE </s> -0.3010
-0.3010 FOOD </s> -0.3010
-0.3010 FRANCESCA </s> -0.3010
-0.3010 GABRIELLE </s> -0.3010
-0.3010 GEMMA </s> -0.3010
-0.3010 GEORGE </s> -0.3010
-0.3010 GEORGIA </s> -0.3010
-0.3010 GEORGINA </s> -0.3010
-0.3010 GLOUCESTER ROAD 0.0000
-0.3010 GRACE </s> -0.3010
-0.3010 GYM </s> -0.3010
-0.3010 HALL </s> -0.3010
-0.3010 HALLS </s> -0.3010
-0.3010 HANNAH </s> -0.3010
-0.3010 HARRIET </s> -0.3010
-0.3010 HARRISON </s> -0.3010
-0.3010 HARRY </s> -0.3010
-0.3010 HAYLEY </s> -0.3010
-0.3010 HE </s> -0.3010
-0.3010 HEATHER </s> -0.3010
-0.3010 HENRY </s> -0.3010
-0.3010 HISTORY MUSEUM 0.0000
-0.3010 HOLLIE </s> -0.3010
-0.3010 HOLLY </s> -0.3010
-0.3010 HOME </s> -0.3010
-0.3010 HYDE PARK 0.0000
-0.3010 I </s> -0.3010
-0.3010 IM </s> -0.3010
-0.3010 IMOGEN </s> -0.3010
-0.3010 IMPERIAL COLLEGE 0.0000
-0.3010 INDEED </s> -0.3010
-0.3010 INDUBITABLY </s> -0.3010
-0.3010 IS </s> -0.3010
-0.3010 ISOBEL </s> -0.3010
-0.3010 IT </s> -0.3010
-0.3010 ITS </s> -0.3010
-0.3010 JA </s> -0.3010
-0.3010 JACK </s> -0.3010
-0.3010 JACOB </s> -0.3010
-0.3010 JADE </s> -0.3010
-0.3010 JAKE </s> -0.3010
-0.3010 JAMES </s> -0.3010
-0.3010 JAMIE </s> -0.3010
-0.3010 JASMINE </s> -0.3010
-0.3010 JASON </s> -0.3010
-0.3010 JAY </s> -0.3010
-0.3010 JENNIFER </s> -0.3010
-0.3010 JESSICA </s> -0.3010
-0.3010 JODIE </s> -0.3010
-0.3010 JOE </s> -0.3010
-0.3010 JOEL </s> -0.3010
-0.3010 JOHN </s> -0.3010
-0.3010 JONATHAN </s> -0.3010
-0.3010 JORDAN </s> -0.3010
-0.3010 JOSEPH </s> -0.3010
-0.3010 JOSH </s> -0.3010
-0.3010 JOSHUA </s> -0.3010
-0.3010 KANE </s> -0.3010
-0.3010 KATE </s> -0.3010
-0.3010 KATHERINE </s> -0.3010
-0.3010 KATHRYN </s> -0.3010
-0.3010 KATIE </s> -0.3010
-0.3010 KAYLEIGH </s> -0.3010
-0.3010 KELLY </s> -0.3010
-0.3010 KENSINGTON </s> -0.3010
-0.3010 KIERAN </s> -0.3010
-0.3010 KIMBERLEY </s> -0.3010
-0.3010 KIRSTY </s> -0.3010
-0.3010 KYLE </s> -0.3010
-0.3010 LAURA </s> -0.3010
-0.3010 LAUREN </s> -0.3010
-0.3010 LEAH </s> -0.3010
-0.3010 LEANNE </s> -0.3010
-0.3010 LECTURES </s> -0.3010
-0.3010 LEE </s> -0.3010
-0.3010 LEWIS </s> -0.3010
-0.3010 LIAM </s> -0.3010
-0.3010 LILY </s> -0.3010
-0.3010 LINE </s> -0.3010
-0.3010 LOUIS </s> -0.3010
-0.3010 LOUISE </s> -0.3010
-0.3010 LUCY </s> -0.3010
-0.3010 LUKE </s> -0.3010
-0.3010 LYDIA </s> -0.3010
-0.3010 MACAULEY </s> -0.3010
-0.3010 MADELEINE </s> -0.3010
-0.3010 MARCUS </s> -0.3010
-0.3010 MARIA </s> -0.3010
-0.3010 MARK </s> -0.3010
-0.3010 MATTHEW </s> -0.3010
-0.3010 MAX </s> -0.3010
-0.3010 MAYBE </s> -0.3010
-0.3010 ME </s> -0.3010
-0.3010 MEGAN </s> -0.3010
-0.3010 MELISSA </s> -0.3010
-0.3010 MICHAEL </s> -0.3010
-0.3010 MINE </s> -0.3010
-0.3010 MITCHELL </s> -0.3010
-0.3010 MOHAMMAD </s> -0.3010
-0.3010 MOHAMMED </s> -0.3010
-0.3010 MOLLIE </s> -0.3010
-0.3010 MOLLY </s> -0.3010
-0.3010 MUSEUM </s> -0.3010
-0.3010 MY </s> -0.3010
-0.3010 NAME </s> -0.3010
-0.3010 NAOMI </s> -0.3010
-0.3010 NATALIE </s> -0.3010
-0.3010 NATASHA </s> -0.3010
-0.3010 NATHAN </s> -0.3010
-0.3010 NATURAL HISTORY 0.0000
-0.3010 NAY </s> -0.3010
-0.3010 NEGATIVE </s> -0.3010
-0.3010 NEIN </s> -0.3010
-0.3010 NICHOLAS </s> -0.3010
-0.3010 NICOLA </s> -0.3010
-0.3010 NICOLE </s> -0.3010
-0.3010 NO </s> -0.3010
-0.3010 NON </s> -0.3010
-0.3010 NONE </s> -0.3010
-0.3010 NOPE </s> -0.3010
-0.3010 NOT </s> -0.3010
-0.3010 NOTHING </s> -0.3010
-0.3010 OH </s> -0.3010
-0.3010 OKAY </s> -0.3010
-0.3010 OLIVER </s> -0.3010
-0.3010 OLIVIA </s> -0.3010
-0.3010 OWEN </s> -0.3010
-0.3010 PAIGE </s> -0.3010
-0.3010 PARK </s> -0.3010
-0.3010 PATRICK </s> -0.3010
-0.3010 PAUL </s> -0.3010
-0.3010 PETER </s> -0.3010
-0.3010 PHOEBE </s> -0.3010
-0.3010 PICADDILLY LINE 0.0000
-0.3010 POPPY </s> -0.3010
-0.3010 PROBABLY </s> -0.3010
-0.3010 RACHAEL </s> -0.3010
-0.3010 RACHEL </s> -0.3010
-0.3010 REBECCA </s> -0.3010
-0.3010 REECE </s> -0.3010
-0.3010 RHIANNON </s> -0.3010
-0.3010 RHYS </s> -0.3010
-0.3010 RICHARD </s> -0.3010
-0.3010 ROAD </s> -0.3010
-0.3010 ROBERT </s> -0.3010
-0.3010 ROBYN </s> -0.3010
-0.3010 ROGER </s> -0.3010
-0.3010 RORY </s> -0.3010
-0.3010 ROSIE </s> -0.3010
-0.3010 ROSS </s> -0.3010
-0.3010 ROYAL ALBERT -0.1761
-0.3010 RYAN </s> -0.3010
-0.3010 SAM </s> -0.3010
-0.3010 SAMANTHA </s> -0.3010
-0.3010 SAMUEL </s> -0.3010
-0.3010 SARAH </s> -0.3010
-0.3010 SCHOOL </s> -0.3010
-0.3010 SCIENCE MUSEUM 0.0000
-0.3010 SCOTT </s> -0.3010
-0.3010 SEAN </s> -0.3010
-0.3010 SHANE </s> -0.3010
-0.3010 SHANNON </s> -0.3010
-0.3010 SHAUN </s> -0.3010
-0.3010 SHE </s> -0.3010
-0.3010 SHOPPING </s> -0.3010
-0.3010 SI </s> -0.3010
-0.3010 SIAN </s> -0.3010
-0.3010 SIMON </s> -0.3010
-0.3010 SOPHIA </s> -0.3010
-0.3010 SOPHIE </s> -0.3010
-0.3010 SOUTH KENSINGTON 0.0000
-0.3010 STACEY </s> -0.3010
-0.3010 STEPHANIE </s> -0.3010
-0.3010 STEPHEN </s> -0.3010
-0.3010 STEVEN </s> -0.3010
-0.3010 SURE </s> -0.3010
-0.3010 THAT </s> -0.3010
-0.3010 THINK </s> -0.3010
-0.3010 THIS </s> -0.3010
-0.3010 THOMAS </s> -0.3010
-0.3010 TIMOTHY </s> -0.3010
-0.3010 TOBY </s> -0.3010
-0.3010 TRAIN </s> -0.3010
-0.3010 TUBE </s> -0.3010
-0.3010 TYLER </s> -0.3010
-0.3010 UNDERGROUND </s> -0.3010
-0.3010 UNION </s> -0.3010
-0.3010 UNIVERSITY </s> -0.3010
-0.3010 US </s> -0.3010
-0.3010 V AND -0.1761
-0.6021 VICTORIA </s> -0.3010
-0.6021 VICTORIA AND -0.1761
-0.3010 WAS </s> -0.3010
-0.3010 WE </s> -0.3010
-0.3010 WERE </s> -0.3010
-0.3010 WHOM </s> -0.3010
-0.3010 WHOSE </s> -0.3010
-0.3010 WILLIAM </s> -0.3010
-0.3010 WORK </s> -0.3010
-0.3010 YASMIN </s> -0.3010
-0.3010 YEAH </s> -0.3010
-0.3010 YEP </s> -0.3010
-0.3010 YES </s> -0.3010
-0.3010 YOU </s> -0.3010
-0.3010 ZACHARY </s> -0.3010
-0.3010 ZOE </s> -0.3010

\3-grams:
-0.3010 <s> AARON </s>
-0.3010 <s> ABBIE </s>
-0.3010 <s> ABIGAIL </s>
-0.3010 <s> ADAM </s>
-0.3010 <s> AFFIRMATIVE </s>
-0.3010 <s> AIDAN </s>
-0.3010 <s> AIMEE </s>
-0.3010 <s> ALEX </s>
-0.3010 <s> ALEXANDER </s>
-0.3010 <s> ALEXANDRA </s>
-0.3010 <s> ALICE </s>
-0.3010 <s> ALICIA </s>
-0.3010 <s> ALL </s>
-0.3010 <s> AM </s>
-0.3010 <s> AMBER </s>
-0.3010 <s> AMELIA </s>
-0.3010 <s> AMY </s>
-0.3010 <s> ANDREW </s>
-0.3010 <s> ANNA </s>
-0.3010 <s> ANTHONY </s>
-0.3010 <s> ARE </s>
-0.3010 <s> ASHLEIGH </s>
-0.3010 <s> ASHLEY </s>
-0.3010 <s> AYE </s>
-0.3010 <s> BE </s>
-0.3010 <s> BEEN </s>
-0.3010 <s> BEING </s>
-0.3010 <s> BEN </s>
-0.3010 <s> BENJAMIN </s>
-0.3010 <s> BETH </s>
-0.3010 <s> BETHAN </s>
-0.3010 <s> BETHANY </s>
-0.3010 <s> BILLY </s>
-0.3010 <s> BOTH </s>
-0.3010 <s> BRADLEY </s>
-0.3010 <s> BRANDON </s>
-0.3010 <s> CAITLIN </s>
-0.3010 <s> CALLED </s>
-0.3010 <s> CALLUM </s>
-0.3010 <s> CALUM </s>
-0.3010 <s> CAMERON </s>
-0.3010 <s> CATHERINE </s>
-0.3010 <s> CERTAINLY </s>
-0.3010 <s> CHANTELLE </s>
-0.3010 <s> CHARLES </s>
-0.3010 <s> CHARLIE </s>
-0.3010 <s> CHARLOTTE </s>
-0.3010 <s> CHELSEA </s>
-0.3010 <s> CHLOE </s>
-0.3010 <s> CHRISTIAN </s>
-0.3010 <s> CHRISTOPHER </s>
-0.3010 <s> CLAIRE </s>
-0.3010 <s> CONNOR </s>
-0.3010 <s> CONOR </s>
-0.3010 <s> COURSE </s>
-0.3010 <s> COURTNEY </s>
-0.3010 <s> CRAIG </s>
-0.3010 <s> CURTIS </s>
-0.3010 <s> DAISY </s>
-0.3010 <s> DANIEL </s>
-0.3010 <s> DANIELLE </s>
-0.3010 <s> DANNY </s>
-0.3010 <s> DAVID </s>
-0.3010 <s> DEAN </s>
-0.3010 <s> DECLAN </s>
-0.3010 <s> DEMI </s>
-0.3010 <s> DISTRICT LINE
-0.3010 <s> DOMINIC </s>
-0.3010 <s> DONT </s>
-0.3010 <s> DYLAN </s>
-0.3010 <s> EARLS COURT
-0.3010 <s> EDWARD </s>
-0.3010 <s> ELEANOR </s>
-0.3010 <s> ELIZABETH </s>
-0.3010 <s> ELLA </s>
-0.3010 <s> ELLEN </s>
-0.3010 <s> ELLIE </s>
-0.3010 <s> ELLIOT </s>
-0.3010 <s> ELLIOTT </s>
-0.3010 <s> EMILY </s>
-0.3010 <s> EMMA </s>
-0.3010 <s> ERIN </s>
-0.3010 <s> ETHAN </s>
-0.3010 <s> ETHOS </s>
-0.3010 <s> FALSE </s>
-0.3010 <s> FINE </s>
-0.3010 <s> FOOD </s>
-0.3010 <s> FRANCESCA </s>
-0.3010 <s> GABRIELLE </s>
-0.3010 <s> GEMMA </s>
-0.3010 <s> GEORGE </s>
-0.3010 <s> GEORGIA </s>
-0.3010 <s> GEORGINA </s>
-0.3010 <s> GLOUCESTER ROAD
-0.3010 <s> GRACE </s>
-0.3010 <s> GYM </s>
-0.3010 <s> HALLS </s>
-0.3010 <s> HANNAH </s>
-0.3010 <s> HARRIET </s>
-0.3010 <s> HARRISON </s>
-0.3010 <s> HARRY </s>
-0.3010 <s> HAYLEY </s>
-0.3010 <s> HE </s>
-0.3010 <s> HEATHER </s>
-0.3010 <s> HENRY </s>
-0.3010 <s> HISTORY MUSEUM
-0.3010 <s> HOLLIE </s>
-0.3010 <s> HOLLY </s>
-0.3010 <s> HOME </s>
-0.3010 <s> HYDE PARK
-0.3010 <s> I </s>
-0.3010 <s> IM </s>
-0.3010 <s> IMOGEN </s>
-0.3010 <s> IMPERIAL COLLEGE
-0.3010 <s> INDEED </s>
-0.3010 <s> INDUBITABLY </s>
-0.3010 <s> IS </s>
-0.3010 <s> ISOBEL </s>
-0.3010 <s> IT </s>
-0.3010 <s> ITS </s>
-0.3010 <s> JA </s>
-0.3010 <s> JACK </s>
-0.3010 <s> JACOB </s>
-0.3010 <s> JADE </s>
-0.3010 <s> JAKE </s>
-0.3010 <s> JAMES </s>
-0.3010 <s> JAMIE </s>
-0.3010 <s> JASMINE </s>
-0.3010 <s> JASON </s>
-0.3010 <s> JAY </s>
-0.3010 <s> JENNIFER </s>
-0.3010 <s> JESSICA </s>
-0.3010 <s> JODIE </s>
-0.3010 <s> JOE </s>
-0.3010 <s> JOEL </s>
-0.3010 <s> JOHN </s>
-0.3010 <s> JONATHAN </s>
-0.3010 <s> JORDAN </s>
-0.3010 <s> JOSEPH </s>
-0.3010 <s> JOSH </s>
-0.3010 <s> JOSHUA </s>
-0.3010 <s> KANE </s>
-0.3010 <s> KATE </s>
-0.3010 <s> KATHERINE </s>
-0.3010 <s> KATHRYN </s>
-0.3010 <s> KATIE </s>
-0.3010 <s> KAYLEIGH </s>
-0.3010 <s> KELLY </s>
-0.3010 <s> KIERAN </s>
-0.3010 <s> KIMBERLEY </s>
-0.3010 <s> KIRSTY </s>
-0.3010 <s> KYLE </s>
-0.3010 <s> LAURA </s>
-0.3010 <s> LAUREN </s>
-0.3010 <s> LEAH </s>
-0.3010 <s> LEANNE </s>
-0.3010 <s> LECTURES </s>
-0.3010 <s> LEE </s>
-0.3010 <s> LEWIS </s>
-0.3010 <s> LIAM </s>
-0.3010 <s> LILY </s>
-0.3010 <s> LOUIS </s>
-0.3010 <s> LOUISE </s>
-0.3010 <s> LUCY </s>
-0.3010 <s> LUKE </s>
-0.3010 <s> LYDIA </s>
-0.3010 <s> MACAULEY </s>
-0.3010 <s> MADELEINE </s>
-0.3010 <s> MARCUS </s>
-0.3010 <s> MARIA </s>
-0.3010 <s> MARK </s>
-0.3010 <s> MATTHEW </s>
-0.3010 <s> MAX </s>
-0.3010 <s> MAYBE </s>
-0.3010 <s> ME </s>
-0.3010 <s> MEGAN </s>
-0.3010 <s> MELISSA </s>
-0.3010 <s> MICHAEL </s>
-0.3010 <s> MINE </s>
-0.3010 <s> MITCHELL </s>
-0.3010 <s> MOHAMMAD </s>
-0.3010 <s> MOHAMMED </s>
-0.3010 <s> MOLLIE </s>
-0.3010 <s> MOLLY </s>
-0.3010 <s> MY </s>
-0.3010 <s> NAME </s>
-0.3010 <s> NAOMI </s>
-0.3010 <s> NATALIE </s>
-0.3010 <s> NATASHA </s>
-0.3010 <s> NATHAN </s>
-0.3010 <s> NATURAL HISTORY
-0.3010 <s> NAY </s>
-0.3010 <s> NEGATIVE </s>
-0.3010 <s> NEIN </s>
-0.3010 <s> NICHOLAS </s>
-0.3010 <s> NICOLA </s>
-0.3010 <s> NICOLE </s>
-0.3010 <s> NO </s>
-0.3010 <s> NON </s>
-0.3010 <s> NONE </s>
-0.3010 <s> NOPE </s>
-0.3010 <s> NOT </s>
-0.3010 <s> NOTHING </s>
-0.3010 <s> OH </s>
-0.3010 <s> OKAY </s>
-0.3010 <s> OLIVER </s>
-0.3010 <s> OLIVIA </s>
-0.3010 <s> OWEN </s>
-0.3010 <s> PAIGE </s>
-0.3010 <s> PATRICK </s>
-0.3010 <s> PAUL </s>
-0.3010 <s> PETER </s>
-0.3010 <s> PHOEBE </s>
-0.3010 <s> PICADDILLY LINE
-0.3010 <s> POPPY </s>
-0.3010 <s> PROBABLY </s>
-0.3010 <s> RACHAEL </s>
-0.3010 <s> RACHEL </s>
-0.3010 <s> REBECCA </s>
-0.3010 <s> REECE </s>
-0.3010 <s> RHIANNON </s>
-0.3010 <s> RHYS </s>
-0.3010 <s> RICHARD </s>
-0.3010 <s> ROBERT </s>
-0.3010 <s> ROBYN </s>
-0.3010 <s> ROGER </s>
-0.3010 <s> RORY </s>
-0.3010 <s> ROSIE </s>
-0.3010 <s> ROSS </s>
-0.3010 <s> ROYAL ALBERT
-0.3010 <s> RYAN </s>
-0.3010 <s> SAM </s>
-0.3010 <s> SAMANTHA </s>
-0.3010 <s> SAMUEL </s>
-0.3010 <s> SARAH </s>
-0.3010 <s> SCHOOL </s>
-0.3010 <s> SCIENCE MUSEUM
-0.3010 <s> SCOTT </s>
-0.3010 <s> SEAN </s>
-0.3010 <s> SHANE </s>
-0.3010 <s> SHANNON </s>
-0.3010 <s> SHAUN </s>
-0.3010 <s> SHE </s>
-0.3010 <s> SHOPPING </s>
-0.3010 <s> SI </s>
-0.3010 <s> SIAN </s>
-0.3010 <s> SIMON </s>
-0.3010 <s> SOPHIA </s>
-0.3010 <s> SOPHIE </s>
-0.3010 <s> SOUTH KENSINGTON
-0.3010 <s> STACEY </s>
-0.3010 <s> STEPHANIE </s>
-0.3010 <s> STEPHEN </s>
-0.3010 <s> STEVEN </s>
-0.3010 <s> SURE </s>
-0.3010 <s> THAT </s>
-0.3010 <s> THINK </s>
-0.3010 <s> THIS </s>
-0.3010 <s> THOMAS </s>
-0.3010 <s> TIMOTHY </s>
-0.3010 <s> TOBY </s>
-0.3010 <s> TRAIN </s>
-0.3010 <s> TUBE </s>
-0.3010 <s> TYLER </s>
-0.3010 <s> UNDERGROUND </s>
-0.3010 <s> UNION </s>
-0.3010 <s> UNIVERSITY </s>
-0.3010 <s> US </s>
-0.3010 <s> V AND
-0.6021 <s> VICTORIA </s>
-0.6021 <s> VICTORIA AND
-0.3010 <s> WAS </s>
-0.3010 <s> WE </s>
-0.3010 <s> WERE </s>
-0.3010 <s> WHOM </s>
-0.3010 <s> WHOSE </s>
-0.3010 <s> WILLIAM </s>
-0.3010 <s> WORK </s>
-0.3010 <s> YASMIN </s>
-0.3010 <s> YEAH </s>
-0.3010 <s> YEP </s>
-0.3010 <s> YES </s>
-0.3010 <s> YOU </s>
-0.3010 <s> ZACHARY </s>
-0.3010 <s> ZOE </s>
-0.3010 A MUSEUM </s>
-0.3010 ALBERT HALL </s>
-0.3010 ALBERT MUSEUM </s>
-0.3010 AND A MUSEUM
-0.3010 AND ALBERT MUSEUM
-0.3010 DISTRICT LINE </s>
-0.3010 EARLS COURT </s>
-0.3010 GLOUCESTER ROAD </s>
-0.3010 HISTORY MUSEUM </s>
-0.3010 HYDE PARK </s>
-0.3010 IMPERIAL COLLEGE </s>
-0.3010 NATURAL HISTORY MUSEUM
-0.3010 PICADDILLY LINE </s>
-0.3010 ROYAL ALBERT HALL
-0.3010 SCIENCE MUSEUM </s>
-0.3010 SOUTH KENSINGTON </s>
-0.3010 V AND A
-0.3010 VICTORIA AND ALBERT

\end\
