Language model created by QuickLM on Wed Dec  5 12:19:44 EST 2012
Copyright (c) 1996-2010 Carnegie Mellon University and Alexander I. Rudnicky

The model is in standard ARPA format, designed by Doug Paul while he was at MITRE.

The code that was used to produce this language model is available in Open Source.
Please visit http://www.speech.cs.cmu.edu/tools/ for more information

The (fixed) discount mass is 0.5. The backoffs are computed using the ratio method.
This model based on a corpus of 1748 sentences and 1704 words

\data\
ngram 1=1704
ngram 2=3398
ngram 3=1711

\1-grams:
-0.7797 </s> -0.3010
-0.7797 <s> -0.2220
-4.0223 A -0.3008
-4.0223 AADAM -0.2222
-4.0223 AADIL -0.2222
-4.0223 AALIYAH -0.2222
-4.0223 AAMIR -0.2222
-4.0223 AARON -0.2222
-4.0223 ABBAS -0.2222
-4.0223 ABBEY -0.2222
-4.0223 ABBI -0.2222
-4.0223 ABBIE -0.2222
-4.0223 ABBIGAIL -0.2222
-4.0223 ABBY -0.2222
-4.0223 ABDUL -0.2222
-4.0223 ABDULLAH -0.2222
-4.0223 ABI -0.2222
-4.0223 ABIGAIL -0.2222
-4.0223 ABRAHAM -0.2222
-4.0223 ABU -0.2222
-4.0223 ABUL -0.2222
-4.0223 ADAM -0.2222
-4.0223 ADEEL -0.2222
-4.0223 ADELE -0.2222
-4.0223 ADEN -0.2222
-4.0223 ADIL -0.2222
-4.0223 ADNAN -0.2222
-4.0223 ADRIAN -0.2222
-4.0223 ADRIENNE -0.2222
-4.0223 AFFIRMATIVE -0.2222
-4.0223 AHMAD -0.2222
-4.0223 AHMED -0.2222
-4.0223 AHMET -0.2222
-4.0223 AIDAN -0.2222
-4.0223 AIDEN -0.2222
-4.0223 AILEEN -0.2222
-4.0223 AILISH -0.2222
-4.0223 AILSA -0.2222
-4.0223 AIMEE -0.2222
-4.0223 AINE -0.2222
-3.7212 AINSLEY -0.2222
-4.0223 AISHA -0.2222
-4.0223 AISHAH -0.2222
-4.0223 AISLING -0.2222
-4.0223 AISLINN -0.2222
-4.0223 AJAY -0.2222
-4.0223 AKASH -0.2222
-4.0223 AKBAR -0.2222
-4.0223 AKEEM -0.2222
-4.0223 AKHIL -0.2222
-4.0223 AKSHAY -0.2222
-4.0223 ALAN -0.2222
-4.0223 ALANA -0.2222
-4.0223 ALANNA -0.2222
-4.0223 ALANNAH -0.2222
-4.0223 ALASDAIR -0.2222
-4.0223 ALASTAIR -0.2222
-3.5451 ALBERT -0.2219
-4.0223 ALEC -0.2222
-4.0223 ALED -0.2222
-4.0223 ALEESHA -0.2222
-4.0223 ALESSANDRA -0.2222
-4.0223 ALESSANDRO -0.2222
-4.0223 ALESSIA -0.2222
-3.7212 ALEX -0.2222
-4.0223 ALEXANDER -0.2222
-4.0223 ALEXANDRA -0.2222
-4.0223 ALEXANDRE -0.2222
-4.0223 ALEXANDRIA -0.2222
-4.0223 ALEXIA -0.2222
-4.0223 ALEXIS -0.2222
-4.0223 ALFIE -0.2222
-4.0223 ALFRED -0.2222
-4.0223 ALI -0.2222
-4.0223 ALICE -0.2222
-4.0223 ALICIA -0.2222
-4.0223 ALIESHA -0.2222
-4.0223 ALINA -0.2222
-4.0223 ALISHA -0.2222
-4.0223 ALISON -0.2222
-4.0223 ALISTAIR -0.2222
-4.0223 ALISTER -0.2222
-4.0223 ALIX -0.2222
-4.0223 ALIYA -0.2222
-4.0223 ALIYAH -0.2222
-4.0223 ALL -0.2222
-4.0223 ALLAN -0.2222
-4.0223 ALLYSHA -0.2222
-4.0223 ALVIN -0.2222
-4.0223 ALYS -0.2222
-4.0223 ALYSHA -0.2222
-4.0223 ALYSSIA -0.2222
-4.0223 AM -0.2222
-4.0223 AMAAN -0.2222
-4.0223 AMALIE -0.2222
-4.0223 AMAN -0.2222
-4.0223 AMANDA -0.2222
-3.7212 AMANDEEP -0.2222
-4.0223 AMAR -0.2222
-4.0223 AMARA -0.2222
-4.0223 AMBER -0.2222
-4.0223 AMEERA -0.2222
-4.0223 AMELIA -0.2222
-4.0223 AMI -0.2222
-4.0223 AMIE -0.2222
-4.0223 AMINA -0.2222
-4.0223 AMIR -0.2222
-4.0223 AMY -0.2222
-4.0223 ANA -0.2222
-4.0223 ANASTASIA -0.2222
-3.7212 AND -0.3009
-4.0223 ANDIE -0.2222
-4.0223 ANDRE -0.2222
-4.0223 ANDREA -0.2222
-4.0223 ANDREAS -0.2222
-4.0223 ANDREW -0.2222
-4.0223 ANDY -0.2222
-4.0223 ANEEKA -0.2222
-4.0223 ANEESA -0.2222
-4.0223 ANGEL -0.2222
-4.0223 ANGELA -0.2222
-4.0223 ANGELICA -0.2222
-4.0223 ANGELINA -0.2222
-4.0223 ANGELO -0.2222
-4.0223 ANGHARAD -0.2222
-4.0223 ANGUS -0.2222
-4.0223 ANIKA -0.2222
-4.0223 ANISA -0.2222
-4.0223 ANISAH -0.2222
-4.0223 ANISH -0.2222
-4.0223 ANISHA -0.2222
-4.0223 ANITA -0.2222
-4.0223 ANN -0.2222
-4.0223 ANNA -0.2222
-4.0223 ANNABEL -0.2222
-4.0223 ANNABELLE -0.2222
-4.0223 ANNALISE -0.2222
-4.0223 ANNE -0.2222
-4.0223 ANNE-MARIE -0.2222
-4.0223 ANNIE -0.2222
-4.0223 ANNIKA -0.2222
-4.0223 ANTHONY -0.2222
-4.0223 ANTON -0.2222
-4.0223 ANTONIA -0.2222
-4.0223 ANTONIO -0.2222
-4.0223 ANTONY -0.2222
-4.0223 ANWAR -0.2222
-4.0223 ANYA -0.2222
-4.0223 AOIFE -0.2222
-4.0223 APRIL -0.2222
-4.0223 AQIB -0.2222
-4.0223 ARABELLA -0.2222
-4.0223 ARAN -0.2222
-4.0223 ARCHIE -0.2222
-4.0223 ARE -0.2222
-4.0223 ARJUN -0.2222
-4.0223 ARON -0.2222
-4.0223 ARRAN -0.2222
-4.0223 ARRON -0.2222
-4.0223 ARTHUR -0.2222
-4.0223 ARUN -0.2222
-4.0223 ASA -0.2222
-4.0223 ASAD -0.2222
-4.0223 ASHA -0.2222
-4.0223 ASHER -0.2222
-4.0223 ASHLEA -0.2222
-4.0223 ASHLEE -0.2222
-3.7212 ASHLEIGH -0.2222
-3.7212 ASHLEY -0.2222
-4.0223 ASHRAF -0.2222
-3.7212 ASHTON -0.2222
-4.0223 ASIF -0.2222
-4.0223 ASIM -0.2222
-4.0223 ASMA -0.2222
-4.0223 ASTON -0.2222
-4.0223 ATLANTA -0.2222
-4.0223 AUSTIN -0.2222
-4.0223 AUTUMN -0.2222
-4.0223 AWAIS -0.2222
-4.0223 AYDEN -0.2222
-4.0223 AYE -0.2222
-4.0223 AYESHA -0.2222
-4.0223 AYISHA -0.2222
-4.0223 AYRTON -0.2222
-4.0223 AYSHA -0.2222
-4.0223 AZIM -0.2222
-4.0223 AZIZ -0.2222
-4.0223 BAILEY -0.2222
-4.0223 BARBARA -0.2222
-4.0223 BARNABY -0.2222
-4.0223 BARNEY -0.2222
-4.0223 BARRY -0.2222
-4.0223 BE -0.2222
-4.0223 BEATRICE -0.2222
-4.0223 BEAU -0.2222
-4.0223 BECKY -0.2222
-4.0223 BEEN -0.2222
-4.0223 BEING -0.2222
-4.0223 BELINDA -0.2222
-4.0223 BEN -0.2222
-4.0223 BENEDICT -0.2222
-4.0223 BENJAMIN -0.2222
-4.0223 BENN -0.2222
-4.0223 BERNADETTE -0.2222
-4.0223 BERNARD -0.2222
-4.0223 BETH -0.2222
-4.0223 BETHAN -0.2222
-4.0223 BETHANIE -0.2222
-4.0223 BETHANY -0.2222
-4.0223 BETHNEY -0.2222
-4.0223 BEVAN -0.2222
-4.0223 BIANCA -0.2222
-4.0223 BILAL -0.2222
-3.7212 BILLIE -0.2222
-4.0223 BILLIE-JO -0.2222
-4.0223 BILLY -0.2222
-4.0223 BLAINE -0.2222
-4.0223 BLAISE -0.2222
-4.0223 BLAKE -0.2222
-4.0223 BLYTHE -0.2222
-4.0223 BOB -0.2222
-4.0223 BOBBI -0.2222
-4.0223 BOBBIE -0.2222
-4.0223 BOBBY -0.2222
-4.0223 BONITA -0.2222
-4.0223 BONNIE -0.2222
-4.0223 BONNY -0.2222
-4.0223 BORIS -0.2222
-4.0223 BOTH -0.2222
-4.0223 BRAD -0.2222
-4.0223 BRADEN -0.2222
-4.0223 BRADLEY -0.2222
-4.0223 BRADY -0.2222
-4.0223 BRANDAN -0.2222
-4.0223 BRANDON -0.2222
-4.0223 BRENDAN -0.2222
-4.0223 BRENDEN -0.2222
-4.0223 BRENDON -0.2222
-4.0223 BRET -0.2222
-4.0223 BRETT -0.2222
-4.0223 BRIAN -0.2222
-4.0223 BRIANA -0.2222
-4.0223 BRIDGET -0.2222
-4.0223 BRIDIE -0.2222
-4.0223 BRIONY -0.2222
-4.0223 BRITTANY -0.2222
-3.7212 BRODIE -0.2222
-3.7212 BROGAN -0.2222
-4.0223 BRONTE -0.2222
-4.0223 BRONWEN -0.2222
-4.0223 BRONWYN -0.2222
-4.0223 BROOKE -0.2222
-4.0223 BROOKLYN -0.2222
-4.0223 BRUCE -0.2222
-4.0223 BRUNO -0.2222
-4.0223 BRYAN -0.2222
-4.0223 BRYCE -0.2222
-4.0223 BRYN -0.2222
-4.0223 BRYONY -0.2222
-4.0223 BURAK -0.2222
-4.0223 BYRON -0.2222
-4.0223 CAI -0.2222
-4.0223 CAIN -0.2222
-4.0223 CAINE -0.2222
-4.0223 CAITLIN -0.2222
-4.0223 CALEB -0.2222
-4.0223 CALLAM -0.2222
-4.0223 CALLAN -0.2222
-4.0223 CALLED -0.2222
-4.0223 CALLIE -0.2222
-4.0223 CALLUM -0.2222
-4.0223 CALUM -0.2222
-4.0223 CALVIN -0.2222
-4.0223 CAMERON -0.2222
-4.0223 CAMILA -0.2222
-4.0223 CAMILLA -0.2222
-4.0223 CAMILLE -0.2222
-4.0223 CAMPBELL -0.2222
-4.0223 CANDICE -0.2222
-4.0223 CARA -0.2222
-4.0223 CARIS -0.2222
-4.0223 CARL -0.2222
-4.0223 CARLA -0.2222
-4.0223 CARLIE -0.2222
-4.0223 CARLOS -0.2222
-4.0223 CARLTON -0.2222
-4.0223 CARLY -0.2222
-4.0223 CARMEN -0.2222
-4.0223 CAROLINE -0.2222
-4.0223 CAROLYN -0.2222
-4.0223 CARRIE -0.2222
-4.0223 CARWYN -0.2222
-4.0223 CARYS -0.2222
-3.7212 CASEY -0.2222
-4.0223 CASSANDRA -0.2222
-4.0223 CASSIDY -0.2222
-4.0223 CASSIE -0.2222
-4.0223 CATHERINE -0.2222
-4.0223 CATHRINE -0.2222
-4.0223 CATRIN -0.2222
-4.0223 CATRIONA -0.2222
-4.0223 CELIA -0.2222
-4.0223 CELINE -0.2222
-4.0223 CERI -0.2222
-4.0223 CERTAINLY -0.2222
-4.0223 CERYS -0.2222
-4.0223 CHAD -0.2222
-4.0223 CHANDLER -0.2222
-4.0223 CHANEL -0.2222
-4.0223 CHANELLE -0.2222
-4.0223 CHANICE -0.2222
-4.0223 CHANNELLE -0.2222
-4.0223 CHANTAL -0.2222
-4.0223 CHANTE -0.2222
-4.0223 CHANTEL -0.2222
-4.0223 CHANTELLE -0.2222
-4.0223 CHARIS -0.2222
-4.0223 CHARLENE -0.2222
-4.0223 CHARLES -0.2222
-3.7212 CHARLEY -0.2222
-3.7212 CHARLIE -0.2222
-4.0223 CHARLOTTE -0.2222
-4.0223 CHARMAINE -0.2222
-4.0223 CHAY -0.2222
-4.0223 CHE -0.2222
-4.0223 CHELSEA -0.2222
-4.0223 CHELSEY -0.2222
-4.0223 CHELSIE -0.2222
-4.0223 CHERYL -0.2222
-4.0223 CHESTER -0.2222
-4.0223 CHEYENNE -0.2222
-4.0223 CHIRAG -0.2222
-4.0223 CHLOE -0.2222
-4.0223 CHRIS -0.2222
-4.0223 CHRISTIAN -0.2222
-3.7212 CHRISTIE -0.2222
-4.0223 CHRISTINA -0.2222
-4.0223 CHRISTINE -0.2222
-4.0223 CHRISTOPHER -0.2222
-4.0223 CHRISTOS -0.2222
-4.0223 CIAN -0.2222
-4.0223 CIARA -0.2222
-4.0223 CIARAN -0.2222
-4.0223 CIERAN -0.2222
-4.0223 CLAIRE -0.2222
-4.0223 CLARA -0.2222
-4.0223 CLARE -0.2222
-4.0223 CLARISSA -0.2222
-4.0223 CLARK -0.2222
-4.0223 CLAUDIA -0.2222
-4.0223 CLAYTON -0.2222
-4.0223 CLEO -0.2222
-4.0223 CLINT -0.2222
-4.0223 CLIVE -0.2222
-4.0223 CODIE -0.2222
-3.7212 CODY -0.2222
-4.0223 COLE -0.2222
-4.0223 COLETTE -0.2222
-4.0223 COLIN -0.2222
-4.0223 COLLEGE -0.2222
-4.0223 CONNAH -0.2222
-4.0223 CONNELL -0.2222
-4.0223 CONNER -0.2222
-4.0223 CONNIE -0.2222
-4.0223 CONNOR -0.2222
-4.0223 CONOR -0.2222
-4.0223 CONRAD -0.2222
-4.0223 CONSTANCE -0.2222
-4.0223 CONSTANTINE -0.2222
-4.0223 CONSTANTINOS -0.2222
-4.0223 CORA -0.2222
-4.0223 CORAL -0.2222
-4.0223 COREY -0.2222
-4.0223 CORIN -0.2222
-4.0223 CORINNE -0.2222
-4.0223 CORMAC -0.2222
-4.0223 CORRIE -0.2222
-3.7212 CORY -0.2222
-4.0223 COURSE -0.2222
-4.0223 COURT -0.2222
-4.0223 COURTENEY -0.2222
-3.7212 COURTNEY -0.2222
-4.0223 CRAIG -0.2222
-4.0223 CRYSTAL -0.2222
-4.0223 CULLEN -0.2222
-4.0223 CULLUM -0.2222
-4.0223 CURTIS -0.2222
-4.0223 CYRUS -0.2222
-4.0223 DAFYDD -0.2222
-4.0223 DAISY -0.2222
-4.0223 DALE -0.2222
-4.0223 DALTON -0.2222
-4.0223 DAMIAN -0.2222
-4.0223 DAMIEN -0.2222
-4.0223 DAMON -0.2222
-4.0223 DAN -0.2222
-4.0223 DANA -0.2222
-4.0223 DANE -0.2222
-3.7212 DANI -0.2222
-4.0223 DANIAL -0.2222
-4.0223 DANIEL -0.2222
-4.0223 DANIELA -0.2222
-4.0223 DANIELE -0.2222
-4.0223 DANIELLA -0.2222
-4.0223 DANIELLE -0.2222
-4.0223 DANISH -0.2222
-4.0223 DANNI -0.2222
-4.0223 DANNIELLA -0.2222
-4.0223 DANNIELLE -0.2222
-4.0223 DANNY -0.2222
-4.0223 DANYAL -0.2222
-4.0223 DARCIE -0.2222
-4.0223 DARCY -0.2222
-4.0223 DARIEN -0.2222
-4.0223 DARIUS -0.2222
-4.0223 DARNELL -0.2222
-4.0223 DARRAGH -0.2222
-4.0223 DARRELL -0.2222
-4.0223 DARREN -0.2222
-4.0223 DARRYL -0.2222
-4.0223 DARYL -0.2222
-4.0223 DARYLL -0.2222
-4.0223 DAVEY -0.2222
-4.0223 DAVID -0.2222
-4.0223 DAVINA -0.2222
-4.0223 DAVY -0.2222
-4.0223 DAWN -0.2222
-4.0223 DAYLE -0.2222
-4.0223 DAYNA -0.2222
-4.0223 DEAN -0.2222
-4.0223 DEANNA -0.2222
-4.0223 DEBBIE -0.2222
-4.0223 DEBORAH -0.2222
-4.0223 DECLAN -0.2222
-4.0223 DEMI -0.2222
-4.0223 DEMI-LEIGH -0.2222
-4.0223 DENNIS -0.2222
-4.0223 DENZEL -0.2222
-4.0223 DEREK -0.2222
-4.0223 DERREN -0.2222
-4.0223 DERRY -0.2222
-4.0223 DEVANTE -0.2222
-3.7212 DEVON -0.2222
-4.0223 DEWI -0.2222
-4.0223 DEXTER -0.2222
-4.0223 DIANA -0.2222
-4.0223 DILAN -0.2222
-4.0223 DILLAN -0.2222
-4.0223 DILLON -0.2222
-4.0223 DIMITRIS -0.2222
-4.0223 DINA -0.2222
-4.0223 DION -0.2222
-4.0223 DIONNE -0.2222
-4.0223 DISTRICT -0.3009
-4.0223 DJANGO -0.2222
-4.0223 DOMINIC -0.2222
-4.0223 DOMINIQUE -0.2222
-4.0223 DONALD -0.2222
-4.0223 DONNA -0.2222
-4.0223 DONOVAN -0.2222
-4.0223 DONT -0.2222
-4.0223 DORIAN -0.2222
-4.0223 DOUGLAS -0.2222
-4.0223 DRE -0.2222
-3.7212 DREW -0.2222
-4.0223 DUDLEY -0.2222
-4.0223 DUNCAN -0.2222
-4.0223 DWAYNE -0.2222
-4.0223 DYLAN -0.2222
-4.0223 EAMON -0.2222
-4.0223 EARLS -0.3010
-4.0223 EBONY -0.2222
-4.0223 EDDIE -0.2222
-4.0223 EDDY -0.2222
-3.7212 EDEN -0.2222
-4.0223 EDGAR -0.2222
-4.0223 EDIE -0.2222
-4.0223 EDMUND -0.2222
-4.0223 EDUARDO -0.2222
-4.0223 EDWARD -0.2222
-4.0223 EDWIN -0.2222
-4.0223 EILEEN -0.2222
-4.0223 EILISH -0.2222
-4.0223 ELEANOR -0.2222
-4.0223 ELENA -0.2222
-4.0223 ELI -0.2222
-4.0223 ELIAS -0.2222
-4.0223 ELIJAH -0.2222
-4.0223 ELIN -0.2222
-4.0223 ELINOR -0.2222
-4.0223 ELIOT -0.2222
-4.0223 ELIOTT -0.2222
-4.0223 ELIS -0.2222
-4.0223 ELISA -0.2222
-4.0223 ELISABETH -0.2222
-4.0223 ELISE -0.2222
-4.0223 ELISHA -0.2222
-4.0223 ELIZA -0.2222
-4.0223 ELIZABETH -0.2222
-4.0223 ELLA -0.2222
-4.0223 ELLE -0.2222
-4.0223 ELLEN -0.2222
-4.0223 ELLENA -0.2222
-4.0223 ELLIE -0.2222
-4.0223 ELLIE-MAE -0.2222
-4.0223 ELLIOT -0.2222
-4.0223 ELLIOTT -0.2222
-3.7212 ELLIS -0.2222
-4.0223 ELOISE -0.2222
-4.0223 ELSA -0.2222
-4.0223 ELSPETH -0.2222
-4.0223 ELYSIA -0.2222
-4.0223 EMILIA -0.2222
-4.0223 EMILIE -0.2222
-4.0223 EMILIO -0.2222
-4.0223 EMILY -0.2222
-4.0223 EMMA -0.2222
-4.0223 EMMANUEL -0.2222
-4.0223 ENYA -0.2222
-4.0223 EOIN -0.2222
-4.0223 ERIC -0.2222
-4.0223 ERICA -0.2222
-4.0223 ERIKA -0.2222
-4.0223 ERIN -0.2222
-4.0223 ESME -0.2222
-4.0223 ESTELLE -0.2222
-4.0223 ESTHER -0.2222
-4.0223 ETHAN -0.2222
-4.0223 ETHOS -0.2222
-4.0223 EUAN -0.2222
-4.0223 EVA -0.2222
-3.7212 EVAN -0.2222
-4.0223 EVANGELINE -0.2222
-4.0223 EVE -0.2222
-4.0223 EVELYN -0.2222
-4.0223 EVIE -0.2222
-4.0223 EWAN -0.2222
-4.0223 EZEKIEL -0.2222
-4.0223 EZRA -0.2222
-4.0223 FABIAN -0.2222
-4.0223 FABIO -0.2222
-4.0223 FAHAD -0.2222
-4.0223 FAHIM -0.2222
-4.0223 FAISAL -0.2222
-4.0223 FAITH -0.2222
-4.0223 FAIZA -0.2222
-4.0223 FAIZAN -0.2222
-4.0223 FALSE -0.2222
-4.0223 FARAAZ -0.2222
-4.0223 FARAH -0.2222
-4.0223 FARHAN -0.2222
-4.0223 FARHANA -0.2222
-4.0223 FARRAH -0.2222
-4.0223 FARZANA -0.2222
-4.0223 FATIMA -0.2222
-4.0223 FAY -0.2222
-4.0223 FAYE -0.2222
-4.0223 FELICIA -0.2222
-4.0223 FELICITY -0.2222
-4.0223 FELIX -0.2222
-4.0223 FERDINAND -0.2222
-4.0223 FERGUS -0.2222
-4.0223 FERN -0.2222
-4.0223 FFION -0.2222
-4.0223 FINE -0.2222
-3.7212 FINLAY -0.2222
-4.0223 FINN -0.2222
-4.0223 FIONA -0.2222
-4.0223 FLEUR -0.2222
-4.0223 FLORA -0.2222
-4.0223 FLORENCE -0.2222
-4.0223 FLOYD -0.2222
-4.0223 FOOD -0.2222
-4.0223 FRANCES -0.2222
-4.0223 FRANCESCA -0.2222
-4.0223 FRANCESCO -0.2222
-4.0223 FRANCIS -0.2222
-4.0223 FRANCOIS -0.2222
-4.0223 FRANK -0.2222
-4.0223 FRANKIE -0.2222
-4.0223 FRANKLIN -0.2222
-4.0223 FRASER -0.2222
-4.0223 FRAZER -0.2222
-4.0223 FRAZIER -0.2222
-4.0223 FRED -0.2222
-3.7212 FREDDIE -0.2222
-4.0223 FREDDY -0.2222
-4.0223 FREDERICK -0.2222
-4.0223 FREDERIK -0.2222
-4.0223 FREDRICK -0.2222
-4.0223 FREYA -0.2222
-4.0223 GABRIEL -0.2222
-4.0223 GABRIELE -0.2222
-4.0223 GABRIELLA -0.2222
-4.0223 GABRIELLE -0.2222
-4.0223 GABY -0.2222
-4.0223 GAGE -0.2222
-4.0223 GARETH -0.2222
-4.0223 GARRY -0.2222
-4.0223 GARY -0.2222
-4.0223 GAVIN -0.2222
-4.0223 GEMMA -0.2222
-4.0223 GENEVIEVE -0.2222
-4.0223 GEOFFREY -0.2222
-4.0223 GEORGE -0.2222
-4.0223 GEORGIA -0.2222
-3.7212 GEORGIE -0.2222
-4.0223 GEORGINA -0.2222
-4.0223 GERAINT -0.2222
-4.0223 GERALD -0.2222
-4.0223 GERALDINE -0.2222
-4.0223 GERARD -0.2222
-4.0223 GETHIN -0.2222
-4.0223 GIANLUCA -0.2222
-4.0223 GIDEON -0.2222
-4.0223 GILES -0.2222
-4.0223 GINA -0.2222
-4.0223 GIORGIA -0.2222
-4.0223 GIOVANNI -0.2222
-4.0223 GIUSEPPE -0.2222
-4.0223 GLEN -0.2222
-4.0223 GLENN -0.2222
-4.0223 GLOUCESTER -0.3010
-4.0223 GRACE -0.2222
-4.0223 GRAEME -0.2222
-4.0223 GRAHAM -0.2222
-4.0223 GRANT -0.2222
-4.0223 GREG -0.2222
-4.0223 GREGG -0.2222
-4.0223 GREGORY -0.2222
-4.0223 GUY -0.2222
-4.0223 GYM -0.2222
-4.0223 HAFSA -0.2222
-4.0223 HAFSAH -0.2222
-4.0223 HAIDER -0.2222
-4.0223 HAILEY -0.2222
-4.0223 HAKEEM -0.2222
-4.0223 HALEEMA -0.2222
-4.0223 HALIMA -0.2222
-4.0223 HALL -0.2222
-4.0223 HALLS -0.2222
-4.0223 HAMEED -0.2222
-4.0223 HAMISH -0.2222
-4.0223 HAMZA -0.2222
-4.0223 HAMZAH -0.2222
-4.0223 HANA -0.2222
-4.0223 HANNA -0.2222
-4.0223 HANNAH -0.2222
-4.0223 HARIS -0.2222
-4.0223 HARISH -0.2222
-3.7212 HARLEY -0.2222
-4.0223 HAROLD -0.2222
-4.0223 HAROON -0.2222
-4.0223 HARRI -0.2222
-4.0223 HARRIET -0.2222
-4.0223 HARRIETT -0.2222
-4.0223 HARRIS -0.2222
-4.0223 HARRISON -0.2222
-4.0223 HARRY -0.2222
-4.0223 HARVEY -0.2222
-4.0223 HASAN -0.2222
-4.0223 HASEEB -0.2222
-4.0223 HASHIM -0.2222
-4.0223 HASNAIN -0.2222
-4.0223 HASSAAN -0.2222
-4.0223 HASSAN -0.2222
-4.0223 HAYDEN -0.2222
-4.0223 HAYDN -0.2222
-4.0223 HAYDON -0.2222
-4.0223 HAYLEIGH -0.2222
-4.0223 HAYLEY -0.2222
-4.0223 HAZEL -0.2222
-4.0223 HE -0.2222
-4.0223 HEATH -0.2222
-4.0223 HEATHER -0.2222
-4.0223 HECTOR -0.2222
-4.0223 HEIDI -0.2222
-4.0223 HELEN -0.2222
-4.0223 HELENA -0.2222
-4.0223 HENNA -0.2222
-4.0223 HENRIETTA -0.2222
-4.0223 HENRY -0.2222
-4.0223 HERBIE -0.2222
-4.0223 HILARY -0.2222
-3.7212 HISTORY -0.3008
-4.0223 HOLLIE -0.2222
-4.0223 HOLLY -0.2222
-4.0223 HOME -0.2222
-4.0223 HONOR -0.2222
-4.0223 HOPE -0.2222
-4.0223 HOWARD -0.2222
-4.0223 HUGH -0.2222
-4.0223 HUGO -0.2222
-4.0223 HUMAIRA -0.2222
-4.0223 HUMZA -0.2222
-4.0223 HUSSAIN -0.2222
-4.0223 HUW -0.2222
-4.0223 HYDE -0.3010
-4.0223 HYWEL -0.2222
-4.0223 I -0.2222
-4.0223 IAIN -0.2222
-4.0223 IAN -0.2222
-4.0223 IBRAHEEM -0.2222
-4.0223 IBRAHIM -0.2222
-4.0223 IDRIS -0.2222
-4.0223 IEUAN -0.2222
-4.0223 IKRA -0.2222
-4.0223 IM -0.2222
-4.0223 IMAN -0.2222
-4.0223 IMOGEN -0.2222
-4.0223 IMPERIAL -0.3010
-4.0223 IMRAN -0.2222
-4.0223 INDEED -0.2222
-4.0223 INDIA -0.2222
-4.0223 INDUBITABLY -0.2222
-4.0223 INGRID -0.2222
-4.0223 IONA -0.2222
-4.0223 IQRA -0.2222
-4.0223 IRAM -0.2222
-4.0223 IS -0.2222
-4.0223 ISAAC -0.2222
-4.0223 ISABEL -0.2222
-4.0223 ISABELLA -0.2222
-4.0223 ISABELLE -0.2222
-4.0223 ISHMAEL -0.2222
-4.0223 ISHMAIL -0.2222
-4.0223 ISLA -0.2222
-4.0223 ISMAIL -0.2222
-4.0223 ISOBEL -0.2222
-4.0223 ISOBELLE -0.2222
-4.0223 ISSAC -0.2222
-4.0223 IT -0.2222
-4.0223 ITS -0.2222
-4.0223 IVAN -0.2222
-4.0223 IVY -0.2222
-4.0223 IWAN -0.2222
-4.0223 IZAAK -0.2222
-4.0223 JA -0.2222
-4.0223 JAC -0.2222
-4.0223 JACK -0.2222
-4.0223 JACKIE -0.2222
-4.0223 JACKSON -0.2222
-4.0223 JACKY -0.2222
-4.0223 JACOB -0.2222
-4.0223 JACQUELINE -0.2222
-4.0223 JACQUES -0.2222
-3.7212 JADE -0.2222
-4.0223 JAI -0.2222
-4.0223 JAIME -0.2222
-4.0223 JAK -0.2222
-4.0223 JAKE -0.2222
-4.0223 JAKOB -0.2222
-4.0223 JAMAAL -0.2222
-4.0223 JAMAL -0.2222
-4.0223 JAMES -0.2222
-3.7212 JAMIE -0.2222
-4.0223 JAMIE-LEE -0.2222
-4.0223 JAMIL -0.2222
-4.0223 JANE -0.2222
-4.0223 JANET -0.2222
-4.0223 JANICE -0.2222
-4.0223 JANINE -0.2222
-4.0223 JARED -0.2222
-4.0223 JARRAD -0.2222
-4.0223 JARRED -0.2222
-4.0223 JARROD -0.2222
-4.0223 JARVIS -0.2222
-4.0223 JASMIN -0.2222
-4.0223 JASMINE -0.2222
-4.0223 JASON -0.2222
-4.0223 JASPER -0.2222
-4.0223 JASPREET -0.2222
-3.7212 JAY -0.2222
-4.0223 JAYA -0.2222
-4.0223 JAYDE -0.2222
-4.0223 JAYDEN -0.2222
-4.0223 JAYMEE -0.2222
-4.0223 JAYNE -0.2222
-4.0223 JAZMIN -0.2222
-4.0223 JAZMINE -0.2222
-3.7212 JEAN -0.2222
-4.0223 JEAN-LUC -0.2222
-4.0223 JEAN-PAUL -0.2222
-4.0223 JED -0.2222
-4.0223 JEEVAN -0.2222
-4.0223 JEFF -0.2222
-4.0223 JEFFERY -0.2222
-4.0223 JEFFREY -0.2222
-4.0223 JEMAINE -0.2222
-4.0223 JEMAL -0.2222
-4.0223 JEMIMA -0.2222
-4.0223 JEMMA -0.2222
-4.0223 JENNA -0.2222
-4.0223 JENNIFER -0.2222
-4.0223 JENNY -0.2222
-4.0223 JEREMIAH -0.2222
-4.0223 JEREMY -0.2222
-4.0223 JERMAINE -0.2222
-4.0223 JEROME -0.2222
-3.7212 JERRY -0.2222
-3.7212 JESS -0.2222
-4.0223 JESSE -0.2222
-4.0223 JESSICA -0.2222
-4.0223 JESSIE -0.2222
-4.0223 JESSY -0.2222
-4.0223 JILL -0.2222
-4.0223 JIM -0.2222
-4.0223 JIMMIE -0.2222
-4.0223 JIMMY -0.2222
-4.0223 JO -0.2222
-4.0223 JOANNA -0.2222
-4.0223 JOANNE -0.2222
-4.0223 JODI -0.2222
-4.0223 JODIE -0.2222
-4.0223 JODY -0.2222
-4.0223 JOE -0.2222
-4.0223 JOEL -0.2222
-4.0223 JOELY -0.2222
-4.0223 JOEY -0.2222
-4.0223 JOHANNA -0.2222
-4.0223 JOHANNES -0.2222
-4.0223 JOHN -0.2222
-4.0223 JOHNATHAN -0.2222
-4.0223 JOHNATHON -0.2222
-4.0223 JOHNNY -0.2222
-4.0223 JON -0.2222
-4.0223 JONAH -0.2222
-4.0223 JONATHAN -0.2222
-4.0223 JONATHON -0.2222
-4.0223 JONNY -0.2222
-4.0223 JOOLS -0.2222
-3.7212 JORDAN -0.2222
-4.0223 JORDANNA -0.2222
-4.0223 JORDEN -0.2222
-4.0223 JORDI -0.2222
-4.0223 JORDON -0.2222
-4.0223 JORGE -0.2222
-4.0223 JOSEF -0.2222
-4.0223 JOSEPH -0.2222
-4.0223 JOSEPHINE -0.2222
-4.0223 JOSH -0.2222
-4.0223 JOSHUA -0.2222
-4.0223 JOSIAH -0.2222
-4.0223 JOSIE -0.2222
-4.0223 JOSS -0.2222
-4.0223 JOY -0.2222
-4.0223 JOYCE -0.2222
-3.7212 JUDE -0.2222
-4.0223 JUDY -0.2222
-4.0223 JULIA -0.2222
-4.0223 JULIAN -0.2222
-4.0223 JULIANA -0.2222
-4.0223 JULIE -0.2222
-4.0223 JULIET -0.2222
-4.0223 JUNAID -0.2222
-4.0223 JUSTIN -0.2222
-4.0223 JUSTINE -0.2222
-4.0223 KAI -0.2222
-4.0223 KAIN -0.2222
-4.0223 KAINE -0.2222
-4.0223 KAITLIN -0.2222
-4.0223 KAITLYN -0.2222
-4.0223 KALEM -0.2222
-4.0223 KALLUM -0.2222
-4.0223 KALUM -0.2222
-4.0223 KAMAL -0.2222
-4.0223 KAMRAN -0.2222
-4.0223 KANE -0.2222
-4.0223 KARA -0.2222
-4.0223 KARAN -0.2222
-4.0223 KAREEM -0.2222
-4.0223 KAREN -0.2222
-4.0223 KARIM -0.2222
-4.0223 KARINA -0.2222
-4.0223 KARIS -0.2222
-4.0223 KARISHMA -0.2222
-4.0223 KARL -0.2222
-4.0223 KARLA -0.2222
-4.0223 KASEY -0.2222
-4.0223 KASHIF -0.2222
-4.0223 KASIM -0.2222
-4.0223 KATE -0.2222
-4.0223 KATHARINE -0.2222
-4.0223 KATHERINE -0.2222
-4.0223 KATHERYN -0.2222
-4.0223 KATHLEEN -0.2222
-4.0223 KATHRINE -0.2222
-4.0223 KATHRYN -0.2222
-4.0223 KATHY -0.2222
-4.0223 KATIE -0.2222
-4.0223 KATRIN -0.2222
-4.0223 KATRINA -0.2222
-4.0223 KATY -0.2222
-4.0223 KAY -0.2222
-4.0223 KAYA -0.2222
-4.0223 KAYLA -0.2222
-4.0223 KAYLEE -0.2222
-4.0223 KAYLEIGH -0.2222
-4.0223 KAYLEY -0.2222
-4.0223 KAYLIEGH -0.2222
-4.0223 KAYLUM -0.2222
-4.0223 KAYNE -0.2222
-4.0223 KEANU -0.2222
-4.0223 KEATON -0.2222
-4.0223 KEEGAN -0.2222
-4.0223 KEELAN -0.2222
-4.0223 KEELEY -0.2222
-4.0223 KEELY -0.2222
-4.0223 KEENAN -0.2222
-4.0223 KEIR -0.2222
-4.0223 KEIRA -0.2222
-4.0223 KEIRAN -0.2222
-4.0223 KEIRON -0.2222
-4.0223 KEISHA -0.2222
-4.0223 KEITH -0.2222
-4.0223 KELEIGH -0.2222
-4.0223 KELLIE -0.2222
-4.0223 KELLY -0.2222
-4.0223 KELLY-ANNE -0.2222
-4.0223 KELSEA -0.2222
-4.0223 KELSEY -0.2222
-4.0223 KELSIE -0.2222
-4.0223 KELVIN -0.2222
-4.0223 KEN -0.2222
-3.7212 KENNEDY -0.2222
-4.0223 KENNETH -0.2222
-4.0223 KENNY -0.2222
-4.0223 KENSINGTON -0.2222
-4.0223 KENT -0.2222
-4.0223 KERI -0.2222
-4.0223 KERRI -0.2222
-4.0223 KERRIE -0.2222
-4.0223 KERRY -0.2222
-4.0223 KESHIA -0.2222
-4.0223 KEVIN -0.2222
-4.0223 KEZIA -0.2222
-4.0223 KEZIAH -0.2222
-4.0223 KHADIJA -0.2222
-4.0223 KHADIJAH -0.2222
-4.0223 KHALID -0.2222
-4.0223 KHALIL -0.2222
-4.0223 KHAN -0.2222
-3.7212 KIA -0.2222
-4.0223 KIAH -0.2222
-4.0223 KIAN -0.2222
-4.0223 KIERA -0.2222
-4.0223 KIERAN -0.2222
-4.0223 KIEREN -0.2222
-4.0223 KIERON -0.2222
-3.7212 KIM -0.2222
-4.0223 KIMBERLEY -0.2222
-4.0223 KIMBERLY -0.2222
-4.0223 KINGSLEY -0.2222
-4.0223 KIRA -0.2222
-3.7212 KIRAN -0.2222
-3.7212 KIRBY -0.2222
-4.0223 KIRK -0.2222
-4.0223 KIRSTEN -0.2222
-4.0223 KIRSTIE -0.2222
-4.0223 KIRSTY -0.2222
-4.0223 KISHAN -0.2222
-4.0223 KIT -0.2222
-4.0223 KITTY -0.2222
-4.0223 KRISHAN -0.2222
-4.0223 KRISTA -0.2222
-4.0223 KRISTEN -0.2222
-4.0223 KRISTIAN -0.2222
-4.0223 KRISTIN -0.2222
-4.0223 KRISTINA -0.2222
-4.0223 KRISTOPHER -0.2222
-4.0223 KRISTY -0.2222
-4.0223 KURT -0.2222
-4.0223 KURTIS -0.2222
-4.0223 KYE -0.2222
-4.0223 KYLE -0.2222
-4.0223 KYLIE -0.2222
-4.0223 KYMBERLEY -0.2222
-4.0223 KYRA -0.2222
-4.0223 KYRAN -0.2222
-4.0223 KYRON -0.2222
-4.0223 LACEY -0.2222
-4.0223 LAILA -0.2222
-4.0223 LAMAR -0.2222
-4.0223 LANA -0.2222
-4.0223 LANCE -0.2222
-4.0223 LARA -0.2222
-4.0223 LARISSA -0.2222
-4.0223 LAURA -0.2222
-4.0223 LAUREN -0.2222
-4.0223 LAURENCE -0.2222
-3.7212 LAURIE -0.2222
-4.0223 LAURYN -0.2222
-4.0223 LAWRENCE -0.2222
-4.0223 LAYLA -0.2222
-4.0223 LEAH -0.2222
-4.0223 LEANNA -0.2222
-4.0223 LEANNE -0.2222
-4.0223 LECTURES -0.2222
-3.7212 LEE -0.2222
-4.0223 LEIA -0.2222
-3.7212 LEIGH -0.2222
-4.0223 LEIGHTON -0.2222
-4.0223 LEILA -0.2222
-4.0223 LEO -0.2222
-4.0223 LEON -0.2222
-4.0223 LEONA -0.2222
-4.0223 LEONARD -0.2222
-4.0223 LEONIE -0.2222
-4.0223 LESLEY -0.2222
-4.0223 LESLIE -0.2222
-4.0223 LETICIA -0.2222
-4.0223 LETITIA -0.2222
-3.7212 LEVI -0.2222
-4.0223 LEWIS -0.2222
-4.0223 LEWYS -0.2222
-4.0223 LEYLA -0.2222
-4.0223 LIA -0.2222
-4.0223 LIAM -0.2222
-4.0223 LIANNE -0.2222
-4.0223 LIBBY -0.2222
-4.0223 LIBERTY -0.2222
-4.0223 LILIAN -0.2222
-4.0223 LILLIAN -0.2222
-4.0223 LILLIE -0.2222
-4.0223 LILLY -0.2222
-4.0223 LILY -0.2222
-4.0223 LINDA -0.2222
-4.0223 LINDSAY -0.2222
-4.0223 LINDSEY -0.2222
-3.7212 LINE -0.2222
-4.0223 LIONEL -0.2222
-4.0223 LISA -0.2222
-4.0223 LLEWELLYN -0.2222
-4.0223 LLOYD -0.2222
-4.0223 LOGAN -0.2222
-4.0223 LOIS -0.2222
-4.0223 LOLA -0.2222
-4.0223 LOREN -0.2222
-4.0223 LORENZO -0.2222
-4.0223 LORI -0.2222
-4.0223 LORNA -0.2222
-4.0223 LORRAINE -0.2222
-4.0223 LOTTIE -0.2222
-4.0223 LOUIE -0.2222
-4.0223 LOUIS -0.2222
-4.0223 LOUISA -0.2222
-4.0223 LOUISE -0.2222
-4.0223 LOWRI -0.2222
-4.0223 LUC -0.2222
-4.0223 LUCA -0.2222
-4.0223 LUCAS -0.2222
-4.0223 LUCIA -0.2222
-4.0223 LUCIE -0.2222
-4.0223 LUCINDA -0.2222
-4.0223 LUCY -0.2222
-4.0223 LUIS -0.2222
-4.0223 LUISA -0.2222
-4.0223 LUKAS -0.2222
-4.0223 LUKE -0.2222
-4.0223 LYDIA -0.2222
-4.0223 LYNDON -0.2222
-4.0223 LYNDSAY -0.2222
-4.0223 LYNDSEY -0.2222
-4.0223 MAARIYAH -0.2222
-4.0223 MACAULAY -0.2222
-4.0223 MACAULEY -0.2222
-4.0223 MACAULY -0.2222
-4.0223 MACKENZIE -0.2222
-4.0223 MADDIE -0.2222
-4.0223 MADDISON -0.2222
-4.0223 MADELAINE -0.2222
-4.0223 MADELEINE -0.2222
-4.0223 MADELINE -0.2222
-4.0223 MADISON -0.2222
-4.0223 MAE -0.2222
-4.0223 MAGGIE -0.2222
-4.0223 MAISIE -0.2222
-4.0223 MAISY -0.2222
-4.0223 MALACHI -0.2222
-4.0223 MALCOLM -0.2222
-4.0223 MALIK -0.2222
-4.0223 MANISHA -0.2222
-4.0223 MANRAJ -0.2222
-4.0223 MARA -0.2222
-4.0223 MARC -0.2222
-4.0223 MARCIA -0.2222
-4.0223 MARCO -0.2222
-4.0223 MARCUS -0.2222
-4.0223 MARGARET -0.2222
-4.0223 MARIA -0.2222
-4.0223 MARIAH -0.2222
-4.0223 MARIAM -0.2222
-4.0223 MARIANNE -0.2222
-4.0223 MARIE -0.2222
-4.0223 MARINA -0.2222
-4.0223 MARIO -0.2222
-4.0223 MARISSA -0.2222
-4.0223 MARIYA -0.2222
-4.0223 MARK -0.2222
-4.0223 MARLEY -0.2222
-4.0223 MARLON -0.2222
-4.0223 MARNIE -0.2222
-4.0223 MARTHA -0.2222
-4.0223 MARTIN -0.2222
-4.0223 MARTY -0.2222
-4.0223 MARTYN -0.2222
-4.0223 MARY -0.2222
-4.0223 MARY-JANE -0.2222
-4.0223 MARYAM -0.2222
-4.0223 MASON -0.2222
-4.0223 MATHEW -0.2222
-4.0223 MATILDA -0.2222
-4.0223 MATT -0.2222
-4.0223 MATTEO -0.2222
-4.0223 MATTHEW -0.2222
-4.0223 MAX -0.2222
-4.0223 MAXIM -0.2222
-4.0223 MAXIMILIAN -0.2222
-4.0223 MAXIMILLIAN -0.2222
-4.0223 MAXINE -0.2222
-4.0223 MAXWELL -0.2222
-4.0223 MAY -0.2222
-4.0223 MAYA -0.2222
-4.0223 MAYBE -0.2222
-4.0223 MCCAULEY -0.2222
-4.0223 ME -0.2222
-4.0223 MEAGAN -0.2222
-4.0223 MEERA -0.2222
-4.0223 MEG -0.2222
-4.0223 MEGAN -0.2222
-4.0223 MEGHAN -0.2222
-4.0223 MEHDI -0.2222
-4.0223 MEHMET -0.2222
-4.0223 MELANIE -0.2222
-4.0223 MELINDA -0.2222
-4.0223 MELISSA -0.2222
-4.0223 MELODY -0.2222
-4.0223 MELVIN -0.2222
-4.0223 MERCEDES -0.2222
-4.0223 MERLIN -0.2222
-4.0223 MERYL -0.2222
-4.0223 MIA -0.2222
-4.0223 MICA -0.2222
-4.0223 MICAH -0.2222
-4.0223 MICHAEL -0.2222
-4.0223 MICHAELA -0.2222
-4.0223 MICHEAL -0.2222
-4.0223 MICHEALA -0.2222
-4.0223 MICHELE -0.2222
-4.0223 MICHELLE -0.2222
-4.0223 MICKEY -0.2222
-4.0223 MICKY -0.2222
-4.0223 MIGUEL -0.2222
-4.0223 MIHIR -0.2222
-4.0223 MIKAELA -0.2222
-4.0223 MIKE -0.2222
-4.0223 MIKEY -0.2222
-4.0223 MIKHAIL -0.2222
-4.0223 MILAN -0.2222
-4.0223 MILES -0.2222
-4.0223 MILLICENT -0.2222
-4.0223 MILLIE -0.2222
-4.0223 MILLY -0.2222
-4.0223 MILO -0.2222
-4.0223 MINE -0.2222
-4.0223 MIRANDA -0.2222
-4.0223 MIRIAM -0.2222
-4.0223 MISHA -0.2222
-4.0223 MISTY -0.2222
-4.0223 MITCH -0.2222
-4.0223 MITCHEL -0.2222
-4.0223 MITCHELL -0.2222
-4.0223 MOHAMAD -0.2222
-4.0223 MOHAMED -0.2222
-4.0223 MOHAMMAD -0.2222
-4.0223 MOHAMMED -0.2222
-4.0223 MOHAMMOD -0.2222
-4.0223 MOHMMED -0.2222
-4.0223 MOHSIN -0.2222
-4.0223 MOLLIE -0.2222
-4.0223 MOLLY -0.2222
-4.0223 MONET -0.2222
-4.0223 MONICA -0.2222
-4.0223 MONIQUE -0.2222
-4.0223 MONTEL -0.2222
-4.0223 MONTELL -0.2222
-3.7212 MORGAN -0.2222
-4.0223 MOSES -0.2222
-4.0223 MUHAMMAD -0.2222
-4.0223 MUHAMMED -0.2222
-4.0223 MURRAY -0.2222
-3.3233 MUSEUM -0.2222
-4.0223 MUSTAFA -0.2222
-4.0223 MY -0.2222
-4.0223 MYLES -0.2222
-4.0223 MYLO -0.2222
-4.0223 NABEEL -0.2222
-4.0223 NADEEM -0.2222
-4.0223 NADIA -0.2222
-4.0223 NADINE -0.2222
-4.0223 NAFEESA -0.2222
-4.0223 NAIM -0.2222
-4.0223 NAME -0.2222
-4.0223 NANA -0.2222
-4.0223 NANCY -0.2222
-4.0223 NAOMI -0.2222
-4.0223 NASEEM -0.2222
-4.0223 NASIM -0.2222
-4.0223 NATALIA -0.2222
-4.0223 NATALIE -0.2222
-4.0223 NATASHA -0.2222
-4.0223 NATHALIE -0.2222
-4.0223 NATHAN -0.2222
-4.0223 NATHANAEL -0.2222
-4.0223 NATHANIEL -0.2222
-4.0223 NATURAL -0.3009
-4.0223 NAVDEEP -0.2222
-4.0223 NAY -0.2222
-4.0223 NAZIA -0.2222
-4.0223 NAZIFA -0.2222
-4.0223 NAZIM -0.2222
-4.0223 NAZIR -0.2222
-4.0223 NEAL -0.2222
-4.0223 NED -0.2222
-4.0223 NEELAM -0.2222
-4.0223 NEGATIVE -0.2222
-4.0223 NEIL -0.2222
-4.0223 NEIN -0.2222
-4.0223 NELSON -0.2222
-4.0223 NIA -0.2222
-4.0223 NIAL -0.2222
-4.0223 NIALL -0.2222
-4.0223 NIAMH -0.2222
-4.0223 NICHOLA -0.2222
-4.0223 NICHOLAS -0.2222
-4.0223 NICK -0.2222
-4.0223 NICKY -0.2222
-4.0223 NICO -0.2222
-4.0223 NICOLA -0.2222
-4.0223 NICOLAS -0.2222
-4.0223 NICOLE -0.2222
-4.0223 NIGEL -0.2222
-4.0223 NIK -0.2222
-4.0223 NIKHIL -0.2222
-4.0223 NIKITA -0.2222
-4.0223 NIKKI -0.2222
-4.0223 NIKO -0.2222
-4.0223 NIKOLAS -0.2222
-4.0223 NINA -0.2222
-4.0223 NISHA -0.2222
-4.0223 NO -0.2222
-4.0223 NOAH -0.2222
-4.0223 NOEL -0.2222
-4.0223 NON -0.2222
-4.0223 NONE -0.2222
-4.0223 NOPE -0.2222
-4.0223 NORTON -0.2222
-4.0223 NOT -0.2222
-4.0223 NOTHING -0.2222
-4.0223 NYLE -0.2222
-4.0223 OH -0.2222
-4.0223 OKAY -0.2222
-4.0223 OLIVE -0.2222
-4.0223 OLIVER -0.2222
-4.0223 OLIVIA -0.2222
-4.0223 OLIVIER -0.2222
-4.0223 OMAR -0.2222
-4.0223 OMARI -0.2222
-4.0223 ORLA -0.2222
-4.0223 ORLANDO -0.2222
-4.0223 OSCAR -0.2222
-4.0223 OSIAN -0.2222
-4.0223 OSMAN -0.2222
-4.0223 OTIS -0.2222
-4.0223 OWAIN -0.2222
-4.0223 OWEN -0.2222
-4.0223 PADRAIG -0.2222
-4.0223 PAGE -0.2222
-4.0223 PAIGE -0.2222
-4.0223 PAISLEY -0.2222
-4.0223 PAMELA -0.2222
-4.0223 PAOLO -0.2222
-4.0223 PARIS -0.2222
-4.0223 PARK -0.2222
-4.0223 PATRICE -0.2222
-4.0223 PATRICIA -0.2222
-4.0223 PATRICK -0.2222
-4.0223 PAUL -0.2222
-4.0223 PAULA -0.2222
-4.0223 PAULINE -0.2222
-4.0223 PAULO -0.2222
-4.0223 PAYAL -0.2222
-4.0223 PEDRO -0.2222
-4.0223 PEGGY -0.2222
-4.0223 PENELOPE -0.2222
-4.0223 PENNY -0.2222
-4.0223 PERRY -0.2222
-4.0223 PETER -0.2222
-4.0223 PEYTON -0.2222
-4.0223 PHILIP -0.2222
-4.0223 PHILIPPA -0.2222
-4.0223 PHILLIP -0.2222
-4.0223 PHILLIPA -0.2222
-4.0223 PHILLIPPA -0.2222
-4.0223 PHOEBE -0.2222
-4.0223 PICADDILLY -0.3009
-4.0223 PIERCE -0.2222
-4.0223 PIERS -0.2222
-4.0223 PIPPA -0.2222
-4.0223 POLLY -0.2222
-4.0223 POPPIE -0.2222
-4.0223 POPPY -0.2222
-4.0223 PRESTON -0.2222
-4.0223 PRIYA -0.2222
-4.0223 PRIYANKA -0.2222
-4.0223 PROBABLY -0.2222
-4.0223 QASIM -0.2222
-4.0223 QUINN -0.2222
-4.0223 RABIA -0.2222
-4.0223 RACHAEL -0.2222
-4.0223 RACHEAL -0.2222
-4.0223 RACHEL -0.2222
-4.0223 RAFAEL -0.2222
-4.0223 RAHEEM -0.2222
-4.0223 RAHIM -0.2222
-4.0223 RAHUL -0.2222
-4.0223 RAJ -0.2222
-4.0223 RAJA -0.2222
-4.0223 RAJAN -0.2222
-4.0223 RALPH -0.2222
-4.0223 RAMI -0.2222
-4.0223 RAPHAEL -0.2222
-4.0223 RAVI -0.2222
-4.0223 RAYMOND -0.2222
-4.0223 RAYNA -0.2222
-4.0223 REANNE -0.2222
-4.0223 REBECCA -0.2222
-4.0223 REBEKAH -0.2222
-4.0223 REBEKKA -0.2222
-4.0223 REECE -0.2222
-4.0223 REED -0.2222
-4.0223 REEM -0.2222
-4.0223 REGAN -0.2222
-4.0223 REISS -0.2222
-3.7212 REMI -0.2222
-4.0223 REMY -0.2222
-4.0223 RENAE -0.2222
-3.7212 RENE -0.2222
-4.0223 RENEE -0.2222
-4.0223 REUBEN -0.2222
-4.0223 RHEA -0.2222
-4.0223 RHIAN -0.2222
-4.0223 RHIANN -0.2222
-4.0223 RHIANNA -0.2222
-4.0223 RHIANNE -0.2222
-4.0223 RHIANNON -0.2222
-4.0223 RHODRI -0.2222
-4.0223 RHYS -0.2222
-4.0223 RIA -0.2222
-4.0223 RIAN -0.2222
-4.0223 RIANNA -0.2222
-4.0223 RIANNE -0.2222
-4.0223 RIANNON -0.2222
-4.0223 RICARDO -0.2222
-4.0223 RICHARD -0.2222
-4.0223 RICHIE -0.2222
-4.0223 RICK -0.2222
-4.0223 RICKIE -0.2222
-4.0223 RICKY -0.2222
-4.0223 RIKKI -0.2222
-4.0223 RILEY -0.2222
-4.0223 RIO -0.2222
-4.0223 RISHI -0.2222
-4.0223 RITCHIE -0.2222
-4.0223 RIZWAN -0.2222
-4.0223 ROAD -0.2222
-4.0223 ROB -0.2222
-4.0223 ROBBIE -0.2222
-4.0223 ROBERT -0.2222
-4.0223 ROBERTA -0.2222
-4.0223 ROBERTO -0.2222
-3.7212 ROBIN -0.2222
-4.0223 ROBSON -0.2222
-4.0223 ROBYN -0.2222
-4.0223 ROCHELLE -0.2222
-4.0223 RODNEY -0.2222
-4.0223 ROGAN -0.2222
-3.7212 ROGER -0.2222
-4.0223 ROHAN -0.2222
-4.0223 ROISIN -0.2222
-4.0223 ROMAN -0.2222
-4.0223 ROMARIO -0.2222
-4.0223 RON -0.2222
-4.0223 RONAN -0.2222
-3.7212 RONNIE -0.2222
-4.0223 RONNY -0.2222
-4.0223 RORY -0.2222
-4.0223 ROSA -0.2222
-4.0223 ROSALIE -0.2222
-4.0223 ROSALIND -0.2222
-4.0223 ROSANNA -0.2222
-4.0223 ROSE -0.2222
-4.0223 ROSEANNA -0.2222
-4.0223 ROSEMARIE -0.2222
-4.0223 ROSEMARY -0.2222
-4.0223 ROSHAN -0.2222
-4.0223 ROSHNI -0.2222
-4.0223 ROSIE -0.2222
-4.0223 ROSS -0.2222
-3.7212 ROWAN -0.2222
-4.0223 ROWENA -0.2222
-4.0223 ROXANNE -0.2222
-4.0223 ROY -0.2222
-4.0223 ROYAL -0.3009
-4.0223 RUAIRI -0.2222
-4.0223 RUBEN -0.2222
-4.0223 RUBY -0.2222
-4.0223 RUFUS -0.2222
-4.0223 RUPERT -0.2222
-4.0223 RUPINDER -0.2222
-4.0223 RUSSELL -0.2222
-4.0223 RUTH -0.2222
-4.0223 RYAN -0.2222
-4.0223 SABA -0.2222
-4.0223 SABAH -0.2222
-4.0223 SABINA -0.2222
-4.0223 SABIR -0.2222
-4.0223 SABRINA -0.2222
-4.0223 SACHA -0.2222
-4.0223 SACHIN -0.2222
-4.0223 SADIA -0.2222
-4.0223 SADIE -0.2222
-4.0223 SAFFRON -0.2222
-4.0223 SAFIA -0.2222
-4.0223 SAFWAAN -0.2222
-4.0223 SAID -0.2222
-4.0223 SAIF -0.2222
-4.0223 SAIMA -0.2222
-4.0223 SAIRA -0.2222
-4.0223 SALEEM -0.2222
-4.0223 SALLY -0.2222
-4.0223 SALLY-ANNE -0.2222
-4.0223 SALMA -0.2222
-4.0223 SALMAN -0.2222
-4.0223 SALVATORE -0.2222
-4.0223 SAM -0.2222
-4.0223 SAMANTHA -0.2222
-4.0223 SAMARA -0.2222
-4.0223 SAMEER -0.2222
-4.0223 SAMI -0.2222
-4.0223 SAMINA -0.2222
-4.0223 SAMIR -0.2222
-4.0223 SAMIRA -0.2222
-4.0223 SAMMIE -0.2222
-4.0223 SAMMY -0.2222
-4.0223 SAMSON -0.2222
-4.0223 SAMUAL -0.2222
-4.0223 SAMUEL -0.2222
-4.0223 SAMY -0.2222
-4.0223 SANA -0.2222
-4.0223 SANAH -0.2222
-4.0223 SANDEEP -0.2222
-4.0223 SANDRA -0.2222
-4.0223 SANJAY -0.2222
-4.0223 SANTIAGO -0.2222
-4.0223 SAPPHIRE -0.2222
-4.0223 SAQIB -0.2222
-4.0223 SARA -0.2222
-4.0223 SARAH -0.2222
-4.0223 SARAH-JANE -0.2222
-4.0223 SARAH-LOUISE -0.2222
-4.0223 SASHA -0.2222
-4.0223 SASKIA -0.2222
-4.0223 SAUL -0.2222
-4.0223 SAVANNA -0.2222
-4.0223 SAVANNAH -0.2222
-4.0223 SCARLET -0.2222
-4.0223 SCARLETT -0.2222
-4.0223 SCHOOL -0.2222
-4.0223 SCIENCE -0.3008
-4.0223 SCOT -0.2222
-4.0223 SCOTT -0.2222
-4.0223 SEAMUS -0.2222
-4.0223 SEAN -0.2222
-4.0223 SEBASTIAN -0.2222
-4.0223 SEBASTIEN -0.2222
-4.0223 SELINA -0.2222
-4.0223 SEREN -0.2222
-4.0223 SERENA -0.2222
-4.0223 SERGE -0.2222
-4.0223 SERGIO -0.2222
-4.0223 SETH -0.2222
-4.0223 SHAH -0.2222
-4.0223 SHAKIRA -0.2222
-4.0223 SHANA -0.2222
-4.0223 SHANE -0.2222
-4.0223 SHANI -0.2222
-4.0223 SHANICE -0.2222
-4.0223 SHANNAN -0.2222
-4.0223 SHANNEN -0.2222
-3.7212 SHANNON -0.2222
-4.0223 SHAQUILLE -0.2222
-4.0223 SHARNA -0.2222
-4.0223 SHARON -0.2222
-4.0223 SHAUN -0.2222
-4.0223 SHAUNA -0.2222
-4.0223 SHAUNNA -0.2222
-4.0223 SHAWN -0.2222
-4.0223 SHAY -0.2222
-4.0223 SHAZAD -0.2222
-4.0223 SHE -0.2222
-4.0223 SHELBY -0.2222
-4.0223 SHELDON -0.2222
-4.0223 SHELLEY -0.2222
-4.0223 SHIVANI -0.2222
-4.0223 SHONA -0.2222
-4.0223 SHOPPING -0.2222
-4.0223 SHYAM -0.2222
-4.0223 SI -0.2222
-4.0223 SIAN -0.2222
-4.0223 SID -0.2222
-4.0223 SIDNEY -0.2222
-4.0223 SIMEON -0.2222
-4.0223 SIMON -0.2222
-4.0223 SIMONE -0.2222
-3.7212 SIMRAN -0.2222
-4.0223 SINEAD -0.2222
-4.0223 SIOBHAN -0.2222
-4.0223 SION -0.2222
-4.0223 SIONED -0.2222
-4.0223 SKY -0.2222
-4.0223 SKYE -0.2222
-4.0223 SOFIA -0.2222
-4.0223 SOHAIL -0.2222
-4.0223 SOLOMON -0.2222
-4.0223 SONIA -0.2222
-4.0223 SONNY -0.2222
-4.0223 SOPHIA -0.2222
-4.0223 SOPHIE -0.2222
-4.0223 SOUTH -0.3010
-4.0223 SPENCER -0.2222
-4.0223 SPIKE -0.2222
-4.0223 STACEY -0.2222
-4.0223 STACIE -0.2222
-4.0223 STACY -0.2222
-4.0223 STANLEY -0.2222
-4.0223 STEFAN -0.2222
-4.0223 STEFFAN -0.2222
-4.0223 STELLA -0.2222
-4.0223 STEPHAN -0.2222
-4.0223 STEPHANIE -0.2222
-4.0223 STEPHEN -0.2222
-4.0223 STEVE -0.2222
-4.0223 STEVEN -0.2222
-4.0223 STEVIE -0.2222
-4.0223 STEWART -0.2222
-4.0223 STUART -0.2222
-4.0223 SUMMER -0.2222
-4.0223 SUNIL -0.2222
-4.0223 SURAJ -0.2222
-4.0223 SURE -0.2222
-4.0223 SUSAN -0.2222
-4.0223 SUSANNA -0.2222
-4.0223 SUSANNAH -0.2222
-4.0223 SUSIE -0.2222
-4.0223 SUZANNA -0.2222
-4.0223 SUZANNE -0.2222
-4.0223 SUZY -0.2222
-4.0223 SYDNEY -0.2222
-4.0223 SYED -0.2222
-4.0223 SYEDA -0.2222
-4.0223 TABITHA -0.2222
-4.0223 TALIA -0.2222
-4.0223 TALLULAH -0.2222
-4.0223 TAMARA -0.2222
-4.0223 TAMMY -0.2222
-4.0223 TAMSIN -0.2222
-4.0223 TAMSYN -0.2222
-4.0223 TANIA -0.2222
-4.0223 TANISHA -0.2222
-4.0223 TANYA -0.2222
-4.0223 TARA -0.2222
-4.0223 TARAN -0.2222
-4.0223 TARIQ -0.2222
-4.0223 TASMIN -0.2222
-4.0223 TASNIM -0.2222
-4.0223 TAYLA -0.2222
-4.0223 TAYLER -0.2222
-3.7212 TAYLOR -0.2222
-4.0223 TEGAN -0.2222
-4.0223 TERENCE -0.2222
-4.0223 TERESA -0.2222
-4.0223 TERI -0.2222
-4.0223 TERRI -0.2222
-4.0223 TERRY -0.2222
-4.0223 TESS -0.2222
-4.0223 TESSA -0.2222
-4.0223 THAT -0.2222
-4.0223 THEA -0.2222
-4.0223 THEO -0.2222
-4.0223 THEODORE -0.2222
-4.0223 THINK -0.2222
-4.0223 THIS -0.2222
-4.0223 THOM -0.2222
-4.0223 THOMAS -0.2222
-4.0223 TIA -0.2222
-4.0223 TIFFANY -0.2222
-4.0223 TILLY -0.2222
-4.0223 TIM -0.2222
-4.0223 TIMOTHY -0.2222
-4.0223 TINA -0.2222
-4.0223 TOBIAS -0.2222
-4.0223 TOBY -0.2222
-4.0223 TODD -0.2222
-4.0223 TOM -0.2222
-4.0223 TOMAS -0.2222
-4.0223 TOMMY -0.2222
-4.0223 TOMOS -0.2222
-4.0223 TONI -0.2222
-4.0223 TONICHA -0.2222
-4.0223 TONY -0.2222
-4.0223 TORI -0.2222
-4.0223 TRAIN -0.2222
-4.0223 TRAVIS -0.2222
-4.0223 TRISTAN -0.2222
-4.0223 TRISTIAN -0.2222
-4.0223 TRISTON -0.2222
-4.0223 TROY -0.2222
-4.0223 TUBE -0.2222
-3.7212 TYLER -0.2222
-4.0223 TYRELL -0.2222
-4.0223 TYRONE -0.2222
-4.0223 TYRONNE -0.2222
-4.0223 TYSON -0.2222
-4.0223 UMAIR -0.2222
-4.0223 UMAR -0.2222
-4.0223 UNDERGROUND -0.2222
-4.0223 UNION -0.2222
-4.0223 UNIVERSITY -0.2222
-4.0223 US -0.2222
-4.0223 USAMA -0.2222
-4.0223 USMAN -0.2222
-4.0223 UZAIR -0.2222
-4.0223 V -0.3009
-4.0223 VANESSA -0.2222
-4.0223 VERITY -0.2222
-4.0223 VERNON -0.2222
-4.0223 VICKIE -0.2222
-4.0223 VICKY -0.2222
-4.0223 VICTOR -0.2222
-3.7212 VICTORIA -0.2221
-4.0223 VINAY -0.2222
-4.0223 VINCENT -0.2222
-4.0223 VISHAL -0.2222
-4.0223 VIVIEN -0.2222
-4.0223 WADE -0.2222
-4.0223 WAQAR -0.2222
-4.0223 WAQAS -0.2222
-4.0223 WARREN -0.2222
-4.0223 WAS -0.2222
-4.0223 WASEEM -0.2222
-4.0223 WASIM -0.2222
-4.0223 WAYNE -0.2222
-3.7212 WE -0.2222
-4.0223 WENDY -0.2222
-4.0223 WERE -0.2222
-4.0223 WESLEY -0.2222
-4.0223 WHITNEY -0.2222
-4.0223 WHOM -0.2222
-4.0223 WHOSE -0.2222
-4.0223 WILL -0.2222
-4.0223 WILLIAM -0.2222
-4.0223 WORK -0.2222
-4.0223 XAVIER -0.2222
-4.0223 YANNICK -0.2222
-4.0223 YASIN -0.2222
-4.0223 YASMIN -0.2222
-4.0223 YASMINE -0.2222
-4.0223 YAZMIN -0.2222
-4.0223 YEAH -0.2222
-4.0223 YEP -0.2222
-4.0223 YES -0.2222
-4.0223 YIANNIS -0.2222
-4.0223 YOU -0.2222
-4.0223 YUSUF -0.2222
-4.0223 YVES -0.2222
-4.0223 ZAC -0.2222
-4.0223 ZACH -0.2222
-4.0223 ZACHARIAH -0.2222
-4.0223 ZACHARY -0.2222
-4.0223 ZACHERY -0.2222
-4.0223 ZACK -0.2222
-4.0223 ZACKARY -0.2222
-4.0223 ZACKERY -0.2222
-4.0223 ZAHRA -0.2222
-4.0223 ZAIN -0.2222
-4.0223 ZAINAB -0.2222
-4.0223 ZAK -0.2222
-4.0223 ZAKARIA -0.2222
-4.0223 ZAKIR -0.2222
-4.0223 ZARA -0.2222
-4.0223 ZEESHAN -0.2222
-4.0223 ZOE -0.2222
-4.0223 ZOHAIB -0.2222

\2-grams:
-3.5436 <s> AADAM 0.0000
-3.5436 <s> AADIL 0.0000
-3.5436 <s> AALIYAH 0.0000
-3.5436 <s> AAMIR 0.0000
-3.5436 <s> AARON 0.0000
-3.5436 <s> ABBAS 0.0000
-3.5436 <s> ABBEY 0.0000
-3.5436 <s> ABBI 0.0000
-3.5436 <s> ABBIE 0.0000
-3.5436 <s> ABBIGAIL 0.0000
-3.5436 <s> ABBY 0.0000
-3.5436 <s> ABDUL 0.0000
-3.5436 <s> ABDULLAH 0.0000
-3.5436 <s> ABI 0.0000
-3.5436 <s> ABIGAIL 0.0000
-3.5436 <s> ABRAHAM 0.0000
-3.5436 <s> ABU 0.0000
-3.5436 <s> ABUL 0.0000
-3.5436 <s> ADAM 0.0000
-3.5436 <s> ADEEL 0.0000
-3.5436 <s> ADELE 0.0000
-3.5436 <s> ADEN 0.0000
-3.5436 <s> ADIL 0.0000
-3.5436 <s> ADNAN 0.0000
-3.5436 <s> ADRIAN 0.0000
-3.5436 <s> ADRIENNE 0.0000
-3.5436 <s> AFFIRMATIVE 0.0000
-3.5436 <s> AHMAD 0.0000
-3.5436 <s> AHMED 0.0000
-3.5436 <s> AHMET 0.0000
-3.5436 <s> AIDAN 0.0000
-3.5436 <s> AIDEN 0.0000
-3.5436 <s> AILEEN 0.0000
-3.5436 <s> AILISH 0.0000
-3.5436 <s> AILSA 0.0000
-3.5436 <s> AIMEE 0.0000
-3.5436 <s> AINE 0.0000
-3.2425 <s> AINSLEY 0.0000
-3.5436 <s> AISHA 0.0000
-3.5436 <s> AISHAH 0.0000
-3.5436 <s> AISLING 0.0000
-3.5436 <s> AISLINN 0.0000
-3.5436 <s> AJAY 0.0000
-3.5436 <s> AKASH 0.0000
-3.5436 <s> AKBAR 0.0000
-3.5436 <s> AKEEM 0.0000
-3.5436 <s> AKHIL 0.0000
-3.5436 <s> AKSHAY 0.0000
-3.5436 <s> ALAN 0.0000
-3.5436 <s> ALANA 0.0000
-3.5436 <s> ALANNA 0.0000
-3.5436 <s> ALANNAH 0.0000
-3.5436 <s> ALASDAIR 0.0000
-3.5436 <s> ALASTAIR 0.0000
-3.5436 <s> ALBERT -0.2218
-3.5436 <s> ALEC 0.0000
-3.5436 <s> ALED 0.0000
-3.5436 <s> ALEESHA 0.0000
-3.5436 <s> ALESSANDRA 0.0000
-3.5436 <s> ALESSANDRO 0.0000
-3.5436 <s> ALESSIA 0.0000
-3.2425 <s> ALEX 0.0000
-3.5436 <s> ALEXANDER 0.0000
-3.5436 <s> ALEXANDRA 0.0000
-3.5436 <s> ALEXANDRE 0.0000
-3.5436 <s> ALEXANDRIA 0.0000
-3.5436 <s> ALEXIA 0.0000
-3.5436 <s> ALEXIS 0.0000
-3.5436 <s> ALFIE 0.0000
-3.5436 <s> ALFRED 0.0000
-3.5436 <s> ALI 0.0000
-3.5436 <s> ALICE 0.0000
-3.5436 <s> ALICIA 0.0000
-3.5436 <s> ALIESHA 0.0000
-3.5436 <s> ALINA 0.0000
-3.5436 <s> ALISHA 0.0000
-3.5436 <s> ALISON 0.0000
-3.5436 <s> ALISTAIR 0.0000
-3.5436 <s> ALISTER 0.0000
-3.5436 <s> ALIX 0.0000
-3.5436 <s> ALIYA 0.0000
-3.5436 <s> ALIYAH 0.0000
-3.5436 <s> ALL 0.0000
-3.5436 <s> ALLAN 0.0000
-3.5436 <s> ALLYSHA 0.0000
-3.5436 <s> ALVIN 0.0000
-3.5436 <s> ALYS 0.0000
-3.5436 <s> ALYSHA 0.0000
-3.5436 <s> ALYSSIA 0.0000
-3.5436 <s> AM 0.0000
-3.5436 <s> AMAAN 0.0000
-3.5436 <s> AMALIE 0.0000
-3.5436 <s> AMAN 0.0000
-3.5436 <s> AMANDA 0.0000
-3.2425 <s> AMANDEEP 0.0000
-3.5436 <s> AMAR 0.0000
-3.5436 <s> AMARA 0.0000
-3.5436 <s> AMBER 0.0000
-3.5436 <s> AMEERA 0.0000
-3.5436 <s> AMELIA 0.0000
-3.5436 <s> AMI 0.0000
-3.5436 <s> AMIE 0.0000
-3.5436 <s> AMINA 0.0000
-3.5436 <s> AMIR 0.0000
-3.5436 <s> AMY 0.0000
-3.5436 <s> ANA 0.0000
-3.5436 <s> ANASTASIA 0.0000
-3.5436 <s> ANDIE 0.0000
-3.5436 <s> ANDRE 0.0000
-3.5436 <s> ANDREA 0.0000
-3.5436 <s> ANDREAS 0.0000
-3.5436 <s> ANDREW 0.0000
-3.5436 <s> ANDY 0.0000
-3.5436 <s> ANEEKA 0.0000
-3.5436 <s> ANEESA 0.0000
-3.5436 <s> ANGEL 0.0000
-3.5436 <s> ANGELA 0.0000
-3.5436 <s> ANGELICA 0.0000
-3.5436 <s> ANGELINA 0.0000
-3.5436 <s> ANGELO 0.0000
-3.5436 <s> ANGHARAD 0.0000
-3.5436 <s> ANGUS 0.0000
-3.5436 <s> ANIKA 0.0000
-3.5436 <s> ANISA 0.0000
-3.5436 <s> ANISAH 0.0000
-3.5436 <s> ANISH 0.0000
-3.5436 <s> ANISHA 0.0000
-3.5436 <s> ANITA 0.0000
-3.5436 <s> ANN 0.0000
-3.5436 <s> ANNA 0.0000
-3.5436 <s> ANNABEL 0.0000
-3.5436 <s> ANNABELLE 0.0000
-3.5436 <s> ANNALISE 0.0000
-3.5436 <s> ANNE 0.0000
-3.5436 <s> ANNE-MARIE 0.0000
-3.5436 <s> ANNIE 0.0000
-3.5436 <s> ANNIKA 0.0000
-3.5436 <s> ANTHONY 0.0000
-3.5436 <s> ANTON 0.0000
-3.5436 <s> ANTONIA 0.0000
-3.5436 <s> ANTONIO 0.0000
-3.5436 <s> ANTONY 0.0000
-3.5436 <s> ANWAR 0.0000
-3.5436 <s> ANYA 0.0000
-3.5436 <s> AOIFE 0.0000
-3.5436 <s> APRIL 0.0000
-3.5436 <s> AQIB 0.0000
-3.5436 <s> ARABELLA 0.0000
-3.5436 <s> ARAN 0.0000
-3.5436 <s> ARCHIE 0.0000
-3.5436 <s> ARE 0.0000
-3.5436 <s> ARJUN 0.0000
-3.5436 <s> ARON 0.0000
-3.5436 <s> ARRAN 0.0000
-3.5436 <s> ARRON 0.0000
-3.5436 <s> ARTHUR 0.0000
-3.5436 <s> ARUN 0.0000
-3.5436 <s> ASA 0.0000
-3.5436 <s> ASAD 0.0000
-3.5436 <s> ASHA 0.0000
-3.5436 <s> ASHER 0.0000
-3.5436 <s> ASHLEA 0.0000
-3.5436 <s> ASHLEE 0.0000
-3.2425 <s> ASHLEIGH 0.0000
-3.2425 <s> ASHLEY 0.0000
-3.5436 <s> ASHRAF 0.0000
-3.2425 <s> ASHTON 0.0000
-3.5436 <s> ASIF 0.0000
-3.5436 <s> ASIM 0.0000
-3.5436 <s> ASMA 0.0000
-3.5436 <s> ASTON 0.0000
-3.5436 <s> ATLANTA 0.0000
-3.5436 <s> AUSTIN 0.0000
-3.5436 <s> AUTUMN 0.0000
-3.5436 <s> AWAIS 0.0000
-3.5436 <s> AYDEN 0.0000
-3.5436 <s> AYE 0.0000
-3.5436 <s> AYESHA 0.0000
-3.5436 <s> AYISHA 0.0000
-3.5436 <s> AYRTON 0.0000
-3.5436 <s> AYSHA 0.0000
-3.5436 <s> AZIM 0.0000
-3.5436 <s> AZIZ 0.0000
-3.5436 <s> BAILEY 0.0000
-3.5436 <s> BARBARA 0.0000
-3.5436 <s> BARNABY 0.0000
-3.5436 <s> BARNEY 0.0000
-3.5436 <s> BARRY 0.0000
-3.5436 <s> BE 0.0000
-3.5436 <s> BEATRICE 0.0000
-3.5436 <s> BEAU 0.0000
-3.5436 <s> BECKY 0.0000
-3.5436 <s> BEEN 0.0000
-3.5436 <s> BEING 0.0000
-3.5436 <s> BELINDA 0.0000
-3.5436 <s> BEN 0.0000
-3.5436 <s> BENEDICT 0.0000
-3.5436 <s> BENJAMIN 0.0000
-3.5436 <s> BENN 0.0000
-3.5436 <s> BERNADETTE 0.0000
-3.5436 <s> BERNARD 0.0000
-3.5436 <s> BETH 0.0000
-3.5436 <s> BETHAN 0.0000
-3.5436 <s> BETHANIE 0.0000
-3.5436 <s> BETHANY 0.0000
-3.5436 <s> BETHNEY 0.0000
-3.5436 <s> BEVAN 0.0000
-3.5436 <s> BIANCA 0.0000
-3.5436 <s> BILAL 0.0000
-3.2425 <s> BILLIE 0.0000
-3.5436 <s> BILLIE-JO 0.0000
-3.5436 <s> BILLY 0.0000
-3.5436 <s> BLAINE 0.0000
-3.5436 <s> BLAISE 0.0000
-3.5436 <s> BLAKE 0.0000
-3.5436 <s> BLYTHE 0.0000
-3.5436 <s> BOB 0.0000
-3.5436 <s> BOBBI 0.0000
-3.5436 <s> BOBBIE 0.0000
-3.5436 <s> BOBBY 0.0000
-3.5436 <s> BONITA 0.0000
-3.5436 <s> BONNIE 0.0000
-3.5436 <s> BONNY 0.0000
-3.5436 <s> BORIS 0.0000
-3.5436 <s> BOTH 0.0000
-3.5436 <s> BRAD 0.0000
-3.5436 <s> BRADEN 0.0000
-3.5436 <s> BRADLEY 0.0000
-3.5436 <s> BRADY 0.0000
-3.5436 <s> BRANDAN 0.0000
-3.5436 <s> BRANDON 0.0000
-3.5436 <s> BRENDAN 0.0000
-3.5436 <s> BRENDEN 0.0000
-3.5436 <s> BRENDON 0.0000
-3.5436 <s> BRET 0.0000
-3.5436 <s> BRETT 0.0000
-3.5436 <s> BRIAN 0.0000
-3.5436 <s> BRIANA 0.0000
-3.5436 <s> BRIDGET 0.0000
-3.5436 <s> BRIDIE 0.0000
-3.5436 <s> BRIONY 0.0000
-3.5436 <s> BRITTANY 0.0000
-3.2425 <s> BRODIE 0.0000
-3.2425 <s> BROGAN 0.0000
-3.5436 <s> BRONTE 0.0000
-3.5436 <s> BRONWEN 0.0000
-3.5436 <s> BRONWYN 0.0000
-3.5436 <s> BROOKE 0.0000
-3.5436 <s> BROOKLYN 0.0000
-3.5436 <s> BRUCE 0.0000
-3.5436 <s> BRUNO 0.0000
-3.5436 <s> BRYAN 0.0000
-3.5436 <s> BRYCE 0.0000
-3.5436 <s> BRYN 0.0000
-3.5436 <s> BRYONY 0.0000
-3.5436 <s> BURAK 0.0000
-3.5436 <s> BYRON 0.0000
-3.5436 <s> CAI 0.0000
-3.5436 <s> CAIN 0.0000
-3.5436 <s> CAINE 0.0000
-3.5436 <s> CAITLIN 0.0000
-3.5436 <s> CALEB 0.0000
-3.5436 <s> CALLAM 0.0000
-3.5436 <s> CALLAN 0.0000
-3.5436 <s> CALLED 0.0000
-3.5436 <s> CALLIE 0.0000
-3.5436 <s> CALLUM 0.0000
-3.5436 <s> CALUM 0.0000
-3.5436 <s> CALVIN 0.0000
-3.5436 <s> CAMERON 0.0000
-3.5436 <s> CAMILA 0.0000
-3.5436 <s> CAMILLA 0.0000
-3.5436 <s> CAMILLE 0.0000
-3.5436 <s> CAMPBELL 0.0000
-3.5436 <s> CANDICE 0.0000
-3.5436 <s> CARA 0.0000
-3.5436 <s> CARIS 0.0000
-3.5436 <s> CARL 0.0000
-3.5436 <s> CARLA 0.0000
-3.5436 <s> CARLIE 0.0000
-3.5436 <s> CARLOS 0.0000
-3.5436 <s> CARLTON 0.0000
-3.5436 <s> CARLY 0.0000
-3.5436 <s> CARMEN 0.0000
-3.5436 <s> CAROLINE 0.0000
-3.5436 <s> CAROLYN 0.0000
-3.5436 <s> CARRIE 0.0000
-3.5436 <s> CARWYN 0.0000
-3.5436 <s> CARYS 0.0000
-3.2425 <s> CASEY 0.0000
-3.5436 <s> CASSANDRA 0.0000
-3.5436 <s> CASSIDY 0.0000
-3.5436 <s> CASSIE 0.0000
-3.5436 <s> CATHERINE 0.0000
-3.5436 <s> CATHRINE 0.0000
-3.5436 <s> CATRIN 0.0000
-3.5436 <s> CATRIONA 0.0000
-3.5436 <s> CELIA 0.0000
-3.5436 <s> CELINE 0.0000
-3.5436 <s> CERI 0.0000
-3.5436 <s> CERTAINLY 0.0000
-3.5436 <s> CERYS 0.0000
-3.5436 <s> CHAD 0.0000
-3.5436 <s> CHANDLER 0.0000
-3.5436 <s> CHANEL 0.0000
-3.5436 <s> CHANELLE 0.0000
-3.5436 <s> CHANICE 0.0000
-3.5436 <s> CHANNELLE 0.0000
-3.5436 <s> CHANTAL 0.0000
-3.5436 <s> CHANTE 0.0000
-3.5436 <s> CHANTEL 0.0000
-3.5436 <s> CHANTELLE 0.0000
-3.5436 <s> CHARIS 0.0000
-3.5436 <s> CHARLENE 0.0000
-3.5436 <s> CHARLES 0.0000
-3.2425 <s> CHARLEY 0.0000
-3.2425 <s> CHARLIE 0.0000
-3.5436 <s> CHARLOTTE 0.0000
-3.5436 <s> CHARMAINE 0.0000
-3.5436 <s> CHAY 0.0000
-3.5436 <s> CHE 0.0000
-3.5436 <s> CHELSEA 0.0000
-3.5436 <s> CHELSEY 0.0000
-3.5436 <s> CHELSIE 0.0000
-3.5436 <s> CHERYL 0.0000
-3.5436 <s> CHESTER 0.0000
-3.5436 <s> CHEYENNE 0.0000
-3.5436 <s> CHIRAG 0.0000
-3.5436 <s> CHLOE 0.0000
-3.5436 <s> CHRIS 0.0000
-3.5436 <s> CHRISTIAN 0.0000
-3.2425 <s> CHRISTIE 0.0000
-3.5436 <s> CHRISTINA 0.0000
-3.5436 <s> CHRISTINE 0.0000
-3.5436 <s> CHRISTOPHER 0.0000
-3.5436 <s> CHRISTOS 0.0000
-3.5436 <s> CIAN 0.0000
-3.5436 <s> CIARA 0.0000
-3.5436 <s> CIARAN 0.0000
-3.5436 <s> CIERAN 0.0000
-3.5436 <s> CLAIRE 0.0000
-3.5436 <s> CLARA 0.0000
-3.5436 <s> CLARE 0.0000
-3.5436 <s> CLARISSA 0.0000
-3.5436 <s> CLARK 0.0000
-3.5436 <s> CLAUDIA 0.0000
-3.5436 <s> CLAYTON 0.0000
-3.5436 <s> CLEO 0.0000
-3.5436 <s> CLINT 0.0000
-3.5436 <s> CLIVE 0.0000
-3.5436 <s> CODIE 0.0000
-3.2425 <s> CODY 0.0000
-3.5436 <s> COLE 0.0000
-3.5436 <s> COLETTE 0.0000
-3.5436 <s> COLIN 0.0000
-3.5436 <s> CONNAH 0.0000
-3.5436 <s> CONNELL 0.0000
-3.5436 <s> CONNER 0.0000
-3.5436 <s> CONNIE 0.0000
-3.5436 <s> CONNOR 0.0000
-3.5436 <s> CONOR 0.0000
-3.5436 <s> CONRAD 0.0000
-3.5436 <s> CONSTANCE 0.0000
-3.5436 <s> CONSTANTINE 0.0000
-3.5436 <s> CONSTANTINOS 0.0000
-3.5436 <s> CORA 0.0000
-3.5436 <s> CORAL 0.0000
-3.5436 <s> COREY 0.0000
-3.5436 <s> CORIN 0.0000
-3.5436 <s> CORINNE 0.0000
-3.5436 <s> CORMAC 0.0000
-3.5436 <s> CORRIE 0.0000
-3.2425 <s> CORY 0.0000
-3.5436 <s> COURSE 0.0000
-3.5436 <s> COURTENEY 0.0000
-3.2425 <s> COURTNEY 0.0000
-3.5436 <s> CRAIG 0.0000
-3.5436 <s> CRYSTAL 0.0000
-3.5436 <s> CULLEN 0.0000
-3.5436 <s> CULLUM 0.0000
-3.5436 <s> CURTIS 0.0000
-3.5436 <s> CYRUS 0.0000
-3.5436 <s> DAFYDD 0.0000
-3.5436 <s> DAISY 0.0000
-3.5436 <s> DALE 0.0000
-3.5436 <s> DALTON 0.0000
-3.5436 <s> DAMIAN 0.0000
-3.5436 <s> DAMIEN 0.0000
-3.5436 <s> DAMON 0.0000
-3.5436 <s> DAN 0.0000
-3.5436 <s> DANA 0.0000
-3.5436 <s> DANE 0.0000
-3.2425 <s> DANI 0.0000
-3.5436 <s> DANIAL 0.0000
-3.5436 <s> DANIEL 0.0000
-3.5436 <s> DANIELA 0.0000
-3.5436 <s> DANIELE 0.0000
-3.5436 <s> DANIELLA 0.0000
-3.5436 <s> DANIELLE 0.0000
-3.5436 <s> DANISH 0.0000
-3.5436 <s> DANNI 0.0000
-3.5436 <s> DANNIELLA 0.0000
-3.5436 <s> DANNIELLE 0.0000
-3.5436 <s> DANNY 0.0000
-3.5436 <s> DANYAL 0.0000
-3.5436 <s> DARCIE 0.0000
-3.5436 <s> DARCY 0.0000
-3.5436 <s> DARIEN 0.0000
-3.5436 <s> DARIUS 0.0000
-3.5436 <s> DARNELL 0.0000
-3.5436 <s> DARRAGH 0.0000
-3.5436 <s> DARRELL 0.0000
-3.5436 <s> DARREN 0.0000
-3.5436 <s> DARRYL 0.0000
-3.5436 <s> DARYL 0.0000
-3.5436 <s> DARYLL 0.0000
-3.5436 <s> DAVEY 0.0000
-3.5436 <s> DAVID 0.0000
-3.5436 <s> DAVINA 0.0000
-3.5436 <s> DAVY 0.0000
-3.5436 <s> DAWN 0.0000
-3.5436 <s> DAYLE 0.0000
-3.5436 <s> DAYNA 0.0000
-3.5436 <s> DEAN 0.0000
-3.5436 <s> DEANNA 0.0000
-3.5436 <s> DEBBIE 0.0000
-3.5436 <s> DEBORAH 0.0000
-3.5436 <s> DECLAN 0.0000
-3.5436 <s> DEMI 0.0000
-3.5436 <s> DEMI-LEIGH 0.0000
-3.5436 <s> DENNIS 0.0000
-3.5436 <s> DENZEL 0.0000
-3.5436 <s> DEREK 0.0000
-3.5436 <s> DERREN 0.0000
-3.5436 <s> DERRY 0.0000
-3.5436 <s> DEVANTE 0.0000
-3.2425 <s> DEVON 0.0000
-3.5436 <s> DEWI 0.0000
-3.5436 <s> DEXTER 0.0000
-3.5436 <s> DIANA 0.0000
-3.5436 <s> DILAN 0.0000
-3.5436 <s> DILLAN 0.0000
-3.5436 <s> DILLON 0.0000
-3.5436 <s> DIMITRIS 0.0000
-3.5436 <s> DINA 0.0000
-3.5436 <s> DION 0.0000
-3.5436 <s> DIONNE 0.0000
-3.5436 <s> DISTRICT 0.0000
-3.5436 <s> DJANGO 0.0000
-3.5436 <s> DOMINIC 0.0000
-3.5436 <s> DOMINIQUE 0.0000
-3.5436 <s> DONALD 0.0000
-3.5436 <s> DONNA 0.0000
-3.5436 <s> DONOVAN 0.0000
-3.5436 <s> DONT 0.0000
-3.5436 <s> DORIAN 0.0000
-3.5436 <s> DOUGLAS 0.0000
-3.5436 <s> DRE 0.0000
-3.2425 <s> DREW 0.0000
-3.5436 <s> DUDLEY 0.0000
-3.5436 <s> DUNCAN 0.0000
-3.5436 <s> DWAYNE 0.0000
-3.5436 <s> DYLAN 0.0000
-3.5436 <s> EAMON 0.0000
-3.5436 <s> EARLS 0.0000
-3.5436 <s> EBONY 0.0000
-3.5436 <s> EDDIE 0.0000
-3.5436 <s> EDDY 0.0000
-3.2425 <s> EDEN 0.0000
-3.5436 <s> EDGAR 0.0000
-3.5436 <s> EDIE 0.0000
-3.5436 <s> EDMUND 0.0000
-3.5436 <s> EDUARDO 0.0000
-3.5436 <s> EDWARD 0.0000
-3.5436 <s> EDWIN 0.0000
-3.5436 <s> EILEEN 0.0000
-3.5436 <s> EILISH 0.0000
-3.5436 <s> ELEANOR 0.0000
-3.5436 <s> ELENA 0.0000
-3.5436 <s> ELI 0.0000
-3.5436 <s> ELIAS 0.0000
-3.5436 <s> ELIJAH 0.0000
-3.5436 <s> ELIN 0.0000
-3.5436 <s> ELINOR 0.0000
-3.5436 <s> ELIOT 0.0000
-3.5436 <s> ELIOTT 0.0000
-3.5436 <s> ELIS 0.0000
-3.5436 <s> ELISA 0.0000
-3.5436 <s> ELISABETH 0.0000
-3.5436 <s> ELISE 0.0000
-3.5436 <s> ELISHA 0.0000
-3.5436 <s> ELIZA 0.0000
-3.5436 <s> ELIZABETH 0.0000
-3.5436 <s> ELLA 0.0000
-3.5436 <s> ELLE 0.0000
-3.5436 <s> ELLEN 0.0000
-3.5436 <s> ELLENA 0.0000
-3.5436 <s> ELLIE 0.0000
-3.5436 <s> ELLIE-MAE 0.0000
-3.5436 <s> ELLIOT 0.0000
-3.5436 <s> ELLIOTT 0.0000
-3.2425 <s> ELLIS 0.0000
-3.5436 <s> ELOISE 0.0000
-3.5436 <s> ELSA 0.0000
-3.5436 <s> ELSPETH 0.0000
-3.5436 <s> ELYSIA 0.0000
-3.5436 <s> EMILIA 0.0000
-3.5436 <s> EMILIE 0.0000
-3.5436 <s> EMILIO 0.0000
-3.5436 <s> EMILY 0.0000
-3.5436 <s> EMMA 0.0000
-3.5436 <s> EMMANUEL 0.0000
-3.5436 <s> ENYA 0.0000
-3.5436 <s> EOIN 0.0000
-3.5436 <s> ERIC 0.0000
-3.5436 <s> ERICA 0.0000
-3.5436 <s> ERIKA 0.0000
-3.5436 <s> ERIN 0.0000
-3.5436 <s> ESME 0.0000
-3.5436 <s> ESTELLE 0.0000
-3.5436 <s> ESTHER 0.0000
-3.5436 <s> ETHAN 0.0000
-3.5436 <s> ETHOS 0.0000
-3.5436 <s> EUAN 0.0000
-3.5436 <s> EVA 0.0000
-3.2425 <s> EVAN 0.0000
-3.5436 <s> EVANGELINE 0.0000
-3.5436 <s> EVE 0.0000
-3.5436 <s> EVELYN 0.0000
-3.5436 <s> EVIE 0.0000
-3.5436 <s> EWAN 0.0000
-3.5436 <s> EZEKIEL 0.0000
-3.5436 <s> EZRA 0.0000
-3.5436 <s> FABIAN 0.0000
-3.5436 <s> FABIO 0.0000
-3.5436 <s> FAHAD 0.0000
-3.5436 <s> FAHIM 0.0000
-3.5436 <s> FAISAL 0.0000
-3.5436 <s> FAITH 0.0000
-3.5436 <s> FAIZA 0.0000
-3.5436 <s> FAIZAN 0.0000
-3.5436 <s> FALSE 0.0000
-3.5436 <s> FARAAZ 0.0000
-3.5436 <s> FARAH 0.0000
-3.5436 <s> FARHAN 0.0000
-3.5436 <s> FARHANA 0.0000
-3.5436 <s> FARRAH 0.0000
-3.5436 <s> FARZANA 0.0000
-3.5436 <s> FATIMA 0.0000
-3.5436 <s> FAY 0.0000
-3.5436 <s> FAYE 0.0000
-3.5436 <s> FELICIA 0.0000
-3.5436 <s> FELICITY 0.0000
-3.5436 <s> FELIX 0.0000
-3.5436 <s> FERDINAND 0.0000
-3.5436 <s> FERGUS 0.0000
-3.5436 <s> FERN 0.0000
-3.5436 <s> FFION 0.0000
-3.5436 <s> FINE 0.0000
-3.2425 <s> FINLAY 0.0000
-3.5436 <s> FINN 0.0000
-3.5436 <s> FIONA 0.0000
-3.5436 <s> FLEUR 0.0000
-3.5436 <s> FLORA 0.0000
-3.5436 <s> FLORENCE 0.0000
-3.5436 <s> FLOYD 0.0000
-3.5436 <s> FOOD 0.0000
-3.5436 <s> FRANCES 0.0000
-3.5436 <s> FRANCESCA 0.0000
-3.5436 <s> FRANCESCO 0.0000
-3.5436 <s> FRANCIS 0.0000
-3.5436 <s> FRANCOIS 0.0000
-3.5436 <s> FRANK 0.0000
-3.5436 <s> FRANKIE 0.0000
-3.5436 <s> FRANKLIN 0.0000
-3.5436 <s> FRASER 0.0000
-3.5436 <s> FRAZER 0.0000
-3.5436 <s> FRAZIER 0.0000
-3.5436 <s> FRED 0.0000
-3.2425 <s> FREDDIE 0.0000
-3.5436 <s> FREDDY 0.0000
-3.5436 <s> FREDERICK 0.0000
-3.5436 <s> FREDERIK 0.0000
-3.5436 <s> FREDRICK 0.0000
-3.5436 <s> FREYA 0.0000
-3.5436 <s> GABRIEL 0.0000
-3.5436 <s> GABRIELE 0.0000
-3.5436 <s> GABRIELLA 0.0000
-3.5436 <s> GABRIELLE 0.0000
-3.5436 <s> GABY 0.0000
-3.5436 <s> GAGE 0.0000
-3.5436 <s> GARETH 0.0000
-3.5436 <s> GARRY 0.0000
-3.5436 <s> GARY 0.0000
-3.5436 <s> GAVIN 0.0000
-3.5436 <s> GEMMA 0.0000
-3.5436 <s> GENEVIEVE 0.0000
-3.5436 <s> GEOFFREY 0.0000
-3.5436 <s> GEORGE 0.0000
-3.5436 <s> GEORGIA 0.0000
-3.2425 <s> GEORGIE 0.0000
-3.5436 <s> GEORGINA 0.0000
-3.5436 <s> GERAINT 0.0000
-3.5436 <s> GERALD 0.0000
-3.5436 <s> GERALDINE 0.0000
-3.5436 <s> GERARD 0.0000
-3.5436 <s> GETHIN 0.0000
-3.5436 <s> GIANLUCA 0.0000
-3.5436 <s> GIDEON 0.0000
-3.5436 <s> GILES 0.0000
-3.5436 <s> GINA 0.0000
-3.5436 <s> GIORGIA 0.0000
-3.5436 <s> GIOVANNI 0.0000
-3.5436 <s> GIUSEPPE 0.0000
-3.5436 <s> GLEN 0.0000
-3.5436 <s> GLENN 0.0000
-3.5436 <s> GLOUCESTER 0.0000
-3.5436 <s> GRACE 0.0000
-3.5436 <s> GRAEME 0.0000
-3.5436 <s> GRAHAM 0.0000
-3.5436 <s> GRANT 0.0000
-3.5436 <s> GREG 0.0000
-3.5436 <s> GREGG 0.0000
-3.5436 <s> GREGORY 0.0000
-3.5436 <s> GUY 0.0000
-3.5436 <s> GYM 0.0000
-3.5436 <s> HAFSA 0.0000
-3.5436 <s> HAFSAH 0.0000
-3.5436 <s> HAIDER 0.0000
-3.5436 <s> HAILEY 0.0000
-3.5436 <s> HAKEEM 0.0000
-3.5436 <s> HALEEMA 0.0000
-3.5436 <s> HALIMA 0.0000
-3.5436 <s> HALLS 0.0000
-3.5436 <s> HAMEED 0.0000
-3.5436 <s> HAMISH 0.0000
-3.5436 <s> HAMZA 0.0000
-3.5436 <s> HAMZAH 0.0000
-3.5436 <s> HANA 0.0000
-3.5436 <s> HANNA 0.0000
-3.5436 <s> HANNAH 0.0000
-3.5436 <s> HARIS 0.0000
-3.5436 <s> HARISH 0.0000
-3.2425 <s> HARLEY 0.0000
-3.5436 <s> HAROLD 0.0000
-3.5436 <s> HAROON 0.0000
-3.5436 <s> HARRI 0.0000
-3.5436 <s> HARRIET 0.0000
-3.5436 <s> HARRIETT 0.0000
-3.5436 <s> HARRIS 0.0000
-3.5436 <s> HARRISON 0.0000
-3.5436 <s> HARRY 0.0000
-3.5436 <s> HARVEY 0.0000
-3.5436 <s> HASAN 0.0000
-3.5436 <s> HASEEB 0.0000
-3.5436 <s> HASHIM 0.0000
-3.5436 <s> HASNAIN 0.0000
-3.5436 <s> HASSAAN 0.0000
-3.5436 <s> HASSAN 0.0000
-3.5436 <s> HAYDEN 0.0000
-3.5436 <s> HAYDN 0.0000
-3.5436 <s> HAYDON 0.0000
-3.5436 <s> HAYLEIGH 0.0000
-3.5436 <s> HAYLEY 0.0000
-3.5436 <s> HAZEL 0.0000
-3.5436 <s> HE 0.0000
-3.5436 <s> HEATH 0.0000
-3.5436 <s> HEATHER 0.0000
-3.5436 <s> HECTOR 0.0000
-3.5436 <s> HEIDI 0.0000
-3.5436 <s> HELEN 0.0000
-3.5436 <s> HELENA 0.0000
-3.5436 <s> HENNA 0.0000
-3.5436 <s> HENRIETTA 0.0000
-3.5436 <s> HENRY 0.0000
-3.5436 <s> HERBIE 0.0000
-3.5436 <s> HILARY 0.0000
-3.5436 <s> HISTORY 0.0000
-3.5436 <s> HOLLIE 0.0000
-3.5436 <s> HOLLY 0.0000
-3.5436 <s> HOME 0.0000
-3.5436 <s> HONOR 0.0000
-3.5436 <s> HOPE 0.0000
-3.5436 <s> HOWARD 0.0000
-3.5436 <s> HUGH 0.0000
-3.5436 <s> HUGO 0.0000
-3.5436 <s> HUMAIRA 0.0000
-3.5436 <s> HUMZA 0.0000
-3.5436 <s> HUSSAIN 0.0000
-3.5436 <s> HUW 0.0000
-3.5436 <s> HYDE 0.0000
-3.5436 <s> HYWEL 0.0000
-3.5436 <s> I 0.0000
-3.5436 <s> IAIN 0.0000
-3.5436 <s> IAN 0.0000
-3.5436 <s> IBRAHEEM 0.0000
-3.5436 <s> IBRAHIM 0.0000
-3.5436 <s> IDRIS 0.0000
-3.5436 <s> IEUAN 0.0000
-3.5436 <s> IKRA 0.0000
-3.5436 <s> IM 0.0000
-3.5436 <s> IMAN 0.0000
-3.5436 <s> IMOGEN 0.0000
-3.5436 <s> IMPERIAL 0.0000
-3.5436 <s> IMRAN 0.0000
-3.5436 <s> INDEED 0.0000
-3.5436 <s> INDIA 0.0000
-3.5436 <s> INDUBITABLY 0.0000
-3.5436 <s> INGRID 0.0000
-3.5436 <s> IONA 0.0000
-3.5436 <s> IQRA 0.0000
-3.5436 <s> IRAM 0.0000
-3.5436 <s> IS 0.0000
-3.5436 <s> ISAAC 0.0000
-3.5436 <s> ISABEL 0.0000
-3.5436 <s> ISABELLA 0.0000
-3.5436 <s> ISABELLE 0.0000
-3.5436 <s> ISHMAEL 0.0000
-3.5436 <s> ISHMAIL 0.0000
-3.5436 <s> ISLA 0.0000
-3.5436 <s> ISMAIL 0.0000
-3.5436 <s> ISOBEL 0.0000
-3.5436 <s> ISOBELLE 0.0000
-3.5436 <s> ISSAC 0.0000
-3.5436 <s> IT 0.0000
-3.5436 <s> ITS 0.0000
-3.5436 <s> IVAN 0.0000
-3.5436 <s> IVY 0.0000
-3.5436 <s> IWAN 0.0000
-3.5436 <s> IZAAK 0.0000
-3.5436 <s> JA 0.0000
-3.5436 <s> JAC 0.0000
-3.5436 <s> JACK 0.0000
-3.5436 <s> JACKIE 0.0000
-3.5436 <s> JACKSON 0.0000
-3.5436 <s> JACKY 0.0000
-3.5436 <s> JACOB 0.0000
-3.5436 <s> JACQUELINE 0.0000
-3.5436 <s> JACQUES 0.0000
-3.2425 <s> JADE 0.0000
-3.5436 <s> JAI 0.0000
-3.5436 <s> JAIME 0.0000
-3.5436 <s> JAK 0.0000
-3.5436 <s> JAKE 0.0000
-3.5436 <s> JAKOB 0.0000
-3.5436 <s> JAMAAL 0.0000
-3.5436 <s> JAMAL 0.0000
-3.5436 <s> JAMES 0.0000
-3.2425 <s> JAMIE 0.0000
-3.5436 <s> JAMIE-LEE 0.0000
-3.5436 <s> JAMIL 0.0000
-3.5436 <s> JANE 0.0000
-3.5436 <s> JANET 0.0000
-3.5436 <s> JANICE 0.0000
-3.5436 <s> JANINE 0.0000
-3.5436 <s> JARED 0.0000
-3.5436 <s> JARRAD 0.0000
-3.5436 <s> JARRED 0.0000
-3.5436 <s> JARROD 0.0000
-3.5436 <s> JARVIS 0.0000
-3.5436 <s> JASMIN 0.0000
-3.5436 <s> JASMINE 0.0000
-3.5436 <s> JASON 0.0000
-3.5436 <s> JASPER 0.0000
-3.5436 <s> JASPREET 0.0000
-3.2425 <s> JAY 0.0000
-3.5436 <s> JAYA 0.0000
-3.5436 <s> JAYDE 0.0000
-3.5436 <s> JAYDEN 0.0000
-3.5436 <s> JAYMEE 0.0000
-3.5436 <s> JAYNE 0.0000
-3.5436 <s> JAZMIN 0.0000
-3.5436 <s> JAZMINE 0.0000
-3.2425 <s> JEAN 0.0000
-3.5436 <s> JEAN-LUC 0.0000
-3.5436 <s> JEAN-PAUL 0.0000
-3.5436 <s> JED 0.0000
-3.5436 <s> JEEVAN 0.0000
-3.5436 <s> JEFF 0.0000
-3.5436 <s> JEFFERY 0.0000
-3.5436 <s> JEFFREY 0.0000
-3.5436 <s> JEMAINE 0.0000
-3.5436 <s> JEMAL 0.0000
-3.5436 <s> JEMIMA 0.0000
-3.5436 <s> JEMMA 0.0000
-3.5436 <s> JENNA 0.0000
-3.5436 <s> JENNIFER 0.0000
-3.5436 <s> JENNY 0.0000
-3.5436 <s> JEREMIAH 0.0000
-3.5436 <s> JEREMY 0.0000
-3.5436 <s> JERMAINE 0.0000
-3.5436 <s> JEROME 0.0000
-3.2425 <s> JERRY 0.0000
-3.2425 <s> JESS 0.0000
-3.5436 <s> JESSE 0.0000
-3.5436 <s> JESSICA 0.0000
-3.5436 <s> JESSIE 0.0000
-3.5436 <s> JESSY 0.0000
-3.5436 <s> JILL 0.0000
-3.5436 <s> JIM 0.0000
-3.5436 <s> JIMMIE 0.0000
-3.5436 <s> JIMMY 0.0000
-3.5436 <s> JO 0.0000
-3.5436 <s> JOANNA 0.0000
-3.5436 <s> JOANNE 0.0000
-3.5436 <s> JODI 0.0000
-3.5436 <s> JODIE 0.0000
-3.5436 <s> JODY 0.0000
-3.5436 <s> JOE 0.0000
-3.5436 <s> JOEL 0.0000
-3.5436 <s> JOELY 0.0000
-3.5436 <s> JOEY 0.0000
-3.5436 <s> JOHANNA 0.0000
-3.5436 <s> JOHANNES 0.0000
-3.5436 <s> JOHN 0.0000
-3.5436 <s> JOHNATHAN 0.0000
-3.5436 <s> JOHNATHON 0.0000
-3.5436 <s> JOHNNY 0.0000
-3.5436 <s> JON 0.0000
-3.5436 <s> JONAH 0.0000
-3.5436 <s> JONATHAN 0.0000
-3.5436 <s> JONATHON 0.0000
-3.5436 <s> JONNY 0.0000
-3.5436 <s> JOOLS 0.0000
-3.2425 <s> JORDAN 0.0000
-3.5436 <s> JORDANNA 0.0000
-3.5436 <s> JORDEN 0.0000
-3.5436 <s> JORDI 0.0000
-3.5436 <s> JORDON 0.0000
-3.5436 <s> JORGE 0.0000
-3.5436 <s> JOSEF 0.0000
-3.5436 <s> JOSEPH 0.0000
-3.5436 <s> JOSEPHINE 0.0000
-3.5436 <s> JOSH 0.0000
-3.5436 <s> JOSHUA 0.0000
-3.5436 <s> JOSIAH 0.0000
-3.5436 <s> JOSIE 0.0000
-3.5436 <s> JOSS 0.0000
-3.5436 <s> JOY 0.0000
-3.5436 <s> JOYCE 0.0000
-3.2425 <s> JUDE 0.0000
-3.5436 <s> JUDY 0.0000
-3.5436 <s> JULIA 0.0000
-3.5436 <s> JULIAN 0.0000
-3.5436 <s> JULIANA 0.0000
-3.5436 <s> JULIE 0.0000
-3.5436 <s> JULIET 0.0000
-3.5436 <s> JUNAID 0.0000
-3.5436 <s> JUSTIN 0.0000
-3.5436 <s> JUSTINE 0.0000
-3.5436 <s> KAI 0.0000
-3.5436 <s> KAIN 0.0000
-3.5436 <s> KAINE 0.0000
-3.5436 <s> KAITLIN 0.0000
-3.5436 <s> KAITLYN 0.0000
-3.5436 <s> KALEM 0.0000
-3.5436 <s> KALLUM 0.0000
-3.5436 <s> KALUM 0.0000
-3.5436 <s> KAMAL 0.0000
-3.5436 <s> KAMRAN 0.0000
-3.5436 <s> KANE 0.0000
-3.5436 <s> KARA 0.0000
-3.5436 <s> KARAN 0.0000
-3.5436 <s> KAREEM 0.0000
-3.5436 <s> KAREN 0.0000
-3.5436 <s> KARIM 0.0000
-3.5436 <s> KARINA 0.0000
-3.5436 <s> KARIS 0.0000
-3.5436 <s> KARISHMA 0.0000
-3.5436 <s> KARL 0.0000
-3.5436 <s> KARLA 0.0000
-3.5436 <s> KASEY 0.0000
-3.5436 <s> KASHIF 0.0000
-3.5436 <s> KASIM 0.0000
-3.5436 <s> KATE 0.0000
-3.5436 <s> KATHARINE 0.0000
-3.5436 <s> KATHERINE 0.0000
-3.5436 <s> KATHERYN 0.0000
-3.5436 <s> KATHLEEN 0.0000
-3.5436 <s> KATHRINE 0.0000
-3.5436 <s> KATHRYN 0.0000
-3.5436 <s> KATHY 0.0000
-3.5436 <s> KATIE 0.0000
-3.5436 <s> KATRIN 0.0000
-3.5436 <s> KATRINA 0.0000
-3.5436 <s> KATY 0.0000
-3.5436 <s> KAY 0.0000
-3.5436 <s> KAYA 0.0000
-3.5436 <s> KAYLA 0.0000
-3.5436 <s> KAYLEE 0.0000
-3.5436 <s> KAYLEIGH 0.0000
-3.5436 <s> KAYLEY 0.0000
-3.5436 <s> KAYLIEGH 0.0000
-3.5436 <s> KAYLUM 0.0000
-3.5436 <s> KAYNE 0.0000
-3.5436 <s> KEANU 0.0000
-3.5436 <s> KEATON 0.0000
-3.5436 <s> KEEGAN 0.0000
-3.5436 <s> KEELAN 0.0000
-3.5436 <s> KEELEY 0.0000
-3.5436 <s> KEELY 0.0000
-3.5436 <s> KEENAN 0.0000
-3.5436 <s> KEIR 0.0000
-3.5436 <s> KEIRA 0.0000
-3.5436 <s> KEIRAN 0.0000
-3.5436 <s> KEIRON 0.0000
-3.5436 <s> KEISHA 0.0000
-3.5436 <s> KEITH 0.0000
-3.5436 <s> KELEIGH 0.0000
-3.5436 <s> KELLIE 0.0000
-3.5436 <s> KELLY 0.0000
-3.5436 <s> KELLY-ANNE 0.0000
-3.5436 <s> KELSEA 0.0000
-3.5436 <s> KELSEY 0.0000
-3.5436 <s> KELSIE 0.0000
-3.5436 <s> KELVIN 0.0000
-3.5436 <s> KEN 0.0000
-3.2425 <s> KENNEDY 0.0000
-3.5436 <s> KENNETH 0.0000
-3.5436 <s> KENNY 0.0000
-3.5436 <s> KENT 0.0000
-3.5436 <s> KERI 0.0000
-3.5436 <s> KERRI 0.0000
-3.5436 <s> KERRIE 0.0000
-3.5436 <s> KERRY 0.0000
-3.5436 <s> KESHIA 0.0000
-3.5436 <s> KEVIN 0.0000
-3.5436 <s> KEZIA 0.0000
-3.5436 <s> KEZIAH 0.0000
-3.5436 <s> KHADIJA 0.0000
-3.5436 <s> KHADIJAH 0.0000
-3.5436 <s> KHALID 0.0000
-3.5436 <s> KHALIL 0.0000
-3.5436 <s> KHAN 0.0000
-3.2425 <s> KIA 0.0000
-3.5436 <s> KIAH 0.0000
-3.5436 <s> KIAN 0.0000
-3.5436 <s> KIERA 0.0000
-3.5436 <s> KIERAN 0.0000
-3.5436 <s> KIEREN 0.0000
-3.5436 <s> KIERON 0.0000
-3.2425 <s> KIM 0.0000
-3.5436 <s> KIMBERLEY 0.0000
-3.5436 <s> KIMBERLY 0.0000
-3.5436 <s> KINGSLEY 0.0000
-3.5436 <s> KIRA 0.0000
-3.2425 <s> KIRAN 0.0000
-3.2425 <s> KIRBY 0.0000
-3.5436 <s> KIRK 0.0000
-3.5436 <s> KIRSTEN 0.0000
-3.5436 <s> KIRSTIE 0.0000
-3.5436 <s> KIRSTY 0.0000
-3.5436 <s> KISHAN 0.0000
-3.5436 <s> KIT 0.0000
-3.5436 <s> KITTY 0.0000
-3.5436 <s> KRISHAN 0.0000
-3.5436 <s> KRISTA 0.0000
-3.5436 <s> KRISTEN 0.0000
-3.5436 <s> KRISTIAN 0.0000
-3.5436 <s> KRISTIN 0.0000
-3.5436 <s> KRISTINA 0.0000
-3.5436 <s> KRISTOPHER 0.0000
-3.5436 <s> KRISTY 0.0000
-3.5436 <s> KURT 0.0000
-3.5436 <s> KURTIS 0.0000
-3.5436 <s> KYE 0.0000
-3.5436 <s> KYLE 0.0000
-3.5436 <s> KYLIE 0.0000
-3.5436 <s> KYMBERLEY 0.0000
-3.5436 <s> KYRA 0.0000
-3.5436 <s> KYRAN 0.0000
-3.5436 <s> KYRON 0.0000
-3.5436 <s> LACEY 0.0000
-3.5436 <s> LAILA 0.0000
-3.5436 <s> LAMAR 0.0000
-3.5436 <s> LANA 0.0000
-3.5436 <s> LANCE 0.0000
-3.5436 <s> LARA 0.0000
-3.5436 <s> LARISSA 0.0000
-3.5436 <s> LAURA 0.0000
-3.5436 <s> LAUREN 0.0000
-3.5436 <s> LAURENCE 0.0000
-3.2425 <s> LAURIE 0.0000
-3.5436 <s> LAURYN 0.0000
-3.5436 <s> LAWRENCE 0.0000
-3.5436 <s> LAYLA 0.0000
-3.5436 <s> LEAH 0.0000
-3.5436 <s> LEANNA 0.0000
-3.5436 <s> LEANNE 0.0000
-3.5436 <s> LECTURES 0.0000
-3.2425 <s> LEE 0.0000
-3.5436 <s> LEIA 0.0000
-3.2425 <s> LEIGH 0.0000
-3.5436 <s> LEIGHTON 0.0000
-3.5436 <s> LEILA 0.0000
-3.5436 <s> LEO 0.0000
-3.5436 <s> LEON 0.0000
-3.5436 <s> LEONA 0.0000
-3.5436 <s> LEONARD 0.0000
-3.5436 <s> LEONIE 0.0000
-3.5436 <s> LESLEY 0.0000
-3.5436 <s> LESLIE 0.0000
-3.5436 <s> LETICIA 0.0000
-3.5436 <s> LETITIA 0.0000
-3.2425 <s> LEVI 0.0000
-3.5436 <s> LEWIS 0.0000
-3.5436 <s> LEWYS 0.0000
-3.5436 <s> LEYLA 0.0000
-3.5436 <s> LIA 0.0000
-3.5436 <s> LIAM 0.0000
-3.5436 <s> LIANNE 0.0000
-3.5436 <s> LIBBY 0.0000
-3.5436 <s> LIBERTY 0.0000
-3.5436 <s> LILIAN 0.0000
-3.5436 <s> LILLIAN 0.0000
-3.5436 <s> LILLIE 0.0000
-3.5436 <s> LILLY 0.0000
-3.5436 <s> LILY 0.0000
-3.5436 <s> LINDA 0.0000
-3.5436 <s> LINDSAY 0.0000
-3.5436 <s> LINDSEY 0.0000
-3.5436 <s> LIONEL 0.0000
-3.5436 <s> LISA 0.0000
-3.5436 <s> LLEWELLYN 0.0000
-3.5436 <s> LLOYD 0.0000
-3.5436 <s> LOGAN 0.0000
-3.5436 <s> LOIS 0.0000
-3.5436 <s> LOLA 0.0000
-3.5436 <s> LOREN 0.0000
-3.5436 <s> LORENZO 0.0000
-3.5436 <s> LORI 0.0000
-3.5436 <s> LORNA 0.0000
-3.5436 <s> LORRAINE 0.0000
-3.5436 <s> LOTTIE 0.0000
-3.5436 <s> LOUIE 0.0000
-3.5436 <s> LOUIS 0.0000
-3.5436 <s> LOUISA 0.0000
-3.5436 <s> LOUISE 0.0000
-3.5436 <s> LOWRI 0.0000
-3.5436 <s> LUC 0.0000
-3.5436 <s> LUCA 0.0000
-3.5436 <s> LUCAS 0.0000
-3.5436 <s> LUCIA 0.0000
-3.5436 <s> LUCIE 0.0000
-3.5436 <s> LUCINDA 0.0000
-3.5436 <s> LUCY 0.0000
-3.5436 <s> LUIS 0.0000
-3.5436 <s> LUISA 0.0000
-3.5436 <s> LUKAS 0.0000
-3.5436 <s> LUKE 0.0000
-3.5436 <s> LYDIA 0.0000
-3.5436 <s> LYNDON 0.0000
-3.5436 <s> LYNDSAY 0.0000
-3.5436 <s> LYNDSEY 0.0000
-3.5436 <s> MAARIYAH 0.0000
-3.5436 <s> MACAULAY 0.0000
-3.5436 <s> MACAULEY 0.0000
-3.5436 <s> MACAULY 0.0000
-3.5436 <s> MACKENZIE 0.0000
-3.5436 <s> MADDIE 0.0000
-3.5436 <s> MADDISON 0.0000
-3.5436 <s> MADELAINE 0.0000
-3.5436 <s> MADELEINE 0.0000
-3.5436 <s> MADELINE 0.0000
-3.5436 <s> MADISON 0.0000
-3.5436 <s> MAE 0.0000
-3.5436 <s> MAGGIE 0.0000
-3.5436 <s> MAISIE 0.0000
-3.5436 <s> MAISY 0.0000
-3.5436 <s> MALACHI 0.0000
-3.5436 <s> MALCOLM 0.0000
-3.5436 <s> MALIK 0.0000
-3.5436 <s> MANISHA 0.0000
-3.5436 <s> MANRAJ 0.0000
-3.5436 <s> MARA 0.0000
-3.5436 <s> MARC 0.0000
-3.5436 <s> MARCIA 0.0000
-3.5436 <s> MARCO 0.0000
-3.5436 <s> MARCUS 0.0000
-3.5436 <s> MARGARET 0.0000
-3.5436 <s> MARIA 0.0000
-3.5436 <s> MARIAH 0.0000
-3.5436 <s> MARIAM 0.0000
-3.5436 <s> MARIANNE 0.0000
-3.5436 <s> MARIE 0.0000
-3.5436 <s> MARINA 0.0000
-3.5436 <s> MARIO 0.0000
-3.5436 <s> MARISSA 0.0000
-3.5436 <s> MARIYA 0.0000
-3.5436 <s> MARK 0.0000
-3.5436 <s> MARLEY 0.0000
-3.5436 <s> MARLON 0.0000
-3.5436 <s> MARNIE 0.0000
-3.5436 <s> MARTHA 0.0000
-3.5436 <s> MARTIN 0.0000
-3.5436 <s> MARTY 0.0000
-3.5436 <s> MARTYN 0.0000
-3.5436 <s> MARY 0.0000
-3.5436 <s> MARY-JANE 0.0000
-3.5436 <s> MARYAM 0.0000
-3.5436 <s> MASON 0.0000
-3.5436 <s> MATHEW 0.0000
-3.5436 <s> MATILDA 0.0000
-3.5436 <s> MATT 0.0000
-3.5436 <s> MATTEO 0.0000
-3.5436 <s> MATTHEW 0.0000
-3.5436 <s> MAX 0.0000
-3.5436 <s> MAXIM 0.0000
-3.5436 <s> MAXIMILIAN 0.0000
-3.5436 <s> MAXIMILLIAN 0.0000
-3.5436 <s> MAXINE 0.0000
-3.5436 <s> MAXWELL 0.0000
-3.5436 <s> MAY 0.0000
-3.5436 <s> MAYA 0.0000
-3.5436 <s> MAYBE 0.0000
-3.5436 <s> MCCAULEY 0.0000
-3.5436 <s> ME 0.0000
-3.5436 <s> MEAGAN 0.0000
-3.5436 <s> MEERA 0.0000
-3.5436 <s> MEG 0.0000
-3.5436 <s> MEGAN 0.0000
-3.5436 <s> MEGHAN 0.0000
-3.5436 <s> MEHDI 0.0000
-3.5436 <s> MEHMET 0.0000
-3.5436 <s> MELANIE 0.0000
-3.5436 <s> MELINDA 0.0000
-3.5436 <s> MELISSA 0.0000
-3.5436 <s> MELODY 0.0000
-3.5436 <s> MELVIN 0.0000
-3.5436 <s> MERCEDES 0.0000
-3.5436 <s> MERLIN 0.0000
-3.5436 <s> MERYL 0.0000
-3.5436 <s> MIA 0.0000
-3.5436 <s> MICA 0.0000
-3.5436 <s> MICAH 0.0000
-3.5436 <s> MICHAEL 0.0000
-3.5436 <s> MICHAELA 0.0000
-3.5436 <s> MICHEAL 0.0000
-3.5436 <s> MICHEALA 0.0000
-3.5436 <s> MICHELE 0.0000
-3.5436 <s> MICHELLE 0.0000
-3.5436 <s> MICKEY 0.0000
-3.5436 <s> MICKY 0.0000
-3.5436 <s> MIGUEL 0.0000
-3.5436 <s> MIHIR 0.0000
-3.5436 <s> MIKAELA 0.0000
-3.5436 <s> MIKE 0.0000
-3.5436 <s> MIKEY 0.0000
-3.5436 <s> MIKHAIL 0.0000
-3.5436 <s> MILAN 0.0000
-3.5436 <s> MILES 0.0000
-3.5436 <s> MILLICENT 0.0000
-3.5436 <s> MILLIE 0.0000
-3.5436 <s> MILLY 0.0000
-3.5436 <s> MILO 0.0000
-3.5436 <s> MINE 0.0000
-3.5436 <s> MIRANDA 0.0000
-3.5436 <s> MIRIAM 0.0000
-3.5436 <s> MISHA 0.0000
-3.5436 <s> MISTY 0.0000
-3.5436 <s> MITCH 0.0000
-3.5436 <s> MITCHEL 0.0000
-3.5436 <s> MITCHELL 0.0000
-3.5436 <s> MOHAMAD 0.0000
-3.5436 <s> MOHAMED 0.0000
-3.5436 <s> MOHAMMAD 0.0000
-3.5436 <s> MOHAMMED 0.0000
-3.5436 <s> MOHAMMOD 0.0000
-3.5436 <s> MOHMMED 0.0000
-3.5436 <s> MOHSIN 0.0000
-3.5436 <s> MOLLIE 0.0000
-3.5436 <s> MOLLY 0.0000
-3.5436 <s> MONET 0.0000
-3.5436 <s> MONICA 0.0000
-3.5436 <s> MONIQUE 0.0000
-3.5436 <s> MONTEL 0.0000
-3.5436 <s> MONTELL 0.0000
-3.2425 <s> MORGAN 0.0000
-3.5436 <s> MOSES 0.0000
-3.5436 <s> MUHAMMAD 0.0000
-3.5436 <s> MUHAMMED 0.0000
-3.5436 <s> MURRAY 0.0000
-3.5436 <s> MUSTAFA 0.0000
-3.5436 <s> MY 0.0000
-3.5436 <s> MYLES 0.0000
-3.5436 <s> MYLO 0.0000
-3.5436 <s> NABEEL 0.0000
-3.5436 <s> NADEEM 0.0000
-3.5436 <s> NADIA 0.0000
-3.5436 <s> NADINE 0.0000
-3.5436 <s> NAFEESA 0.0000
-3.5436 <s> NAIM 0.0000
-3.5436 <s> NAME 0.0000
-3.5436 <s> NANA 0.0000
-3.5436 <s> NANCY 0.0000
-3.5436 <s> NAOMI 0.0000
-3.5436 <s> NASEEM 0.0000
-3.5436 <s> NASIM 0.0000
-3.5436 <s> NATALIA 0.0000
-3.5436 <s> NATALIE 0.0000
-3.5436 <s> NATASHA 0.0000
-3.5436 <s> NATHALIE 0.0000
-3.5436 <s> NATHAN 0.0000
-3.5436 <s> NATHANAEL 0.0000
-3.5436 <s> NATHANIEL 0.0000
-3.5436 <s> NATURAL 0.0000
-3.5436 <s> NAVDEEP 0.0000
-3.5436 <s> NAY 0.0000
-3.5436 <s> NAZIA 0.0000
-3.5436 <s> NAZIFA 0.0000
-3.5436 <s> NAZIM 0.0000
-3.5436 <s> NAZIR 0.0000
-3.5436 <s> NEAL 0.0000
-3.5436 <s> NED 0.0000
-3.5436 <s> NEELAM 0.0000
-3.5436 <s> NEGATIVE 0.0000
-3.5436 <s> NEIL 0.0000
-3.5436 <s> NEIN 0.0000
-3.5436 <s> NELSON 0.0000
-3.5436 <s> NIA 0.0000
-3.5436 <s> NIAL 0.0000
-3.5436 <s> NIALL 0.0000
-3.5436 <s> NIAMH 0.0000
-3.5436 <s> NICHOLA 0.0000
-3.5436 <s> NICHOLAS 0.0000
-3.5436 <s> NICK 0.0000
-3.5436 <s> NICKY 0.0000
-3.5436 <s> NICO 0.0000
-3.5436 <s> NICOLA 0.0000
-3.5436 <s> NICOLAS 0.0000
-3.5436 <s> NICOLE 0.0000
-3.5436 <s> NIGEL 0.0000
-3.5436 <s> NIK 0.0000
-3.5436 <s> NIKHIL 0.0000
-3.5436 <s> NIKITA 0.0000
-3.5436 <s> NIKKI 0.0000
-3.5436 <s> NIKO 0.0000
-3.5436 <s> NIKOLAS 0.0000
-3.5436 <s> NINA 0.0000
-3.5436 <s> NISHA 0.0000
-3.5436 <s> NO 0.0000
-3.5436 <s> NOAH 0.0000
-3.5436 <s> NOEL 0.0000
-3.5436 <s> NON 0.0000
-3.5436 <s> NONE 0.0000
-3.5436 <s> NOPE 0.0000
-3.5436 <s> NORTON 0.0000
-3.5436 <s> NOT 0.0000
-3.5436 <s> NOTHING 0.0000
-3.5436 <s> NYLE 0.0000
-3.5436 <s> OH 0.0000
-3.5436 <s> OKAY 0.0000
-3.5436 <s> OLIVE 0.0000
-3.5436 <s> OLIVER 0.0000
-3.5436 <s> OLIVIA 0.0000
-3.5436 <s> OLIVIER 0.0000
-3.5436 <s> OMAR 0.0000
-3.5436 <s> OMARI 0.0000
-3.5436 <s> ORLA 0.0000
-3.5436 <s> ORLANDO 0.0000
-3.5436 <s> OSCAR 0.0000
-3.5436 <s> OSIAN 0.0000
-3.5436 <s> OSMAN 0.0000
-3.5436 <s> OTIS 0.0000
-3.5436 <s> OWAIN 0.0000
-3.5436 <s> OWEN 0.0000
-3.5436 <s> PADRAIG 0.0000
-3.5436 <s> PAGE 0.0000
-3.5436 <s> PAIGE 0.0000
-3.5436 <s> PAISLEY 0.0000
-3.5436 <s> PAMELA 0.0000
-3.5436 <s> PAOLO 0.0000
-3.5436 <s> PARIS 0.0000
-3.5436 <s> PATRICE 0.0000
-3.5436 <s> PATRICIA 0.0000
-3.5436 <s> PATRICK 0.0000
-3.5436 <s> PAUL 0.0000
-3.5436 <s> PAULA 0.0000
-3.5436 <s> PAULINE 0.0000
-3.5436 <s> PAULO 0.0000
-3.5436 <s> PAYAL 0.0000
-3.5436 <s> PEDRO 0.0000
-3.5436 <s> PEGGY 0.0000
-3.5436 <s> PENELOPE 0.0000
-3.5436 <s> PENNY 0.0000
-3.5436 <s> PERRY 0.0000
-3.5436 <s> PETER 0.0000
-3.5436 <s> PEYTON 0.0000
-3.5436 <s> PHILIP 0.0000
-3.5436 <s> PHILIPPA 0.0000
-3.5436 <s> PHILLIP 0.0000
-3.5436 <s> PHILLIPA 0.0000
-3.5436 <s> PHILLIPPA 0.0000
-3.5436 <s> PHOEBE 0.0000
-3.5436 <s> PICADDILLY 0.0000
-3.5436 <s> PIERCE 0.0000
-3.5436 <s> PIERS 0.0000
-3.5436 <s> PIPPA 0.0000
-3.5436 <s> POLLY 0.0000
-3.5436 <s> POPPIE 0.0000
-3.5436 <s> POPPY 0.0000
-3.5436 <s> PRESTON 0.0000
-3.5436 <s> PRIYA 0.0000
-3.5436 <s> PRIYANKA 0.0000
-3.5436 <s> PROBABLY 0.0000
-3.5436 <s> QASIM 0.0000
-3.5436 <s> QUINN 0.0000
-3.5436 <s> RABIA 0.0000
-3.5436 <s> RACHAEL 0.0000
-3.5436 <s> RACHEAL 0.0000
-3.5436 <s> RACHEL 0.0000
-3.5436 <s> RAFAEL 0.0000
-3.5436 <s> RAHEEM 0.0000
-3.5436 <s> RAHIM 0.0000
-3.5436 <s> RAHUL 0.0000
-3.5436 <s> RAJ 0.0000
-3.5436 <s> RAJA 0.0000
-3.5436 <s> RAJAN 0.0000
-3.5436 <s> RALPH 0.0000
-3.5436 <s> RAMI 0.0000
-3.5436 <s> RAPHAEL 0.0000
-3.5436 <s> RAVI 0.0000
-3.5436 <s> RAYMOND 0.0000
-3.5436 <s> RAYNA 0.0000
-3.5436 <s> REANNE 0.0000
-3.5436 <s> REBECCA 0.0000
-3.5436 <s> REBEKAH 0.0000
-3.5436 <s> REBEKKA 0.0000
-3.5436 <s> REECE 0.0000
-3.5436 <s> REED 0.0000
-3.5436 <s> REEM 0.0000
-3.5436 <s> REGAN 0.0000
-3.5436 <s> REISS 0.0000
-3.2425 <s> REMI 0.0000
-3.5436 <s> REMY 0.0000
-3.5436 <s> RENAE 0.0000
-3.2425 <s> RENE 0.0000
-3.5436 <s> RENEE 0.0000
-3.5436 <s> REUBEN 0.0000
-3.5436 <s> RHEA 0.0000
-3.5436 <s> RHIAN 0.0000
-3.5436 <s> RHIANN 0.0000
-3.5436 <s> RHIANNA 0.0000
-3.5436 <s> RHIANNE 0.0000
-3.5436 <s> RHIANNON 0.0000
-3.5436 <s> RHODRI 0.0000
-3.5436 <s> RHYS 0.0000
-3.5436 <s> RIA 0.0000
-3.5436 <s> RIAN 0.0000
-3.5436 <s> RIANNA 0.0000
-3.5436 <s> RIANNE 0.0000
-3.5436 <s> RIANNON 0.0000
-3.5436 <s> RICARDO 0.0000
-3.5436 <s> RICHARD 0.0000
-3.5436 <s> RICHIE 0.0000
-3.5436 <s> RICK 0.0000
-3.5436 <s> RICKIE 0.0000
-3.5436 <s> RICKY 0.0000
-3.5436 <s> RIKKI 0.0000
-3.5436 <s> RILEY 0.0000
-3.5436 <s> RIO 0.0000
-3.5436 <s> RISHI 0.0000
-3.5436 <s> RITCHIE 0.0000
-3.5436 <s> RIZWAN 0.0000
-3.5436 <s> ROB 0.0000
-3.5436 <s> ROBBIE 0.0000
-3.5436 <s> ROBERT 0.0000
-3.5436 <s> ROBERTA 0.0000
-3.5436 <s> ROBERTO 0.0000
-3.2425 <s> ROBIN 0.0000
-3.5436 <s> ROBSON 0.0000
-3.5436 <s> ROBYN 0.0000
-3.5436 <s> ROCHELLE 0.0000
-3.5436 <s> RODNEY 0.0000
-3.5436 <s> ROGAN 0.0000
-3.2425 <s> ROGER 0.0000
-3.5436 <s> ROHAN 0.0000
-3.5436 <s> ROISIN 0.0000
-3.5436 <s> ROMAN 0.0000
-3.5436 <s> ROMARIO 0.0000
-3.5436 <s> RON 0.0000
-3.5436 <s> RONAN 0.0000
-3.2425 <s> RONNIE 0.0000
-3.5436 <s> RONNY 0.0000
-3.5436 <s> RORY 0.0000
-3.5436 <s> ROSA 0.0000
-3.5436 <s> ROSALIE 0.0000
-3.5436 <s> ROSALIND 0.0000
-3.5436 <s> ROSANNA 0.0000
-3.5436 <s> ROSE 0.0000
-3.5436 <s> ROSEANNA 0.0000
-3.5436 <s> ROSEMARIE 0.0000
-3.5436 <s> ROSEMARY 0.0000
-3.5436 <s> ROSHAN 0.0000
-3.5436 <s> ROSHNI 0.0000
-3.5436 <s> ROSIE 0.0000
-3.5436 <s> ROSS 0.0000
-3.2425 <s> ROWAN 0.0000
-3.5436 <s> ROWENA 0.0000
-3.5436 <s> ROXANNE 0.0000
-3.5436 <s> ROY 0.0000
-3.5436 <s> ROYAL 0.0000
-3.5436 <s> RUAIRI 0.0000
-3.5436 <s> RUBEN 0.0000
-3.5436 <s> RUBY 0.0000
-3.5436 <s> RUFUS 0.0000
-3.5436 <s> RUPERT 0.0000
-3.5436 <s> RUPINDER 0.0000
-3.5436 <s> RUSSELL 0.0000
-3.5436 <s> RUTH 0.0000
-3.5436 <s> RYAN 0.0000
-3.5436 <s> SABA 0.0000
-3.5436 <s> SABAH 0.0000
-3.5436 <s> SABINA 0.0000
-3.5436 <s> SABIR 0.0000
-3.5436 <s> SABRINA 0.0000
-3.5436 <s> SACHA 0.0000
-3.5436 <s> SACHIN 0.0000
-3.5436 <s> SADIA 0.0000
-3.5436 <s> SADIE 0.0000
-3.5436 <s> SAFFRON 0.0000
-3.5436 <s> SAFIA 0.0000
-3.5436 <s> SAFWAAN 0.0000
-3.5436 <s> SAID 0.0000
-3.5436 <s> SAIF 0.0000
-3.5436 <s> SAIMA 0.0000
-3.5436 <s> SAIRA 0.0000
-3.5436 <s> SALEEM 0.0000
-3.5436 <s> SALLY 0.0000
-3.5436 <s> SALLY-ANNE 0.0000
-3.5436 <s> SALMA 0.0000
-3.5436 <s> SALMAN 0.0000
-3.5436 <s> SALVATORE 0.0000
-3.5436 <s> SAM 0.0000
-3.5436 <s> SAMANTHA 0.0000
-3.5436 <s> SAMARA 0.0000
-3.5436 <s> SAMEER 0.0000
-3.5436 <s> SAMI 0.0000
-3.5436 <s> SAMINA 0.0000
-3.5436 <s> SAMIR 0.0000
-3.5436 <s> SAMIRA 0.0000
-3.5436 <s> SAMMIE 0.0000
-3.5436 <s> SAMMY 0.0000
-3.5436 <s> SAMSON 0.0000
-3.5436 <s> SAMUAL 0.0000
-3.5436 <s> SAMUEL 0.0000
-3.5436 <s> SAMY 0.0000
-3.5436 <s> SANA 0.0000
-3.5436 <s> SANAH 0.0000
-3.5436 <s> SANDEEP 0.0000
-3.5436 <s> SANDRA 0.0000
-3.5436 <s> SANJAY 0.0000
-3.5436 <s> SANTIAGO 0.0000
-3.5436 <s> SAPPHIRE 0.0000
-3.5436 <s> SAQIB 0.0000
-3.5436 <s> SARA 0.0000
-3.5436 <s> SARAH 0.0000
-3.5436 <s> SARAH-JANE 0.0000
-3.5436 <s> SARAH-LOUISE 0.0000
-3.5436 <s> SASHA 0.0000
-3.5436 <s> SASKIA 0.0000
-3.5436 <s> SAUL 0.0000
-3.5436 <s> SAVANNA 0.0000
-3.5436 <s> SAVANNAH 0.0000
-3.5436 <s> SCARLET 0.0000
-3.5436 <s> SCARLETT 0.0000
-3.5436 <s> SCHOOL 0.0000
-3.5436 <s> SCIENCE 0.0000
-3.5436 <s> SCOT 0.0000
-3.5436 <s> SCOTT 0.0000
-3.5436 <s> SEAMUS 0.0000
-3.5436 <s> SEAN 0.0000
-3.5436 <s> SEBASTIAN 0.0000
-3.5436 <s> SEBASTIEN 0.0000
-3.5436 <s> SELINA 0.0000
-3.5436 <s> SEREN 0.0000
-3.5436 <s> SERENA 0.0000
-3.5436 <s> SERGE 0.0000
-3.5436 <s> SERGIO 0.0000
-3.5436 <s> SETH 0.0000
-3.5436 <s> SHAH 0.0000
-3.5436 <s> SHAKIRA 0.0000
-3.5436 <s> SHANA 0.0000
-3.5436 <s> SHANE 0.0000
-3.5436 <s> SHANI 0.0000
-3.5436 <s> SHANICE 0.0000
-3.5436 <s> SHANNAN 0.0000
-3.5436 <s> SHANNEN 0.0000
-3.2425 <s> SHANNON 0.0000
-3.5436 <s> SHAQUILLE 0.0000
-3.5436 <s> SHARNA 0.0000
-3.5436 <s> SHARON 0.0000
-3.5436 <s> SHAUN 0.0000
-3.5436 <s> SHAUNA 0.0000
-3.5436 <s> SHAUNNA 0.0000
-3.5436 <s> SHAWN 0.0000
-3.5436 <s> SHAY 0.0000
-3.5436 <s> SHAZAD 0.0000
-3.5436 <s> SHE 0.0000
-3.5436 <s> SHELBY 0.0000
-3.5436 <s> SHELDON 0.0000
-3.5436 <s> SHELLEY 0.0000
-3.5436 <s> SHIVANI 0.0000
-3.5436 <s> SHONA 0.0000
-3.5436 <s> SHOPPING 0.0000
-3.5436 <s> SHYAM 0.0000
-3.5436 <s> SI 0.0000
-3.5436 <s> SIAN 0.0000
-3.5436 <s> SID 0.0000
-3.5436 <s> SIDNEY 0.0000
-3.5436 <s> SIMEON 0.0000
-3.5436 <s> SIMON 0.0000
-3.5436 <s> SIMONE 0.0000
-3.2425 <s> SIMRAN 0.0000
-3.5436 <s> SINEAD 0.0000
-3.5436 <s> SIOBHAN 0.0000
-3.5436 <s> SION 0.0000
-3.5436 <s> SIONED 0.0000
-3.5436 <s> SKY 0.0000
-3.5436 <s> SKYE 0.0000
-3.5436 <s> SOFIA 0.0000
-3.5436 <s> SOHAIL 0.0000
-3.5436 <s> SOLOMON 0.0000
-3.5436 <s> SONIA 0.0000
-3.5436 <s> SONNY 0.0000
-3.5436 <s> SOPHIA 0.0000
-3.5436 <s> SOPHIE 0.0000
-3.5436 <s> SOUTH 0.0000
-3.5436 <s> SPENCER 0.0000
-3.5436 <s> SPIKE 0.0000
-3.5436 <s> STACEY 0.0000
-3.5436 <s> STACIE 0.0000
-3.5436 <s> STACY 0.0000
-3.5436 <s> STANLEY 0.0000
-3.5436 <s> STEFAN 0.0000
-3.5436 <s> STEFFAN 0.0000
-3.5436 <s> STELLA 0.0000
-3.5436 <s> STEPHAN 0.0000
-3.5436 <s> STEPHANIE 0.0000
-3.5436 <s> STEPHEN 0.0000
-3.5436 <s> STEVE 0.0000
-3.5436 <s> STEVEN 0.0000
-3.5436 <s> STEVIE 0.0000
-3.5436 <s> STEWART 0.0000
-3.5436 <s> STUART 0.0000
-3.5436 <s> SUMMER 0.0000
-3.5436 <s> SUNIL 0.0000
-3.5436 <s> SURAJ 0.0000
-3.5436 <s> SURE 0.0000
-3.5436 <s> SUSAN 0.0000
-3.5436 <s> SUSANNA 0.0000
-3.5436 <s> SUSANNAH 0.0000
-3.5436 <s> SUSIE 0.0000
-3.5436 <s> SUZANNA 0.0000
-3.5436 <s> SUZANNE 0.0000
-3.5436 <s> SUZY 0.0000
-3.5436 <s> SYDNEY 0.0000
-3.5436 <s> SYED 0.0000
-3.5436 <s> SYEDA 0.0000
-3.5436 <s> TABITHA 0.0000
-3.5436 <s> TALIA 0.0000
-3.5436 <s> TALLULAH 0.0000
-3.5436 <s> TAMARA 0.0000
-3.5436 <s> TAMMY 0.0000
-3.5436 <s> TAMSIN 0.0000
-3.5436 <s> TAMSYN 0.0000
-3.5436 <s> TANIA 0.0000
-3.5436 <s> TANISHA 0.0000
-3.5436 <s> TANYA 0.0000
-3.5436 <s> TARA 0.0000
-3.5436 <s> TARAN 0.0000
-3.5436 <s> TARIQ 0.0000
-3.5436 <s> TASMIN 0.0000
-3.5436 <s> TASNIM 0.0000
-3.5436 <s> TAYLA 0.0000
-3.5436 <s> TAYLER 0.0000
-3.2425 <s> TAYLOR 0.0000
-3.5436 <s> TEGAN 0.0000
-3.5436 <s> TERENCE 0.0000
-3.5436 <s> TERESA 0.0000
-3.5436 <s> TERI 0.0000
-3.5436 <s> TERRI 0.0000
-3.5436 <s> TERRY 0.0000
-3.5436 <s> TESS 0.0000
-3.5436 <s> TESSA 0.0000
-3.5436 <s> THAT 0.0000
-3.5436 <s> THEA 0.0000
-3.5436 <s> THEO 0.0000
-3.5436 <s> THEODORE 0.0000
-3.5436 <s> THINK 0.0000
-3.5436 <s> THIS 0.0000
-3.5436 <s> THOM 0.0000
-3.5436 <s> THOMAS 0.0000
-3.5436 <s> TIA 0.0000
-3.5436 <s> TIFFANY 0.0000
-3.5436 <s> TILLY 0.0000
-3.5436 <s> TIM 0.0000
-3.5436 <s> TIMOTHY 0.0000
-3.5436 <s> TINA 0.0000
-3.5436 <s> TOBIAS 0.0000
-3.5436 <s> TOBY 0.0000
-3.5436 <s> TODD 0.0000
-3.5436 <s> TOM 0.0000
-3.5436 <s> TOMAS 0.0000
-3.5436 <s> TOMMY 0.0000
-3.5436 <s> TOMOS 0.0000
-3.5436 <s> TONI 0.0000
-3.5436 <s> TONICHA 0.0000
-3.5436 <s> TONY 0.0000
-3.5436 <s> TORI 0.0000
-3.5436 <s> TRAIN 0.0000
-3.5436 <s> TRAVIS 0.0000
-3.5436 <s> TRISTAN 0.0000
-3.5436 <s> TRISTIAN 0.0000
-3.5436 <s> TRISTON 0.0000
-3.5436 <s> TROY 0.0000
-3.5436 <s> TUBE 0.0000
-3.2425 <s> TYLER 0.0000
-3.5436 <s> TYRELL 0.0000
-3.5436 <s> TYRONE 0.0000
-3.5436 <s> TYRONNE 0.0000
-3.5436 <s> TYSON 0.0000
-3.5436 <s> UMAIR 0.0000
-3.5436 <s> UMAR 0.0000
-3.5436 <s> UNDERGROUND 0.0000
-3.5436 <s> UNION 0.0000
-3.5436 <s> UNIVERSITY 0.0000
-3.5436 <s> US 0.0000
-3.5436 <s> USAMA 0.0000
-3.5436 <s> USMAN 0.0000
-3.5436 <s> UZAIR 0.0000
-3.5436 <s> V 0.0000
-3.5436 <s> VANESSA 0.0000
-3.5436 <s> VERITY 0.0000
-3.5436 <s> VERNON 0.0000
-3.5436 <s> VICKIE 0.0000
-3.5436 <s> VICKY 0.0000
-3.5436 <s> VICTOR 0.0000
-3.2425 <s> VICTORIA 0.0000
-3.5436 <s> VINAY 0.0000
-3.5436 <s> VINCENT 0.0000
-3.5436 <s> VISHAL 0.0000
-3.5436 <s> VIVIEN 0.0000
-3.5436 <s> WADE 0.0000
-3.5436 <s> WAQAR 0.0000
-3.5436 <s> WAQAS 0.0000
-3.5436 <s> WARREN 0.0000
-3.5436 <s> WAS 0.0000
-3.5436 <s> WASEEM 0.0000
-3.5436 <s> WASIM 0.0000
-3.5436 <s> WAYNE 0.0000
-3.2425 <s> WE 0.0000
-3.5436 <s> WENDY 0.0000
-3.5436 <s> WERE 0.0000
-3.5436 <s> WESLEY 0.0000
-3.5436 <s> WHITNEY 0.0000
-3.5436 <s> WHOM 0.0000
-3.5436 <s> WHOSE 0.0000
-3.5436 <s> WILL 0.0000
-3.5436 <s> WILLIAM 0.0000
-3.5436 <s> WORK 0.0000
-3.5436 <s> XAVIER 0.0000
-3.5436 <s> YANNICK 0.0000
-3.5436 <s> YASIN 0.0000
-3.5436 <s> YASMIN 0.0000
-3.5436 <s> YASMINE 0.0000
-3.5436 <s> YAZMIN 0.0000
-3.5436 <s> YEAH 0.0000
-3.5436 <s> YEP 0.0000
-3.5436 <s> YES 0.0000
-3.5436 <s> YIANNIS 0.0000
-3.5436 <s> YOU 0.0000
-3.5436 <s> YUSUF 0.0000
-3.5436 <s> YVES 0.0000
-3.5436 <s> ZAC 0.0000
-3.5436 <s> ZACH 0.0000
-3.5436 <s> ZACHARIAH 0.0000
-3.5436 <s> ZACHARY 0.0000
-3.5436 <s> ZACHERY 0.0000
-3.5436 <s> ZACK 0.0000
-3.5436 <s> ZACKARY 0.0000
-3.5436 <s> ZACKERY 0.0000
-3.5436 <s> ZAHRA 0.0000
-3.5436 <s> ZAIN 0.0000
-3.5436 <s> ZAINAB 0.0000
-3.5436 <s> ZAK 0.0000
-3.5436 <s> ZAKARIA 0.0000
-3.5436 <s> ZAKIR 0.0000
-3.5436 <s> ZARA 0.0000
-3.5436 <s> ZEESHAN 0.0000
-3.5436 <s> ZOE 0.0000
-3.5436 <s> ZOHAIB 0.0000
-0.3010 A MUSEUM 0.0000
-0.3010 AADAM </s> -0.3010
-0.3010 AADIL </s> -0.3010
-0.3010 AALIYAH </s> -0.3010
-0.3010 AAMIR </s> -0.3010
-0.3010 AARON </s> -0.3010
-0.3010 ABBAS </s> -0.3010
-0.3010 ABBEY </s> -0.3010
-0.3010 ABBI </s> -0.3010
-0.3010 ABBIE </s> -0.3010
-0.3010 ABBIGAIL </s> -0.3010
-0.3010 ABBY </s> -0.3010
-0.3010 ABDUL </s> -0.3010
-0.3010 ABDULLAH </s> -0.3010
-0.3010 ABI </s> -0.3010
-0.3010 ABIGAIL </s> -0.3010
-0.3010 ABRAHAM </s> -0.3010
-0.3010 ABU </s> -0.3010
-0.3010 ABUL </s> -0.3010
-0.3010 ADAM </s> -0.3010
-0.3010 ADEEL </s> -0.3010
-0.3010 ADELE </s> -0.3010
-0.3010 ADEN </s> -0.3010
-0.3010 ADIL </s> -0.3010
-0.3010 ADNAN </s> -0.3010
-0.3010 ADRIAN </s> -0.3010
-0.3010 ADRIENNE </s> -0.3010
-0.3010 AFFIRMATIVE </s> -0.3010
-0.3010 AHMAD </s> -0.3010
-0.3010 AHMED </s> -0.3010
-0.3010 AHMET </s> -0.3010
-0.3010 AIDAN </s> -0.3010
-0.3010 AIDEN </s> -0.3010
-0.3010 AILEEN </s> -0.3010
-0.3010 AILISH </s> -0.3010
-0.3010 AILSA </s> -0.3010
-0.3010 AIMEE </s> -0.3010
-0.3010 AINE </s> -0.3010
-0.3010 AINSLEY </s> -0.3010
-0.3010 AISHA </s> -0.3010
-0.3010 AISHAH </s> -0.3010
-0.3010 AISLING </s> -0.3010
-0.3010 AISLINN </s> -0.3010
-0.3010 AJAY </s> -0.3010
-0.3010 AKASH </s> -0.3010
-0.3010 AKBAR </s> -0.3010
-0.3010 AKEEM </s> -0.3010
-0.3010 AKHIL </s> -0.3010
-0.3010 AKSHAY </s> -0.3010
-0.3010 ALAN </s> -0.3010
-0.3010 ALANA </s> -0.3010
-0.3010 ALANNA </s> -0.3010
-0.3010 ALANNAH </s> -0.3010
-0.3010 ALASDAIR </s> -0.3010
-0.3010 ALASTAIR </s> -0.3010
-0.7782 ALBERT </s> -0.3010
-0.7782 ALBERT HALL 0.0000
-0.7782 ALBERT MUSEUM 0.0000
-0.3010 ALEC </s> -0.3010
-0.3010 ALED </s> -0.3010
-0.3010 ALEESHA </s> -0.3010
-0.3010 ALESSANDRA </s> -0.3010
-0.3010 ALESSANDRO </s> -0.3010
-0.3010 ALESSIA </s> -0.3010
-0.3010 ALEX </s> -0.3010
-0.3010 ALEXANDER </s> -0.3010
-0.3010 ALEXANDRA </s> -0.3010
-0.3010 ALEXANDRE </s> -0.3010
-0.3010 ALEXANDRIA </s> -0.3010
-0.3010 ALEXIA </s> -0.3010
-0.3010 ALEXIS </s> -0.3010
-0.3010 ALFIE </s> -0.3010
-0.3010 ALFRED </s> -0.3010
-0.3010 ALI </s> -0.3010
-0.3010 ALICE </s> -0.3010
-0.3010 ALICIA </s> -0.3010
-0.3010 ALIESHA </s> -0.3010
-0.3010 ALINA </s> -0.3010
-0.3010 ALISHA </s> -0.3010
-0.3010 ALISON </s> -0.3010
-0.3010 ALISTAIR </s> -0.3010
-0.3010 ALISTER </s> -0.3010
-0.3010 ALIX </s> -0.3010
-0.3010 ALIYA </s> -0.3010
-0.3010 ALIYAH </s> -0.3010
-0.3010 ALL </s> -0.3010
-0.3010 ALLAN </s> -0.3010
-0.3010 ALLYSHA </s> -0.3010
-0.3010 ALVIN </s> -0.3010
-0.3010 ALYS </s> -0.3010
-0.3010 ALYSHA </s> -0.3010
-0.3010 ALYSSIA </s> -0.3010
-0.3010 AM </s> -0.3010
-0.3010 AMAAN </s> -0.3010
-0.3010 AMALIE </s> -0.3010
-0.3010 AMAN </s> -0.3010
-0.3010 AMANDA </s> -0.3010
-0.3010 AMANDEEP </s> -0.3010
-0.3010 AMAR </s> -0.3010
-0.3010 AMARA </s> -0.3010
-0.3010 AMBER </s> -0.3010
-0.3010 AMEERA </s> -0.3010
-0.3010 AMELIA </s> -0.3010
-0.3010 AMI </s> -0.3010
-0.3010 AMIE </s> -0.3010
-0.3010 AMINA </s> -0.3010
-0.3010 AMIR </s> -0.3010
-0.3010 AMY </s> -0.3010
-0.3010 ANA </s> -0.3010
-0.3010 ANASTASIA </s> -0.3010
-0.6021 AND A 0.0000
-0.6021 AND ALBERT -0.2218
-0.3010 ANDIE </s> -0.3010
-0.3010 ANDRE </s> -0.3010
-0.3010 ANDREA </s> -0.3010
-0.3010 ANDREAS </s> -0.3010
-0.3010 ANDREW </s> -0.3010
-0.3010 ANDY </s> -0.3010
-0.3010 ANEEKA </s> -0.3010
-0.3010 ANEESA </s> -0.3010
-0.3010 ANGEL </s> -0.3010
-0.3010 ANGELA </s> -0.3010
-0.3010 ANGELICA </s> -0.3010
-0.3010 ANGELINA </s> -0.3010
-0.3010 ANGELO </s> -0.3010
-0.3010 ANGHARAD </s> -0.3010
-0.3010 ANGUS </s> -0.3010
-0.3010 ANIKA </s> -0.3010
-0.3010 ANISA </s> -0.3010
-0.3010 ANISAH </s> -0.3010
-0.3010 ANISH </s> -0.3010
-0.3010 ANISHA </s> -0.3010
-0.3010 ANITA </s> -0.3010
-0.3010 ANN </s> -0.3010
-0.3010 ANNA </s> -0.3010
-0.3010 ANNABEL </s> -0.3010
-0.3010 ANNABELLE </s> -0.3010
-0.3010 ANNALISE </s> -0.3010
-0.3010 ANNE </s> -0.3010
-0.3010 ANNE-MARIE </s> -0.3010
-0.3010 ANNIE </s> -0.3010
-0.3010 ANNIKA </s> -0.3010
-0.3010 ANTHONY </s> -0.3010
-0.3010 ANTON </s> -0.3010
-0.3010 ANTONIA </s> -0.3010
-0.3010 ANTONIO </s> -0.3010
-0.3010 ANTONY </s> -0.3010
-0.3010 ANWAR </s> -0.3010
-0.3010 ANYA </s> -0.3010
-0.3010 AOIFE </s> -0.3010
-0.3010 APRIL </s> -0.3010
-0.3010 AQIB </s> -0.3010
-0.3010 ARABELLA </s> -0.3010
-0.3010 ARAN </s> -0.3010
-0.3010 ARCHIE </s> -0.3010
-0.3010 ARE </s> -0.3010
-0.3010 ARJUN </s> -0.3010
-0.3010 ARON </s> -0.3010
-0.3010 ARRAN </s> -0.3010
-0.3010 ARRON </s> -0.3010
-0.3010 ARTHUR </s> -0.3010
-0.3010 ARUN </s> -0.3010
-0.3010 ASA </s> -0.3010
-0.3010 ASAD </s> -0.3010
-0.3010 ASHA </s> -0.3010
-0.3010 ASHER </s> -0.3010
-0.3010 ASHLEA </s> -0.3010
-0.3010 ASHLEE </s> -0.3010
-0.3010 ASHLEIGH </s> -0.3010
-0.3010 ASHLEY </s> -0.3010
-0.3010 ASHRAF </s> -0.3010
-0.3010 ASHTON </s> -0.3010
-0.3010 ASIF </s> -0.3010
-0.3010 ASIM </s> -0.3010
-0.3010 ASMA </s> -0.3010
-0.3010 ASTON </s> -0.3010
-0.3010 ATLANTA </s> -0.3010
-0.3010 AUSTIN </s> -0.3010
-0.3010 AUTUMN </s> -0.3010
-0.3010 AWAIS </s> -0.3010
-0.3010 AYDEN </s> -0.3010
-0.3010 AYE </s> -0.3010
-0.3010 AYESHA </s> -0.3010
-0.3010 AYISHA </s> -0.3010
-0.3010 AYRTON </s> -0.3010
-0.3010 AYSHA </s> -0.3010
-0.3010 AZIM </s> -0.3010
-0.3010 AZIZ </s> -0.3010
-0.3010 BAILEY </s> -0.3010
-0.3010 BARBARA </s> -0.3010
-0.3010 BARNABY </s> -0.3010
-0.3010 BARNEY </s> -0.3010
-0.3010 BARRY </s> -0.3010
-0.3010 BE </s> -0.3010
-0.3010 BEATRICE </s> -0.3010
-0.3010 BEAU </s> -0.3010
-0.3010 BECKY </s> -0.3010
-0.3010 BEEN </s> -0.3010
-0.3010 BEING </s> -0.3010
-0.3010 BELINDA </s> -0.3010
-0.3010 BEN </s> -0.3010
-0.3010 BENEDICT </s> -0.3010
-0.3010 BENJAMIN </s> -0.3010
-0.3010 BENN </s> -0.3010
-0.3010 BERNADETTE </s> -0.3010
-0.3010 BERNARD </s> -0.3010
-0.3010 BETH </s> -0.3010
-0.3010 BETHAN </s> -0.3010
-0.3010 BETHANIE </s> -0.3010
-0.3010 BETHANY </s> -0.3010
-0.3010 BETHNEY </s> -0.3010
-0.3010 BEVAN </s> -0.3010
-0.3010 BIANCA </s> -0.3010
-0.3010 BILAL </s> -0.3010
-0.3010 BILLIE </s> -0.3010
-0.3010 BILLIE-JO </s> -0.3010
-0.3010 BILLY </s> -0.3010
-0.3010 BLAINE </s> -0.3010
-0.3010 BLAISE </s> -0.3010
-0.3010 BLAKE </s> -0.3010
-0.3010 BLYTHE </s> -0.3010
-0.3010 BOB </s> -0.3010
-0.3010 BOBBI </s> -0.3010
-0.3010 BOBBIE </s> -0.3010
-0.3010 BOBBY </s> -0.3010
-0.3010 BONITA </s> -0.3010
-0.3010 BONNIE </s> -0.3010
-0.3010 BONNY </s> -0.3010
-0.3010 BORIS </s> -0.3010
-0.3010 BOTH </s> -0.3010
-0.3010 BRAD </s> -0.3010
-0.3010 BRADEN </s> -0.3010
-0.3010 BRADLEY </s> -0.3010
-0.3010 BRADY </s> -0.3010
-0.3010 BRANDAN </s> -0.3010
-0.3010 BRANDON </s> -0.3010
-0.3010 BRENDAN </s> -0.3010
-0.3010 BRENDEN </s> -0.3010
-0.3010 BRENDON </s> -0.3010
-0.3010 BRET </s> -0.3010
-0.3010 BRETT </s> -0.3010
-0.3010 BRIAN </s> -0.3010
-0.3010 BRIANA </s> -0.3010
-0.3010 BRIDGET </s> -0.3010
-0.3010 BRIDIE </s> -0.3010
-0.3010 BRIONY </s> -0.3010
-0.3010 BRITTANY </s> -0.3010
-0.3010 BRODIE </s> -0.3010
-0.3010 BROGAN </s> -0.3010
-0.3010 BRONTE </s> -0.3010
-0.3010 BRONWEN </s> -0.3010
-0.3010 BRONWYN </s> -0.3010
-0.3010 BROOKE </s> -0.3010
-0.3010 BROOKLYN </s> -0.3010
-0.3010 BRUCE </s> -0.3010
-0.3010 BRUNO </s> -0.3010
-0.3010 BRYAN </s> -0.3010
-0.3010 BRYCE </s> -0.3010
-0.3010 BRYN </s> -0.3010
-0.3010 BRYONY </s> -0.3010
-0.3010 BURAK </s> -0.3010
-0.3010 BYRON </s> -0.3010
-0.3010 CAI </s> -0.3010
-0.3010 CAIN </s> -0.3010
-0.3010 CAINE </s> -0.3010
-0.3010 CAITLIN </s> -0.3010
-0.3010 CALEB </s> -0.3010
-0.3010 CALLAM </s> -0.3010
-0.3010 CALLAN </s> -0.3010
-0.3010 CALLED </s> -0.3010
-0.3010 CALLIE </s> -0.3010
-0.3010 CALLUM </s> -0.3010
-0.3010 CALUM </s> -0.3010
-0.3010 CALVIN </s> -0.3010
-0.3010 CAMERON </s> -0.3010
-0.3010 CAMILA </s> -0.3010
-0.3010 CAMILLA </s> -0.3010
-0.3010 CAMILLE </s> -0.3010
-0.3010 CAMPBELL </s> -0.3010
-0.3010 CANDICE </s> -0.3010
-0.3010 CARA </s> -0.3010
-0.3010 CARIS </s> -0.3010
-0.3010 CARL </s> -0.3010
-0.3010 CARLA </s> -0.3010
-0.3010 CARLIE </s> -0.3010
-0.3010 CARLOS </s> -0.3010
-0.3010 CARLTON </s> -0.3010
-0.3010 CARLY </s> -0.3010
-0.3010 CARMEN </s> -0.3010
-0.3010 CAROLINE </s> -0.3010
-0.3010 CAROLYN </s> -0.3010
-0.3010 CARRIE </s> -0.3010
-0.3010 CARWYN </s> -0.3010
-0.3010 CARYS </s> -0.3010
-0.3010 CASEY </s> -0.3010
-0.3010 CASSANDRA </s> -0.3010
-0.3010 CASSIDY </s> -0.3010
-0.3010 CASSIE </s> -0.3010
-0.3010 CATHERINE </s> -0.3010
-0.3010 CATHRINE </s> -0.3010
-0.3010 CATRIN </s> -0.3010
-0.3010 CATRIONA </s> -0.3010
-0.3010 CELIA </s> -0.3010
-0.3010 CELINE </s> -0.3010
-0.3010 CERI </s> -0.3010
-0.3010 CERTAINLY </s> -0.3010
-0.3010 CERYS </s> -0.3010
-0.3010 CHAD </s> -0.3010
-0.3010 CHANDLER </s> -0.3010
-0.3010 CHANEL </s> -0.3010
-0.3010 CHANELLE </s> -0.3010
-0.3010 CHANICE </s> -0.3010
-0.3010 CHANNELLE </s> -0.3010
-0.3010 CHANTAL </s> -0.3010
-0.3010 CHANTE </s> -0.3010
-0.3010 CHANTEL </s> -0.3010
-0.3010 CHANTELLE </s> -0.3010
-0.3010 CHARIS </s> -0.3010
-0.3010 CHARLENE </s> -0.3010
-0.3010 CHARLES </s> -0.3010
-0.3010 CHARLEY </s> -0.3010
-0.3010 CHARLIE </s> -0.3010
-0.3010 CHARLOTTE </s> -0.3010
-0.3010 CHARMAINE </s> -0.3010
-0.3010 CHAY </s> -0.3010
-0.3010 CHE </s> -0.3010
-0.3010 CHELSEA </s> -0.3010
-0.3010 CHELSEY </s> -0.3010
-0.3010 CHELSIE </s> -0.3010
-0.3010 CHERYL </s> -0.3010
-0.3010 CHESTER </s> -0.3010
-0.3010 CHEYENNE </s> -0.3010
-0.3010 CHIRAG </s> -0.3010
-0.3010 CHLOE </s> -0.3010
-0.3010 CHRIS </s> -0.3010
-0.3010 CHRISTIAN </s> -0.3010
-0.3010 CHRISTIE </s> -0.3010
-0.3010 CHRISTINA </s> -0.3010
-0.3010 CHRISTINE </s> -0.3010
-0.3010 CHRISTOPHER </s> -0.3010
-0.3010 CHRISTOS </s> -0.3010
-0.3010 CIAN </s> -0.3010
-0.3010 CIARA </s> -0.3010
-0.3010 CIARAN </s> -0.3010
-0.3010 CIERAN </s> -0.3010
-0.3010 CLAIRE </s> -0.3010
-0.3010 CLARA </s> -0.3010
-0.3010 CLARE </s> -0.3010
-0.3010 CLARISSA </s> -0.3010
-0.3010 CLARK </s> -0.3010
-0.3010 CLAUDIA </s> -0.3010
-0.3010 CLAYTON </s> -0.3010
-0.3010 CLEO </s> -0.3010
-0.3010 CLINT </s> -0.3010
-0.3010 CLIVE </s> -0.3010
-0.3010 CODIE </s> -0.3010
-0.3010 CODY </s> -0.3010
-0.3010 COLE </s> -0.3010
-0.3010 COLETTE </s> -0.3010
-0.3010 COLIN </s> -0.3010
-0.3010 COLLEGE </s> -0.3010
-0.3010 CONNAH </s> -0.3010
-0.3010 CONNELL </s> -0.3010
-0.3010 CONNER </s> -0.3010
-0.3010 CONNIE </s> -0.3010
-0.3010 CONNOR </s> -0.3010
-0.3010 CONOR </s> -0.3010
-0.3010 CONRAD </s> -0.3010
-0.3010 CONSTANCE </s> -0.3010
-0.3010 CONSTANTINE </s> -0.3010
-0.3010 CONSTANTINOS </s> -0.3010
-0.3010 CORA </s> -0.3010
-0.3010 CORAL </s> -0.3010
-0.3010 COREY </s> -0.3010
-0.3010 CORIN </s> -0.3010
-0.3010 CORINNE </s> -0.3010
-0.3010 CORMAC </s> -0.3010
-0.3010 CORRIE </s> -0.3010
-0.3010 CORY </s> -0.3010
-0.3010 COURSE </s> -0.3010
-0.3010 COURT </s> -0.3010
-0.3010 COURTENEY </s> -0.3010
-0.3010 COURTNEY </s> -0.3010
-0.3010 CRAIG </s> -0.3010
-0.3010 CRYSTAL </s> -0.3010
-0.3010 CULLEN </s> -0.3010
-0.3010 CULLUM </s> -0.3010
-0.3010 CURTIS </s> -0.3010
-0.3010 CYRUS </s> -0.3010
-0.3010 DAFYDD </s> -0.3010
-0.3010 DAISY </s> -0.3010
-0.3010 DALE </s> -0.3010
-0.3010 DALTON </s> -0.3010
-0.3010 DAMIAN </s> -0.3010
-0.3010 DAMIEN </s> -0.3010
-0.3010 DAMON </s> -0.3010
-0.3010 DAN </s> -0.3010
-0.3010 DANA </s> -0.3010
-0.3010 DANE </s> -0.3010
-0.3010 DANI </s> -0.3010
-0.3010 DANIAL </s> -0.3010
-0.3010 DANIEL </s> -0.3010
-0.3010 DANIELA </s> -0.3010
-0.3010 DANIELE </s> -0.3010
-0.3010 DANIELLA </s> -0.3010
-0.3010 DANIELLE </s> -0.3010
-0.3010 DANISH </s> -0.3010
-0.3010 DANNI </s> -0.3010
-0.3010 DANNIELLA </s> -0.3010
-0.3010 DANNIELLE </s> -0.3010
-0.3010 DANNY </s> -0.3010
-0.3010 DANYAL </s> -0.3010
-0.3010 DARCIE </s> -0.3010
-0.3010 DARCY </s> -0.3010
-0.3010 DARIEN </s> -0.3010
-0.3010 DARIUS </s> -0.3010
-0.3010 DARNELL </s> -0.3010
-0.3010 DARRAGH </s> -0.3010
-0.3010 DARRELL </s> -0.3010
-0.3010 DARREN </s> -0.3010
-0.3010 DARRYL </s> -0.3010
-0.3010 DARYL </s> -0.3010
-0.3010 DARYLL </s> -0.3010
-0.3010 DAVEY </s> -0.3010
-0.3010 DAVID </s> -0.3010
-0.3010 DAVINA </s> -0.3010
-0.3010 DAVY </s> -0.3010
-0.3010 DAWN </s> -0.3010
-0.3010 DAYLE </s> -0.3010
-0.3010 DAYNA </s> -0.3010
-0.3010 DEAN </s> -0.3010
-0.3010 DEANNA </s> -0.3010
-0.3010 DEBBIE </s> -0.3010
-0.3010 DEBORAH </s> -0.3010
-0.3010 DECLAN </s> -0.3010
-0.3010 DEMI </s> -0.3010
-0.3010 DEMI-LEIGH </s> -0.3010
-0.3010 DENNIS </s> -0.3010
-0.3010 DENZEL </s> -0.3010
-0.3010 DEREK </s> -0.3010
-0.3010 DERREN </s> -0.3010
-0.3010 DERRY </s> -0.3010
-0.3010 DEVANTE </s> -0.3010
-0.3010 DEVON </s> -0.3010
-0.3010 DEWI </s> -0.3010
-0.3010 DEXTER </s> -0.3010
-0.3010 DIANA </s> -0.3010
-0.3010 DILAN </s> -0.3010
-0.3010 DILLAN </s> -0.3010
-0.3010 DILLON </s> -0.3010
-0.3010 DIMITRIS </s> -0.3010
-0.3010 DINA </s> -0.3010
-0.3010 DION </s> -0.3010
-0.3010 DIONNE </s> -0.3010
-0.3010 DISTRICT LINE 0.0000
-0.3010 DJANGO </s> -0.3010
-0.3010 DOMINIC </s> -0.3010
-0.3010 DOMINIQUE </s> -0.3010
-0.3010 DONALD </s> -0.3010
-0.3010 DONNA </s> -0.3010
-0.3010 DONOVAN </s> -0.3010
-0.3010 DONT </s> -0.3010
-0.3010 DORIAN </s> -0.3010
-0.3010 DOUGLAS </s> -0.3010
-0.3010 DRE </s> -0.3010
-0.3010 DREW </s> -0.3010
-0.3010 DUDLEY </s> -0.3010
-0.3010 DUNCAN </s> -0.3010
-0.3010 DWAYNE </s> -0.3010
-0.3010 DYLAN </s> -0.3010
-0.3010 EAMON </s> -0.3010
-0.3010 EARLS COURT 0.0000
-0.3010 EBONY </s> -0.3010
-0.3010 EDDIE </s> -0.3010
-0.3010 EDDY </s> -0.3010
-0.3010 EDEN </s> -0.3010
-0.3010 EDGAR </s> -0.3010
-0.3010 EDIE </s> -0.3010
-0.3010 EDMUND </s> -0.3010
-0.3010 EDUARDO </s> -0.3010
-0.3010 EDWARD </s> -0.3010
-0.3010 EDWIN </s> -0.3010
-0.3010 EILEEN </s> -0.3010
-0.3010 EILISH </s> -0.3010
-0.3010 ELEANOR </s> -0.3010
-0.3010 ELENA </s> -0.3010
-0.3010 ELI </s> -0.3010
-0.3010 ELIAS </s> -0.3010
-0.3010 ELIJAH </s> -0.3010
-0.3010 ELIN </s> -0.3010
-0.3010 ELINOR </s> -0.3010
-0.3010 ELIOT </s> -0.3010
-0.3010 ELIOTT </s> -0.3010
-0.3010 ELIS </s> -0.3010
-0.3010 ELISA </s> -0.3010
-0.3010 ELISABETH </s> -0.3010
-0.3010 ELISE </s> -0.3010
-0.3010 ELISHA </s> -0.3010
-0.3010 ELIZA </s> -0.3010
-0.3010 ELIZABETH </s> -0.3010
-0.3010 ELLA </s> -0.3010
-0.3010 ELLE </s> -0.3010
-0.3010 ELLEN </s> -0.3010
-0.3010 ELLENA </s> -0.3010
-0.3010 ELLIE </s> -0.3010
-0.3010 ELLIE-MAE </s> -0.3010
-0.3010 ELLIOT </s> -0.3010
-0.3010 ELLIOTT </s> -0.3010
-0.3010 ELLIS </s> -0.3010
-0.3010 ELOISE </s> -0.3010
-0.3010 ELSA </s> -0.3010
-0.3010 ELSPETH </s> -0.3010
-0.3010 ELYSIA </s> -0.3010
-0.3010 EMILIA </s> -0.3010
-0.3010 EMILIE </s> -0.3010
-0.3010 EMILIO </s> -0.3010
-0.3010 EMILY </s> -0.3010
-0.3010 EMMA </s> -0.3010
-0.3010 EMMANUEL </s> -0.3010
-0.3010 ENYA </s> -0.3010
-0.3010 EOIN </s> -0.3010
-0.3010 ERIC </s> -0.3010
-0.3010 ERICA </s> -0.3010
-0.3010 ERIKA </s> -0.3010
-0.3010 ERIN </s> -0.3010
-0.3010 ESME </s> -0.3010
-0.3010 ESTELLE </s> -0.3010
-0.3010 ESTHER </s> -0.3010
-0.3010 ETHAN </s> -0.3010
-0.3010 ETHOS </s> -0.3010
-0.3010 EUAN </s> -0.3010
-0.3010 EVA </s> -0.3010
-0.3010 EVAN </s> -0.3010
-0.3010 EVANGELINE </s> -0.3010
-0.3010 EVE </s> -0.3010
-0.3010 EVELYN </s> -0.3010
-0.3010 EVIE </s> -0.3010
-0.3010 EWAN </s> -0.3010
-0.3010 EZEKIEL </s> -0.3010
-0.3010 EZRA </s> -0.3010
-0.3010 FABIAN </s> -0.3010
-0.3010 FABIO </s> -0.3010
-0.3010 FAHAD </s> -0.3010
-0.3010 FAHIM </s> -0.3010
-0.3010 FAISAL </s> -0.3010
-0.3010 FAITH </s> -0.3010
-0.3010 FAIZA </s> -0.3010
-0.3010 FAIZAN </s> -0.3010
-0.3010 FALSE </s> -0.3010
-0.3010 FARAAZ </s> -0.3010
-0.3010 FARAH </s> -0.3010
-0.3010 FARHAN </s> -0.3010
-0.3010 FARHANA </s> -0.3010
-0.3010 FARRAH </s> -0.3010
-0.3010 FARZANA </s> -0.3010
-0.3010 FATIMA </s> -0.3010
-0.3010 FAY </s> -0.3010
-0.3010 FAYE </s> -0.3010
-0.3010 FELICIA </s> -0.3010
-0.3010 FELICITY </s> -0.3010
-0.3010 FELIX </s> -0.3010
-0.3010 FERDINAND </s> -0.3010
-0.3010 FERGUS </s> -0.3010
-0.3010 FERN </s> -0.3010
-0.3010 FFION </s> -0.3010
-0.3010 FINE </s> -0.3010
-0.3010 FINLAY </s> -0.3010
-0.3010 FINN </s> -0.3010
-0.3010 FIONA </s> -0.3010
-0.3010 FLEUR </s> -0.3010
-0.3010 FLORA </s> -0.3010
-0.3010 FLORENCE </s> -0.3010
-0.3010 FLOYD </s> -0.3010
-0.3010 FOOD </s> -0.3010
-0.3010 FRANCES </s> -0.3010
-0.3010 FRANCESCA </s> -0.3010
-0.3010 FRANCESCO </s> -0.3010
-0.3010 FRANCIS </s> -0.3010
-0.3010 FRANCOIS </s> -0.3010
-0.3010 FRANK </s> -0.3010
-0.3010 FRANKIE </s> -0.3010
-0.3010 FRANKLIN </s> -0.3010
-0.3010 FRASER </s> -0.3010
-0.3010 FRAZER </s> -0.3010
-0.3010 FRAZIER </s> -0.3010
-0.3010 FRED </s> -0.3010
-0.3010 FREDDIE </s> -0.3010
-0.3010 FREDDY </s> -0.3010
-0.3010 FREDERICK </s> -0.3010
-0.3010 FREDERIK </s> -0.3010
-0.3010 FREDRICK </s> -0.3010
-0.3010 FREYA </s> -0.3010
-0.3010 GABRIEL </s> -0.3010
-0.3010 GABRIELE </s> -0.3010
-0.3010 GABRIELLA </s> -0.3010
-0.3010 GABRIELLE </s> -0.3010
-0.3010 GABY </s> -0.3010
-0.3010 GAGE </s> -0.3010
-0.3010 GARETH </s> -0.3010
-0.3010 GARRY </s> -0.3010
-0.3010 GARY </s> -0.3010
-0.3010 GAVIN </s> -0.3010
-0.3010 GEMMA </s> -0.3010
-0.3010 GENEVIEVE </s> -0.3010
-0.3010 GEOFFREY </s> -0.3010
-0.3010 GEORGE </s> -0.3010
-0.3010 GEORGIA </s> -0.3010
-0.3010 GEORGIE </s> -0.3010
-0.3010 GEORGINA </s> -0.3010
-0.3010 GERAINT </s> -0.3010
-0.3010 GERALD </s> -0.3010
-0.3010 GERALDINE </s> -0.3010
-0.3010 GERARD </s> -0.3010
-0.3010 GETHIN </s> -0.3010
-0.3010 GIANLUCA </s> -0.3010
-0.3010 GIDEON </s> -0.3010
-0.3010 GILES </s> -0.3010
-0.3010 GINA </s> -0.3010
-0.3010 GIORGIA </s> -0.3010
