Language model created by QuickLM on Wed Dec  5 14:11:47 EST 2012
Copyright (c) 1996-2010 Carnegie Mellon University and Alexander I. Rudnicky

The model is in standard ARPA format, designed by Doug Paul while he was at MITRE.

The code that was used to produce this language model is available in Open Source.
Please visit http://www.speech.cs.cmu.edu/tools/ for more information

The (fixed) discount mass is 0.5. The backoffs are computed using the ratio method.
This model based on a corpus of 1746 sentences and 1702 words

\data\
ngram 1=1702
ngram 2=3394
ngram 3=1709

\1-grams:
-0.7797 </s> -0.3010
-0.7797 <s> -0.2220
-4.0218 A -0.3008
-4.0218 AADAM -0.2222
-4.0218 AADIL -0.2222
-4.0218 AALIYAH -0.2222
-4.0218 AAMIR -0.2222
-4.0218 AARON -0.2222
-4.0218 ABBAS -0.2222
-4.0218 ABBEY -0.2222
-4.0218 ABBI -0.2222
-4.0218 ABBIE -0.2222
-4.0218 ABBIGAIL -0.2222
-4.0218 ABBY -0.2222
-4.0218 ABDUL -0.2222
-4.0218 ABDULLAH -0.2222
-4.0218 ABI -0.2222
-4.0218 ABIGAIL -0.2222
-4.0218 ABRAHAM -0.2222
-4.0218 ABU -0.2222
-4.0218 ABUL -0.2222
-4.0218 ADAM -0.2222
-4.0218 ADEEL -0.2222
-4.0218 ADELE -0.2222
-4.0218 ADEN -0.2222
-4.0218 ADIL -0.2222
-4.0218 ADNAN -0.2222
-4.0218 ADRIAN -0.2222
-4.0218 ADRIENNE -0.2222
-4.0218 AFFIRMATIVE -0.2222
-4.0218 AHMAD -0.2222
-4.0218 AHMED -0.2222
-4.0218 AHMET -0.2222
-4.0218 AIDAN -0.2222
-4.0218 AIDEN -0.2222
-4.0218 AILEEN -0.2222
-4.0218 AILISH -0.2222
-4.0218 AILSA -0.2222
-4.0218 AIMEE -0.2222
-4.0218 AINE -0.2222
-3.7207 AINSLEY -0.2222
-4.0218 AISHA -0.2222
-4.0218 AISHAH -0.2222
-4.0218 AISLING -0.2222
-4.0218 AISLINN -0.2222
-4.0218 AJAY -0.2222
-4.0218 AKASH -0.2222
-4.0218 AKBAR -0.2222
-4.0218 AKEEM -0.2222
-4.0218 AKHIL -0.2222
-4.0218 AKSHAY -0.2222
-4.0218 ALAN -0.2222
-4.0218 ALANA -0.2222
-4.0218 ALANNA -0.2222
-4.0218 ALANNAH -0.2222
-4.0218 ALASDAIR -0.2222
-4.0218 ALASTAIR -0.2222
-3.5446 ALBERT -0.2219
-4.0218 ALEC -0.2222
-4.0218 ALED -0.2222
-4.0218 ALEESHA -0.2222
-4.0218 ALESSANDRA -0.2222
-4.0218 ALESSANDRO -0.2222
-4.0218 ALESSIA -0.2222
-3.7207 ALEX -0.2222
-4.0218 ALEXANDER -0.2222
-4.0218 ALEXANDRA -0.2222
-4.0218 ALEXANDRE -0.2222
-4.0218 ALEXANDRIA -0.2222
-4.0218 ALEXIA -0.2222
-4.0218 ALEXIS -0.2222
-4.0218 ALFIE -0.2222
-4.0218 ALFRED -0.2222
-4.0218 ALI -0.2222
-4.0218 ALICE -0.2222
-4.0218 ALICIA -0.2222
-4.0218 ALIESHA -0.2222
-4.0218 ALINA -0.2222
-4.0218 ALISHA -0.2222
-4.0218 ALISON -0.2222
-4.0218 ALISTAIR -0.2222
-4.0218 ALISTER -0.2222
-4.0218 ALIX -0.2222
-4.0218 ALIYA -0.2222
-4.0218 ALIYAH -0.2222
-4.0218 ALL -0.2222
-4.0218 ALLAN -0.2222
-4.0218 ALLYSHA -0.2222
-4.0218 ALVIN -0.2222
-4.0218 ALYS -0.2222
-4.0218 ALYSHA -0.2222
-4.0218 ALYSSIA -0.2222
-4.0218 AM -0.2222
-4.0218 AMAAN -0.2222
-4.0218 AMALIE -0.2222
-4.0218 AMAN -0.2222
-4.0218 AMANDA -0.2222
-3.7207 AMANDEEP -0.2222
-4.0218 AMAR -0.2222
-4.0218 AMARA -0.2222
-4.0218 AMBER -0.2222
-4.0218 AMEERA -0.2222
-4.0218 AMELIA -0.2222
-4.0218 AMI -0.2222
-4.0218 AMIE -0.2222
-4.0218 AMINA -0.2222
-4.0218 AMIR -0.2222
-4.0218 AMY -0.2222
-4.0218 ANA -0.2222
-4.0218 ANASTASIA -0.2222
-3.7207 AND -0.3009
-4.0218 ANDIE -0.2222
-4.0218 ANDRE -0.2222
-4.0218 ANDREA -0.2222
-4.0218 ANDREAS -0.2222
-4.0218 ANDREW -0.2222
-4.0218 ANDY -0.2222
-4.0218 ANEEKA -0.2222
-4.0218 ANEESA -0.2222
-4.0218 ANGEL -0.2222
-4.0218 ANGELA -0.2222
-4.0218 ANGELICA -0.2222
-4.0218 ANGELINA -0.2222
-4.0218 ANGELO -0.2222
-4.0218 ANGHARAD -0.2222
-4.0218 ANGUS -0.2222
-4.0218 ANIKA -0.2222
-4.0218 ANISA -0.2222
-4.0218 ANISAH -0.2222
-4.0218 ANISH -0.2222
-4.0218 ANISHA -0.2222
-4.0218 ANITA -0.2222
-4.0218 ANN -0.2222
-4.0218 ANNA -0.2222
-4.0218 ANNABEL -0.2222
-4.0218 ANNABELLE -0.2222
-4.0218 ANNALISE -0.2222
-4.0218 ANNE -0.2222
-4.0218 ANNE-MARIE -0.2222
-4.0218 ANNIE -0.2222
-4.0218 ANNIKA -0.2222
-4.0218 ANTHONY -0.2222
-4.0218 ANTON -0.2222
-4.0218 ANTONIA -0.2222
-4.0218 ANTONIO -0.2222
-4.0218 ANTONY -0.2222
-4.0218 ANWAR -0.2222
-4.0218 ANYA -0.2222
-4.0218 AOIFE -0.2222
-4.0218 APRIL -0.2222
-4.0218 AQIB -0.2222
-4.0218 ARABELLA -0.2222
-4.0218 ARAN -0.2222
-4.0218 ARCHIE -0.2222
-4.0218 ARE -0.2222
-4.0218 ARJUN -0.2222
-4.0218 ARON -0.2222
-4.0218 ARRAN -0.2222
-4.0218 ARRON -0.2222
-4.0218 ARTHUR -0.2222
-4.0218 ARUN -0.2222
-4.0218 ASA -0.2222
-4.0218 ASAD -0.2222
-4.0218 ASHA -0.2222
-4.0218 ASHER -0.2222
-4.0218 ASHLEA -0.2222
-4.0218 ASHLEE -0.2222
-3.7207 ASHLEIGH -0.2222
-3.7207 ASHLEY -0.2222
-4.0218 ASHRAF -0.2222
-3.7207 ASHTON -0.2222
-4.0218 ASIF -0.2222
-4.0218 ASIM -0.2222
-4.0218 ASMA -0.2222
-4.0218 ASTON -0.2222
-4.0218 ATLANTA -0.2222
-4.0218 AUSTIN -0.2222
-4.0218 AUTUMN -0.2222
-4.0218 AWAIS -0.2222
-4.0218 AYDEN -0.2222
-4.0218 AYE -0.2222
-4.0218 AYESHA -0.2222
-4.0218 AYISHA -0.2222
-4.0218 AYRTON -0.2222
-4.0218 AYSHA -0.2222
-4.0218 AZIM -0.2222
-4.0218 AZIZ -0.2222
-4.0218 BAILEY -0.2222
-4.0218 BARBARA -0.2222
-4.0218 BARNABY -0.2222
-4.0218 BARNEY -0.2222
-4.0218 BARRY -0.2222
-4.0218 BE -0.2222
-4.0218 BEATRICE -0.2222
-4.0218 BEAU -0.2222
-4.0218 BECKY -0.2222
-4.0218 BEEN -0.2222
-4.0218 BEING -0.2222
-4.0218 BELINDA -0.2222
-4.0218 BEN -0.2222
-4.0218 BENEDICT -0.2222
-4.0218 BENJAMIN -0.2222
-4.0218 BENN -0.2222
-4.0218 BERNADETTE -0.2222
-4.0218 BERNARD -0.2222
-4.0218 BETH -0.2222
-4.0218 BETHAN -0.2222
-4.0218 BETHANIE -0.2222
-4.0218 BETHANY -0.2222
-4.0218 BETHNEY -0.2222
-4.0218 BEVAN -0.2222
-4.0218 BIANCA -0.2222
-4.0218 BILAL -0.2222
-3.7207 BILLIE -0.2222
-4.0218 BILLIE-JO -0.2222
-4.0218 BILLY -0.2222
-4.0218 BLAINE -0.2222
-4.0218 BLAISE -0.2222
-4.0218 BLAKE -0.2222
-4.0218 BLYTHE -0.2222
-4.0218 BOB -0.2222
-4.0218 BOBBI -0.2222
-4.0218 BOBBIE -0.2222
-4.0218 BOBBY -0.2222
-4.0218 BONITA -0.2222
-4.0218 BONNIE -0.2222
-4.0218 BONNY -0.2222
-4.0218 BORIS -0.2222
-4.0218 BOTH -0.2222
-4.0218 BRAD -0.2222
-4.0218 BRADEN -0.2222
-4.0218 BRADLEY -0.2222
-4.0218 BRADY -0.2222
-4.0218 BRANDAN -0.2222
-4.0218 BRANDON -0.2222
-4.0218 BRENDAN -0.2222
-4.0218 BRENDEN -0.2222
-4.0218 BRENDON -0.2222
-4.0218 BRET -0.2222
-4.0218 BRETT -0.2222
-4.0218 BRIAN -0.2222
-4.0218 BRIANA -0.2222
-4.0218 BRIDGET -0.2222
-4.0218 BRIDIE -0.2222
-4.0218 BRIONY -0.2222
-4.0218 BRITTANY -0.2222
-3.7207 BRODIE -0.2222
-3.7207 BROGAN -0.2222
-4.0218 BRONTE -0.2222
-4.0218 BRONWEN -0.2222
-4.0218 BRONWYN -0.2222
-4.0218 BROOKE -0.2222
-4.0218 BROOKLYN -0.2222
-4.0218 BRUCE -0.2222
-4.0218 BRUNO -0.2222
-4.0218 BRYAN -0.2222
-4.0218 BRYCE -0.2222
-4.0218 BRYN -0.2222
-4.0218 BRYONY -0.2222
-4.0218 BURAK -0.2222
-4.0218 BYRON -0.2222
-4.0218 CAI -0.2222
-4.0218 CAIN -0.2222
-4.0218 CAINE -0.2222
-4.0218 CAITLIN -0.2222
-4.0218 CALEB -0.2222
-4.0218 CALLAM -0.2222
-4.0218 CALLAN -0.2222
-4.0218 CALLED -0.2222
-4.0218 CALLIE -0.2222
-4.0218 CALLUM -0.2222
-4.0218 CALUM -0.2222
-4.0218 CALVIN -0.2222
-4.0218 CAMERON -0.2222
-4.0218 CAMILA -0.2222
-4.0218 CAMILLA -0.2222
-4.0218 CAMILLE -0.2222
-4.0218 CAMPBELL -0.2222
-4.0218 CANDICE -0.2222
-4.0218 CARA -0.2222
-4.0218 CARIS -0.2222
-4.0218 CARL -0.2222
-4.0218 CARLA -0.2222
-4.0218 CARLIE -0.2222
-4.0218 CARLOS -0.2222
-4.0218 CARLTON -0.2222
-4.0218 CARLY -0.2222
-4.0218 CARMEN -0.2222
-4.0218 CAROLINE -0.2222
-4.0218 CAROLYN -0.2222
-4.0218 CARRIE -0.2222
-4.0218 CARWYN -0.2222
-4.0218 CARYS -0.2222
-3.7207 CASEY -0.2222
-4.0218 CASSANDRA -0.2222
-4.0218 CASSIDY -0.2222
-4.0218 CASSIE -0.2222
-4.0218 CATHERINE -0.2222
-4.0218 CATHRINE -0.2222
-4.0218 CATRIN -0.2222
-4.0218 CATRIONA -0.2222
-4.0218 CELIA -0.2222
-4.0218 CELINE -0.2222
-4.0218 CERI -0.2222
-4.0218 CERTAINLY -0.2222
-4.0218 CERYS -0.2222
-4.0218 CHAD -0.2222
-4.0218 CHANDLER -0.2222
-4.0218 CHANEL -0.2222
-4.0218 CHANELLE -0.2222
-4.0218 CHANICE -0.2222
-4.0218 CHANNELLE -0.2222
-4.0218 CHANTAL -0.2222
-4.0218 CHANTE -0.2222
-4.0218 CHANTEL -0.2222
-4.0218 CHANTELLE -0.2222
-4.0218 CHARIS -0.2222
-4.0218 CHARLENE -0.2222
-4.0218 CHARLES -0.2222
-3.7207 CHARLEY -0.2222
-3.7207 CHARLIE -0.2222
-4.0218 CHARLOTTE -0.2222
-4.0218 CHARMAINE -0.2222
-4.0218 CHAY -0.2222
-4.0218 CHE -0.2222
-4.0218 CHELSEA -0.2222
-4.0218 CHELSEY -0.2222
-4.0218 CHELSIE -0.2222
-4.0218 CHERYL -0.2222
-4.0218 CHESTER -0.2222
-4.0218 CHEYENNE -0.2222
-4.0218 CHIRAG -0.2222
-4.0218 CHLOE -0.2222
-4.0218 CHRIS -0.2222
-4.0218 CHRISTIAN -0.2222
-3.7207 CHRISTIE -0.2222
-4.0218 CHRISTINA -0.2222
-4.0218 CHRISTINE -0.2222
-4.0218 CHRISTOPHER -0.2222
-4.0218 CHRISTOS -0.2222
-4.0218 CIAN -0.2222
-4.0218 CIARA -0.2222
-4.0218 CIARAN -0.2222
-4.0218 CIERAN -0.2222
-4.0218 CLAIRE -0.2222
-4.0218 CLARA -0.2222
-4.0218 CLARE -0.2222
-4.0218 CLARISSA -0.2222
-4.0218 CLARK -0.2222
-4.0218 CLAUDIA -0.2222
-4.0218 CLAYTON -0.2222
-4.0218 CLEO -0.2222
-4.0218 CLINT -0.2222
-4.0218 CLIVE -0.2222
-4.0218 CODIE -0.2222
-3.7207 CODY -0.2222
-4.0218 COLE -0.2222
-4.0218 COLETTE -0.2222
-4.0218 COLIN -0.2222
-4.0218 COLLEGE -0.2222
-4.0218 CONNAH -0.2222
-4.0218 CONNELL -0.2222
-4.0218 CONNER -0.2222
-4.0218 CONNIE -0.2222
-4.0218 CONNOR -0.2222
-4.0218 CONOR -0.2222
-4.0218 CONRAD -0.2222
-4.0218 CONSTANCE -0.2222
-4.0218 CONSTANTINE -0.2222
-4.0218 CONSTANTINOS -0.2222
-4.0218 CORA -0.2222
-4.0218 CORAL -0.2222
-4.0218 COREY -0.2222
-4.0218 CORIN -0.2222
-4.0218 CORINNE -0.2222
-4.0218 CORMAC -0.2222
-4.0218 CORRIE -0.2222
-3.7207 CORY -0.2222
-4.0218 COURSE -0.2222
-4.0218 COURT -0.2222
-4.0218 COURTENEY -0.2222
-3.7207 COURTNEY -0.2222
-4.0218 CRAIG -0.2222
-4.0218 CRYSTAL -0.2222
-4.0218 CULLEN -0.2222
-4.0218 CULLUM -0.2222
-4.0218 CURTIS -0.2222
-4.0218 CYRUS -0.2222
-4.0218 DAFYDD -0.2222
-4.0218 DAISY -0.2222
-4.0218 DALE -0.2222
-4.0218 DALTON -0.2222
-4.0218 DAMIAN -0.2222
-4.0218 DAMIEN -0.2222
-4.0218 DAMON -0.2222
-4.0218 DAN -0.2222
-4.0218 DANA -0.2222
-4.0218 DANE -0.2222
-3.7207 DANI -0.2222
-4.0218 DANIAL -0.2222
-4.0218 DANIEL -0.2222
-4.0218 DANIELA -0.2222
-4.0218 DANIELE -0.2222
-4.0218 DANIELLA -0.2222
-4.0218 DANIELLE -0.2222
-4.0218 DANISH -0.2222
-4.0218 DANNI -0.2222
-4.0218 DANNIELLA -0.2222
-4.0218 DANNIELLE -0.2222
-4.0218 DANNY -0.2222
-4.0218 DANYAL -0.2222
-4.0218 DARCIE -0.2222
-4.0218 DARCY -0.2222
-4.0218 DARIEN -0.2222
-4.0218 DARIUS -0.2222
-4.0218 DARNELL -0.2222
-4.0218 DARRAGH -0.2222
-4.0218 DARRELL -0.2222
-4.0218 DARREN -0.2222
-4.0218 DARRYL -0.2222
-4.0218 DARYL -0.2222
-4.0218 DARYLL -0.2222
-4.0218 DAVEY -0.2222
-4.0218 DAVID -0.2222
-4.0218 DAVINA -0.2222
-4.0218 DAVY -0.2222
-4.0218 DAWN -0.2222
-4.0218 DAYLE -0.2222
-4.0218 DAYNA -0.2222
-4.0218 DEAN -0.2222
-4.0218 DEANNA -0.2222
-4.0218 DEBBIE -0.2222
-4.0218 DEBORAH -0.2222
-4.0218 DECLAN -0.2222
-4.0218 DEMI -0.2222
-4.0218 DEMI-LEIGH -0.2222
-4.0218 DENNIS -0.2222
-4.0218 DENZEL -0.2222
-4.0218 DEREK -0.2222
-4.0218 DERREN -0.2222
-4.0218 DERRY -0.2222
-4.0218 DEVANTE -0.2222
-3.7207 DEVON -0.2222
-4.0218 DEWI -0.2222
-4.0218 DEXTER -0.2222
-4.0218 DIANA -0.2222
-4.0218 DILAN -0.2222
-4.0218 DILLAN -0.2222
-4.0218 DILLON -0.2222
-4.0218 DIMITRIS -0.2222
-4.0218 DINA -0.2222
-4.0218 DION -0.2222
-4.0218 DIONNE -0.2222
-4.0218 DISTRICT -0.3009
-4.0218 DJANGO -0.2222
-4.0218 DOMINIC -0.2222
-4.0218 DOMINIQUE -0.2222
-4.0218 DONALD -0.2222
-4.0218 DONNA -0.2222
-4.0218 DONOVAN -0.2222
-4.0218 DONT -0.2222
-4.0218 DORIAN -0.2222
-4.0218 DOUGLAS -0.2222
-4.0218 DRE -0.2222
-3.7207 DREW -0.2222
-4.0218 DUDLEY -0.2222
-4.0218 DUNCAN -0.2222
-4.0218 DWAYNE -0.2222
-4.0218 DYLAN -0.2222
-4.0218 EAMON -0.2222
-4.0218 EARLS -0.3010
-4.0218 EBONY -0.2222
-4.0218 EDDIE -0.2222
-4.0218 EDDY -0.2222
-3.7207 EDEN -0.2222
-4.0218 EDGAR -0.2222
-4.0218 EDIE -0.2222
-4.0218 EDMUND -0.2222
-4.0218 EDUARDO -0.2222
-4.0218 EDWARD -0.2222
-4.0218 EDWIN -0.2222
-4.0218 EILEEN -0.2222
-4.0218 EILISH -0.2222
-4.0218 ELEANOR -0.2222
-4.0218 ELENA -0.2222
-4.0218 ELI -0.2222
-4.0218 ELIAS -0.2222
-4.0218 ELIJAH -0.2222
-4.0218 ELIN -0.2222
-4.0218 ELINOR -0.2222
-4.0218 ELIOT -0.2222
-4.0218 ELIOTT -0.2222
-4.0218 ELIS -0.2222
-4.0218 ELISA -0.2222
-4.0218 ELISABETH -0.2222
-4.0218 ELISE -0.2222
-4.0218 ELISHA -0.2222
-4.0218 ELIZA -0.2222
-4.0218 ELIZABETH -0.2222
-4.0218 ELLA -0.2222
-4.0218 ELLE -0.2222
-4.0218 ELLEN -0.2222
-4.0218 ELLENA -0.2222
-4.0218 ELLIE -0.2222
-4.0218 ELLIE-MAE -0.2222
-4.0218 ELLIOT -0.2222
-4.0218 ELLIOTT -0.2222
-3.7207 ELLIS -0.2222
-4.0218 ELOISE -0.2222
-4.0218 ELSA -0.2222
-4.0218 ELSPETH -0.2222
-4.0218 ELYSIA -0.2222
-4.0218 EMILIA -0.2222
-4.0218 EMILIE -0.2222
-4.0218 EMILIO -0.2222
-4.0218 EMILY -0.2222
-4.0218 EMMA -0.2222
-4.0218 EMMANUEL -0.2222
-4.0218 ENYA -0.2222
-4.0218 EOIN -0.2222
-4.0218 ERIC -0.2222
-4.0218 ERICA -0.2222
-4.0218 ERIKA -0.2222
-4.0218 ERIN -0.2222
-4.0218 ESME -0.2222
-4.0218 ESTELLE -0.2222
-4.0218 ESTHER -0.2222
-4.0218 ETHAN -0.2222
-4.0218 ETHOS -0.2222
-4.0218 EUAN -0.2222
-4.0218 EVA -0.2222
-3.7207 EVAN -0.2222
-4.0218 EVANGELINE -0.2222
-4.0218 EVE -0.2222
-4.0218 EVELYN -0.2222
-4.0218 EVIE -0.2222
-4.0218 EWAN -0.2222
-4.0218 EZEKIEL -0.2222
-4.0218 EZRA -0.2222
-4.0218 FABIAN -0.2222
-4.0218 FABIO -0.2222
-4.0218 FAHAD -0.2222
-4.0218 FAHIM -0.2222
-4.0218 FAISAL -0.2222
-4.0218 FAITH -0.2222
-4.0218 FAIZA -0.2222
-4.0218 FAIZAN -0.2222
-4.0218 FALSE -0.2222
-4.0218 FARAAZ -0.2222
-4.0218 FARAH -0.2222
-4.0218 FARHAN -0.2222
-4.0218 FARHANA -0.2222
-4.0218 FARRAH -0.2222
-4.0218 FARZANA -0.2222
-4.0218 FATIMA -0.2222
-4.0218 FAY -0.2222
-4.0218 FAYE -0.2222
-4.0218 FELICIA -0.2222
-4.0218 FELICITY -0.2222
-4.0218 FELIX -0.2222
-4.0218 FERDINAND -0.2222
-4.0218 FERGUS -0.2222
-4.0218 FERN -0.2222
-4.0218 FFION -0.2222
-4.0218 FINE -0.2222
-3.7207 FINLAY -0.2222
-4.0218 FINN -0.2222
-4.0218 FIONA -0.2222
-4.0218 FLEUR -0.2222
-4.0218 FLORA -0.2222
-4.0218 FLORENCE -0.2222
-4.0218 FLOYD -0.2222
-4.0218 FOOD -0.2222
-4.0218 FRANCES -0.2222
-4.0218 FRANCESCA -0.2222
-4.0218 FRANCESCO -0.2222
-4.0218 FRANCIS -0.2222
-4.0218 FRANCOIS -0.2222
-4.0218 FRANK -0.2222
-4.0218 FRANKIE -0.2222
-4.0218 FRANKLIN -0.2222
-4.0218 FRASER -0.2222
-4.0218 FRAZER -0.2222
-4.0218 FRAZIER -0.2222
-4.0218 FRED -0.2222
-3.7207 FREDDIE -0.2222
-4.0218 FREDDY -0.2222
-4.0218 FREDERICK -0.2222
-4.0218 FREDERIK -0.2222
-4.0218 FREDRICK -0.2222
-4.0218 FREYA -0.2222
-4.0218 GABRIEL -0.2222
-4.0218 GABRIELE -0.2222
-4.0218 GABRIELLA -0.2222
-4.0218 GABRIELLE -0.2222
-4.0218 GABY -0.2222
-4.0218 GAGE -0.2222
-4.0218 GARETH -0.2222
-4.0218 GARRY -0.2222
-4.0218 GARY -0.2222
-4.0218 GAVIN -0.2222
-4.0218 GEMMA -0.2222
-4.0218 GENEVIEVE -0.2222
-4.0218 GEOFFREY -0.2222
-4.0218 GEORGE -0.2222
-4.0218 GEORGIA -0.2222
-3.7207 GEORGIE -0.2222
-4.0218 GEORGINA -0.2222
-4.0218 GERAINT -0.2222
-4.0218 GERALD -0.2222
-4.0218 GERALDINE -0.2222
-4.0218 GERARD -0.2222
-4.0218 GETHIN -0.2222
-4.0218 GIANLUCA -0.2222
-4.0218 GIDEON -0.2222
-4.0218 GILES -0.2222
-4.0218 GINA -0.2222
-4.0218 GIORGIA -0.2222
-4.0218 GIOVANNI -0.2222
-4.0218 GIUSEPPE -0.2222
-4.0218 GLEN -0.2222
-4.0218 GLENN -0.2222
-4.0218 GLOUCESTER -0.3010
-4.0218 GRACE -0.2222
-4.0218 GRAEME -0.2222
-4.0218 GRAHAM -0.2222
-4.0218 GRANT -0.2222
-4.0218 GREG -0.2222
-4.0218 GREGG -0.2222
-4.0218 GREGORY -0.2222
-4.0218 GUY -0.2222
-4.0218 GYM -0.2222
-4.0218 HAFSA -0.2222
-4.0218 HAFSAH -0.2222
-4.0218 HAIDER -0.2222
-4.0218 HAILEY -0.2222
-4.0218 HAKEEM -0.2222
-4.0218 HALEEMA -0.2222
-4.0218 HALIMA -0.2222
-4.0218 HALL -0.2222
-4.0218 HALLS -0.2222
-4.0218 HAMEED -0.2222
-4.0218 HAMISH -0.2222
-4.0218 HAMZA -0.2222
-4.0218 HAMZAH -0.2222
-4.0218 HANA -0.2222
-4.0218 HANNA -0.2222
-4.0218 HANNAH -0.2222
-4.0218 HARIS -0.2222
-4.0218 HARISH -0.2222
-3.7207 HARLEY -0.2222
-4.0218 HAROLD -0.2222
-4.0218 HAROON -0.2222
-4.0218 HARRI -0.2222
-4.0218 HARRIET -0.2222
-4.0218 HARRIETT -0.2222
-4.0218 HARRIS -0.2222
-4.0218 HARRISON -0.2222
-4.0218 HARRY -0.2222
-4.0218 HARVEY -0.2222
-4.0218 HASAN -0.2222
-4.0218 HASEEB -0.2222
-4.0218 HASHIM -0.2222
-4.0218 HASNAIN -0.2222
-4.0218 HASSAAN -0.2222
-4.0218 HASSAN -0.2222
-4.0218 HAYDEN -0.2222
-4.0218 HAYDN -0.2222
-4.0218 HAYDON -0.2222
-4.0218 HAYLEIGH -0.2222
-4.0218 HAYLEY -0.2222
-4.0218 HAZEL -0.2222
-4.0218 HE -0.2222
-4.0218 HEATH -0.2222
-4.0218 HEATHER -0.2222
-4.0218 HECTOR -0.2222
-4.0218 HEIDI -0.2222
-4.0218 HELEN -0.2222
-4.0218 HELENA -0.2222
-4.0218 HENNA -0.2222
-4.0218 HENRIETTA -0.2222
-4.0218 HENRY -0.2222
-4.0218 HERBIE -0.2222
-4.0218 HILARY -0.2222
-3.7207 HISTORY -0.3008
-4.0218 HOLLIE -0.2222
-4.0218 HOLLY -0.2222
-4.0218 HOME -0.2222
-4.0218 HONOR -0.2222
-4.0218 HOPE -0.2222
-4.0218 HOWARD -0.2222
-4.0218 HUGH -0.2222
-4.0218 HUGO -0.2222
-4.0218 HUMAIRA -0.2222
-4.0218 HUMZA -0.2222
-4.0218 HUSSAIN -0.2222
-4.0218 HUW -0.2222
-4.0218 HYDE -0.3010
-4.0218 HYWEL -0.2222
-4.0218 I -0.2222
-4.0218 IAIN -0.2222
-4.0218 IAN -0.2222
-4.0218 IBRAHEEM -0.2222
-4.0218 IBRAHIM -0.2222
-4.0218 IDRIS -0.2222
-4.0218 IEUAN -0.2222
-4.0218 IKRA -0.2222
-4.0218 IM -0.2222
-4.0218 IMAN -0.2222
-4.0218 IMOGEN -0.2222
-4.0218 IMPERIAL -0.3010
-4.0218 IMRAN -0.2222
-4.0218 INDEED -0.2222
-4.0218 INDIA -0.2222
-4.0218 INDUBITABLY -0.2222
-4.0218 INGRID -0.2222
-4.0218 IONA -0.2222
-4.0218 IQRA -0.2222
-4.0218 IRAM -0.2222
-4.0218 IS -0.2222
-4.0218 ISAAC -0.2222
-4.0218 ISABEL -0.2222
-4.0218 ISABELLA -0.2222
-4.0218 ISABELLE -0.2222
-4.0218 ISHMAEL -0.2222
-4.0218 ISHMAIL -0.2222
-4.0218 ISLA -0.2222
-4.0218 ISMAIL -0.2222
-4.0218 ISOBEL -0.2222
-4.0218 ISOBELLE -0.2222
-4.0218 ISSAC -0.2222
-4.0218 IT -0.2222
-4.0218 ITS -0.2222
-4.0218 IVAN -0.2222
-4.0218 IVY -0.2222
-4.0218 IWAN -0.2222
-4.0218 IZAAK -0.2222
-4.0218 JA -0.2222
-4.0218 JAC -0.2222
-4.0218 JACK -0.2222
-4.0218 JACKIE -0.2222
-4.0218 JACKSON -0.2222
-4.0218 JACKY -0.2222
-4.0218 JACOB -0.2222
-4.0218 JACQUELINE -0.2222
-4.0218 JACQUES -0.2222
-3.7207 JADE -0.2222
-4.0218 JAI -0.2222
-4.0218 JAIME -0.2222
-4.0218 JAK -0.2222
-4.0218 JAKE -0.2222
-4.0218 JAKOB -0.2222
-4.0218 JAMAAL -0.2222
-4.0218 JAMAL -0.2222
-4.0218 JAMES -0.2222
-3.7207 JAMIE -0.2222
-4.0218 JAMIE-LEE -0.2222
-4.0218 JAMIL -0.2222
-4.0218 JANE -0.2222
-4.0218 JANET -0.2222
-4.0218 JANICE -0.2222
-4.0218 JANINE -0.2222
-4.0218 JARED -0.2222
-4.0218 JARRAD -0.2222
-4.0218 JARRED -0.2222
-4.0218 JARROD -0.2222
-4.0218 JARVIS -0.2222
-4.0218 JASMIN -0.2222
-4.0218 JASMINE -0.2222
-4.0218 JASON -0.2222
-4.0218 JASPER -0.2222
-4.0218 JASPREET -0.2222
-3.7207 JAY -0.2222
-4.0218 JAYA -0.2222
-4.0218 JAYDE -0.2222
-4.0218 JAYDEN -0.2222
-4.0218 JAYMEE -0.2222
-4.0218 JAYNE -0.2222
-4.0218 JAZMIN -0.2222
-4.0218 JAZMINE -0.2222
-3.7207 JEAN -0.2222
-4.0218 JEAN-LUC -0.2222
-4.0218 JEAN-PAUL -0.2222
-4.0218 JED -0.2222
-4.0218 JEEVAN -0.2222
-4.0218 JEFF -0.2222
-4.0218 JEFFERY -0.2222
-4.0218 JEFFREY -0.2222
-4.0218 JEMAINE -0.2222
-4.0218 JEMAL -0.2222
-4.0218 JEMIMA -0.2222
-4.0218 JEMMA -0.2222
-4.0218 JENNA -0.2222
-4.0218 JENNIFER -0.2222
-4.0218 JENNY -0.2222
-4.0218 JEREMIAH -0.2222
-4.0218 JEREMY -0.2222
-4.0218 JERMAINE -0.2222
-4.0218 JEROME -0.2222
-3.7207 JERRY -0.2222
-3.7207 JESS -0.2222
-4.0218 JESSE -0.2222
-4.0218 JESSICA -0.2222
-4.0218 JESSIE -0.2222
-4.0218 JESSY -0.2222
-4.0218 JILL -0.2222
-4.0218 JIM -0.2222
-4.0218 JIMMIE -0.2222
-4.0218 JIMMY -0.2222
-4.0218 JO -0.2222
-4.0218 JOANNA -0.2222
-4.0218 JOANNE -0.2222
-4.0218 JODI -0.2222
-4.0218 JODIE -0.2222
-4.0218 JODY -0.2222
-4.0218 JOE -0.2222
-4.0218 JOEL -0.2222
-4.0218 JOELY -0.2222
-4.0218 JOEY -0.2222
-4.0218 JOHANNA -0.2222
-4.0218 JOHANNES -0.2222
-4.0218 JOHN -0.2222
-4.0218 JOHNATHAN -0.2222
-4.0218 JOHNATHON -0.2222
-4.0218 JOHNNY -0.2222
-4.0218 JON -0.2222
-4.0218 JONAH -0.2222
-4.0218 JONATHAN -0.2222
-4.0218 JONATHON -0.2222
-4.0218 JONNY -0.2222
-4.0218 JOOLS -0.2222
-3.7207 JORDAN -0.2222
-4.0218 JORDANNA -0.2222
-4.0218 JORDEN -0.2222
-4.0218 JORDI -0.2222
-4.0218 JORDON -0.2222
-4.0218 JORGE -0.2222
-4.0218 JOSEF -0.2222
-4.0218 JOSEPH -0.2222
-4.0218 JOSEPHINE -0.2222
-4.0218 JOSH -0.2222
-4.0218 JOSHUA -0.2222
-4.0218 JOSIAH -0.2222
-4.0218 JOSIE -0.2222
-4.0218 JOSS -0.2222
-4.0218 JOY -0.2222
-4.0218 JOYCE -0.2222
-3.7207 JUDE -0.2222
-4.0218 JUDY -0.2222
-4.0218 JULIA -0.2222
-4.0218 JULIAN -0.2222
-4.0218 JULIANA -0.2222
-4.0218 JULIE -0.2222
-4.0218 JULIET -0.2222
-4.0218 JUNAID -0.2222
-4.0218 JUSTIN -0.2222
-4.0218 JUSTINE -0.2222
-4.0218 KAI -0.2222
-4.0218 KAIN -0.2222
-4.0218 KAINE -0.2222
-4.0218 KAITLIN -0.2222
-4.0218 KAITLYN -0.2222
-4.0218 KALEM -0.2222
-4.0218 KALLUM -0.2222
-4.0218 KALUM -0.2222
-4.0218 KAMAL -0.2222
-4.0218 KAMRAN -0.2222
-4.0218 KANE -0.2222
-4.0218 KARA -0.2222
-4.0218 KARAN -0.2222
-4.0218 KAREEM -0.2222
-4.0218 KAREN -0.2222
-4.0218 KARIM -0.2222
-4.0218 KARINA -0.2222
-4.0218 KARIS -0.2222
-4.0218 KARISHMA -0.2222
-4.0218 KARL -0.2222
-4.0218 KARLA -0.2222
-4.0218 KASEY -0.2222
-4.0218 KASHIF -0.2222
-4.0218 KASIM -0.2222
-4.0218 KATE -0.2222
-4.0218 KATHARINE -0.2222
-4.0218 KATHERINE -0.2222
-4.0218 KATHERYN -0.2222
-4.0218 KATHLEEN -0.2222
-4.0218 KATHRINE -0.2222
-4.0218 KATHRYN -0.2222
-4.0218 KATHY -0.2222
-4.0218 KATIE -0.2222
-4.0218 KATRIN -0.2222
-4.0218 KATRINA -0.2222
-4.0218 KATY -0.2222
-4.0218 KAY -0.2222
-4.0218 KAYA -0.2222
-4.0218 KAYLA -0.2222
-4.0218 KAYLEE -0.2222
-4.0218 KAYLEIGH -0.2222
-4.0218 KAYLEY -0.2222
-4.0218 KAYLIEGH -0.2222
-4.0218 KAYLUM -0.2222
-4.0218 KAYNE -0.2222
-4.0218 KEANU -0.2222
-4.0218 KEATON -0.2222
-4.0218 KEEGAN -0.2222
-4.0218 KEELAN -0.2222
-4.0218 KEELEY -0.2222
-4.0218 KEELY -0.2222
-4.0218 KEENAN -0.2222
-4.0218 KEIR -0.2222
-4.0218 KEIRA -0.2222
-4.0218 KEIRAN -0.2222
-4.0218 KEIRON -0.2222
-4.0218 KEISHA -0.2222
-4.0218 KEITH -0.2222
-4.0218 KELEIGH -0.2222
-4.0218 KELLIE -0.2222
-4.0218 KELLY -0.2222
-4.0218 KELLY-ANNE -0.2222
-4.0218 KELSEA -0.2222
-4.0218 KELSEY -0.2222
-4.0218 KELSIE -0.2222
-4.0218 KELVIN -0.2222
-4.0218 KEN -0.2222
-3.7207 KENNEDY -0.2222
-4.0218 KENNETH -0.2222
-4.0218 KENNY -0.2222
-4.0218 KENSINGTON -0.2222
-4.0218 KENT -0.2222
-4.0218 KERI -0.2222
-4.0218 KERRI -0.2222
-4.0218 KERRIE -0.2222
-4.0218 KERRY -0.2222
-4.0218 KESHIA -0.2222
-4.0218 KEVIN -0.2222
-4.0218 KEZIA -0.2222
-4.0218 KEZIAH -0.2222
-4.0218 KHADIJA -0.2222
-4.0218 KHADIJAH -0.2222
-4.0218 KHALID -0.2222
-4.0218 KHALIL -0.2222
-4.0218 KHAN -0.2222
-3.7207 KIA -0.2222
-4.0218 KIAH -0.2222
-4.0218 KIAN -0.2222
-4.0218 KIERA -0.2222
-4.0218 KIERAN -0.2222
-4.0218 KIEREN -0.2222
-4.0218 KIERON -0.2222
-3.7207 KIM -0.2222
-4.0218 KIMBERLEY -0.2222
-4.0218 KIMBERLY -0.2222
-4.0218 KINGSLEY -0.2222
-4.0218 KIRA -0.2222
-3.7207 KIRAN -0.2222
-3.7207 KIRBY -0.2222
-4.0218 KIRK -0.2222
-4.0218 KIRSTEN -0.2222
-4.0218 KIRSTIE -0.2222
-4.0218 KIRSTY -0.2222
-4.0218 KISHAN -0.2222
-4.0218 KIT -0.2222
-4.0218 KITTY -0.2222
-4.0218 KRISHAN -0.2222
-4.0218 KRISTA -0.2222
-4.0218 KRISTEN -0.2222
-4.0218 KRISTIAN -0.2222
-4.0218 KRISTIN -0.2222
-4.0218 KRISTINA -0.2222
-4.0218 KRISTOPHER -0.2222
-4.0218 KRISTY -0.2222
-4.0218 KURT -0.2222
-4.0218 KURTIS -0.2222
-4.0218 KYE -0.2222
-4.0218 KYLE -0.2222
-4.0218 KYLIE -0.2222
-4.0218 KYMBERLEY -0.2222
-4.0218 KYRA -0.2222
-4.0218 KYRAN -0.2222
-4.0218 KYRON -0.2222
-4.0218 LACEY -0.2222
-4.0218 LAILA -0.2222
-4.0218 LAMAR -0.2222
-4.0218 LANA -0.2222
-4.0218 LANCE -0.2222
-4.0218 LARA -0.2222
-4.0218 LARISSA -0.2222
-4.0218 LAURA -0.2222
-4.0218 LAUREN -0.2222
-4.0218 LAURENCE -0.2222
-3.7207 LAURIE -0.2222
-4.0218 LAURYN -0.2222
-4.0218 LAWRENCE -0.2222
-4.0218 LAYLA -0.2222
-4.0218 LEAH -0.2222
-4.0218 LEANNA -0.2222
-4.0218 LEANNE -0.2222
-4.0218 LECTURES -0.2222
-3.7207 LEE -0.2222
-4.0218 LEIA -0.2222
-3.7207 LEIGH -0.2222
-4.0218 LEIGHTON -0.2222
-4.0218 LEILA -0.2222
-4.0218 LEO -0.2222
-4.0218 LEON -0.2222
-4.0218 LEONA -0.2222
-4.0218 LEONARD -0.2222
-4.0218 LEONIE -0.2222
-4.0218 LESLEY -0.2222
-4.0218 LESLIE -0.2222
-4.0218 LETICIA -0.2222
-4.0218 LETITIA -0.2222
-3.7207 LEVI -0.2222
-4.0218 LEWIS -0.2222
-4.0218 LEWYS -0.2222
-4.0218 LEYLA -0.2222
-4.0218 LIA -0.2222
-4.0218 LIAM -0.2222
-4.0218 LIANNE -0.2222
-4.0218 LIBBY -0.2222
-4.0218 LIBERTY -0.2222
-4.0218 LILIAN -0.2222
-4.0218 LILLIAN -0.2222
-4.0218 LILLIE -0.2222
-4.0218 LILLY -0.2222
-4.0218 LILY -0.2222
-4.0218 LINDA -0.2222
-4.0218 LINDSAY -0.2222
-4.0218 LINDSEY -0.2222
-3.7207 LINE -0.2222
-4.0218 LIONEL -0.2222
-4.0218 LISA -0.2222
-4.0218 LLEWELLYN -0.2222
-4.0218 LLOYD -0.2222
-4.0218 LOGAN -0.2222
-4.0218 LOIS -0.2222
-4.0218 LOLA -0.2222
-4.0218 LOREN -0.2222
-4.0218 LORENZO -0.2222
-4.0218 LORI -0.2222
-4.0218 LORNA -0.2222
-4.0218 LORRAINE -0.2222
-4.0218 LOTTIE -0.2222
-4.0218 LOUIE -0.2222
-4.0218 LOUIS -0.2222
-4.0218 LOUISA -0.2222
-4.0218 LOUISE -0.2222
-4.0218 LOWRI -0.2222
-4.0218 LUC -0.2222
-4.0218 LUCA -0.2222
-4.0218 LUCAS -0.2222
-4.0218 LUCIA -0.2222
-4.0218 LUCIE -0.2222
-4.0218 LUCINDA -0.2222
-4.0218 LUCY -0.2222
-4.0218 LUIS -0.2222
-4.0218 LUISA -0.2222
-4.0218 LUKAS -0.2222
-4.0218 LUKE -0.2222
-4.0218 LYDIA -0.2222
-4.0218 LYNDON -0.2222
-4.0218 LYNDSAY -0.2222
-4.0218 LYNDSEY -0.2222
-4.0218 MAARIYAH -0.2222
-4.0218 MACAULAY -0.2222
-4.0218 MACAULEY -0.2222
-4.0218 MACAULY -0.2222
-4.0218 MACKENZIE -0.2222
-4.0218 MADDIE -0.2222
-4.0218 MADDISON -0.2222
-4.0218 MADELAINE -0.2222
-4.0218 MADELEINE -0.2222
-4.0218 MADELINE -0.2222
-4.0218 MADISON -0.2222
-4.0218 MAE -0.2222
-4.0218 MAGGIE -0.2222
-4.0218 MAISIE -0.2222
-4.0218 MAISY -0.2222
-4.0218 MALACHI -0.2222
-4.0218 MALCOLM -0.2222
-4.0218 MALIK -0.2222
-4.0218 MANISHA -0.2222
-4.0218 MANRAJ -0.2222
-4.0218 MARA -0.2222
-4.0218 MARC -0.2222
-4.0218 MARCIA -0.2222
-4.0218 MARCO -0.2222
-4.0218 MARCUS -0.2222
-4.0218 MARGARET -0.2222
-4.0218 MARIA -0.2222
-4.0218 MARIAH -0.2222
-4.0218 MARIAM -0.2222
-4.0218 MARIANNE -0.2222
-4.0218 MARIE -0.2222
-4.0218 MARINA -0.2222
-4.0218 MARIO -0.2222
-4.0218 MARISSA -0.2222
-4.0218 MARIYA -0.2222
-4.0218 MARK -0.2222
-4.0218 MARLEY -0.2222
-4.0218 MARLON -0.2222
-4.0218 MARNIE -0.2222
-4.0218 MARTHA -0.2222
-4.0218 MARTIN -0.2222
-4.0218 MARTY -0.2222
-4.0218 MARTYN -0.2222
-4.0218 MARY -0.2222
-4.0218 MARY-JANE -0.2222
-4.0218 MARYAM -0.2222
-4.0218 MASON -0.2222
-4.0218 MATHEW -0.2222
-4.0218 MATILDA -0.2222
-4.0218 MATT -0.2222
-4.0218 MATTEO -0.2222
-4.0218 MATTHEW -0.2222
-4.0218 MAX -0.2222
-4.0218 MAXIM -0.2222
-4.0218 MAXIMILIAN -0.2222
-4.0218 MAXIMILLIAN -0.2222
-4.0218 MAXINE -0.2222
-4.0218 MAXWELL -0.2222
-4.0218 MAY -0.2222
-4.0218 MAYA -0.2222
-4.0218 MAYBE -0.2222
-4.0218 MCCAULEY -0.2222
-4.0218 ME -0.2222
-4.0218 MEAGAN -0.2222
-4.0218 MEERA -0.2222
-4.0218 MEGAN -0.2222
-4.0218 MEGHAN -0.2222
-4.0218 MEHDI -0.2222
-4.0218 MEHMET -0.2222
-4.0218 MELANIE -0.2222
-4.0218 MELINDA -0.2222
-4.0218 MELISSA -0.2222
-4.0218 MELODY -0.2222
-4.0218 MELVIN -0.2222
-4.0218 MERCEDES -0.2222
-4.0218 MERLIN -0.2222
-4.0218 MERYL -0.2222
-4.0218 MIA -0.2222
-4.0218 MICA -0.2222
-4.0218 MICAH -0.2222
-4.0218 MICHAEL -0.2222
-4.0218 MICHAELA -0.2222
-4.0218 MICHEAL -0.2222
-4.0218 MICHEALA -0.2222
-4.0218 MICHELE -0.2222
-4.0218 MICHELLE -0.2222
-4.0218 MICKEY -0.2222
-4.0218 MICKY -0.2222
-4.0218 MIGUEL -0.2222
-4.0218 MIHIR -0.2222
-4.0218 MIKAELA -0.2222
-4.0218 MIKE -0.2222
-4.0218 MIKEY -0.2222
-4.0218 MIKHAIL -0.2222
-4.0218 MILAN -0.2222
-4.0218 MILES -0.2222
-4.0218 MILLICENT -0.2222
-4.0218 MILLIE -0.2222
-4.0218 MILLY -0.2222
-4.0218 MILO -0.2222
-4.0218 MINE -0.2222
-4.0218 MIRANDA -0.2222
-4.0218 MIRIAM -0.2222
-4.0218 MISHA -0.2222
-4.0218 MISTY -0.2222
-4.0218 MITCH -0.2222
-4.0218 MITCHEL -0.2222
-4.0218 MITCHELL -0.2222
-4.0218 MOHAMAD -0.2222
-4.0218 MOHAMED -0.2222
-4.0218 MOHAMMAD -0.2222
-4.0218 MOHAMMED -0.2222
-4.0218 MOHAMMOD -0.2222
-4.0218 MOHMMED -0.2222
-4.0218 MOHSIN -0.2222
-4.0218 MOLLIE -0.2222
-4.0218 MOLLY -0.2222
-4.0218 MONET -0.2222
-4.0218 MONICA -0.2222
-4.0218 MONIQUE -0.2222
-4.0218 MONTEL -0.2222
-4.0218 MONTELL -0.2222
-3.7207 MORGAN -0.2222
-4.0218 MOSES -0.2222
-4.0218 MUHAMMAD -0.2222
-4.0218 MUHAMMED -0.2222
-4.0218 MURRAY -0.2222
-3.3228 MUSEUM -0.2222
-4.0218 MUSTAFA -0.2222
-4.0218 MY -0.2222
-4.0218 MYLES -0.2222
-4.0218 MYLO -0.2222
-4.0218 NABEEL -0.2222
-4.0218 NADEEM -0.2222
-4.0218 NADIA -0.2222
-4.0218 NADINE -0.2222
-4.0218 NAFEESA -0.2222
-4.0218 NAIM -0.2222
-4.0218 NAME -0.2222
-4.0218 NANA -0.2222
-4.0218 NANCY -0.2222
-4.0218 NAOMI -0.2222
-4.0218 NASEEM -0.2222
-4.0218 NASIM -0.2222
-4.0218 NATALIA -0.2222
-4.0218 NATALIE -0.2222
-4.0218 NATASHA -0.2222
-4.0218 NATHALIE -0.2222
-4.0218 NATHAN -0.2222
-4.0218 NATHANAEL -0.2222
-4.0218 NATHANIEL -0.2222
-4.0218 NATURAL -0.3009
-4.0218 NAVDEEP -0.2222
-4.0218 NAY -0.2222
-4.0218 NAZIA -0.2222
-4.0218 NAZIFA -0.2222
-4.0218 NAZIM -0.2222
-4.0218 NAZIR -0.2222
-4.0218 NEAL -0.2222
-4.0218 NEELAM -0.2222
-4.0218 NEGATIVE -0.2222
-4.0218 NEIL -0.2222
-4.0218 NEIN -0.2222
-4.0218 NELSON -0.2222
-4.0218 NIA -0.2222
-4.0218 NIAL -0.2222
-4.0218 NIALL -0.2222
-4.0218 NIAMH -0.2222
-4.0218 NICHOLA -0.2222
-4.0218 NICHOLAS -0.2222
-4.0218 NICK -0.2222
-4.0218 NICKY -0.2222
-4.0218 NICO -0.2222
-4.0218 NICOLA -0.2222
-4.0218 NICOLAS -0.2222
-4.0218 NICOLE -0.2222
-4.0218 NIGEL -0.2222
-4.0218 NIK -0.2222
-4.0218 NIKHIL -0.2222
-4.0218 NIKITA -0.2222
-4.0218 NIKKI -0.2222
-4.0218 NIKO -0.2222
-4.0218 NIKOLAS -0.2222
-4.0218 NINA -0.2222
-4.0218 NISHA -0.2222
-4.0218 NO -0.2222
-4.0218 NOAH -0.2222
-4.0218 NOEL -0.2222
-4.0218 NON -0.2222
-4.0218 NONE -0.2222
-4.0218 NOPE -0.2222
-4.0218 NORTON -0.2222
-4.0218 NOT -0.2222
-4.0218 NOTHING -0.2222
-4.0218 NYLE -0.2222
-4.0218 OH -0.2222
-4.0218 OKAY -0.2222
-4.0218 OLIVE -0.2222
-4.0218 OLIVER -0.2222
-4.0218 OLIVIA -0.2222
-4.0218 OLIVIER -0.2222
-4.0218 OMAR -0.2222
-4.0218 OMARI -0.2222
-4.0218 ORLA -0.2222
-4.0218 ORLANDO -0.2222
-4.0218 OSCAR -0.2222
-4.0218 OSIAN -0.2222
-4.0218 OSMAN -0.2222
-4.0218 OTIS -0.2222
-4.0218 OWAIN -0.2222
-4.0218 OWEN -0.2222
-4.0218 PADRAIG -0.2222
-4.0218 PAGE -0.2222
-4.0218 PAIGE -0.2222
-4.0218 PAISLEY -0.2222
-4.0218 PAMELA -0.2222
-4.0218 PAOLO -0.2222
-4.0218 PARIS -0.2222
-4.0218 PARK -0.2222
-4.0218 PATRICE -0.2222
-4.0218 PATRICIA -0.2222
-4.0218 PATRICK -0.2222
-4.0218 PAUL -0.2222
-4.0218 PAULA -0.2222
-4.0218 PAULINE -0.2222
-4.0218 PAULO -0.2222
-4.0218 PAYAL -0.2222
-4.0218 PEDRO -0.2222
-4.0218 PEGGY -0.2222
-4.0218 PENELOPE -0.2222
-4.0218 PENNY -0.2222
-4.0218 PERRY -0.2222
-4.0218 PETER -0.2222
-4.0218 PEYTON -0.2222
-4.0218 PHILIP -0.2222
-4.0218 PHILIPPA -0.2222
-4.0218 PHILLIP -0.2222
-4.0218 PHILLIPA -0.2222
-4.0218 PHILLIPPA -0.2222
-4.0218 PHOEBE -0.2222
-4.0218 PICADDILLY -0.3009
-4.0218 PIERCE -0.2222
-4.0218 PIERS -0.2222
-4.0218 PIPPA -0.2222
-4.0218 POLLY -0.2222
-4.0218 POPPIE -0.2222
-4.0218 POPPY -0.2222
-4.0218 PRESTON -0.2222
-4.0218 PRIYA -0.2222
-4.0218 PRIYANKA -0.2222
-4.0218 PROBABLY -0.2222
-4.0218 QASIM -0.2222
-4.0218 QUINN -0.2222
-4.0218 RABIA -0.2222
-4.0218 RACHAEL -0.2222
-4.0218 RACHEAL -0.2222
-4.0218 RACHEL -0.2222
-4.0218 RAFAEL -0.2222
-4.0218 RAHEEM -0.2222
-4.0218 RAHIM -0.2222
-4.0218 RAHUL -0.2222
-4.0218 RAJ -0.2222
-4.0218 RAJA -0.2222
-4.0218 RAJAN -0.2222
-4.0218 RALPH -0.2222
-4.0218 RAMI -0.2222
-4.0218 RAPHAEL -0.2222
-4.0218 RAVI -0.2222
-4.0218 RAYMOND -0.2222
-4.0218 RAYNA -0.2222
-4.0218 REANNE -0.2222
-4.0218 REBECCA -0.2222
-4.0218 REBEKAH -0.2222
-4.0218 REBEKKA -0.2222
-4.0218 REECE -0.2222
-4.0218 REED -0.2222
-4.0218 REEM -0.2222
-4.0218 REGAN -0.2222
-4.0218 REISS -0.2222
-3.7207 REMI -0.2222
-4.0218 REMY -0.2222
-4.0218 RENAE -0.2222
-3.7207 RENE -0.2222
-4.0218 RENEE -0.2222
-4.0218 REUBEN -0.2222
-4.0218 RHEA -0.2222
-4.0218 RHIAN -0.2222
-4.0218 RHIANN -0.2222
-4.0218 RHIANNA -0.2222
-4.0218 RHIANNE -0.2222
-4.0218 RHIANNON -0.2222
-4.0218 RHODRI -0.2222
-4.0218 RHYS -0.2222
-4.0218 RIA -0.2222
-4.0218 RIAN -0.2222
-4.0218 RIANNA -0.2222
-4.0218 RIANNE -0.2222
-4.0218 RIANNON -0.2222
-4.0218 RICARDO -0.2222
-4.0218 RICHARD -0.2222
-4.0218 RICHIE -0.2222
-4.0218 RICK -0.2222
-4.0218 RICKIE -0.2222
-4.0218 RICKY -0.2222
-4.0218 RIKKI -0.2222
-4.0218 RILEY -0.2222
-4.0218 RIO -0.2222
-4.0218 RISHI -0.2222
-4.0218 RITCHIE -0.2222
-4.0218 RIZWAN -0.2222
-4.0218 ROAD -0.2222
-4.0218 ROB -0.2222
-4.0218 ROBBIE -0.2222
-4.0218 ROBERT -0.2222
-4.0218 ROBERTA -0.2222
-4.0218 ROBERTO -0.2222
-3.7207 ROBIN -0.2222
-4.0218 ROBSON -0.2222
-4.0218 ROBYN -0.2222
-4.0218 ROCHELLE -0.2222
-4.0218 RODNEY -0.2222
-4.0218 ROGAN -0.2222
-3.7207 ROGER -0.2222
-4.0218 ROHAN -0.2222
-4.0218 ROISIN -0.2222
-4.0218 ROMAN -0.2222
-4.0218 ROMARIO -0.2222
-4.0218 RON -0.2222
-4.0218 RONAN -0.2222
-3.7207 RONNIE -0.2222
-4.0218 RONNY -0.2222
-4.0218 RORY -0.2222
-4.0218 ROSA -0.2222
-4.0218 ROSALIE -0.2222
-4.0218 ROSALIND -0.2222
-4.0218 ROSANNA -0.2222
-4.0218 ROSE -0.2222
-4.0218 ROSEANNA -0.2222
-4.0218 ROSEMARIE -0.2222
-4.0218 ROSEMARY -0.2222
-4.0218 ROSHAN -0.2222
-4.0218 ROSHNI -0.2222
-4.0218 ROSIE -0.2222
-4.0218 ROSS -0.2222
-3.7207 ROWAN -0.2222
-4.0218 ROWENA -0.2222
-4.0218 ROXANNE -0.2222
-4.0218 ROY -0.2222
-4.0218 ROYAL -0.3009
-4.0218 RUAIRI -0.2222
-4.0218 RUBEN -0.2222
-4.0218 RUBY -0.2222
-4.0218 RUFUS -0.2222
-4.0218 RUPERT -0.2222
-4.0218 RUPINDER -0.2222
-4.0218 RUSSELL -0.2222
-4.0218 RUTH -0.2222
-4.0218 RYAN -0.2222
-4.0218 SABA -0.2222
-4.0218 SABAH -0.2222
-4.0218 SABINA -0.2222
-4.0218 SABIR -0.2222
-4.0218 SABRINA -0.2222
-4.0218 SACHA -0.2222
-4.0218 SACHIN -0.2222
-4.0218 SADIA -0.2222
-4.0218 SADIE -0.2222
-4.0218 SAFFRON -0.2222
-4.0218 SAFIA -0.2222
-4.0218 SAFWAAN -0.2222
-4.0218 SAID -0.2222
-4.0218 SAIF -0.2222
-4.0218 SAIMA -0.2222
-4.0218 SAIRA -0.2222
-4.0218 SALEEM -0.2222
-4.0218 SALLY -0.2222
-4.0218 SALLY-ANNE -0.2222
-4.0218 SALMA -0.2222
-4.0218 SALMAN -0.2222
-4.0218 SALVATORE -0.2222
-4.0218 SAM -0.2222
-4.0218 SAMANTHA -0.2222
-4.0218 SAMARA -0.2222
-4.0218 SAMEER -0.2222
-4.0218 SAMI -0.2222
-4.0218 SAMINA -0.2222
-4.0218 SAMIR -0.2222
-4.0218 SAMIRA -0.2222
-4.0218 SAMMIE -0.2222
-4.0218 SAMMY -0.2222
-4.0218 SAMSON -0.2222
-4.0218 SAMUAL -0.2222
-4.0218 SAMUEL -0.2222
-4.0218 SAMY -0.2222
-4.0218 SANA -0.2222
-4.0218 SANAH -0.2222
-4.0218 SANDEEP -0.2222
-4.0218 SANDRA -0.2222
-4.0218 SANJAY -0.2222
-4.0218 SANTIAGO -0.2222
-4.0218 SAPPHIRE -0.2222
-4.0218 SAQIB -0.2222
-4.0218 SARA -0.2222
-4.0218 SARAH -0.2222
-4.0218 SARAH-JANE -0.2222
-4.0218 SARAH-LOUISE -0.2222
-4.0218 SASHA -0.2222
-4.0218 SASKIA -0.2222
-4.0218 SAUL -0.2222
-4.0218 SAVANNA -0.2222
-4.0218 SAVANNAH -0.2222
-4.0218 SCARLET -0.2222
-4.0218 SCARLETT -0.2222
-4.0218 SCHOOL -0.2222
-4.0218 SCIENCE -0.3008
-4.0218 SCOT -0.2222
-4.0218 SCOTT -0.2222
-4.0218 SEAMUS -0.2222
-4.0218 SEAN -0.2222
-4.0218 SEBASTIAN -0.2222
-4.0218 SEBASTIEN -0.2222
-4.0218 SELINA -0.2222
-4.0218 SEREN -0.2222
-4.0218 SERENA -0.2222
-4.0218 SERGE -0.2222
-4.0218 SERGIO -0.2222
-4.0218 SETH -0.2222
-4.0218 SHAH -0.2222
-4.0218 SHAKIRA -0.2222
-4.0218 SHANA -0.2222
-4.0218 SHANE -0.2222
-4.0218 SHANI -0.2222
-4.0218 SHANICE -0.2222
-4.0218 SHANNAN -0.2222
-4.0218 SHANNEN -0.2222
-3.7207 SHANNON -0.2222
-4.0218 SHAQUILLE -0.2222
-4.0218 SHARNA -0.2222
-4.0218 SHARON -0.2222
-4.0218 SHAUN -0.2222
-4.0218 SHAUNA -0.2222
-4.0218 SHAUNNA -0.2222
-4.0218 SHAWN -0.2222
-4.0218 SHAY -0.2222
-4.0218 SHAZAD -0.2222
-4.0218 SHE -0.2222
-4.0218 SHELBY -0.2222
-4.0218 SHELDON -0.2222
-4.0218 SHELLEY -0.2222
-4.0218 SHIVANI -0.2222
-4.0218 SHONA -0.2222
-4.0218 SHOPPING -0.2222
-4.0218 SHYAM -0.2222
-4.0218 SI -0.2222
-4.0218 SIAN -0.2222
-4.0218 SID -0.2222
-4.0218 SIDNEY -0.2222
-4.0218 SIMEON -0.2222
-4.0218 SIMON -0.2222
-4.0218 SIMONE -0.2222
-3.7207 SIMRAN -0.2222
-4.0218 SINEAD -0.2222
-4.0218 SIOBHAN -0.2222
-4.0218 SION -0.2222
-4.0218 SIONED -0.2222
-4.0218 SKY -0.2222
-4.0218 SKYE -0.2222
-4.0218 SOFIA -0.2222
-4.0218 SOHAIL -0.2222
-4.0218 SOLOMON -0.2222
-4.0218 SONIA -0.2222
-4.0218 SONNY -0.2222
-4.0218 SOPHIA -0.2222
-4.0218 SOPHIE -0.2222
-4.0218 SOUTH -0.3010
-4.0218 SPENCER -0.2222
-4.0218 SPIKE -0.2222
-4.0218 STACEY -0.2222
-4.0218 STACIE -0.2222
-4.0218 STACY -0.2222
-4.0218 STANLEY -0.2222
-4.0218 STEFAN -0.2222
-4.0218 STEFFAN -0.2222
-4.0218 STELLA -0.2222
-4.0218 STEPHAN -0.2222
-4.0218 STEPHANIE -0.2222
-4.0218 STEPHEN -0.2222
-4.0218 STEVE -0.2222
-4.0218 STEVEN -0.2222
-4.0218 STEVIE -0.2222
-4.0218 STEWART -0.2222
-4.0218 STUART -0.2222
-4.0218 SUMMER -0.2222
-4.0218 SUNIL -0.2222
-4.0218 SURAJ -0.2222
-4.0218 SURE -0.2222
-4.0218 SUSAN -0.2222
-4.0218 SUSANNA -0.2222
-4.0218 SUSANNAH -0.2222
-4.0218 SUSIE -0.2222
-4.0218 SUZANNA -0.2222
-4.0218 SUZANNE -0.2222
-4.0218 SUZY -0.2222
-4.0218 SYDNEY -0.2222
-4.0218 SYED -0.2222
-4.0218 SYEDA -0.2222
-4.0218 TABITHA -0.2222
-4.0218 TALIA -0.2222
-4.0218 TALLULAH -0.2222
-4.0218 TAMARA -0.2222
-4.0218 TAMMY -0.2222
-4.0218 TAMSIN -0.2222
-4.0218 TAMSYN -0.2222
-4.0218 TANIA -0.2222
-4.0218 TANISHA -0.2222
-4.0218 TANYA -0.2222
-4.0218 TARA -0.2222
-4.0218 TARAN -0.2222
-4.0218 TARIQ -0.2222
-4.0218 TASMIN -0.2222
-4.0218 TASNIM -0.2222
-4.0218 TAYLA -0.2222
-4.0218 TAYLER -0.2222
-3.7207 TAYLOR -0.2222
-4.0218 TEGAN -0.2222
-4.0218 TERENCE -0.2222
-4.0218 TERESA -0.2222
-4.0218 TERI -0.2222
-4.0218 TERRI -0.2222
-4.0218 TERRY -0.2222
-4.0218 TESS -0.2222
-4.0218 TESSA -0.2222
-4.0218 THAT -0.2222
-4.0218 THEA -0.2222
-4.0218 THEO -0.2222
-4.0218 THEODORE -0.2222
-4.0218 THINK -0.2222
-4.0218 THIS -0.2222
-4.0218 THOM -0.2222
-4.0218 THOMAS -0.2222
-4.0218 TIA -0.2222
-4.0218 TIFFANY -0.2222
-4.0218 TILLY -0.2222
-4.0218 TIM -0.2222
-4.0218 TIMOTHY -0.2222
-4.0218 TINA -0.2222
-4.0218 TOBIAS -0.2222
-4.0218 TOBY -0.2222
-4.0218 TODD -0.2222
-4.0218 TOM -0.2222
-4.0218 TOMAS -0.2222
-4.0218 TOMMY -0.2222
-4.0218 TOMOS -0.2222
-4.0218 TONI -0.2222
-4.0218 TONICHA -0.2222
-4.0218 TONY -0.2222
-4.0218 TORI -0.2222
-4.0218 TRAIN -0.2222
-4.0218 TRAVIS -0.2222
-4.0218 TRISTAN -0.2222
-4.0218 TRISTIAN -0.2222
-4.0218 TRISTON -0.2222
-4.0218 TROY -0.2222
-4.0218 TUBE -0.2222
-3.7207 TYLER -0.2222
-4.0218 TYRELL -0.2222
-4.0218 TYRONE -0.2222
-4.0218 TYRONNE -0.2222
-4.0218 TYSON -0.2222
-4.0218 UMAIR -0.2222
-4.0218 UMAR -0.2222
-4.0218 UNDERGROUND -0.2222
-4.0218 UNION -0.2222
-4.0218 UNIVERSITY -0.2222
-4.0218 US -0.2222
-4.0218 USAMA -0.2222
-4.0218 USMAN -0.2222
-4.0218 UZAIR -0.2222
-4.0218 V -0.3009
-4.0218 VANESSA -0.2222
-4.0218 VERITY -0.2222
-4.0218 VERNON -0.2222
-4.0218 VICKIE -0.2222
-4.0218 VICKY -0.2222
-4.0218 VICTOR -0.2222
-3.7207 VICTORIA -0.2221
-4.0218 VINAY -0.2222
-4.0218 VINCENT -0.2222
-4.0218 VISHAL -0.2222
-4.0218 VIVIEN -0.2222
-4.0218 WADE -0.2222
-4.0218 WAQAR -0.2222
-4.0218 WAQAS -0.2222
-4.0218 WARREN -0.2222
-4.0218 WAS -0.2222
-4.0218 WASEEM -0.2222
-4.0218 WASIM -0.2222
-4.0218 WAYNE -0.2222
-3.7207 WE -0.2222
-4.0218 WENDY -0.2222
-4.0218 WERE -0.2222
-4.0218 WESLEY -0.2222
-4.0218 WHITNEY -0.2222
-4.0218 WHOM -0.2222
-4.0218 WHOSE -0.2222
-4.0218 WILL -0.2222
-4.0218 WILLIAM -0.2222
-4.0218 WORK -0.2222
-4.0218 XAVIER -0.2222
-4.0218 YANNICK -0.2222
-4.0218 YASIN -0.2222
-4.0218 YASMIN -0.2222
-4.0218 YASMINE -0.2222
-4.0218 YAZMIN -0.2222
-4.0218 YEAH -0.2222
-4.0218 YEP -0.2222
-4.0218 YES -0.2222
-4.0218 YIANNIS -0.2222
-4.0218 YOU -0.2222
-4.0218 YUSUF -0.2222
-4.0218 YVES -0.2222
-4.0218 ZAC -0.2222
-4.0218 ZACH -0.2222
-4.0218 ZACHARIAH -0.2222
-4.0218 ZACHARY -0.2222
-4.0218 ZACHERY -0.2222
-4.0218 ZACK -0.2222
-4.0218 ZACKARY -0.2222
-4.0218 ZACKERY -0.2222
-4.0218 ZAHRA -0.2222
-4.0218 ZAIN -0.2222
-4.0218 ZAINAB -0.2222
-4.0218 ZAK -0.2222
-4.0218 ZAKARIA -0.2222
-4.0218 ZAKIR -0.2222
-4.0218 ZARA -0.2222
-4.0218 ZEESHAN -0.2222
-4.0218 ZOE -0.2222
-4.0218 ZOHAIB -0.2222

\2-grams:
-3.5431 <s> AADAM 0.0000
-3.5431 <s> AADIL 0.0000
-3.5431 <s> AALIYAH 0.0000
-3.5431 <s> AAMIR 0.0000
-3.5431 <s> AARON 0.0000
-3.5431 <s> ABBAS 0.0000
-3.5431 <s> ABBEY 0.0000
-3.5431 <s> ABBI 0.0000
-3.5431 <s> ABBIE 0.0000
-3.5431 <s> ABBIGAIL 0.0000
-3.5431 <s> ABBY 0.0000
-3.5431 <s> ABDUL 0.0000
-3.5431 <s> ABDULLAH 0.0000
-3.5431 <s> ABI 0.0000
-3.5431 <s> ABIGAIL 0.0000
-3.5431 <s> ABRAHAM 0.0000
-3.5431 <s> ABU 0.0000
-3.5431 <s> ABUL 0.0000
-3.5431 <s> ADAM 0.0000
-3.5431 <s> ADEEL 0.0000
-3.5431 <s> ADELE 0.0000
-3.5431 <s> ADEN 0.0000
-3.5431 <s> ADIL 0.0000
-3.5431 <s> ADNAN 0.0000
-3.5431 <s> ADRIAN 0.0000
-3.5431 <s> ADRIENNE 0.0000
-3.5431 <s> AFFIRMATIVE 0.0000
-3.5431 <s> AHMAD 0.0000
-3.5431 <s> AHMED 0.0000
-3.5431 <s> AHMET 0.0000
-3.5431 <s> AIDAN 0.0000
-3.5431 <s> AIDEN 0.0000
-3.5431 <s> AILEEN 0.0000
-3.5431 <s> AILISH 0.0000
-3.5431 <s> AILSA 0.0000
-3.5431 <s> AIMEE 0.0000
-3.5431 <s> AINE 0.0000
-3.2420 <s> AINSLEY 0.0000
-3.5431 <s> AISHA 0.0000
-3.5431 <s> AISHAH 0.0000
-3.5431 <s> AISLING 0.0000
-3.5431 <s> AISLINN 0.0000
-3.5431 <s> AJAY 0.0000
-3.5431 <s> AKASH 0.0000
-3.5431 <s> AKBAR 0.0000
-3.5431 <s> AKEEM 0.0000
-3.5431 <s> AKHIL 0.0000
-3.5431 <s> AKSHAY 0.0000
-3.5431 <s> ALAN 0.0000
-3.5431 <s> ALANA 0.0000
-3.5431 <s> ALANNA 0.0000
-3.5431 <s> ALANNAH 0.0000
-3.5431 <s> ALASDAIR 0.0000
-3.5431 <s> ALASTAIR 0.0000
-3.5431 <s> ALBERT -0.2218
-3.5431 <s> ALEC 0.0000
-3.5431 <s> ALED 0.0000
-3.5431 <s> ALEESHA 0.0000
-3.5431 <s> ALESSANDRA 0.0000
-3.5431 <s> ALESSANDRO 0.0000
-3.5431 <s> ALESSIA 0.0000
-3.2420 <s> ALEX 0.0000
-3.5431 <s> ALEXANDER 0.0000
-3.5431 <s> ALEXANDRA 0.0000
-3.5431 <s> ALEXANDRE 0.0000
-3.5431 <s> ALEXANDRIA 0.0000
-3.5431 <s> ALEXIA 0.0000
-3.5431 <s> ALEXIS 0.0000
-3.5431 <s> ALFIE 0.0000
-3.5431 <s> ALFRED 0.0000
-3.5431 <s> ALI 0.0000
-3.5431 <s> ALICE 0.0000
-3.5431 <s> ALICIA 0.0000
-3.5431 <s> ALIESHA 0.0000
-3.5431 <s> ALINA 0.0000
-3.5431 <s> ALISHA 0.0000
-3.5431 <s> ALISON 0.0000
-3.5431 <s> ALISTAIR 0.0000
-3.5431 <s> ALISTER 0.0000
-3.5431 <s> ALIX 0.0000
-3.5431 <s> ALIYA 0.0000
-3.5431 <s> ALIYAH 0.0000
-3.5431 <s> ALL 0.0000
-3.5431 <s> ALLAN 0.0000
-3.5431 <s> ALLYSHA 0.0000
-3.5431 <s> ALVIN 0.0000
-3.5431 <s> ALYS 0.0000
-3.5431 <s> ALYSHA 0.0000
-3.5431 <s> ALYSSIA 0.0000
-3.5431 <s> AM 0.0000
-3.5431 <s> AMAAN 0.0000
-3.5431 <s> AMALIE 0.0000
-3.5431 <s> AMAN 0.0000
-3.5431 <s> AMANDA 0.0000
-3.2420 <s> AMANDEEP 0.0000
-3.5431 <s> AMAR 0.0000
-3.5431 <s> AMARA 0.0000
-3.5431 <s> AMBER 0.0000
-3.5431 <s> AMEERA 0.0000
-3.5431 <s> AMELIA 0.0000
-3.5431 <s> AMI 0.0000
-3.5431 <s> AMIE 0.0000
-3.5431 <s> AMINA 0.0000
-3.5431 <s> AMIR 0.0000
-3.5431 <s> AMY 0.0000
-3.5431 <s> ANA 0.0000
-3.5431 <s> ANASTASIA 0.0000
-3.5431 <s> ANDIE 0.0000
-3.5431 <s> ANDRE 0.0000
-3.5431 <s> ANDREA 0.0000
-3.5431 <s> ANDREAS 0.0000
-3.5431 <s> ANDREW 0.0000
-3.5431 <s> ANDY 0.0000
-3.5431 <s> ANEEKA 0.0000
-3.5431 <s> ANEESA 0.0000
-3.5431 <s> ANGEL 0.0000
-3.5431 <s> ANGELA 0.0000
-3.5431 <s> ANGELICA 0.0000
-3.5431 <s> ANGELINA 0.0000
-3.5431 <s> ANGELO 0.0000
-3.5431 <s> ANGHARAD 0.0000
-3.5431 <s> ANGUS 0.0000
-3.5431 <s> ANIKA 0.0000
-3.5431 <s> ANISA 0.0000
-3.5431 <s> ANISAH 0.0000
-3.5431 <s> ANISH 0.0000
-3.5431 <s> ANISHA 0.0000
-3.5431 <s> ANITA 0.0000
-3.5431 <s> ANN 0.0000
-3.5431 <s> ANNA 0.0000
-3.5431 <s> ANNABEL 0.0000
-3.5431 <s> ANNABELLE 0.0000
-3.5431 <s> ANNALISE 0.0000
-3.5431 <s> ANNE 0.0000
-3.5431 <s> ANNE-MARIE 0.0000
-3.5431 <s> ANNIE 0.0000
-3.5431 <s> ANNIKA 0.0000
-3.5431 <s> ANTHONY 0.0000
-3.5431 <s> ANTON 0.0000
-3.5431 <s> ANTONIA 0.0000
-3.5431 <s> ANTONIO 0.0000
-3.5431 <s> ANTONY 0.0000
-3.5431 <s> ANWAR 0.0000
-3.5431 <s> ANYA 0.0000
-3.5431 <s> AOIFE 0.0000
-3.5431 <s> APRIL 0.0000
-3.5431 <s> AQIB 0.0000
-3.5431 <s> ARABELLA 0.0000
-3.5431 <s> ARAN 0.0000
-3.5431 <s> ARCHIE 0.0000
-3.5431 <s> ARE 0.0000
-3.5431 <s> ARJUN 0.0000
-3.5431 <s> ARON 0.0000
-3.5431 <s> ARRAN 0.0000
-3.5431 <s> ARRON 0.0000
-3.5431 <s> ARTHUR 0.0000
-3.5431 <s> ARUN 0.0000
-3.5431 <s> ASA 0.0000
-3.5431 <s> ASAD 0.0000
-3.5431 <s> ASHA 0.0000
-3.5431 <s> ASHER 0.0000
-3.5431 <s> ASHLEA 0.0000
-3.5431 <s> ASHLEE 0.0000
-3.2420 <s> ASHLEIGH 0.0000
-3.2420 <s> ASHLEY 0.0000
-3.5431 <s> ASHRAF 0.0000
-3.2420 <s> ASHTON 0.0000
-3.5431 <s> ASIF 0.0000
-3.5431 <s> ASIM 0.0000
-3.5431 <s> ASMA 0.0000
-3.5431 <s> ASTON 0.0000
-3.5431 <s> ATLANTA 0.0000
-3.5431 <s> AUSTIN 0.0000
-3.5431 <s> AUTUMN 0.0000
-3.5431 <s> AWAIS 0.0000
-3.5431 <s> AYDEN 0.0000
-3.5431 <s> AYE 0.0000
-3.5431 <s> AYESHA 0.0000
-3.5431 <s> AYISHA 0.0000
-3.5431 <s> AYRTON 0.0000
-3.5431 <s> AYSHA 0.0000
-3.5431 <s> AZIM 0.0000
-3.5431 <s> AZIZ 0.0000
-3.5431 <s> BAILEY 0.0000
-3.5431 <s> BARBARA 0.0000
-3.5431 <s> BARNABY 0.0000
-3.5431 <s> BARNEY 0.0000
-3.5431 <s> BARRY 0.0000
-3.5431 <s> BE 0.0000
-3.5431 <s> BEATRICE 0.0000
-3.5431 <s> BEAU 0.0000
-3.5431 <s> BECKY 0.0000
-3.5431 <s> BEEN 0.0000
-3.5431 <s> BEING 0.0000
-3.5431 <s> BELINDA 0.0000
-3.5431 <s> BEN 0.0000
-3.5431 <s> BENEDICT 0.0000
-3.5431 <s> BENJAMIN 0.0000
-3.5431 <s> BENN 0.0000
-3.5431 <s> BERNADETTE 0.0000
-3.5431 <s> BERNARD 0.0000
-3.5431 <s> BETH 0.0000
-3.5431 <s> BETHAN 0.0000
-3.5431 <s> BETHANIE 0.0000
-3.5431 <s> BETHANY 0.0000
-3.5431 <s> BETHNEY 0.0000
-3.5431 <s> BEVAN 0.0000
-3.5431 <s> BIANCA 0.0000
-3.5431 <s> BILAL 0.0000
-3.2420 <s> BILLIE 0.0000
-3.5431 <s> BILLIE-JO 0.0000
-3.5431 <s> BILLY 0.0000
-3.5431 <s> BLAINE 0.0000
-3.5431 <s> BLAISE 0.0000
-3.5431 <s> BLAKE 0.0000
-3.5431 <s> BLYTHE 0.0000
-3.5431 <s> BOB 0.0000
-3.5431 <s> BOBBI 0.0000
-3.5431 <s> BOBBIE 0.0000
-3.5431 <s> BOBBY 0.0000
-3.5431 <s> BONITA 0.0000
-3.5431 <s> BONNIE 0.0000
-3.5431 <s> BONNY 0.0000
-3.5431 <s> BORIS 0.0000
-3.5431 <s> BOTH 0.0000
-3.5431 <s> BRAD 0.0000
-3.5431 <s> BRADEN 0.0000
-3.5431 <s> BRADLEY 0.0000
-3.5431 <s> BRADY 0.0000
-3.5431 <s> BRANDAN 0.0000
-3.5431 <s> BRANDON 0.0000
-3.5431 <s> BRENDAN 0.0000
-3.5431 <s> BRENDEN 0.0000
-3.5431 <s> BRENDON 0.0000
-3.5431 <s> BRET 0.0000
-3.5431 <s> BRETT 0.0000
-3.5431 <s> BRIAN 0.0000
-3.5431 <s> BRIANA 0.0000
-3.5431 <s> BRIDGET 0.0000
-3.5431 <s> BRIDIE 0.0000
-3.5431 <s> BRIONY 0.0000
-3.5431 <s> BRITTANY 0.0000
-3.2420 <s> BRODIE 0.0000
-3.2420 <s> BROGAN 0.0000
-3.5431 <s> BRONTE 0.0000
-3.5431 <s> BRONWEN 0.0000
-3.5431 <s> BRONWYN 0.0000
-3.5431 <s> BROOKE 0.0000
-3.5431 <s> BROOKLYN 0.0000
-3.5431 <s> BRUCE 0.0000
-3.5431 <s> BRUNO 0.0000
-3.5431 <s> BRYAN 0.0000
-3.5431 <s> BRYCE 0.0000
-3.5431 <s> BRYN 0.0000
-3.5431 <s> BRYONY 0.0000
-3.5431 <s> BURAK 0.0000
-3.5431 <s> BYRON 0.0000
-3.5431 <s> CAI 0.0000
-3.5431 <s> CAIN 0.0000
-3.5431 <s> CAINE 0.0000
-3.5431 <s> CAITLIN 0.0000
-3.5431 <s> CALEB 0.0000
-3.5431 <s> CALLAM 0.0000
-3.5431 <s> CALLAN 0.0000
-3.5431 <s> CALLED 0.0000
-3.5431 <s> CALLIE 0.0000
-3.5431 <s> CALLUM 0.0000
-3.5431 <s> CALUM 0.0000
-3.5431 <s> CALVIN 0.0000
-3.5431 <s> CAMERON 0.0000
-3.5431 <s> CAMILA 0.0000
-3.5431 <s> CAMILLA 0.0000
-3.5431 <s> CAMILLE 0.0000
-3.5431 <s> CAMPBELL 0.0000
-3.5431 <s> CANDICE 0.0000
-3.5431 <s> CARA 0.0000
-3.5431 <s> CARIS 0.0000
-3.5431 <s> CARL 0.0000
-3.5431 <s> CARLA 0.0000
-3.5431 <s> CARLIE 0.0000
-3.5431 <s> CARLOS 0.0000
-3.5431 <s> CARLTON 0.0000
-3.5431 <s> CARLY 0.0000
-3.5431 <s> CARMEN 0.0000
-3.5431 <s> CAROLINE 0.0000
-3.5431 <s> CAROLYN 0.0000
-3.5431 <s> CARRIE 0.0000
-3.5431 <s> CARWYN 0.0000
-3.5431 <s> CARYS 0.0000
-3.2420 <s> CASEY 0.0000
-3.5431 <s> CASSANDRA 0.0000
-3.5431 <s> CASSIDY 0.0000
-3.5431 <s> CASSIE 0.0000
-3.5431 <s> CATHERINE 0.0000
-3.5431 <s> CATHRINE 0.0000
-3.5431 <s> CATRIN 0.0000
-3.5431 <s> CATRIONA 0.0000
-3.5431 <s> CELIA 0.0000
-3.5431 <s> CELINE 0.0000
-3.5431 <s> CERI 0.0000
-3.5431 <s> CERTAINLY 0.0000
-3.5431 <s> CERYS 0.0000
-3.5431 <s> CHAD 0.0000
-3.5431 <s> CHANDLER 0.0000
-3.5431 <s> CHANEL 0.0000
-3.5431 <s> CHANELLE 0.0000
-3.5431 <s> CHANICE 0.0000
-3.5431 <s> CHANNELLE 0.0000
-3.5431 <s> CHANTAL 0.0000
-3.5431 <s> CHANTE 0.0000
-3.5431 <s> CHANTEL 0.0000
-3.5431 <s> CHANTELLE 0.0000
-3.5431 <s> CHARIS 0.0000
-3.5431 <s> CHARLENE 0.0000
-3.5431 <s> CHARLES 0.0000
-3.2420 <s> CHARLEY 0.0000
-3.2420 <s> CHARLIE 0.0000
-3.5431 <s> CHARLOTTE 0.0000
-3.5431 <s> CHARMAINE 0.0000
-3.5431 <s> CHAY 0.0000
-3.5431 <s> CHE 0.0000
-3.5431 <s> CHELSEA 0.0000
-3.5431 <s> CHELSEY 0.0000
-3.5431 <s> CHELSIE 0.0000
-3.5431 <s> CHERYL 0.0000
-3.5431 <s> CHESTER 0.0000
-3.5431 <s> CHEYENNE 0.0000
-3.5431 <s> CHIRAG 0.0000
-3.5431 <s> CHLOE 0.0000
-3.5431 <s> CHRIS 0.0000
-3.5431 <s> CHRISTIAN 0.0000
-3.2420 <s> CHRISTIE 0.0000
-3.5431 <s> CHRISTINA 0.0000
-3.5431 <s> CHRISTINE 0.0000
-3.5431 <s> CHRISTOPHER 0.0000
-3.5431 <s> CHRISTOS 0.0000
-3.5431 <s> CIAN 0.0000
-3.5431 <s> CIARA 0.0000
-3.5431 <s> CIARAN 0.0000
-3.5431 <s> CIERAN 0.0000
-3.5431 <s> CLAIRE 0.0000
-3.5431 <s> CLARA 0.0000
-3.5431 <s> CLARE 0.0000
-3.5431 <s> CLARISSA 0.0000
-3.5431 <s> CLARK 0.0000
-3.5431 <s> CLAUDIA 0.0000
-3.5431 <s> CLAYTON 0.0000
-3.5431 <s> CLEO 0.0000
-3.5431 <s> CLINT 0.0000
-3.5431 <s> CLIVE 0.0000
-3.5431 <s> CODIE 0.0000
-3.2420 <s> CODY 0.0000
-3.5431 <s> COLE 0.0000
-3.5431 <s> COLETTE 0.0000
-3.5431 <s> COLIN 0.0000
-3.5431 <s> CONNAH 0.0000
-3.5431 <s> CONNELL 0.0000
-3.5431 <s> CONNER 0.0000
-3.5431 <s> CONNIE 0.0000
-3.5431 <s> CONNOR 0.0000
-3.5431 <s> CONOR 0.0000
-3.5431 <s> CONRAD 0.0000
-3.5431 <s> CONSTANCE 0.0000
-3.5431 <s> CONSTANTINE 0.0000
-3.5431 <s> CONSTANTINOS 0.0000
-3.5431 <s> CORA 0.0000
-3.5431 <s> CORAL 0.0000
-3.5431 <s> COREY 0.0000
-3.5431 <s> CORIN 0.0000
-3.5431 <s> CORINNE 0.0000
-3.5431 <s> CORMAC 0.0000
-3.5431 <s> CORRIE 0.0000
-3.2420 <s> CORY 0.0000
-3.5431 <s> COURSE 0.0000
-3.5431 <s> COURTENEY 0.0000
-3.2420 <s> COURTNEY 0.0000
-3.5431 <s> CRAIG 0.0000
-3.5431 <s> CRYSTAL 0.0000
-3.5431 <s> CULLEN 0.0000
-3.5431 <s> CULLUM 0.0000
-3.5431 <s> CURTIS 0.0000
-3.5431 <s> CYRUS 0.0000
-3.5431 <s> DAFYDD 0.0000
-3.5431 <s> DAISY 0.0000
-3.5431 <s> DALE 0.0000
-3.5431 <s> DALTON 0.0000
-3.5431 <s> DAMIAN 0.0000
-3.5431 <s> DAMIEN 0.0000
-3.5431 <s> DAMON 0.0000
-3.5431 <s> DAN 0.0000
-3.5431 <s> DANA 0.0000
-3.5431 <s> DANE 0.0000
-3.2420 <s> DANI 0.0000
-3.5431 <s> DANIAL 0.0000
-3.5431 <s> DANIEL 0.0000
-3.5431 <s> DANIELA 0.0000
-3.5431 <s> DANIELE 0.0000
-3.5431 <s> DANIELLA 0.0000
-3.5431 <s> DANIELLE 0.0000
-3.5431 <s> DANISH 0.0000
-3.5431 <s> DANNI 0.0000
-3.5431 <s> DANNIELLA 0.0000
-3.5431 <s> DANNIELLE 0.0000
-3.5431 <s> DANNY 0.0000
-3.5431 <s> DANYAL 0.0000
-3.5431 <s> DARCIE 0.0000
-3.5431 <s> DARCY 0.0000
-3.5431 <s> DARIEN 0.0000
-3.5431 <s> DARIUS 0.0000
-3.5431 <s> DARNELL 0.0000
-3.5431 <s> DARRAGH 0.0000
-3.5431 <s> DARRELL 0.0000
-3.5431 <s> DARREN 0.0000
-3.5431 <s> DARRYL 0.0000
-3.5431 <s> DARYL 0.0000
-3.5431 <s> DARYLL 0.0000
-3.5431 <s> DAVEY 0.0000
-3.5431 <s> DAVID 0.0000
-3.5431 <s> DAVINA 0.0000
-3.5431 <s> DAVY 0.0000
-3.5431 <s> DAWN 0.0000
-3.5431 <s> DAYLE 0.0000
-3.5431 <s> DAYNA 0.0000
-3.5431 <s> DEAN 0.0000
-3.5431 <s> DEANNA 0.0000
-3.5431 <s> DEBBIE 0.0000
-3.5431 <s> DEBORAH 0.0000
-3.5431 <s> DECLAN 0.0000
-3.5431 <s> DEMI 0.0000
-3.5431 <s> DEMI-LEIGH 0.0000
-3.5431 <s> DENNIS 0.0000
-3.5431 <s> DENZEL 0.0000
-3.5431 <s> DEREK 0.0000
-3.5431 <s> DERREN 0.0000
-3.5431 <s> DERRY 0.0000
-3.5431 <s> DEVANTE 0.0000
-3.2420 <s> DEVON 0.0000
-3.5431 <s> DEWI 0.0000
-3.5431 <s> DEXTER 0.0000
-3.5431 <s> DIANA 0.0000
-3.5431 <s> DILAN 0.0000
-3.5431 <s> DILLAN 0.0000
-3.5431 <s> DILLON 0.0000
-3.5431 <s> DIMITRIS 0.0000
-3.5431 <s> DINA 0.0000
-3.5431 <s> DION 0.0000
-3.5431 <s> DIONNE 0.0000
-3.5431 <s> DISTRICT 0.0000
-3.5431 <s> DJANGO 0.0000
-3.5431 <s> DOMINIC 0.0000
-3.5431 <s> DOMINIQUE 0.0000
-3.5431 <s> DONALD 0.0000
-3.5431 <s> DONNA 0.0000
-3.5431 <s> DONOVAN 0.0000
-3.5431 <s> DONT 0.0000
-3.5431 <s> DORIAN 0.0000
-3.5431 <s> DOUGLAS 0.0000
-3.5431 <s> DRE 0.0000
-3.2420 <s> DREW 0.0000
-3.5431 <s> DUDLEY 0.0000
-3.5431 <s> DUNCAN 0.0000
-3.5431 <s> DWAYNE 0.0000
-3.5431 <s> DYLAN 0.0000
-3.5431 <s> EAMON 0.0000
-3.5431 <s> EARLS 0.0000
-3.5431 <s> EBONY 0.0000
-3.5431 <s> EDDIE 0.0000
-3.5431 <s> EDDY 0.0000
-3.2420 <s> EDEN 0.0000
-3.5431 <s> EDGAR 0.0000
-3.5431 <s> EDIE 0.0000
-3.5431 <s> EDMUND 0.0000
-3.5431 <s> EDUARDO 0.0000
-3.5431 <s> EDWARD 0.0000
-3.5431 <s> EDWIN 0.0000
-3.5431 <s> EILEEN 0.0000
-3.5431 <s> EILISH 0.0000
-3.5431 <s> ELEANOR 0.0000
-3.5431 <s> ELENA 0.0000
-3.5431 <s> ELI 0.0000
-3.5431 <s> ELIAS 0.0000
-3.5431 <s> ELIJAH 0.0000
-3.5431 <s> ELIN 0.0000
-3.5431 <s> ELINOR 0.0000
-3.5431 <s> ELIOT 0.0000
-3.5431 <s> ELIOTT 0.0000
-3.5431 <s> ELIS 0.0000
-3.5431 <s> ELISA 0.0000
-3.5431 <s> ELISABETH 0.0000
-3.5431 <s> ELISE 0.0000
-3.5431 <s> ELISHA 0.0000
-3.5431 <s> ELIZA 0.0000
-3.5431 <s> ELIZABETH 0.0000
-3.5431 <s> ELLA 0.0000
-3.5431 <s> ELLE 0.0000
-3.5431 <s> ELLEN 0.0000
-3.5431 <s> ELLENA 0.0000
-3.5431 <s> ELLIE 0.0000
-3.5431 <s> ELLIE-MAE 0.0000
-3.5431 <s> ELLIOT 0.0000
-3.5431 <s> ELLIOTT 0.0000
-3.2420 <s> ELLIS 0.0000
-3.5431 <s> ELOISE 0.0000
-3.5431 <s> ELSA 0.0000
-3.5431 <s> ELSPETH 0.0000
-3.5431 <s> ELYSIA 0.0000
-3.5431 <s> EMILIA 0.0000
-3.5431 <s> EMILIE 0.0000
-3.5431 <s> EMILIO 0.0000
-3.5431 <s> EMILY 0.0000
-3.5431 <s> EMMA 0.0000
-3.5431 <s> EMMANUEL 0.0000
-3.5431 <s> ENYA 0.0000
-3.5431 <s> EOIN 0.0000
-3.5431 <s> ERIC 0.0000
-3.5431 <s> ERICA 0.0000
-3.5431 <s> ERIKA 0.0000
-3.5431 <s> ERIN 0.0000
-3.5431 <s> ESME 0.0000
-3.5431 <s> ESTELLE 0.0000
-3.5431 <s> ESTHER 0.0000
-3.5431 <s> ETHAN 0.0000
-3.5431 <s> ETHOS 0.0000
-3.5431 <s> EUAN 0.0000
-3.5431 <s> EVA 0.0000
-3.2420 <s> EVAN 0.0000
-3.5431 <s> EVANGELINE 0.0000
-3.5431 <s> EVE 0.0000
-3.5431 <s> EVELYN 0.0000
-3.5431 <s> EVIE 0.0000
-3.5431 <s> EWAN 0.0000
-3.5431 <s> EZEKIEL 0.0000
-3.5431 <s> EZRA 0.0000
-3.5431 <s> FABIAN 0.0000
-3.5431 <s> FABIO 0.0000
-3.5431 <s> FAHAD 0.0000
-3.5431 <s> FAHIM 0.0000
-3.5431 <s> FAISAL 0.0000
-3.5431 <s> FAITH 0.0000
-3.5431 <s> FAIZA 0.0000
-3.5431 <s> FAIZAN 0.0000
-3.5431 <s> FALSE 0.0000
-3.5431 <s> FARAAZ 0.0000
-3.5431 <s> FARAH 0.0000
-3.5431 <s> FARHAN 0.0000
-3.5431 <s> FARHANA 0.0000
-3.5431 <s> FARRAH 0.0000
-3.5431 <s> FARZANA 0.0000
-3.5431 <s> FATIMA 0.0000
-3.5431 <s> FAY 0.0000
-3.5431 <s> FAYE 0.0000
-3.5431 <s> FELICIA 0.0000
-3.5431 <s> FELICITY 0.0000
-3.5431 <s> FELIX 0.0000
-3.5431 <s> FERDINAND 0.0000
-3.5431 <s> FERGUS 0.0000
-3.5431 <s> FERN 0.0000
-3.5431 <s> FFION 0.0000
-3.5431 <s> FINE 0.0000
-3.2420 <s> FINLAY 0.0000
-3.5431 <s> FINN 0.0000
-3.5431 <s> FIONA 0.0000
-3.5431 <s> FLEUR 0.0000
-3.5431 <s> FLORA 0.0000
-3.5431 <s> FLORENCE 0.0000
-3.5431 <s> FLOYD 0.0000
-3.5431 <s> FOOD 0.0000
-3.5431 <s> FRANCES 0.0000
-3.5431 <s> FRANCESCA 0.0000
-3.5431 <s> FRANCESCO 0.0000
-3.5431 <s> FRANCIS 0.0000
-3.5431 <s> FRANCOIS 0.0000
-3.5431 <s> FRANK 0.0000
-3.5431 <s> FRANKIE 0.0000
-3.5431 <s> FRANKLIN 0.0000
-3.5431 <s> FRASER 0.0000
-3.5431 <s> FRAZER 0.0000
-3.5431 <s> FRAZIER 0.0000
-3.5431 <s> FRED 0.0000
-3.2420 <s> FREDDIE 0.0000
-3.5431 <s> FREDDY 0.0000
-3.5431 <s> FREDERICK 0.0000
-3.5431 <s> FREDERIK 0.0000
-3.5431 <s> FREDRICK 0.0000
-3.5431 <s> FREYA 0.0000
-3.5431 <s> GABRIEL 0.0000
-3.5431 <s> GABRIELE 0.0000
-3.5431 <s> GABRIELLA 0.0000
-3.5431 <s> GABRIELLE 0.0000
-3.5431 <s> GABY 0.0000
-3.5431 <s> GAGE 0.0000
-3.5431 <s> GARETH 0.0000
-3.5431 <s> GARRY 0.0000
-3.5431 <s> GARY 0.0000
-3.5431 <s> GAVIN 0.0000
-3.5431 <s> GEMMA 0.0000
-3.5431 <s> GENEVIEVE 0.0000
-3.5431 <s> GEOFFREY 0.0000
-3.5431 <s> GEORGE 0.0000
-3.5431 <s> GEORGIA 0.0000
-3.2420 <s> GEORGIE 0.0000
-3.5431 <s> GEORGINA 0.0000
-3.5431 <s> GERAINT 0.0000
-3.5431 <s> GERALD 0.0000
-3.5431 <s> GERALDINE 0.0000
-3.5431 <s> GERARD 0.0000
-3.5431 <s> GETHIN 0.0000
-3.5431 <s> GIANLUCA 0.0000
-3.5431 <s> GIDEON 0.0000
-3.5431 <s> GILES 0.0000
-3.5431 <s> GINA 0.0000
-3.5431 <s> GIORGIA 0.0000
-3.5431 <s> GIOVANNI 0.0000
-3.5431 <s> GIUSEPPE 0.0000
-3.5431 <s> GLEN 0.0000
-3.5431 <s> GLENN 0.0000
-3.5431 <s> GLOUCESTER 0.0000
-3.5431 <s> GRACE 0.0000
-3.5431 <s> GRAEME 0.0000
-3.5431 <s> GRAHAM 0.0000
-3.5431 <s> GRANT 0.0000
-3.5431 <s> GREG 0.0000
-3.5431 <s> GREGG 0.0000
-3.5431 <s> GREGORY 0.0000
-3.5431 <s> GUY 0.0000
-3.5431 <s> GYM 0.0000
-3.5431 <s> HAFSA 0.0000
-3.5431 <s> HAFSAH 0.0000
-3.5431 <s> HAIDER 0.0000
-3.5431 <s> HAILEY 0.0000
-3.5431 <s> HAKEEM 0.0000
-3.5431 <s> HALEEMA 0.0000
-3.5431 <s> HALIMA 0.0000
-3.5431 <s> HALLS 0.0000
-3.5431 <s> HAMEED 0.0000
-3.5431 <s> HAMISH 0.0000
-3.5431 <s> HAMZA 0.0000
-3.5431 <s> HAMZAH 0.0000
-3.5431 <s> HANA 0.0000
-3.5431 <s> HANNA 0.0000
-3.5431 <s> HANNAH 0.0000
-3.5431 <s> HARIS 0.0000
-3.5431 <s> HARISH 0.0000
-3.2420 <s> HARLEY 0.0000
-3.5431 <s> HAROLD 0.0000
-3.5431 <s> HAROON 0.0000
-3.5431 <s> HARRI 0.0000
-3.5431 <s> HARRIET 0.0000
-3.5431 <s> HARRIETT 0.0000
-3.5431 <s> HARRIS 0.0000
-3.5431 <s> HARRISON 0.0000
-3.5431 <s> HARRY 0.0000
-3.5431 <s> HARVEY 0.0000
-3.5431 <s> HASAN 0.0000
-3.5431 <s> HASEEB 0.0000
-3.5431 <s> HASHIM 0.0000
-3.5431 <s> HASNAIN 0.0000
-3.5431 <s> HASSAAN 0.0000
-3.5431 <s> HASSAN 0.0000
-3.5431 <s> HAYDEN 0.0000
-3.5431 <s> HAYDN 0.0000
-3.5431 <s> HAYDON 0.0000
-3.5431 <s> HAYLEIGH 0.0000
-3.5431 <s> HAYLEY 0.0000
-3.5431 <s> HAZEL 0.0000
-3.5431 <s> HE 0.0000
-3.5431 <s> HEATH 0.0000
-3.5431 <s> HEATHER 0.0000
-3.5431 <s> HECTOR 0.0000
-3.5431 <s> HEIDI 0.0000
-3.5431 <s> HELEN 0.0000
-3.5431 <s> HELENA 0.0000
-3.5431 <s> HENNA 0.0000
-3.5431 <s> HENRIETTA 0.0000
-3.5431 <s> HENRY 0.0000
-3.5431 <s> HERBIE 0.0000
-3.5431 <s> HILARY 0.0000
-3.5431 <s> HISTORY 0.0000
-3.5431 <s> HOLLIE 0.0000
-3.5431 <s> HOLLY 0.0000
-3.5431 <s> HOME 0.0000
-3.5431 <s> HONOR 0.0000
-3.5431 <s> HOPE 0.0000
-3.5431 <s> HOWARD 0.0000
-3.5431 <s> HUGH 0.0000
-3.5431 <s> HUGO 0.0000
-3.5431 <s> HUMAIRA 0.0000
-3.5431 <s> HUMZA 0.0000
-3.5431 <s> HUSSAIN 0.0000
-3.5431 <s> HUW 0.0000
-3.5431 <s> HYDE 0.0000
-3.5431 <s> HYWEL 0.0000
-3.5431 <s> I 0.0000
-3.5431 <s> IAIN 0.0000
-3.5431 <s> IAN 0.0000
-3.5431 <s> IBRAHEEM 0.0000
-3.5431 <s> IBRAHIM 0.0000
-3.5431 <s> IDRIS 0.0000
-3.5431 <s> IEUAN 0.0000
-3.5431 <s> IKRA 0.0000
-3.5431 <s> IM 0.0000
-3.5431 <s> IMAN 0.0000
-3.5431 <s> IMOGEN 0.0000
-3.5431 <s> IMPERIAL 0.0000
-3.5431 <s> IMRAN 0.0000
-3.5431 <s> INDEED 0.0000
-3.5431 <s> INDIA 0.0000
-3.5431 <s> INDUBITABLY 0.0000
-3.5431 <s> INGRID 0.0000
-3.5431 <s> IONA 0.0000
-3.5431 <s> IQRA 0.0000
-3.5431 <s> IRAM 0.0000
-3.5431 <s> IS 0.0000
-3.5431 <s> ISAAC 0.0000
-3.5431 <s> ISABEL 0.0000
-3.5431 <s> ISABELLA 0.0000
-3.5431 <s> ISABELLE 0.0000
-3.5431 <s> ISHMAEL 0.0000
-3.5431 <s> ISHMAIL 0.0000
-3.5431 <s> ISLA 0.0000
-3.5431 <s> ISMAIL 0.0000
-3.5431 <s> ISOBEL 0.0000
-3.5431 <s> ISOBELLE 0.0000
-3.5431 <s> ISSAC 0.0000
-3.5431 <s> IT 0.0000
-3.5431 <s> ITS 0.0000
-3.5431 <s> IVAN 0.0000
-3.5431 <s> IVY 0.0000
-3.5431 <s> IWAN 0.0000
-3.5431 <s> IZAAK 0.0000
-3.5431 <s> JA 0.0000
-3.5431 <s> JAC 0.0000
-3.5431 <s> JACK 0.0000
-3.5431 <s> JACKIE 0.0000
-3.5431 <s> JACKSON 0.0000
-3.5431 <s> JACKY 0.0000
-3.5431 <s> JACOB 0.0000
-3.5431 <s> JACQUELINE 0.0000
-3.5431 <s> JACQUES 0.0000
-3.2420 <s> JADE 0.0000
-3.5431 <s> JAI 0.0000
-3.5431 <s> JAIME 0.0000
-3.5431 <s> JAK 0.0000
-3.5431 <s> JAKE 0.0000
-3.5431 <s> JAKOB 0.0000
-3.5431 <s> JAMAAL 0.0000
-3.5431 <s> JAMAL 0.0000
-3.5431 <s> JAMES 0.0000
-3.2420 <s> JAMIE 0.0000
-3.5431 <s> JAMIE-LEE 0.0000
-3.5431 <s> JAMIL 0.0000
-3.5431 <s> JANE 0.0000
-3.5431 <s> JANET 0.0000
-3.5431 <s> JANICE 0.0000
-3.5431 <s> JANINE 0.0000
-3.5431 <s> JARED 0.0000
-3.5431 <s> JARRAD 0.0000
-3.5431 <s> JARRED 0.0000
-3.5431 <s> JARROD 0.0000
-3.5431 <s> JARVIS 0.0000
-3.5431 <s> JASMIN 0.0000
-3.5431 <s> JASMINE 0.0000
-3.5431 <s> JASON 0.0000
-3.5431 <s> JASPER 0.0000
-3.5431 <s> JASPREET 0.0000
-3.2420 <s> JAY 0.0000
-3.5431 <s> JAYA 0.0000
-3.5431 <s> JAYDE 0.0000
-3.5431 <s> JAYDEN 0.0000
-3.5431 <s> JAYMEE 0.0000
-3.5431 <s> JAYNE 0.0000
-3.5431 <s> JAZMIN 0.0000
-3.5431 <s> JAZMINE 0.0000
-3.2420 <s> JEAN 0.0000
-3.5431 <s> JEAN-LUC 0.0000
-3.5431 <s> JEAN-PAUL 0.0000
-3.5431 <s> JED 0.0000
-3.5431 <s> JEEVAN 0.0000
-3.5431 <s> JEFF 0.0000
-3.5431 <s> JEFFERY 0.0000
-3.5431 <s> JEFFREY 0.0000
-3.5431 <s> JEMAINE 0.0000
-3.5431 <s> JEMAL 0.0000
-3.5431 <s> JEMIMA 0.0000
-3.5431 <s> JEMMA 0.0000
-3.5431 <s> JENNA 0.0000
-3.5431 <s> JENNIFER 0.0000
-3.5431 <s> JENNY 0.0000
-3.5431 <s> JEREMIAH 0.0000
-3.5431 <s> JEREMY 0.0000
-3.5431 <s> JERMAINE 0.0000
-3.5431 <s> JEROME 0.0000
-3.2420 <s> JERRY 0.0000
-3.2420 <s> JESS 0.0000
-3.5431 <s> JESSE 0.0000
-3.5431 <s> JESSICA 0.0000
-3.5431 <s> JESSIE 0.0000
-3.5431 <s> JESSY 0.0000
-3.5431 <s> JILL 0.0000
-3.5431 <s> JIM 0.0000
-3.5431 <s> JIMMIE 0.0000
-3.5431 <s> JIMMY 0.0000
-3.5431 <s> JO 0.0000
-3.5431 <s> JOANNA 0.0000
-3.5431 <s> JOANNE 0.0000
-3.5431 <s> JODI 0.0000
-3.5431 <s> JODIE 0.0000
-3.5431 <s> JODY 0.0000
-3.5431 <s> JOE 0.0000
-3.5431 <s> JOEL 0.0000
-3.5431 <s> JOELY 0.0000
-3.5431 <s> JOEY 0.0000
-3.5431 <s> JOHANNA 0.0000
-3.5431 <s> JOHANNES 0.0000
-3.5431 <s> JOHN 0.0000
-3.5431 <s> JOHNATHAN 0.0000
-3.5431 <s> JOHNATHON 0.0000
-3.5431 <s> JOHNNY 0.0000
-3.5431 <s> JON 0.0000
-3.5431 <s> JONAH 0.0000
-3.5431 <s> JONATHAN 0.0000
-3.5431 <s> JONATHON 0.0000
-3.5431 <s> JONNY 0.0000
-3.5431 <s> JOOLS 0.0000
-3.2420 <s> JORDAN 0.0000
-3.5431 <s> JORDANNA 0.0000
-3.5431 <s> JORDEN 0.0000
-3.5431 <s> JORDI 0.0000
-3.5431 <s> JORDON 0.0000
-3.5431 <s> JORGE 0.0000
-3.5431 <s> JOSEF 0.0000
-3.5431 <s> JOSEPH 0.0000
-3.5431 <s> JOSEPHINE 0.0000
-3.5431 <s> JOSH 0.0000
-3.5431 <s> JOSHUA 0.0000
-3.5431 <s> JOSIAH 0.0000
-3.5431 <s> JOSIE 0.0000
-3.5431 <s> JOSS 0.0000
-3.5431 <s> JOY 0.0000
-3.5431 <s> JOYCE 0.0000
-3.2420 <s> JUDE 0.0000
-3.5431 <s> JUDY 0.0000
-3.5431 <s> JULIA 0.0000
-3.5431 <s> JULIAN 0.0000
-3.5431 <s> JULIANA 0.0000
-3.5431 <s> JULIE 0.0000
-3.5431 <s> JULIET 0.0000
-3.5431 <s> JUNAID 0.0000
-3.5431 <s> JUSTIN 0.0000
-3.5431 <s> JUSTINE 0.0000
-3.5431 <s> KAI 0.0000
-3.5431 <s> KAIN 0.0000
-3.5431 <s> KAINE 0.0000
-3.5431 <s> KAITLIN 0.0000
-3.5431 <s> KAITLYN 0.0000
-3.5431 <s> KALEM 0.0000
-3.5431 <s> KALLUM 0.0000
-3.5431 <s> KALUM 0.0000
-3.5431 <s> KAMAL 0.0000
-3.5431 <s> KAMRAN 0.0000
-3.5431 <s> KANE 0.0000
-3.5431 <s> KARA 0.0000
-3.5431 <s> KARAN 0.0000
-3.5431 <s> KAREEM 0.0000
-3.5431 <s> KAREN 0.0000
-3.5431 <s> KARIM 0.0000
-3.5431 <s> KARINA 0.0000
-3.5431 <s> KARIS 0.0000
-3.5431 <s> KARISHMA 0.0000
-3.5431 <s> KARL 0.0000
-3.5431 <s> KARLA 0.0000
-3.5431 <s> KASEY 0.0000
-3.5431 <s> KASHIF 0.0000
-3.5431 <s> KASIM 0.0000
-3.5431 <s> KATE 0.0000
-3.5431 <s> KATHARINE 0.0000
-3.5431 <s> KATHERINE 0.0000
-3.5431 <s> KATHERYN 0.0000
-3.5431 <s> KATHLEEN 0.0000
-3.5431 <s> KATHRINE 0.0000
-3.5431 <s> KATHRYN 0.0000
-3.5431 <s> KATHY 0.0000
-3.5431 <s> KATIE 0.0000
-3.5431 <s> KATRIN 0.0000
-3.5431 <s> KATRINA 0.0000
-3.5431 <s> KATY 0.0000
-3.5431 <s> KAY 0.0000
-3.5431 <s> KAYA 0.0000
-3.5431 <s> KAYLA 0.0000
-3.5431 <s> KAYLEE 0.0000
-3.5431 <s> KAYLEIGH 0.0000
-3.5431 <s> KAYLEY 0.0000
-3.5431 <s> KAYLIEGH 0.0000
-3.5431 <s> KAYLUM 0.0000
-3.5431 <s> KAYNE 0.0000
-3.5431 <s> KEANU 0.0000
-3.5431 <s> KEATON 0.0000
-3.5431 <s> KEEGAN 0.0000
-3.5431 <s> KEELAN 0.0000
-3.5431 <s> KEELEY 0.0000
-3.5431 <s> KEELY 0.0000
-3.5431 <s> KEENAN 0.0000
-3.5431 <s> KEIR 0.0000
-3.5431 <s> KEIRA 0.0000
-3.5431 <s> KEIRAN 0.0000
-3.5431 <s> KEIRON 0.0000
-3.5431 <s> KEISHA 0.0000
-3.5431 <s> KEITH 0.0000
-3.5431 <s> KELEIGH 0.0000
-3.5431 <s> KELLIE 0.0000
-3.5431 <s> KELLY 0.0000
-3.5431 <s> KELLY-ANNE 0.0000
-3.5431 <s> KELSEA 0.0000
-3.5431 <s> KELSEY 0.0000
-3.5431 <s> KELSIE 0.0000
-3.5431 <s> KELVIN 0.0000
-3.5431 <s> KEN 0.0000
-3.2420 <s> KENNEDY 0.0000
-3.5431 <s> KENNETH 0.0000
-3.5431 <s> KENNY 0.0000
-3.5431 <s> KENT 0.0000
-3.5431 <s> KERI 0.0000
-3.5431 <s> KERRI 0.0000
-3.5431 <s> KERRIE 0.0000
-3.5431 <s> KERRY 0.0000
-3.5431 <s> KESHIA 0.0000
-3.5431 <s> KEVIN 0.0000
-3.5431 <s> KEZIA 0.0000
-3.5431 <s> KEZIAH 0.0000
-3.5431 <s> KHADIJA 0.0000
-3.5431 <s> KHADIJAH 0.0000
-3.5431 <s> KHALID 0.0000
-3.5431 <s> KHALIL 0.0000
-3.5431 <s> KHAN 0.0000
-3.2420 <s> KIA 0.0000
-3.5431 <s> KIAH 0.0000
-3.5431 <s> KIAN 0.0000
-3.5431 <s> KIERA 0.0000
-3.5431 <s> KIERAN 0.0000
-3.5431 <s> KIEREN 0.0000
-3.5431 <s> KIERON 0.0000
-3.2420 <s> KIM 0.0000
-3.5431 <s> KIMBERLEY 0.0000
-3.5431 <s> KIMBERLY 0.0000
-3.5431 <s> KINGSLEY 0.0000
-3.5431 <s> KIRA 0.0000
-3.2420 <s> KIRAN 0.0000
-3.2420 <s> KIRBY 0.0000
-3.5431 <s> KIRK 0.0000
-3.5431 <s> KIRSTEN 0.0000
-3.5431 <s> KIRSTIE 0.0000
-3.5431 <s> KIRSTY 0.0000
-3.5431 <s> KISHAN 0.0000
-3.5431 <s> KIT 0.0000
-3.5431 <s> KITTY 0.0000
-3.5431 <s> KRISHAN 0.0000
-3.5431 <s> KRISTA 0.0000
-3.5431 <s> KRISTEN 0.0000
-3.5431 <s> KRISTIAN 0.0000
-3.5431 <s> KRISTIN 0.0000
-3.5431 <s> KRISTINA 0.0000
-3.5431 <s> KRISTOPHER 0.0000
-3.5431 <s> KRISTY 0.0000
-3.5431 <s> KURT 0.0000
-3.5431 <s> KURTIS 0.0000
-3.5431 <s> KYE 0.0000
-3.5431 <s> KYLE 0.0000
-3.5431 <s> KYLIE 0.0000
-3.5431 <s> KYMBERLEY 0.0000
-3.5431 <s> KYRA 0.0000
-3.5431 <s> KYRAN 0.0000
-3.5431 <s> KYRON 0.0000
-3.5431 <s> LACEY 0.0000
-3.5431 <s> LAILA 0.0000
-3.5431 <s> LAMAR 0.0000
-3.5431 <s> LANA 0.0000
-3.5431 <s> LANCE 0.0000
-3.5431 <s> LARA 0.0000
-3.5431 <s> LARISSA 0.0000
-3.5431 <s> LAURA 0.0000
-3.5431 <s> LAUREN 0.0000
-3.5431 <s> LAURENCE 0.0000
-3.2420 <s> LAURIE 0.0000
-3.5431 <s> LAURYN 0.0000
-3.5431 <s> LAWRENCE 0.0000
-3.5431 <s> LAYLA 0.0000
-3.5431 <s> LEAH 0.0000
-3.5431 <s> LEANNA 0.0000
-3.5431 <s> LEANNE 0.0000
-3.5431 <s> LECTURES 0.0000
-3.2420 <s> LEE 0.0000
-3.5431 <s> LEIA 0.0000
-3.2420 <s> LEIGH 0.0000
-3.5431 <s> LEIGHTON 0.0000
-3.5431 <s> LEILA 0.0000
-3.5431 <s> LEO 0.0000
-3.5431 <s> LEON 0.0000
-3.5431 <s> LEONA 0.0000
-3.5431 <s> LEONARD 0.0000
-3.5431 <s> LEONIE 0.0000
-3.5431 <s> LESLEY 0.0000
-3.5431 <s> LESLIE 0.0000
-3.5431 <s> LETICIA 0.0000
-3.5431 <s> LETITIA 0.0000
-3.2420 <s> LEVI 0.0000
-3.5431 <s> LEWIS 0.0000
-3.5431 <s> LEWYS 0.0000
-3.5431 <s> LEYLA 0.0000
-3.5431 <s> LIA 0.0000
-3.5431 <s> LIAM 0.0000
-3.5431 <s> LIANNE 0.0000
-3.5431 <s> LIBBY 0.0000
-3.5431 <s> LIBERTY 0.0000
-3.5431 <s> LILIAN 0.0000
-3.5431 <s> LILLIAN 0.0000
-3.5431 <s> LILLIE 0.0000
-3.5431 <s> LILLY 0.0000
-3.5431 <s> LILY 0.0000
-3.5431 <s> LINDA 0.0000
-3.5431 <s> LINDSAY 0.0000
-3.5431 <s> LINDSEY 0.0000
-3.5431 <s> LIONEL 0.0000
-3.5431 <s> LISA 0.0000
-3.5431 <s> LLEWELLYN 0.0000
-3.5431 <s> LLOYD 0.0000
-3.5431 <s> LOGAN 0.0000
-3.5431 <s> LOIS 0.0000
-3.5431 <s> LOLA 0.0000
-3.5431 <s> LOREN 0.0000
-3.5431 <s> LORENZO 0.0000
-3.5431 <s> LORI 0.0000
-3.5431 <s> LORNA 0.0000
-3.5431 <s> LORRAINE 0.0000
-3.5431 <s> LOTTIE 0.0000
-3.5431 <s> LOUIE 0.0000
-3.5431 <s> LOUIS 0.0000
-3.5431 <s> LOUISA 0.0000
-3.5431 <s> LOUISE 0.0000
-3.5431 <s> LOWRI 0.0000
-3.5431 <s> LUC 0.0000
-3.5431 <s> LUCA 0.0000
-3.5431 <s> LUCAS 0.0000
-3.5431 <s> LUCIA 0.0000
-3.5431 <s> LUCIE 0.0000
-3.5431 <s> LUCINDA 0.0000
-3.5431 <s> LUCY 0.0000
-3.5431 <s> LUIS 0.0000
-3.5431 <s> LUISA 0.0000
-3.5431 <s> LUKAS 0.0000
-3.5431 <s> LUKE 0.0000
-3.5431 <s> LYDIA 0.0000
-3.5431 <s> LYNDON 0.0000
-3.5431 <s> LYNDSAY 0.0000
-3.5431 <s> LYNDSEY 0.0000
-3.5431 <s> MAARIYAH 0.0000
-3.5431 <s> MACAULAY 0.0000
-3.5431 <s> MACAULEY 0.0000
-3.5431 <s> MACAULY 0.0000
-3.5431 <s> MACKENZIE 0.0000
-3.5431 <s> MADDIE 0.0000
-3.5431 <s> MADDISON 0.0000
-3.5431 <s> MADELAINE 0.0000
-3.5431 <s> MADELEINE 0.0000
-3.5431 <s> MADELINE 0.0000
-3.5431 <s> MADISON 0.0000
-3.5431 <s> MAE 0.0000
-3.5431 <s> MAGGIE 0.0000
-3.5431 <s> MAISIE 0.0000
-3.5431 <s> MAISY 0.0000
-3.5431 <s> MALACHI 0.0000
-3.5431 <s> MALCOLM 0.0000
-3.5431 <s> MALIK 0.0000
-3.5431 <s> MANISHA 0.0000
-3.5431 <s> MANRAJ 0.0000
-3.5431 <s> MARA 0.0000
-3.5431 <s> MARC 0.0000
-3.5431 <s> MARCIA 0.0000
-3.5431 <s> MARCO 0.0000
-3.5431 <s> MARCUS 0.0000
-3.5431 <s> MARGARET 0.0000
-3.5431 <s> MARIA 0.0000
-3.5431 <s> MARIAH 0.0000
-3.5431 <s> MARIAM 0.0000
-3.5431 <s> MARIANNE 0.0000
-3.5431 <s> MARIE 0.0000
-3.5431 <s> MARINA 0.0000
-3.5431 <s> MARIO 0.0000
-3.5431 <s> MARISSA 0.0000
-3.5431 <s> MARIYA 0.0000
-3.5431 <s> MARK 0.0000
-3.5431 <s> MARLEY 0.0000
-3.5431 <s> MARLON 0.0000
-3.5431 <s> MARNIE 0.0000
-3.5431 <s> MARTHA 0.0000
-3.5431 <s> MARTIN 0.0000
-3.5431 <s> MARTY 0.0000
-3.5431 <s> MARTYN 0.0000
-3.5431 <s> MARY 0.0000
-3.5431 <s> MARY-JANE 0.0000
-3.5431 <s> MARYAM 0.0000
-3.5431 <s> MASON 0.0000
-3.5431 <s> MATHEW 0.0000
-3.5431 <s> MATILDA 0.0000
-3.5431 <s> MATT 0.0000
-3.5431 <s> MATTEO 0.0000
-3.5431 <s> MATTHEW 0.0000
-3.5431 <s> MAX 0.0000
-3.5431 <s> MAXIM 0.0000
-3.5431 <s> MAXIMILIAN 0.0000
-3.5431 <s> MAXIMILLIAN 0.0000
-3.5431 <s> MAXINE 0.0000
-3.5431 <s> MAXWELL 0.0000
-3.5431 <s> MAY 0.0000
-3.5431 <s> MAYA 0.0000
-3.5431 <s> MAYBE 0.0000
-3.5431 <s> MCCAULEY 0.0000
-3.5431 <s> ME 0.0000
-3.5431 <s> MEAGAN 0.0000
-3.5431 <s> MEERA 0.0000
-3.5431 <s> MEGAN 0.0000
-3.5431 <s> MEGHAN 0.0000
-3.5431 <s> MEHDI 0.0000
-3.5431 <s> MEHMET 0.0000
-3.5431 <s> MELANIE 0.0000
-3.5431 <s> MELINDA 0.0000
-3.5431 <s> MELISSA 0.0000
-3.5431 <s> MELODY 0.0000
-3.5431 <s> MELVIN 0.0000
-3.5431 <s> MERCEDES 0.0000
-3.5431 <s> MERLIN 0.0000
-3.5431 <s> MERYL 0.0000
-3.5431 <s> MIA 0.0000
-3.5431 <s> MICA 0.0000
-3.5431 <s> MICAH 0.0000
-3.5431 <s> MICHAEL 0.0000
-3.5431 <s> MICHAELA 0.0000
-3.5431 <s> MICHEAL 0.0000
-3.5431 <s> MICHEALA 0.0000
-3.5431 <s> MICHELE 0.0000
-3.5431 <s> MICHELLE 0.0000
-3.5431 <s> MICKEY 0.0000
-3.5431 <s> MICKY 0.0000
-3.5431 <s> MIGUEL 0.0000
-3.5431 <s> MIHIR 0.0000
-3.5431 <s> MIKAELA 0.0000
-3.5431 <s> MIKE 0.0000
-3.5431 <s> MIKEY 0.0000
-3.5431 <s> MIKHAIL 0.0000
-3.5431 <s> MILAN 0.0000
-3.5431 <s> MILES 0.0000
-3.5431 <s> MILLICENT 0.0000
-3.5431 <s> MILLIE 0.0000
-3.5431 <s> MILLY 0.0000
-3.5431 <s> MILO 0.0000
-3.5431 <s> MINE 0.0000
-3.5431 <s> MIRANDA 0.0000
-3.5431 <s> MIRIAM 0.0000
-3.5431 <s> MISHA 0.0000
-3.5431 <s> MISTY 0.0000
-3.5431 <s> MITCH 0.0000
-3.5431 <s> MITCHEL 0.0000
-3.5431 <s> MITCHELL 0.0000
-3.5431 <s> MOHAMAD 0.0000
-3.5431 <s> MOHAMED 0.0000
-3.5431 <s> MOHAMMAD 0.0000
-3.5431 <s> MOHAMMED 0.0000
-3.5431 <s> MOHAMMOD 0.0000
-3.5431 <s> MOHMMED 0.0000
-3.5431 <s> MOHSIN 0.0000
-3.5431 <s> MOLLIE 0.0000
-3.5431 <s> MOLLY 0.0000
-3.5431 <s> MONET 0.0000
-3.5431 <s> MONICA 0.0000
-3.5431 <s> MONIQUE 0.0000
-3.5431 <s> MONTEL 0.0000
-3.5431 <s> MONTELL 0.0000
-3.2420 <s> MORGAN 0.0000
-3.5431 <s> MOSES 0.0000
-3.5431 <s> MUHAMMAD 0.0000
-3.5431 <s> MUHAMMED 0.0000
-3.5431 <s> MURRAY 0.0000
-3.5431 <s> MUSTAFA 0.0000
-3.5431 <s> MY 0.0000
-3.5431 <s> MYLES 0.0000
-3.5431 <s> MYLO 0.0000
-3.5431 <s> NABEEL 0.0000
-3.5431 <s> NADEEM 0.0000
-3.5431 <s> NADIA 0.0000
-3.5431 <s> NADINE 0.0000
-3.5431 <s> NAFEESA 0.0000
-3.5431 <s> NAIM 0.0000
-3.5431 <s> NAME 0.0000
-3.5431 <s> NANA 0.0000
-3.5431 <s> NANCY 0.0000
-3.5431 <s> NAOMI 0.0000
-3.5431 <s> NASEEM 0.0000
-3.5431 <s> NASIM 0.0000
-3.5431 <s> NATALIA 0.0000
-3.5431 <s> NATALIE 0.0000
-3.5431 <s> NATASHA 0.0000
-3.5431 <s> NATHALIE 0.0000
-3.5431 <s> NATHAN 0.0000
-3.5431 <s> NATHANAEL 0.0000
-3.5431 <s> NATHANIEL 0.0000
-3.5431 <s> NATURAL 0.0000
-3.5431 <s> NAVDEEP 0.0000
-3.5431 <s> NAY 0.0000
-3.5431 <s> NAZIA 0.0000
-3.5431 <s> NAZIFA 0.0000
-3.5431 <s> NAZIM 0.0000
-3.5431 <s> NAZIR 0.0000
-3.5431 <s> NEAL 0.0000
-3.5431 <s> NEELAM 0.0000
-3.5431 <s> NEGATIVE 0.0000
-3.5431 <s> NEIL 0.0000
-3.5431 <s> NEIN 0.0000
-3.5431 <s> NELSON 0.0000
-3.5431 <s> NIA 0.0000
-3.5431 <s> NIAL 0.0000
-3.5431 <s> NIALL 0.0000
-3.5431 <s> NIAMH 0.0000
-3.5431 <s> NICHOLA 0.0000
-3.5431 <s> NICHOLAS 0.0000
-3.5431 <s> NICK 0.0000
-3.5431 <s> NICKY 0.0000
-3.5431 <s> NICO 0.0000
-3.5431 <s> NICOLA 0.0000
-3.5431 <s> NICOLAS 0.0000
-3.5431 <s> NICOLE 0.0000
-3.5431 <s> NIGEL 0.0000
-3.5431 <s> NIK 0.0000
-3.5431 <s> NIKHIL 0.0000
-3.5431 <s> NIKITA 0.0000
-3.5431 <s> NIKKI 0.0000
-3.5431 <s> NIKO 0.0000
-3.5431 <s> NIKOLAS 0.0000
-3.5431 <s> NINA 0.0000
-3.5431 <s> NISHA 0.0000
-3.5431 <s> NO 0.0000
-3.5431 <s> NOAH 0.0000
-3.5431 <s> NOEL 0.0000
-3.5431 <s> NON 0.0000
-3.5431 <s> NONE 0.0000
-3.5431 <s> NOPE 0.0000
-3.5431 <s> NORTON 0.0000
-3.5431 <s> NOT 0.0000
-3.5431 <s> NOTHING 0.0000
-3.5431 <s> NYLE 0.0000
-3.5431 <s> OH 0.0000
-3.5431 <s> OKAY 0.0000
-3.5431 <s> OLIVE 0.0000
-3.5431 <s> OLIVER 0.0000
-3.5431 <s> OLIVIA 0.0000
-3.5431 <s> OLIVIER 0.0000
-3.5431 <s> OMAR 0.0000
-3.5431 <s> OMARI 0.0000
-3.5431 <s> ORLA 0.0000
-3.5431 <s> ORLANDO 0.0000
-3.5431 <s> OSCAR 0.0000
-3.5431 <s> OSIAN 0.0000
-3.5431 <s> OSMAN 0.0000
-3.5431 <s> OTIS 0.0000
-3.5431 <s> OWAIN 0.0000
-3.5431 <s> OWEN 0.0000
-3.5431 <s> PADRAIG 0.0000
-3.5431 <s> PAGE 0.0000
-3.5431 <s> PAIGE 0.0000
-3.5431 <s> PAISLEY 0.0000
-3.5431 <s> PAMELA 0.0000
-3.5431 <s> PAOLO 0.0000
-3.5431 <s> PARIS 0.0000
-3.5431 <s> PATRICE 0.0000
-3.5431 <s> PATRICIA 0.0000
-3.5431 <s> PATRICK 0.0000
-3.5431 <s> PAUL 0.0000
-3.5431 <s> PAULA 0.0000
-3.5431 <s> PAULINE 0.0000
-3.5431 <s> PAULO 0.0000
-3.5431 <s> PAYAL 0.0000
-3.5431 <s> PEDRO 0.0000
-3.5431 <s> PEGGY 0.0000
-3.5431 <s> PENELOPE 0.0000
-3.5431 <s> PENNY 0.0000
-3.5431 <s> PERRY 0.0000
-3.5431 <s> PETER 0.0000
-3.5431 <s> PEYTON 0.0000
-3.5431 <s> PHILIP 0.0000
-3.5431 <s> PHILIPPA 0.0000
-3.5431 <s> PHILLIP 0.0000
-3.5431 <s> PHILLIPA 0.0000
-3.5431 <s> PHILLIPPA 0.0000
-3.5431 <s> PHOEBE 0.0000
-3.5431 <s> PICADDILLY 0.0000
-3.5431 <s> PIERCE 0.0000
-3.5431 <s> PIERS 0.0000
-3.5431 <s> PIPPA 0.0000
-3.5431 <s> POLLY 0.0000
-3.5431 <s> POPPIE 0.0000
-3.5431 <s> POPPY 0.0000
-3.5431 <s> PRESTON 0.0000
-3.5431 <s> PRIYA 0.0000
-3.5431 <s> PRIYANKA 0.0000
-3.5431 <s> PROBABLY 0.0000
-3.5431 <s> QASIM 0.0000
-3.5431 <s> QUINN 0.0000
-3.5431 <s> RABIA 0.0000
-3.5431 <s> RACHAEL 0.0000
-3.5431 <s> RACHEAL 0.0000
-3.5431 <s> RACHEL 0.0000
-3.5431 <s> RAFAEL 0.0000
-3.5431 <s> RAHEEM 0.0000
-3.5431 <s> RAHIM 0.0000
-3.5431 <s> RAHUL 0.0000
-3.5431 <s> RAJ 0.0000
-3.5431 <s> RAJA 0.0000
-3.5431 <s> RAJAN 0.0000
-3.5431 <s> RALPH 0.0000
-3.5431 <s> RAMI 0.0000
-3.5431 <s> RAPHAEL 0.0000
-3.5431 <s> RAVI 0.0000
-3.5431 <s> RAYMOND 0.0000
-3.5431 <s> RAYNA 0.0000
-3.5431 <s> REANNE 0.0000
-3.5431 <s> REBECCA 0.0000
-3.5431 <s> REBEKAH 0.0000
-3.5431 <s> REBEKKA 0.0000
-3.5431 <s> REECE 0.0000
-3.5431 <s> REED 0.0000
-3.5431 <s> REEM 0.0000
-3.5431 <s> REGAN 0.0000
-3.5431 <s> REISS 0.0000
-3.2420 <s> REMI 0.0000
-3.5431 <s> REMY 0.0000
-3.5431 <s> RENAE 0.0000
-3.2420 <s> RENE 0.0000
-3.5431 <s> RENEE 0.0000
-3.5431 <s> REUBEN 0.0000
-3.5431 <s> RHEA 0.0000
-3.5431 <s> RHIAN 0.0000
-3.5431 <s> RHIANN 0.0000
-3.5431 <s> RHIANNA 0.0000
-3.5431 <s> RHIANNE 0.0000
-3.5431 <s> RHIANNON 0.0000
-3.5431 <s> RHODRI 0.0000
-3.5431 <s> RHYS 0.0000
-3.5431 <s> RIA 0.0000
-3.5431 <s> RIAN 0.0000
-3.5431 <s> RIANNA 0.0000
-3.5431 <s> RIANNE 0.0000
-3.5431 <s> RIANNON 0.0000
-3.5431 <s> RICARDO 0.0000
-3.5431 <s> RICHARD 0.0000
-3.5431 <s> RICHIE 0.0000
-3.5431 <s> RICK 0.0000
-3.5431 <s> RICKIE 0.0000
-3.5431 <s> RICKY 0.0000
-3.5431 <s> RIKKI 0.0000
-3.5431 <s> RILEY 0.0000
-3.5431 <s> RIO 0.0000
-3.5431 <s> RISHI 0.0000
-3.5431 <s> RITCHIE 0.0000
-3.5431 <s> RIZWAN 0.0000
-3.5431 <s> ROB 0.0000
-3.5431 <s> ROBBIE 0.0000
-3.5431 <s> ROBERT 0.0000
-3.5431 <s> ROBERTA 0.0000
-3.5431 <s> ROBERTO 0.0000
-3.2420 <s> ROBIN 0.0000
-3.5431 <s> ROBSON 0.0000
-3.5431 <s> ROBYN 0.0000
-3.5431 <s> ROCHELLE 0.0000
-3.5431 <s> RODNEY 0.0000
-3.5431 <s> ROGAN 0.0000
-3.2420 <s> ROGER 0.0000
-3.5431 <s> ROHAN 0.0000
-3.5431 <s> ROISIN 0.0000
-3.5431 <s> ROMAN 0.0000
-3.5431 <s> ROMARIO 0.0000
-3.5431 <s> RON 0.0000
-3.5431 <s> RONAN 0.0000
-3.2420 <s> RONNIE 0.0000
-3.5431 <s> RONNY 0.0000
-3.5431 <s> RORY 0.0000
-3.5431 <s> ROSA 0.0000
-3.5431 <s> ROSALIE 0.0000
-3.5431 <s> ROSALIND 0.0000
-3.5431 <s> ROSANNA 0.0000
-3.5431 <s> ROSE 0.0000
-3.5431 <s> ROSEANNA 0.0000
-3.5431 <s> ROSEMARIE 0.0000
-3.5431 <s> ROSEMARY 0.0000
-3.5431 <s> ROSHAN 0.0000
-3.5431 <s> ROSHNI 0.0000
-3.5431 <s> ROSIE 0.0000
-3.5431 <s> ROSS 0.0000
-3.2420 <s> ROWAN 0.0000
-3.5431 <s> ROWENA 0.0000
-3.5431 <s> ROXANNE 0.0000
-3.5431 <s> ROY 0.0000
-3.5431 <s> ROYAL 0.0000
-3.5431 <s> RUAIRI 0.0000
-3.5431 <s> RUBEN 0.0000
-3.5431 <s> RUBY 0.0000
-3.5431 <s> RUFUS 0.0000
-3.5431 <s> RUPERT 0.0000
-3.5431 <s> RUPINDER 0.0000
-3.5431 <s> RUSSELL 0.0000
-3.5431 <s> RUTH 0.0000
-3.5431 <s> RYAN 0.0000
-3.5431 <s> SABA 0.0000
-3.5431 <s> SABAH 0.0000
-3.5431 <s> SABINA 0.0000
-3.5431 <s> SABIR 0.0000
-3.5431 <s> SABRINA 0.0000
-3.5431 <s> SACHA 0.0000
-3.5431 <s> SACHIN 0.0000
-3.5431 <s> SADIA 0.0000
-3.5431 <s> SADIE 0.0000
-3.5431 <s> SAFFRON 0.0000
-3.5431 <s> SAFIA 0.0000
-3.5431 <s> SAFWAAN 0.0000
-3.5431 <s> SAID 0.0000
-3.5431 <s> SAIF 0.0000
-3.5431 <s> SAIMA 0.0000
-3.5431 <s> SAIRA 0.0000
-3.5431 <s> SALEEM 0.0000
-3.5431 <s> SALLY 0.0000
-3.5431 <s> SALLY-ANNE 0.0000
-3.5431 <s> SALMA 0.0000
-3.5431 <s> SALMAN 0.0000
-3.5431 <s> SALVATORE 0.0000
-3.5431 <s> SAM 0.0000
-3.5431 <s> SAMANTHA 0.0000
-3.5431 <s> SAMARA 0.0000
-3.5431 <s> SAMEER 0.0000
-3.5431 <s> SAMI 0.0000
-3.5431 <s> SAMINA 0.0000
-3.5431 <s> SAMIR 0.0000
-3.5431 <s> SAMIRA 0.0000
-3.5431 <s> SAMMIE 0.0000
-3.5431 <s> SAMMY 0.0000
-3.5431 <s> SAMSON 0.0000
-3.5431 <s> SAMUAL 0.0000
-3.5431 <s> SAMUEL 0.0000
-3.5431 <s> SAMY 0.0000
-3.5431 <s> SANA 0.0000
-3.5431 <s> SANAH 0.0000
-3.5431 <s> SANDEEP 0.0000
-3.5431 <s> SANDRA 0.0000
-3.5431 <s> SANJAY 0.0000
-3.5431 <s> SANTIAGO 0.0000
-3.5431 <s> SAPPHIRE 0.0000
-3.5431 <s> SAQIB 0.0000
-3.5431 <s> SARA 0.0000
-3.5431 <s> SARAH 0.0000
-3.5431 <s> SARAH-JANE 0.0000
-3.5431 <s> SARAH-LOUISE 0.0000
-3.5431 <s> SASHA 0.0000
-3.5431 <s> SASKIA 0.0000
-3.5431 <s> SAUL 0.0000
-3.5431 <s> SAVANNA 0.0000
-3.5431 <s> SAVANNAH 0.0000
-3.5431 <s> SCARLET 0.0000
-3.5431 <s> SCARLETT 0.0000
-3.5431 <s> SCHOOL 0.0000
-3.5431 <s> SCIENCE 0.0000
-3.5431 <s> SCOT 0.0000
-3.5431 <s> SCOTT 0.0000
-3.5431 <s> SEAMUS 0.0000
-3.5431 <s> SEAN 0.0000
-3.5431 <s> SEBASTIAN 0.0000
-3.5431 <s> SEBASTIEN 0.0000
-3.5431 <s> SELINA 0.0000
-3.5431 <s> SEREN 0.0000
-3.5431 <s> SERENA 0.0000
-3.5431 <s> SERGE 0.0000
-3.5431 <s> SERGIO 0.0000
-3.5431 <s> SETH 0.0000
-3.5431 <s> SHAH 0.0000
-3.5431 <s> SHAKIRA 0.0000
-3.5431 <s> SHANA 0.0000
-3.5431 <s> SHANE 0.0000
-3.5431 <s> SHANI 0.0000
-3.5431 <s> SHANICE 0.0000
-3.5431 <s> SHANNAN 0.0000
-3.5431 <s> SHANNEN 0.0000
-3.2420 <s> SHANNON 0.0000
-3.5431 <s> SHAQUILLE 0.0000
-3.5431 <s> SHARNA 0.0000
-3.5431 <s> SHARON 0.0000
-3.5431 <s> SHAUN 0.0000
-3.5431 <s> SHAUNA 0.0000
-3.5431 <s> SHAUNNA 0.0000
-3.5431 <s> SHAWN 0.0000
-3.5431 <s> SHAY 0.0000
-3.5431 <s> SHAZAD 0.0000
-3.5431 <s> SHE 0.0000
-3.5431 <s> SHELBY 0.0000
-3.5431 <s> SHELDON 0.0000
-3.5431 <s> SHELLEY 0.0000
-3.5431 <s> SHIVANI 0.0000
-3.5431 <s> SHONA 0.0000
-3.5431 <s> SHOPPING 0.0000
-3.5431 <s> SHYAM 0.0000
-3.5431 <s> SI 0.0000
-3.5431 <s> SIAN 0.0000
-3.5431 <s> SID 0.0000
-3.5431 <s> SIDNEY 0.0000
-3.5431 <s> SIMEON 0.0000
-3.5431 <s> SIMON 0.0000
-3.5431 <s> SIMONE 0.0000
-3.2420 <s> SIMRAN 0.0000
-3.5431 <s> SINEAD 0.0000
-3.5431 <s> SIOBHAN 0.0000
-3.5431 <s> SION 0.0000
-3.5431 <s> SIONED 0.0000
-3.5431 <s> SKY 0.0000
-3.5431 <s> SKYE 0.0000
-3.5431 <s> SOFIA 0.0000
-3.5431 <s> SOHAIL 0.0000
-3.5431 <s> SOLOMON 0.0000
-3.5431 <s> SONIA 0.0000
-3.5431 <s> SONNY 0.0000
-3.5431 <s> SOPHIA 0.0000
-3.5431 <s> SOPHIE 0.0000
-3.5431 <s> SOUTH 0.0000
-3.5431 <s> SPENCER 0.0000
-3.5431 <s> SPIKE 0.0000
-3.5431 <s> STACEY 0.0000
-3.5431 <s> STACIE 0.0000
-3.5431 <s> STACY 0.0000
-3.5431 <s> STANLEY 0.0000
-3.5431 <s> STEFAN 0.0000
-3.5431 <s> STEFFAN 0.0000
-3.5431 <s> STELLA 0.0000
-3.5431 <s> STEPHAN 0.0000
-3.5431 <s> STEPHANIE 0.0000
-3.5431 <s> STEPHEN 0.0000
-3.5431 <s> STEVE 0.0000
-3.5431 <s> STEVEN 0.0000
-3.5431 <s> STEVIE 0.0000
-3.5431 <s> STEWART 0.0000
-3.5431 <s> STUART 0.0000
-3.5431 <s> SUMMER 0.0000
-3.5431 <s> SUNIL 0.0000
-3.5431 <s> SURAJ 0.0000
-3.5431 <s> SURE 0.0000
-3.5431 <s> SUSAN 0.0000
-3.5431 <s> SUSANNA 0.0000
-3.5431 <s> SUSANNAH 0.0000
-3.5431 <s> SUSIE 0.0000
-3.5431 <s> SUZANNA 0.0000
-3.5431 <s> SUZANNE 0.0000
-3.5431 <s> SUZY 0.0000
-3.5431 <s> SYDNEY 0.0000
-3.5431 <s> SYED 0.0000
-3.5431 <s> SYEDA 0.0000
-3.5431 <s> TABITHA 0.0000
-3.5431 <s> TALIA 0.0000
-3.5431 <s> TALLULAH 0.0000
-3.5431 <s> TAMARA 0.0000
-3.5431 <s> TAMMY 0.0000
-3.5431 <s> TAMSIN 0.0000
-3.5431 <s> TAMSYN 0.0000
-3.5431 <s> TANIA 0.0000
-3.5431 <s> TANISHA 0.0000
-3.5431 <s> TANYA 0.0000
-3.5431 <s> TARA 0.0000
-3.5431 <s> TARAN 0.0000
-3.5431 <s> TARIQ 0.0000
-3.5431 <s> TASMIN 0.0000
-3.5431 <s> TASNIM 0.0000
-3.5431 <s> TAYLA 0.0000
-3.5431 <s> TAYLER 0.0000
-3.2420 <s> TAYLOR 0.0000
-3.5431 <s> TEGAN 0.0000
-3.5431 <s> TERENCE 0.0000
-3.5431 <s> TERESA 0.0000
-3.5431 <s> TERI 0.0000
-3.5431 <s> TERRI 0.0000
-3.5431 <s> TERRY 0.0000
-3.5431 <s> TESS 0.0000
-3.5431 <s> TESSA 0.0000
-3.5431 <s> THAT 0.0000
-3.5431 <s> THEA 0.0000
-3.5431 <s> THEO 0.0000
-3.5431 <s> THEODORE 0.0000
-3.5431 <s> THINK 0.0000
-3.5431 <s> THIS 0.0000
-3.5431 <s> THOM 0.0000
-3.5431 <s> THOMAS 0.0000
-3.5431 <s> TIA 0.0000
-3.5431 <s> TIFFANY 0.0000
-3.5431 <s> TILLY 0.0000
-3.5431 <s> TIM 0.0000
-3.5431 <s> TIMOTHY 0.0000
-3.5431 <s> TINA 0.0000
-3.5431 <s> TOBIAS 0.0000
-3.5431 <s> TOBY 0.0000
-3.5431 <s> TODD 0.0000
-3.5431 <s> TOM 0.0000
-3.5431 <s> TOMAS 0.0000
-3.5431 <s> TOMMY 0.0000
-3.5431 <s> TOMOS 0.0000
-3.5431 <s> TONI 0.0000
-3.5431 <s> TONICHA 0.0000
-3.5431 <s> TONY 0.0000
-3.5431 <s> TORI 0.0000
-3.5431 <s> TRAIN 0.0000
-3.5431 <s> TRAVIS 0.0000
-3.5431 <s> TRISTAN 0.0000
-3.5431 <s> TRISTIAN 0.0000
-3.5431 <s> TRISTON 0.0000
-3.5431 <s> TROY 0.0000
-3.5431 <s> TUBE 0.0000
-3.2420 <s> TYLER 0.0000
-3.5431 <s> TYRELL 0.0000
-3.5431 <s> TYRONE 0.0000
-3.5431 <s> TYRONNE 0.0000
-3.5431 <s> TYSON 0.0000
-3.5431 <s> UMAIR 0.0000
-3.5431 <s> UMAR 0.0000
-3.5431 <s> UNDERGROUND 0.0000
-3.5431 <s> UNION 0.0000
-3.5431 <s> UNIVERSITY 0.0000
-3.5431 <s> US 0.0000
-3.5431 <s> USAMA 0.0000
-3.5431 <s> USMAN 0.0000
-3.5431 <s> UZAIR 0.0000
-3.5431 <s> V 0.0000
-3.5431 <s> VANESSA 0.0000
-3.5431 <s> VERITY 0.0000
-3.5431 <s> VERNON 0.0000
-3.5431 <s> VICKIE 0.0000
-3.5431 <s> VICKY 0.0000
-3.5431 <s> VICTOR 0.0000
-3.2420 <s> VICTORIA 0.0000
-3.5431 <s> VINAY 0.0000
-3.5431 <s> VINCENT 0.0000
-3.5431 <s> VISHAL 0.0000
-3.5431 <s> VIVIEN 0.0000
-3.5431 <s> WADE 0.0000
-3.5431 <s> WAQAR 0.0000
-3.5431 <s> WAQAS 0.0000
-3.5431 <s> WARREN 0.0000
-3.5431 <s> WAS 0.0000
-3.5431 <s> WASEEM 0.0000
-3.5431 <s> WASIM 0.0000
-3.5431 <s> WAYNE 0.0000
-3.2420 <s> WE 0.0000
-3.5431 <s> WENDY 0.0000
-3.5431 <s> WERE 0.0000
-3.5431 <s> WESLEY 0.0000
-3.5431 <s> WHITNEY 0.0000
-3.5431 <s> WHOM 0.0000
-3.5431 <s> WHOSE 0.0000
-3.5431 <s> WILL 0.0000
-3.5431 <s> WILLIAM 0.0000
-3.5431 <s> WORK 0.0000
-3.5431 <s> XAVIER 0.0000
-3.5431 <s> YANNICK 0.0000
-3.5431 <s> YASIN 0.0000
-3.5431 <s> YASMIN 0.0000
-3.5431 <s> YASMINE 0.0000
-3.5431 <s> YAZMIN 0.0000
-3.5431 <s> YEAH 0.0000
-3.5431 <s> YEP 0.0000
-3.5431 <s> YES 0.0000
-3.5431 <s> YIANNIS 0.0000
-3.5431 <s> YOU 0.0000
-3.5431 <s> YUSUF 0.0000
-3.5431 <s> YVES 0.0000
-3.5431 <s> ZAC 0.0000
-3.5431 <s> ZACH 0.0000
-3.5431 <s> ZACHARIAH 0.0000
-3.5431 <s> ZACHARY 0.0000
-3.5431 <s> ZACHERY 0.0000
-3.5431 <s> ZACK 0.0000
-3.5431 <s> ZACKARY 0.0000
-3.5431 <s> ZACKERY 0.0000
-3.5431 <s> ZAHRA 0.0000
-3.5431 <s> ZAIN 0.0000
-3.5431 <s> ZAINAB 0.0000
-3.5431 <s> ZAK 0.0000
-3.5431 <s> ZAKARIA 0.0000
-3.5431 <s> ZAKIR 0.0000
-3.5431 <s> ZARA 0.0000
-3.5431 <s> ZEESHAN 0.0000
-3.5431 <s> ZOE 0.0000
-3.5431 <s> ZOHAIB 0.0000
-0.3010 A MUSEUM 0.0000
-0.3010 AADAM </s> -0.3010
-0.3010 AADIL </s> -0.3010
-0.3010 AALIYAH </s> -0.3010
-0.3010 AAMIR </s> -0.3010
-0.3010 AARON </s> -0.3010
-0.3010 ABBAS </s> -0.3010
-0.3010 ABBEY </s> -0.3010
-0.3010 ABBI </s> -0.3010
-0.3010 ABBIE </s> -0.3010
-0.3010 ABBIGAIL </s> -0.3010
-0.3010 ABBY </s> -0.3010
-0.3010 ABDUL </s> -0.3010
-0.3010 ABDULLAH </s> -0.3010
-0.3010 ABI </s> -0.3010
-0.3010 ABIGAIL </s> -0.3010
-0.3010 ABRAHAM </s> -0.3010
-0.3010 ABU </s> -0.3010
-0.3010 ABUL </s> -0.3010
-0.3010 ADAM </s> -0.3010
-0.3010 ADEEL </s> -0.3010
-0.3010 ADELE </s> -0.3010
-0.3010 ADEN </s> -0.3010
-0.3010 ADIL </s> -0.3010
-0.3010 ADNAN </s> -0.3010
-0.3010 ADRIAN </s> -0.3010
-0.3010 ADRIENNE </s> -0.3010
-0.3010 AFFIRMATIVE </s> -0.3010
-0.3010 AHMAD </s> -0.3010
-0.3010 AHMED </s> -0.3010
-0.3010 AHMET </s> -0.3010
-0.3010 AIDAN </s> -0.3010
-0.3010 AIDEN </s> -0.3010
-0.3010 AILEEN </s> -0.3010
-0.3010 AILISH </s> -0.3010
-0.3010 AILSA </s> -0.3010
-0.3010 AIMEE </s> -0.3010
-0.3010 AINE </s> -0.3010
-0.3010 AINSLEY </s> -0.3010
-0.3010 AISHA </s> -0.3010
-0.3010 AISHAH </s> -0.3010
-0.3010 AISLING </s> -0.3010
-0.3010 AISLINN </s> -0.3010
-0.3010 AJAY </s> -0.3010
-0.3010 AKASH </s> -0.3010
-0.3010 AKBAR </s> -0.3010
-0.3010 AKEEM </s> -0.3010
-0.3010 AKHIL </s> -0.3010
-0.3010 AKSHAY </s> -0.3010
-0.3010 ALAN </s> -0.3010
-0.3010 ALANA </s> -0.3010
-0.3010 ALANNA </s> -0.3010
-0.3010 ALANNAH </s> -0.3010
-0.3010 ALASDAIR </s> -0.3010
-0.3010 ALASTAIR </s> -0.3010
-0.7782 ALBERT </s> -0.3010
-0.7782 ALBERT HALL 0.0000
-0.7782 ALBERT MUSEUM 0.0000
-0.3010 ALEC </s> -0.3010
-0.3010 ALED </s> -0.3010
-0.3010 ALEESHA </s> -0.3010
-0.3010 ALESSANDRA </s> -0.3010
-0.3010 ALESSANDRO </s> -0.3010
-0.3010 ALESSIA </s> -0.3010
-0.3010 ALEX </s> -0.3010
-0.3010 ALEXANDER </s> -0.3010
-0.3010 ALEXANDRA </s> -0.3010
-0.3010 ALEXANDRE </s> -0.3010
-0.3010 ALEXANDRIA </s> -0.3010
-0.3010 ALEXIA </s> -0.3010
-0.3010 ALEXIS </s> -0.3010
-0.3010 ALFIE </s> -0.3010
-0.3010 ALFRED </s> -0.3010
-0.3010 ALI </s> -0.3010
-0.3010 ALICE </s> -0.3010
-0.3010 ALICIA </s> -0.3010
-0.3010 ALIESHA </s> -0.3010
-0.3010 ALINA </s> -0.3010
-0.3010 ALISHA </s> -0.3010
-0.3010 ALISON </s> -0.3010
-0.3010 ALISTAIR </s> -0.3010
-0.3010 ALISTER </s> -0.3010
-0.3010 ALIX </s> -0.3010
-0.3010 ALIYA </s> -0.3010
-0.3010 ALIYAH </s> -0.3010
-0.3010 ALL </s> -0.3010
-0.3010 ALLAN </s> -0.3010
-0.3010 ALLYSHA </s> -0.3010
-0.3010 ALVIN </s> -0.3010
-0.3010 ALYS </s> -0.3010
-0.3010 ALYSHA </s> -0.3010
-0.3010 ALYSSIA </s> -0.3010
-0.3010 AM </s> -0.3010
-0.3010 AMAAN </s> -0.3010
-0.3010 AMALIE </s> -0.3010
-0.3010 AMAN </s> -0.3010
-0.3010 AMANDA </s> -0.3010
-0.3010 AMANDEEP </s> -0.3010
-0.3010 AMAR </s> -0.3010
-0.3010 AMARA </s> -0.3010
-0.3010 AMBER </s> -0.3010
-0.3010 AMEERA </s> -0.3010
-0.3010 AMELIA </s> -0.3010
-0.3010 AMI </s> -0.3010
-0.3010 AMIE </s> -0.3010
-0.3010 AMINA </s> -0.3010
-0.3010 AMIR </s> -0.3010
-0.3010 AMY </s> -0.3010
-0.3010 ANA </s> -0.3010
-0.3010 ANASTASIA </s> -0.3010
-0.6021 AND A 0.0000
-0.6021 AND ALBERT -0.2218
-0.3010 ANDIE </s> -0.3010
-0.3010 ANDRE </s> -0.3010
-0.3010 ANDREA </s> -0.3010
-0.3010 ANDREAS </s> -0.3010
-0.3010 ANDREW </s> -0.3010
-0.3010 ANDY </s> -0.3010
-0.3010 ANEEKA </s> -0.3010
-0.3010 ANEESA </s> -0.3010
-0.3010 ANGEL </s> -0.3010
-0.3010 ANGELA </s> -0.3010
-0.3010 ANGELICA </s> -0.3010
-0.3010 ANGELINA </s> -0.3010
-0.3010 ANGELO </s> -0.3010
-0.3010 ANGHARAD </s> -0.3010
-0.3010 ANGUS </s> -0.3010
-0.3010 ANIKA </s> -0.3010
-0.3010 ANISA </s> -0.3010
-0.3010 ANISAH </s> -0.3010
-0.3010 ANISH </s> -0.3010
-0.3010 ANISHA </s> -0.3010
-0.3010 ANITA </s> -0.3010
-0.3010 ANN </s> -0.3010
-0.3010 ANNA </s> -0.3010
-0.3010 ANNABEL </s> -0.3010
-0.3010 ANNABELLE </s> -0.3010
-0.3010 ANNALISE </s> -0.3010
-0.3010 ANNE </s> -0.3010
-0.3010 ANNE-MARIE </s> -0.3010
-0.3010 ANNIE </s> -0.3010
-0.3010 ANNIKA </s> -0.3010
-0.3010 ANTHONY </s> -0.3010
-0.3010 ANTON </s> -0.3010
-0.3010 ANTONIA </s> -0.3010
-0.3010 ANTONIO </s> -0.3010
-0.3010 ANTONY </s> -0.3010
-0.3010 ANWAR </s> -0.3010
-0.3010 ANYA </s> -0.3010
-0.3010 AOIFE </s> -0.3010
-0.3010 APRIL </s> -0.3010
-0.3010 AQIB </s> -0.3010
-0.3010 ARABELLA </s> -0.3010
-0.3010 ARAN </s> -0.3010
-0.3010 ARCHIE </s> -0.3010
-0.3010 ARE </s> -0.3010
-0.3010 ARJUN </s> -0.3010
-0.3010 ARON </s> -0.3010
-0.3010 ARRAN </s> -0.3010
-0.3010 ARRON </s> -0.3010
-0.3010 ARTHUR </s> -0.3010
-0.3010 ARUN </s> -0.3010
-0.3010 ASA </s> -0.3010
-0.3010 ASAD </s> -0.3010
-0.3010 ASHA </s> -0.3010
-0.3010 ASHER </s> -0.3010
-0.3010 ASHLEA </s> -0.3010
-0.3010 ASHLEE </s> -0.3010
-0.3010 ASHLEIGH </s> -0.3010
-0.3010 ASHLEY </s> -0.3010
-0.3010 ASHRAF </s> -0.3010
-0.3010 ASHTON </s> -0.3010
-0.3010 ASIF </s> -0.3010
-0.3010 ASIM </s> -0.3010
-0.3010 ASMA </s> -0.3010
-0.3010 ASTON </s> -0.3010
-0.3010 ATLANTA </s> -0.3010
-0.3010 AUSTIN </s> -0.3010
-0.3010 AUTUMN </s> -0.3010
-0.3010 AWAIS </s> -0.3010
-0.3010 AYDEN </s> -0.3010
-0.3010 AYE </s> -0.3010
-0.3010 AYESHA </s> -0.3010
-0.3010 AYISHA </s> -0.3010
-0.3010 AYRTON </s> -0.3010
-0.3010 AYSHA </s> -0.3010
-0.3010 AZIM </s> -0.3010
-0.3010 AZIZ </s> -0.3010
-0.3010 BAILEY </s> -0.3010
-0.3010 BARBARA </s> -0.3010
-0.3010 BARNABY </s> -0.3010
-0.3010 BARNEY </s> -0.3010
-0.3010 BARRY </s> -0.3010
-0.3010 BE </s> -0.3010
-0.3010 BEATRICE </s> -0.3010
-0.3010 BEAU </s> -0.3010
-0.3010 BECKY </s> -0.3010
-0.3010 BEEN </s> -0.3010
-0.3010 BEING </s> -0.3010
-0.3010 BELINDA </s> -0.3010
-0.3010 BEN </s> -0.3010
-0.3010 BENEDICT </s> -0.3010
-0.3010 BENJAMIN </s> -0.3010
-0.3010 BENN </s> -0.3010
-0.3010 BERNADETTE </s> -0.3010
-0.3010 BERNARD </s> -0.3010
-0.3010 BETH </s> -0.3010
-0.3010 BETHAN </s> -0.3010
-0.3010 BETHANIE </s> -0.3010
-0.3010 BETHANY </s> -0.3010
-0.3010 BETHNEY </s> -0.3010
-0.3010 BEVAN </s> -0.3010
-0.3010 BIANCA </s> -0.3010
-0.3010 BILAL </s> -0.3010
-0.3010 BILLIE </s> -0.3010
-0.3010 BILLIE-JO </s> -0.3010
-0.3010 BILLY </s> -0.3010
-0.3010 BLAINE </s> -0.3010
-0.3010 BLAISE </s> -0.3010
-0.3010 BLAKE </s> -0.3010
-0.3010 BLYTHE </s> -0.3010
-0.3010 BOB </s> -0.3010
-0.3010 BOBBI </s> -0.3010
-0.3010 BOBBIE </s> -0.3010
-0.3010 BOBBY </s> -0.3010
-0.3010 BONITA </s> -0.3010
-0.3010 BONNIE </s> -0.3010
-0.3010 BONNY </s> -0.3010
-0.3010 BORIS </s> -0.3010
-0.3010 BOTH </s> -0.3010
-0.3010 BRAD </s> -0.3010
-0.3010 BRADEN </s> -0.3010
-0.3010 BRADLEY </s> -0.3010
-0.3010 BRADY </s> -0.3010
-0.3010 BRANDAN </s> -0.3010
-0.3010 BRANDON </s> -0.3010
-0.3010 BRENDAN </s> -0.3010
-0.3010 BRENDEN </s> -0.3010
-0.3010 BRENDON </s> -0.3010
-0.3010 BRET </s> -0.3010
-0.3010 BRETT </s> -0.3010
-0.3010 BRIAN </s> -0.3010
-0.3010 BRIANA </s> -0.3010
-0.3010 BRIDGET </s> -0.3010
-0.3010 BRIDIE </s> -0.3010
-0.3010 BRIONY </s> -0.3010
-0.3010 BRITTANY </s> -0.3010
-0.3010 BRODIE </s> -0.3010
-0.3010 BROGAN </s> -0.3010
-0.3010 BRONTE </s> -0.3010
-0.3010 BRONWEN </s> -0.3010
-0.3010 BRONWYN </s> -0.3010
-0.3010 BROOKE </s> -0.3010
-0.3010 BROOKLYN </s> -0.3010
-0.3010 BRUCE </s> -0.3010
-0.3010 BRUNO </s> -0.3010
-0.3010 BRYAN </s> -0.3010
-0.3010 BRYCE </s> -0.3010
-0.3010 BRYN </s> -0.3010
-0.3010 BRYONY </s> -0.3010
-0.3010 BURAK </s> -0.3010
-0.3010 BYRON </s> -0.3010
-0.3010 CAI </s> -0.3010
-0.3010 CAIN </s> -0.3010
-0.3010 CAINE </s> -0.3010
-0.3010 CAITLIN </s> -0.3010
-0.3010 CALEB </s> -0.3010
-0.3010 CALLAM </s> -0.3010
-0.3010 CALLAN </s> -0.3010
-0.3010 CALLED </s> -0.3010
-0.3010 CALLIE </s> -0.3010
-0.3010 CALLUM </s> -0.3010
-0.3010 CALUM </s> -0.3010
-0.3010 CALVIN </s> -0.3010
-0.3010 CAMERON </s> -0.3010
-0.3010 CAMILA </s> -0.3010
-0.3010 CAMILLA </s> -0.3010
-0.3010 CAMILLE </s> -0.3010
-0.3010 CAMPBELL </s> -0.3010
-0.3010 CANDICE </s> -0.3010
-0.3010 CARA </s> -0.3010
-0.3010 CARIS </s> -0.3010
-0.3010 CARL </s> -0.3010
-0.3010 CARLA </s> -0.3010
-0.3010 CARLIE </s> -0.3010
-0.3010 CARLOS </s> -0.3010
-0.3010 CARLTON </s> -0.3010
-0.3010 CARLY </s> -0.3010
-0.3010 CARMEN </s> -0.3010
-0.3010 CAROLINE </s> -0.3010
-0.3010 CAROLYN </s> -0.3010
-0.3010 CARRIE </s> -0.3010
-0.3010 CARWYN </s> -0.3010
-0.3010 CARYS </s> -0.3010
-0.3010 CASEY </s> -0.3010
-0.3010 CASSANDRA </s> -0.3010
-0.3010 CASSIDY </s> -0.3010
-0.3010 CASSIE </s> -0.3010
-0.3010 CATHERINE </s> -0.3010
-0.3010 CATHRINE </s> -0.3010
-0.3010 CATRIN </s> -0.3010
-0.3010 CATRIONA </s> -0.3010
-0.3010 CELIA </s> -0.3010
-0.3010 CELINE </s> -0.3010
-0.3010 CERI </s> -0.3010
-0.3010 CERTAINLY </s> -0.3010
-0.3010 CERYS </s> -0.3010
-0.3010 CHAD </s> -0.3010
-0.3010 CHANDLER </s> -0.3010
-0.3010 CHANEL </s> -0.3010
-0.3010 CHANELLE </s> -0.3010
-0.3010 CHANICE </s> -0.3010
-0.3010 CHANNELLE </s> -0.3010
-0.3010 CHANTAL </s> -0.3010
-0.3010 CHANTE </s> -0.3010
-0.3010 CHANTEL </s> -0.3010
-0.3010 CHANTELLE </s> -0.3010
-0.3010 CHARIS </s> -0.3010
-0.3010 CHARLENE </s> -0.3010
-0.3010 CHARLES </s> -0.3010
-0.3010 CHARLEY </s> -0.3010
-0.3010 CHARLIE </s> -0.3010
-0.3010 CHARLOTTE </s> -0.3010
-0.3010 CHARMAINE </s> -0.3010
-0.3010 CHAY </s> -0.3010
-0.3010 CHE </s> -0.3010
-0.3010 CHELSEA </s> -0.3010
-0.3010 CHELSEY </s> -0.3010
-0.3010 CHELSIE </s> -0.3010
-0.3010 CHERYL </s> -0.3010
-0.3010 CHESTER </s> -0.3010
-0.3010 CHEYENNE </s> -0.3010
-0.3010 CHIRAG </s> -0.3010
-0.3010 CHLOE </s> -0.3010
-0.3010 CHRIS </s> -0.3010
-0.3010 CHRISTIAN </s> -0.3010
-0.3010 CHRISTIE </s> -0.3010
-0.3010 CHRISTINA </s> -0.3010
-0.3010 CHRISTINE </s> -0.3010
-0.3010 CHRISTOPHER </s> -0.3010
-0.3010 CHRISTOS </s> -0.3010
-0.3010 CIAN </s> -0.3010
-0.3010 CIARA </s> -0.3010
-0.3010 CIARAN </s> -0.3010
-0.3010 CIERAN </s> -0.3010
-0.3010 CLAIRE </s> -0.3010
-0.3010 CLARA </s> -0.3010
-0.3010 CLARE </s> -0.3010
-0.3010 CLARISSA </s> -0.3010
-0.3010 CLARK </s> -0.3010
-0.3010 CLAUDIA </s> -0.3010
-0.3010 CLAYTON </s> -0.3010
-0.3010 CLEO </s> -0.3010
-0.3010 CLINT </s> -0.3010
-0.3010 CLIVE </s> -0.3010
-0.3010 CODIE </s> -0.3010
-0.3010 CODY </s> -0.3010
-0.3010 COLE </s> -0.3010
-0.3010 COLETTE </s> -0.3010
-0.3010 COLIN </s> -0.3010
-0.3010 COLLEGE </s> -0.3010
-0.3010 CONNAH </s> -0.3010
-0.3010 CONNELL </s> -0.3010
-0.3010 CONNER </s> -0.3010
-0.3010 CONNIE </s> -0.3010
-0.3010 CONNOR </s> -0.3010
-0.3010 CONOR </s> -0.3010
-0.3010 CONRAD </s> -0.3010
-0.3010 CONSTANCE </s> -0.3010
-0.3010 CONSTANTINE </s> -0.3010
-0.3010 CONSTANTINOS </s> -0.3010
-0.3010 CORA </s> -0.3010
-0.3010 CORAL </s> -0.3010
-0.3010 COREY </s> -0.3010
-0.3010 CORIN </s> -0.3010
-0.3010 CORINNE </s> -0.3010
-0.3010 CORMAC </s> -0.3010
-0.3010 CORRIE </s> -0.3010
-0.3010 CORY </s> -0.3010
-0.3010 COURSE </s> -0.3010
-0.3010 COURT </s> -0.3010
-0.3010 COURTENEY </s> -0.3010
-0.3010 COURTNEY </s> -0.3010
-0.3010 CRAIG </s> -0.3010
-0.3010 CRYSTAL </s> -0.3010
-0.3010 CULLEN </s> -0.3010
-0.3010 CULLUM </s> -0.3010
-0.3010 CURTIS </s> -0.3010
-0.3010 CYRUS </s> -0.3010
-0.3010 DAFYDD </s> -0.3010
-0.3010 DAISY </s> -0.3010
-0.3010 DALE </s> -0.3010
-0.3010 DALTON </s> -0.3010
-0.3010 DAMIAN </s> -0.3010
-0.3010 DAMIEN </s> -0.3010
-0.3010 DAMON </s> -0.3010
-0.3010 DAN </s> -0.3010
-0.3010 DANA </s> -0.3010
-0.3010 DANE </s> -0.3010
-0.3010 DANI </s> -0.3010
-0.3010 DANIAL </s> -0.3010
-0.3010 DANIEL </s> -0.3010
-0.3010 DANIELA </s> -0.3010
-0.3010 DANIELE </s> -0.3010
-0.3010 DANIELLA </s> -0.3010
-0.3010 DANIELLE </s> -0.3010
-0.3010 DANISH </s> -0.3010
-0.3010 DANNI </s> -0.3010
-0.3010 DANNIELLA </s> -0.3010
-0.3010 DANNIELLE </s> -0.3010
-0.3010 DANNY </s> -0.3010
-0.3010 DANYAL </s> -0.3010
-0.3010 DARCIE </s> -0.3010
-0.3010 DARCY </s> -0.3010
-0.3010 DARIEN </s> -0.3010
-0.3010 DARIUS </s> -0.3010
-0.3010 DARNELL </s> -0.3010
-0.3010 DARRAGH </s> -0.3010
-0.3010 DARRELL </s> -0.3010
-0.3010 DARREN </s> -0.3010
-0.3010 DARRYL </s> -0.3010
-0.3010 DARYL </s> -0.3010
-0.3010 DARYLL </s> -0.3010
-0.3010 DAVEY </s> -0.3010
-0.3010 DAVID </s> -0.3010
-0.3010 DAVINA </s> -0.3010
-0.3010 DAVY </s> -0.3010
-0.3010 DAWN </s> -0.3010
-0.3010 DAYLE </s> -0.3010
-0.3010 DAYNA </s> -0.3010
-0.3010 DEAN </s> -0.3010
-0.3010 DEANNA </s> -0.3010
-0.3010 DEBBIE </s> -0.3010
-0.3010 DEBORAH </s> -0.3010
-0.3010 DECLAN </s> -0.3010
-0.3010 DEMI </s> -0.3010
-0.3010 DEMI-LEIGH </s> -0.3010
-0.3010 DENNIS </s> -0.3010
-0.3010 DENZEL </s> -0.3010
-0.3010 DEREK </s> -0.3010
-0.3010 DERREN </s> -0.3010
-0.3010 DERRY </s> -0.3010
-0.3010 DEVANTE </s> -0.3010
-0.3010 DEVON </s> -0.3010
-0.3010 DEWI </s> -0.3010
-0.3010 DEXTER </s> -0.3010
-0.3010 DIANA </s> -0.3010
-0.3010 DILAN </s> -0.3010
-0.3010 DILLAN </s> -0.3010
-0.3010 DILLON </s> -0.3010
-0.3010 DIMITRIS </s> -0.3010
-0.3010 DINA </s> -0.3010
-0.3010 DION </s> -0.3010
-0.3010 DIONNE </s> -0.3010
-0.3010 DISTRICT LINE 0.0000
-0.3010 DJANGO </s> -0.3010
-0.3010 DOMINIC </s> -0.3010
-0.3010 DOMINIQUE </s> -0.3010
-0.3010 DONALD </s> -0.3010
-0.3010 DONNA </s> -0.3010
-0.3010 DONOVAN </s> -0.3010
-0.3010 DONT </s> -0.3010
-0.3010 DORIAN </s> -0.3010
-0.3010 DOUGLAS </s> -0.3010
-0.3010 DRE </s> -0.3010
-0.3010 DREW </s> -0.3010
-0.3010 DUDLEY </s> -0.3010
-0.3010 DUNCAN </s> -0.3010
-0.3010 DWAYNE </s> -0.3010
-0.3010 DYLAN </s> -0.3010
-0.3010 EAMON </s> -0.3010
-0.3010 EARLS COURT 0.0000
-0.3010 EBONY </s> -0.3010
-0.3010 EDDIE </s> -0.3010
-0.3010 EDDY </s> -0.3010
-0.3010 EDEN </s> -0.3010
-0.3010 EDGAR </s> -0.3010
-0.3010 EDIE </s> -0.3010
-0.3010 EDMUND </s> -0.3010
-0.3010 EDUARDO </s> -0.3010
-0.3010 EDWARD </s> -0.3010
-0.3010 EDWIN </s> -0.3010
-0.3010 EILEEN </s> -0.3010
-0.3010 EILISH </s> -0.3010
-0.3010 ELEANOR </s> -0.3010
-0.3010 ELENA </s> -0.3010
-0.3010 ELI </s> -0.3010
-0.3010 ELIAS </s> -0.3010
-0.3010 ELIJAH </s> -0.3010
-0.3010 ELIN </s> -0.3010
-0.3010 ELINOR </s> -0.3010
-0.3010 ELIOT </s> -0.3010
-0.3010 ELIOTT </s> -0.3010
-0.3010 ELIS </s> -0.3010
-0.3010 ELISA </s> -0.3010
-0.3010 ELISABETH </s> -0.3010
-0.3010 ELISE </s> -0.3010
-0.3010 ELISHA </s> -0.3010
-0.3010 ELIZA </s> -0.3010
-0.3010 ELIZABETH </s> -0.3010
-0.3010 ELLA </s> -0.3010
-0.3010 ELLE </s> -0.3010
-0.3010 ELLEN </s> -0.3010
-0.3010 ELLENA </s> -0.3010
-0.3010 ELLIE </s> -0.3010
-0.3010 ELLIE-MAE </s> -0.3010
-0.3010 ELLIOT </s> -0.3010
-0.3010 ELLIOTT </s> -0.3010
-0.3010 ELLIS </s> -0.3010
-0.3010 ELOISE </s> -0.3010
-0.3010 ELSA </s> -0.3010
-0.3010 ELSPETH </s> -0.3010
-0.3010 ELYSIA </s> -0.3010
-0.3010 EMILIA </s> -0.3010
-0.3010 EMILIE </s> -0.3010
-0.3010 EMILIO </s> -0.3010
-0.3010 EMILY </s> -0.3010
-0.3010 EMMA </s> -0.3010
-0.3010 EMMANUEL </s> -0.3010
-0.3010 ENYA </s> -0.3010
-0.3010 EOIN </s> -0.3010
-0.3010 ERIC </s> -0.3010
-0.3010 ERICA </s> -0.3010
-0.3010 ERIKA </s> -0.3010
-0.3010 ERIN </s> -0.3010
-0.3010 ESME </s> -0.3010
-0.3010 ESTELLE </s> -0.3010
-0.3010 ESTHER </s> -0.3010
-0.3010 ETHAN </s> -0.3010
-0.3010 ETHOS </s> -0.3010
-0.3010 EUAN </s> -0.3010
-0.3010 EVA </s> -0.3010
-0.3010 EVAN </s> -0.3010
-0.3010 EVANGELINE </s> -0.3010
-0.3010 EVE </s> -0.3010
-0.3010 EVELYN </s> -0.3010
-0.3010 EVIE </s> -0.3010
-0.3010 EWAN </s> -0.3010
-0.3010 EZEKIEL </s> -0.3010
-0.3010 EZRA </s> -0.3010
-0.3010 FABIAN </s> -0.3010
-0.3010 FABIO </s> -0.3010
-0.3010 FAHAD </s> -0.3010
-0.3010 FAHIM </s> -0.3010
-0.3010 FAISAL </s> -0.3010
-0.3010 FAITH </s> -0.3010
-0.3010 FAIZA </s> -0.3010
-0.3010 FAIZAN </s> -0.3010
-0.3010 FALSE </s> -0.3010
-0.3010 FARAAZ </s> -0.3010
-0.3010 FARAH </s> -0.3010
-0.3010 FARHAN </s> -0.3010
-0.3010 FARHANA </s> -0.3010
-0.3010 FARRAH </s> -0.3010
-0.3010 FARZANA </s> -0.3010
-0.3010 FATIMA </s> -0.3010
-0.3010 FAY </s> -0.3010
-0.3010 FAYE </s> -0.3010
-0.3010 FELICIA </s> -0.3010
-0.3010 FELICITY </s> -0.3010
-0.3010 FELIX </s> -0.3010
-0.3010 FERDINAND </s> -0.3010
-0.3010 FERGUS </s> -0.3010
-0.3010 FERN </s> -0.3010
-0.3010 FFION </s> -0.3010
-0.3010 FINE </s> -0.3010
-0.3010 FINLAY </s> -0.3010
-0.3010 FINN </s> -0.3010
-0.3010 FIONA </s> -0.3010
-0.3010 FLEUR </s> -0.3010
-0.3010 FLORA </s> -0.3010
-0.3010 FLORENCE </s> -0.3010
-0.3010 FLOYD </s> -0.3010
-0.3010 FOOD </s> -0.3010
-0.3010 FRANCES </s> -0.3010
-0.3010 FRANCESCA </s> -0.3010
-0.3010 FRANCESCO </s> -0.3010
-0.3010 FRANCIS </s> -0.3010
-0.3010 FRANCOIS </s> -0.3010
-0.3010 FRANK </s> -0.3010
-0.3010 FRANKIE </s> -0.3010
-0.3010 FRANKLIN </s> -0.3010
-0.3010 FRASER </s> -0.3010
-0.3010 FRAZER </s> -0.3010
-0.3010 FRAZIER </s> -0.3010
-0.3010 FRED </s> -0.3010
-0.3010 FREDDIE </s> -0.3010
-0.3010 FREDDY </s> -0.3010
-0.3010 FREDERICK </s> -0.3010
-0.3010 FREDERIK </s> -0.3010
-0.3010 FREDRICK </s> -0.3010
-0.3010 FREYA </s> -0.3010
-0.3010 GABRIEL </s> -0.3010
-0.3010 GABRIELE </s> -0.3010
-0.3010 GABRIELLA </s> -0.3010
-0.3010 GABRIELLE </s> -0.3010
-0.3010 GABY </s> -0.3010
-0.3010 GAGE </s> -0.3010
-0.3010 GARETH </s> -0.3010
-0.3010 GARRY </s> -0.3010
-0.3010 GARY </s> -0.3010
-0.3010 GAVIN </s> -0.3010
-0.3010 GEMMA </s> -0.3010
-0.3010 GENEVIEVE </s> -0.3010
-0.3010 GEOFFREY </s> -0.3010
-0.3010 GEORGE </s> -0.3010
-0.3010 GEORGIA </s> -0.3010
-0.3010 GEORGIE </s> -0.3010
-0.3010 GEORGINA </s> -0.3010
-0.3010 GERAINT </s> -0.3010
-0.3010 GERALD </s> -0.3010
-0.3010 GERALDINE </s> -0.3010
-0.3010 GERARD </s> -0.3010
-0.3010 GETHIN </s> -0.3010
-0.3010 GIANLUCA </s> -0.3010
-0.3010 GIDEON </s> -0.3010
-0.3010 GILES </s> -0.3010
-0.3010 GINA </s> -0.3010
-0.3010 GIORGIA </s> -0.3010
-0.3010 GIOVANNI </s> -0.3010
-0.3010 GIUSEPPE </s> -0.3010
-0.3010 GLEN </s> -0.3010
