Language model created by QuickLM on Thu Nov 29 06:26:47 EST 2012
Copyright (c) 1996-2010 Carnegie Mellon University and Alexander I. Rudnicky

The model is in standard ARPA format, designed by Doug Paul while he was at MITRE.

The code that was used to produce this language model is available in Open Source.
Please visit http://www.speech.cs.cmu.edu/tools/ for more information

The (fixed) discount mass is 0.5. The backoffs are computed using the ratio method.
This model based on a corpus of 202 sentences and 204 words

\data\
ngram 1=204
ngram 2=404
ngram 3=202

\1-grams:
-0.7782 </s> -0.3010
-0.7782 <s> -0.2218
-3.0835 AARON -0.2218
-3.0835 ABBIE -0.2218
-3.0835 ABIGAIL -0.2218
-3.0835 ADAM -0.2218
-3.0835 AIDAN -0.2218
-3.0835 AIMEE -0.2218
-3.0835 ALEX -0.2218
-3.0835 ALEXANDER -0.2218
-3.0835 ALEXANDRA -0.2218
-3.0835 ALICE -0.2218
-3.0835 ALICIA -0.2218
-3.0835 AMBER -0.2218
-3.0835 AMELIA -0.2218
-3.0835 AMY -0.2218
-3.0835 ANDREW -0.2218
-3.0835 ANNA -0.2218
-3.0835 ANTHONY -0.2218
-3.0835 ASHLEIGH -0.2218
-3.0835 ASHLEY -0.2218
-3.0835 BEN -0.2218
-3.0835 BENJAMIN -0.2218
-3.0835 BETH -0.2218
-3.0835 BETHAN -0.2218
-3.0835 BETHANY -0.2218
-3.0835 BILLY -0.2218
-3.0835 BRADLEY -0.2218
-3.0835 BRANDON -0.2218
-3.0835 CAITLIN -0.2218
-3.0835 CALLUM -0.2218
-3.0835 CALUM -0.2218
-3.0835 CAMERON -0.2218
-3.0835 CATHERINE -0.2218
-3.0835 CHANTELLE -0.2218
-3.0835 CHARLES -0.2218
-3.0835 CHARLIE -0.2218
-3.0835 CHARLOTTE -0.2218
-3.0835 CHELSEA -0.2218
-3.0835 CHLOE -0.2218
-3.0835 CHRISTIAN -0.2218
-3.0835 CHRISTOPHER -0.2218
-3.0835 CLAIRE -0.2218
-3.0835 CONNOR -0.2218
-3.0835 CONOR -0.2218
-3.0835 COURTNEY -0.2218
-3.0835 CRAIG -0.2218
-3.0835 CURTIS -0.2218
-3.0835 DAISY -0.2218
-3.0835 DANIEL -0.2218
-3.0835 DANIELLE -0.2218
-3.0835 DANNY -0.2218
-3.0835 DAVID -0.2218
-3.0835 DEAN -0.2218
-3.0835 DECLAN -0.2218
-3.0835 DEMI -0.2218
-3.0835 DOMINIC -0.2218
-3.0835 DYLAN -0.2218
-3.0835 EDWARD -0.2218
-3.0835 ELEANOR -0.2218
-3.0835 ELIZABETH -0.2218
-3.0835 ELLA -0.2218
-3.0835 ELLEN -0.2218
-3.0835 ELLIE -0.2218
-3.0835 ELLIOT -0.2218
-3.0835 ELLIOTT -0.2218
-3.0835 EMILY -0.2218
-3.0835 EMMA -0.2218
-3.0835 ERIN -0.2218
-3.0835 ETHAN -0.2218
-3.0835 FRANCESCA -0.2218
-3.0835 GABRIELLE -0.2218
-3.0835 GEMMA -0.2218
-3.0835 GEORGE -0.2218
-3.0835 GEORGIA -0.2218
-3.0835 GEORGINA -0.2218
-3.0835 GRACE -0.2218
-3.0835 HANNAH -0.2218
-3.0835 HARRIET -0.2218
-3.0835 HARRISON -0.2218
-3.0835 HARRY -0.2218
-3.0835 HAYLEY -0.2218
-3.0835 HEATHER -0.2218
-3.0835 HENRY -0.2218
-3.0835 HOLLIE -0.2218
-3.0835 HOLLY -0.2218
-3.0835 IMOGEN -0.2218
-3.0835 ISOBEL -0.2218
-3.0835 JACK -0.2218
-3.0835 JACOB -0.2218
-3.0835 JADE -0.2218
-3.0835 JAKE -0.2218
-3.0835 JAMES -0.2218
-3.0835 JAMIE -0.2218
-3.0835 JASMINE -0.2218
-3.0835 JASON -0.2218
-3.0835 JAY -0.2218
-3.0835 JENNIFER -0.2218
-3.0835 JESSICA -0.2218
-3.0835 JODIE -0.2218
-3.0835 JOE -0.2218
-3.0835 JOEL -0.2218
-3.0835 JOHN -0.2218
-3.0835 JONATHAN -0.2218
-3.0835 JORDAN -0.2218
-3.0835 JOSEPH -0.2218
-3.0835 JOSH -0.2218
-3.0835 JOSHUA -0.2218
-3.0835 KANE -0.2218
-3.0835 KATE -0.2218
-3.0835 KATHERINE -0.2218
-3.0835 KATHRYN -0.2218
-3.0835 KATIE -0.2218
-3.0835 KAYLEIGH -0.2218
-3.0835 KELLY -0.2218
-3.0835 KIERAN -0.2218
-3.0835 KIMBERLEY -0.2218
-3.0835 KIRSTY -0.2218
-3.0835 KYLE -0.2218
-3.0835 LAURA -0.2218
-3.0835 LAUREN -0.2218
-3.0835 LEAH -0.2218
-3.0835 LEANNE -0.2218
-3.0835 LEE -0.2218
-3.0835 LEWIS -0.2218
-3.0835 LIAM -0.2218
-3.0835 LILY -0.2218
-3.0835 LOUIS -0.2218
-3.0835 LOUISE -0.2218
-3.0835 LUCY -0.2218
-3.0835 LUKE -0.2218
-3.0835 LYDIA -0.2218
-3.0835 MACAULEY -0.2218
-3.0835 MADELEINE -0.2218
-3.0835 MARCUS -0.2218
-3.0835 MARIA -0.2218
-3.0835 MARK -0.2218
-3.0835 MATTHEW -0.2218
-3.0835 MAX -0.2218
-3.0835 MEGAN -0.2218
-3.0835 MELISSA -0.2218
-3.0835 MICHAEL -0.2218
-3.0835 MITCHELL -0.2218
-3.0835 MOHAMMAD -0.2218
-3.0835 MOHAMMED -0.2218
-3.0835 MOLLIE -0.2218
-3.0835 MOLLY -0.2218
-3.0835 NAOMI -0.2218
-3.0835 NATALIE -0.2218
-3.0835 NATASHA -0.2218
-3.0835 NATHAN -0.2218
-3.0835 NICHOLAS -0.2218
-3.0835 NICOLA -0.2218
-3.0835 NICOLE -0.2218
-3.0835 NO -0.2218
-3.0835 OLIVER -0.2218
-3.0835 OLIVIA -0.2218
-3.0835 OWEN -0.2218
-3.0835 PAIGE -0.2218
-3.0835 PATRICK -0.2218
-3.0835 PAUL -0.2218
-3.0835 PETER -0.2218
-3.0835 PHOEBE -0.2218
-3.0835 POPPY -0.2218
-3.0835 RACHAEL -0.2218
-3.0835 RACHEL -0.2218
-3.0835 REBECCA -0.2218
-3.0835 REECE -0.2218
-3.0835 RHIANNON -0.2218
-3.0835 RHYS -0.2218
-3.0835 RICHARD -0.2218
-3.0835 ROBERT -0.2218
-3.0835 ROBYN -0.2218
-3.0835 RORY -0.2218
-3.0835 ROSIE -0.2218
-3.0835 ROSS -0.2218
-3.0835 RYAN -0.2218
-3.0835 SAM -0.2218
-3.0835 SAMANTHA -0.2218
-3.0835 SAMUEL -0.2218
-3.0835 SARAH -0.2218
-3.0835 SCOTT -0.2218
-3.0835 SEAN -0.2218
-3.0835 SHANE -0.2218
-3.0835 SHANNON -0.2218
-3.0835 SHAUN -0.2218
-3.0835 SIAN -0.2218
-3.0835 SIMON -0.2218
-3.0835 SOPHIA -0.2218
-3.0835 SOPHIE -0.2218
-3.0835 STACEY -0.2218
-3.0835 STEPHANIE -0.2218
-3.0835 STEPHEN -0.2218
-3.0835 STEVEN -0.2218
-3.0835 THOMAS -0.2218
-3.0835 TIMOTHY -0.2218
-3.0835 TOBY -0.2218
-3.0835 TYLER -0.2218
-3.0835 VICTORIA -0.2218
-3.0835 WILLIAM -0.2218
-3.0835 YASMIN -0.2218
-3.0835 YES -0.2218
-3.0835 ZACHARY -0.2218
-3.0835 ZOE -0.2218

\2-grams:
-2.6064 <s> AARON 0.0000
-2.6064 <s> ABBIE 0.0000
-2.6064 <s> ABIGAIL 0.0000
-2.6064 <s> ADAM 0.0000
-2.6064 <s> AIDAN 0.0000
-2.6064 <s> AIMEE 0.0000
-2.6064 <s> ALEX 0.0000
-2.6064 <s> ALEXANDER 0.0000
-2.6064 <s> ALEXANDRA 0.0000
-2.6064 <s> ALICE 0.0000
-2.6064 <s> ALICIA 0.0000
-2.6064 <s> AMBER 0.0000
-2.6064 <s> AMELIA 0.0000
-2.6064 <s> AMY 0.0000
-2.6064 <s> ANDREW 0.0000
-2.6064 <s> ANNA 0.0000
-2.6064 <s> ANTHONY 0.0000
-2.6064 <s> ASHLEIGH 0.0000
-2.6064 <s> ASHLEY 0.0000
-2.6064 <s> BEN 0.0000
-2.6064 <s> BENJAMIN 0.0000
-2.6064 <s> BETH 0.0000
-2.6064 <s> BETHAN 0.0000
-2.6064 <s> BETHANY 0.0000
-2.6064 <s> BILLY 0.0000
-2.6064 <s> BRADLEY 0.0000
-2.6064 <s> BRANDON 0.0000
-2.6064 <s> CAITLIN 0.0000
-2.6064 <s> CALLUM 0.0000
-2.6064 <s> CALUM 0.0000
-2.6064 <s> CAMERON 0.0000
-2.6064 <s> CATHERINE 0.0000
-2.6064 <s> CHANTELLE 0.0000
-2.6064 <s> CHARLES 0.0000
-2.6064 <s> CHARLIE 0.0000
-2.6064 <s> CHARLOTTE 0.0000
-2.6064 <s> CHELSEA 0.0000
-2.6064 <s> CHLOE 0.0000
-2.6064 <s> CHRISTIAN 0.0000
-2.6064 <s> CHRISTOPHER 0.0000
-2.6064 <s> CLAIRE 0.0000
-2.6064 <s> CONNOR 0.0000
-2.6064 <s> CONOR 0.0000
-2.6064 <s> COURTNEY 0.0000
-2.6064 <s> CRAIG 0.0000
-2.6064 <s> CURTIS 0.0000
-2.6064 <s> DAISY 0.0000
-2.6064 <s> DANIEL 0.0000
-2.6064 <s> DANIELLE 0.0000
-2.6064 <s> DANNY 0.0000
-2.6064 <s> DAVID 0.0000
-2.6064 <s> DEAN 0.0000
-2.6064 <s> DECLAN 0.0000
-2.6064 <s> DEMI 0.0000
-2.6064 <s> DOMINIC 0.0000
-2.6064 <s> DYLAN 0.0000
-2.6064 <s> EDWARD 0.0000
-2.6064 <s> ELEANOR 0.0000
-2.6064 <s> ELIZABETH 0.0000
-2.6064 <s> ELLA 0.0000
-2.6064 <s> ELLEN 0.0000
-2.6064 <s> ELLIE 0.0000
-2.6064 <s> ELLIOT 0.0000
-2.6064 <s> ELLIOTT 0.0000
-2.6064 <s> EMILY 0.0000
-2.6064 <s> EMMA 0.0000
-2.6064 <s> ERIN 0.0000
-2.6064 <s> ETHAN 0.0000
-2.6064 <s> FRANCESCA 0.0000
-2.6064 <s> GABRIELLE 0.0000
-2.6064 <s> GEMMA 0.0000
-2.6064 <s> GEORGE 0.0000
-2.6064 <s> GEORGIA 0.0000
-2.6064 <s> GEORGINA 0.0000
-2.6064 <s> GRACE 0.0000
-2.6064 <s> HANNAH 0.0000
-2.6064 <s> HARRIET 0.0000
-2.6064 <s> HARRISON 0.0000
-2.6064 <s> HARRY 0.0000
-2.6064 <s> HAYLEY 0.0000
-2.6064 <s> HEATHER 0.0000
-2.6064 <s> HENRY 0.0000
-2.6064 <s> HOLLIE 0.0000
-2.6064 <s> HOLLY 0.0000
-2.6064 <s> IMOGEN 0.0000
-2.6064 <s> ISOBEL 0.0000
-2.6064 <s> JACK 0.0000
-2.6064 <s> JACOB 0.0000
-2.6064 <s> JADE 0.0000
-2.6064 <s> JAKE 0.0000
-2.6064 <s> JAMES 0.0000
-2.6064 <s> JAMIE 0.0000
-2.6064 <s> JASMINE 0.0000
-2.6064 <s> JASON 0.0000
-2.6064 <s> JAY 0.0000
-2.6064 <s> JENNIFER 0.0000
-2.6064 <s> JESSICA 0.0000
-2.6064 <s> JODIE 0.0000
-2.6064 <s> JOE 0.0000
-2.6064 <s> JOEL 0.0000
-2.6064 <s> JOHN 0.0000
-2.6064 <s> JONATHAN 0.0000
-2.6064 <s> JORDAN 0.0000
-2.6064 <s> JOSEPH 0.0000
-2.6064 <s> JOSH 0.0000
-2.6064 <s> JOSHUA 0.0000
-2.6064 <s> KANE 0.0000
-2.6064 <s> KATE 0.0000
-2.6064 <s> KATHERINE 0.0000
-2.6064 <s> KATHRYN 0.0000
-2.6064 <s> KATIE 0.0000
-2.6064 <s> KAYLEIGH 0.0000
-2.6064 <s> KELLY 0.0000
-2.6064 <s> KIERAN 0.0000
-2.6064 <s> KIMBERLEY 0.0000
-2.6064 <s> KIRSTY 0.0000
-2.6064 <s> KYLE 0.0000
-2.6064 <s> LAURA 0.0000
-2.6064 <s> LAUREN 0.0000
-2.6064 <s> LEAH 0.0000
-2.6064 <s> LEANNE 0.0000
-2.6064 <s> LEE 0.0000
-2.6064 <s> LEWIS 0.0000
-2.6064 <s> LIAM 0.0000
-2.6064 <s> LILY 0.0000
-2.6064 <s> LOUIS 0.0000
-2.6064 <s> LOUISE 0.0000
-2.6064 <s> LUCY 0.0000
-2.6064 <s> LUKE 0.0000
-2.6064 <s> LYDIA 0.0000
-2.6064 <s> MACAULEY 0.0000
-2.6064 <s> MADELEINE 0.0000
-2.6064 <s> MARCUS 0.0000
-2.6064 <s> MARIA 0.0000
-2.6064 <s> MARK 0.0000
-2.6064 <s> MATTHEW 0.0000
-2.6064 <s> MAX 0.0000
-2.6064 <s> MEGAN 0.0000
-2.6064 <s> MELISSA 0.0000
-2.6064 <s> MICHAEL 0.0000
-2.6064 <s> MITCHELL 0.0000
-2.6064 <s> MOHAMMAD 0.0000
-2.6064 <s> MOHAMMED 0.0000
-2.6064 <s> MOLLIE 0.0000
-2.6064 <s> MOLLY 0.0000
-2.6064 <s> NAOMI 0.0000
-2.6064 <s> NATALIE 0.0000
-2.6064 <s> NATASHA 0.0000
-2.6064 <s> NATHAN 0.0000
-2.6064 <s> NICHOLAS 0.0000
-2.6064 <s> NICOLA 0.0000
-2.6064 <s> NICOLE 0.0000
-2.6064 <s> NO 0.0000
-2.6064 <s> OLIVER 0.0000
-2.6064 <s> OLIVIA 0.0000
-2.6064 <s> OWEN 0.0000
-2.6064 <s> PAIGE 0.0000
-2.6064 <s> PATRICK 0.0000
-2.6064 <s> PAUL 0.0000
-2.6064 <s> PETER 0.0000
-2.6064 <s> PHOEBE 0.0000
-2.6064 <s> POPPY 0.0000
-2.6064 <s> RACHAEL 0.0000
-2.6064 <s> RACHEL 0.0000
-2.6064 <s> REBECCA 0.0000
-2.6064 <s> REECE 0.0000
-2.6064 <s> RHIANNON 0.0000
-2.6064 <s> RHYS 0.0000
-2.6064 <s> RICHARD 0.0000
-2.6064 <s> ROBERT 0.0000
-2.6064 <s> ROBYN 0.0000
-2.6064 <s> RORY 0.0000
-2.6064 <s> ROSIE 0.0000
-2.6064 <s> ROSS 0.0000
-2.6064 <s> RYAN 0.0000
-2.6064 <s> SAM 0.0000
-2.6064 <s> SAMANTHA 0.0000
-2.6064 <s> SAMUEL 0.0000
-2.6064 <s> SARAH 0.0000
-2.6064 <s> SCOTT 0.0000
-2.6064 <s> SEAN 0.0000
-2.6064 <s> SHANE 0.0000
-2.6064 <s> SHANNON 0.0000
-2.6064 <s> SHAUN 0.0000
-2.6064 <s> SIAN 0.0000
-2.6064 <s> SIMON 0.0000
-2.6064 <s> SOPHIA 0.0000
-2.6064 <s> SOPHIE 0.0000
-2.6064 <s> STACEY 0.0000
-2.6064 <s> STEPHANIE 0.0000
-2.6064 <s> STEPHEN 0.0000
-2.6064 <s> STEVEN 0.0000
-2.6064 <s> THOMAS 0.0000
-2.6064 <s> TIMOTHY 0.0000
-2.6064 <s> TOBY 0.0000
-2.6064 <s> TYLER 0.0000
-2.6064 <s> VICTORIA 0.0000
-2.6064 <s> WILLIAM 0.0000
-2.6064 <s> YASMIN 0.0000
-2.6064 <s> YES 0.0000
-2.6064 <s> ZACHARY 0.0000
-2.6064 <s> ZOE 0.0000
-0.3010 AARON </s> -0.3010
-0.3010 ABBIE </s> -0.3010
-0.3010 ABIGAIL </s> -0.3010
-0.3010 ADAM </s> -0.3010
-0.3010 AIDAN </s> -0.3010
-0.3010 AIMEE </s> -0.3010
-0.3010 ALEX </s> -0.3010
-0.3010 ALEXANDER </s> -0.3010
-0.3010 ALEXANDRA </s> -0.3010
-0.3010 ALICE </s> -0.3010
-0.3010 ALICIA </s> -0.3010
-0.3010 AMBER </s> -0.3010
-0.3010 AMELIA </s> -0.3010
-0.3010 AMY </s> -0.3010
-0.3010 ANDREW </s> -0.3010
-0.3010 ANNA </s> -0.3010
-0.3010 ANTHONY </s> -0.3010
-0.3010 ASHLEIGH </s> -0.3010
-0.3010 ASHLEY </s> -0.3010
-0.3010 BEN </s> -0.3010
-0.3010 BENJAMIN </s> -0.3010
-0.3010 BETH </s> -0.3010
-0.3010 BETHAN </s> -0.3010
-0.3010 BETHANY </s> -0.3010
-0.3010 BILLY </s> -0.3010
-0.3010 BRADLEY </s> -0.3010
-0.3010 BRANDON </s> -0.3010
-0.3010 CAITLIN </s> -0.3010
-0.3010 CALLUM </s> -0.3010
-0.3010 CALUM </s> -0.3010
-0.3010 CAMERON </s> -0.3010
-0.3010 CATHERINE </s> -0.3010
-0.3010 CHANTELLE </s> -0.3010
-0.3010 CHARLES </s> -0.3010
-0.3010 CHARLIE </s> -0.3010
-0.3010 CHARLOTTE </s> -0.3010
-0.3010 CHELSEA </s> -0.3010
-0.3010 CHLOE </s> -0.3010
-0.3010 CHRISTIAN </s> -0.3010
-0.3010 CHRISTOPHER </s> -0.3010
-0.3010 CLAIRE </s> -0.3010
-0.3010 CONNOR </s> -0.3010
-0.3010 CONOR </s> -0.3010
-0.3010 COURTNEY </s> -0.3010
-0.3010 CRAIG </s> -0.3010
-0.3010 CURTIS </s> -0.3010
-0.3010 DAISY </s> -0.3010
-0.3010 DANIEL </s> -0.3010
-0.3010 DANIELLE </s> -0.3010
-0.3010 DANNY </s> -0.3010
-0.3010 DAVID </s> -0.3010
-0.3010 DEAN </s> -0.3010
-0.3010 DECLAN </s> -0.3010
-0.3010 DEMI </s> -0.3010
-0.3010 DOMINIC </s> -0.3010
-0.3010 DYLAN </s> -0.3010
-0.3010 EDWARD </s> -0.3010
-0.3010 ELEANOR </s> -0.3010
-0.3010 ELIZABETH </s> -0.3010
-0.3010 ELLA </s> -0.3010
-0.3010 ELLEN </s> -0.3010
-0.3010 ELLIE </s> -0.3010
-0.3010 ELLIOT </s> -0.3010
-0.3010 ELLIOTT </s> -0.3010
-0.3010 EMILY </s> -0.3010
-0.3010 EMMA </s> -0.3010
-0.3010 ERIN </s> -0.3010
-0.3010 ETHAN </s> -0.3010
-0.3010 FRANCESCA </s> -0.3010
-0.3010 GABRIELLE </s> -0.3010
-0.3010 GEMMA </s> -0.3010
-0.3010 GEORGE </s> -0.3010
-0.3010 GEORGIA </s> -0.3010
-0.3010 GEORGINA </s> -0.3010
-0.3010 GRACE </s> -0.3010
-0.3010 HANNAH </s> -0.3010
-0.3010 HARRIET </s> -0.3010
-0.3010 HARRISON </s> -0.3010
-0.3010 HARRY </s> -0.3010
-0.3010 HAYLEY </s> -0.3010
-0.3010 HEATHER </s> -0.3010
-0.3010 HENRY </s> -0.3010
-0.3010 HOLLIE </s> -0.3010
-0.3010 HOLLY </s> -0.3010
-0.3010 IMOGEN </s> -0.3010
-0.3010 ISOBEL </s> -0.3010
-0.3010 JACK </s> -0.3010
-0.3010 JACOB </s> -0.3010
-0.3010 JADE </s> -0.3010
-0.3010 JAKE </s> -0.3010
-0.3010 JAMES </s> -0.3010
-0.3010 JAMIE </s> -0.3010
-0.3010 JASMINE </s> -0.3010
-0.3010 JASON </s> -0.3010
-0.3010 JAY </s> -0.3010
-0.3010 JENNIFER </s> -0.3010
-0.3010 JESSICA </s> -0.3010
-0.3010 JODIE </s> -0.3010
-0.3010 JOE </s> -0.3010
-0.3010 JOEL </s> -0.3010
-0.3010 JOHN </s> -0.3010
-0.3010 JONATHAN </s> -0.3010
-0.3010 JORDAN </s> -0.3010
-0.3010 JOSEPH </s> -0.3010
-0.3010 JOSH </s> -0.3010
-0.3010 JOSHUA </s> -0.3010
-0.3010 KANE </s> -0.3010
-0.3010 KATE </s> -0.3010
-0.3010 KATHERINE </s> -0.3010
-0.3010 KATHRYN </s> -0.3010
-0.3010 KATIE </s> -0.3010
-0.3010 KAYLEIGH </s> -0.3010
-0.3010 KELLY </s> -0.3010
-0.3010 KIERAN </s> -0.3010
-0.3010 KIMBERLEY </s> -0.3010
-0.3010 KIRSTY </s> -0.3010
-0.3010 KYLE </s> -0.3010
-0.3010 LAURA </s> -0.3010
-0.3010 LAUREN </s> -0.3010
-0.3010 LEAH </s> -0.3010
-0.3010 LEANNE </s> -0.3010
-0.3010 LEE </s> -0.3010
-0.3010 LEWIS </s> -0.3010
-0.3010 LIAM </s> -0.3010
-0.3010 LILY </s> -0.3010
-0.3010 LOUIS </s> -0.3010
-0.3010 LOUISE </s> -0.3010
-0.3010 LUCY </s> -0.3010
-0.3010 LUKE </s> -0.3010
-0.3010 LYDIA </s> -0.3010
-0.3010 MACAULEY </s> -0.3010
-0.3010 MADELEINE </s> -0.3010
-0.3010 MARCUS </s> -0.3010
-0.3010 MARIA </s> -0.3010
-0.3010 MARK </s> -0.3010
-0.3010 MATTHEW </s> -0.3010
-0.3010 MAX </s> -0.3010
-0.3010 MEGAN </s> -0.3010
-0.3010 MELISSA </s> -0.3010
-0.3010 MICHAEL </s> -0.3010
-0.3010 MITCHELL </s> -0.3010
-0.3010 MOHAMMAD </s> -0.3010
-0.3010 MOHAMMED </s> -0.3010
-0.3010 MOLLIE </s> -0.3010
-0.3010 MOLLY </s> -0.3010
-0.3010 NAOMI </s> -0.3010
-0.3010 NATALIE </s> -0.3010
-0.3010 NATASHA </s> -0.3010
-0.3010 NATHAN </s> -0.3010
-0.3010 NICHOLAS </s> -0.3010
-0.3010 NICOLA </s> -0.3010
-0.3010 NICOLE </s> -0.3010
-0.3010 NO </s> -0.3010
-0.3010 OLIVER </s> -0.3010
-0.3010 OLIVIA </s> -0.3010
-0.3010 OWEN </s> -0.3010
-0.3010 PAIGE </s> -0.3010
-0.3010 PATRICK </s> -0.3010
-0.3010 PAUL </s> -0.3010
-0.3010 PETER </s> -0.3010
-0.3010 PHOEBE </s> -0.3010
-0.3010 POPPY </s> -0.3010
-0.3010 RACHAEL </s> -0.3010
-0.3010 RACHEL </s> -0.3010
-0.3010 REBECCA </s> -0.3010
-0.3010 REECE </s> -0.3010
-0.3010 RHIANNON </s> -0.3010
-0.3010 RHYS </s> -0.3010
-0.3010 RICHARD </s> -0.3010
-0.3010 ROBERT </s> -0.3010
-0.3010 ROBYN </s> -0.3010
-0.3010 RORY </s> -0.3010
-0.3010 ROSIE </s> -0.3010
-0.3010 ROSS </s> -0.3010
-0.3010 RYAN </s> -0.3010
-0.3010 SAM </s> -0.3010
-0.3010 SAMANTHA </s> -0.3010
-0.3010 SAMUEL </s> -0.3010
-0.3010 SARAH </s> -0.3010
-0.3010 SCOTT </s> -0.3010
-0.3010 SEAN </s> -0.3010
-0.3010 SHANE </s> -0.3010
-0.3010 SHANNON </s> -0.3010
-0.3010 SHAUN </s> -0.3010
-0.3010 SIAN </s> -0.3010
-0.3010 SIMON </s> -0.3010
-0.3010 SOPHIA </s> -0.3010
-0.3010 SOPHIE </s> -0.3010
-0.3010 STACEY </s> -0.3010
-0.3010 STEPHANIE </s> -0.3010
-0.3010 STEPHEN </s> -0.3010
-0.3010 STEVEN </s> -0.3010
-0.3010 THOMAS </s> -0.3010
-0.3010 TIMOTHY </s> -0.3010
-0.3010 TOBY </s> -0.3010
-0.3010 TYLER </s> -0.3010
-0.3010 VICTORIA </s> -0.3010
-0.3010 WILLIAM </s> -0.3010
-0.3010 YASMIN </s> -0.3010
-0.3010 YES </s> -0.3010
-0.3010 ZACHARY </s> -0.3010
-0.3010 ZOE </s> -0.3010

\3-grams:
-0.3010 <s> AARON </s>
-0.3010 <s> ABBIE </s>
-0.3010 <s> ABIGAIL </s>
-0.3010 <s> ADAM </s>
-0.3010 <s> AIDAN </s>
-0.3010 <s> AIMEE </s>
-0.3010 <s> ALEX </s>
-0.3010 <s> ALEXANDER </s>
-0.3010 <s> ALEXANDRA </s>
-0.3010 <s> ALICE </s>
-0.3010 <s> ALICIA </s>
-0.3010 <s> AMBER </s>
-0.3010 <s> AMELIA </s>
-0.3010 <s> AMY </s>
-0.3010 <s> ANDREW </s>
-0.3010 <s> ANNA </s>
-0.3010 <s> ANTHONY </s>
-0.3010 <s> ASHLEIGH </s>
-0.3010 <s> ASHLEY </s>
-0.3010 <s> BEN </s>
-0.3010 <s> BENJAMIN </s>
-0.3010 <s> BETH </s>
-0.3010 <s> BETHAN </s>
-0.3010 <s> BETHANY </s>
-0.3010 <s> BILLY </s>
-0.3010 <s> BRADLEY </s>
-0.3010 <s> BRANDON </s>
-0.3010 <s> CAITLIN </s>
-0.3010 <s> CALLUM </s>
-0.3010 <s> CALUM </s>
-0.3010 <s> CAMERON </s>
-0.3010 <s> CATHERINE </s>
-0.3010 <s> CHANTELLE </s>
-0.3010 <s> CHARLES </s>
-0.3010 <s> CHARLIE </s>
-0.3010 <s> CHARLOTTE </s>
-0.3010 <s> CHELSEA </s>
-0.3010 <s> CHLOE </s>
-0.3010 <s> CHRISTIAN </s>
-0.3010 <s> CHRISTOPHER </s>
-0.3010 <s> CLAIRE </s>
-0.3010 <s> CONNOR </s>
-0.3010 <s> CONOR </s>
-0.3010 <s> COURTNEY </s>
-0.3010 <s> CRAIG </s>
-0.3010 <s> CURTIS </s>
-0.3010 <s> DAISY </s>
-0.3010 <s> DANIEL </s>
-0.3010 <s> DANIELLE </s>
-0.3010 <s> DANNY </s>
-0.3010 <s> DAVID </s>
-0.3010 <s> DEAN </s>
-0.3010 <s> DECLAN </s>
-0.3010 <s> DEMI </s>
-0.3010 <s> DOMINIC </s>
-0.3010 <s> DYLAN </s>
-0.3010 <s> EDWARD </s>
-0.3010 <s> ELEANOR </s>
-0.3010 <s> ELIZABETH </s>
-0.3010 <s> ELLA </s>
-0.3010 <s> ELLEN </s>
-0.3010 <s> ELLIE </s>
-0.3010 <s> ELLIOT </s>
-0.3010 <s> ELLIOTT </s>
-0.3010 <s> EMILY </s>
-0.3010 <s> EMMA </s>
-0.3010 <s> ERIN </s>
-0.3010 <s> ETHAN </s>
-0.3010 <s> FRANCESCA </s>
-0.3010 <s> GABRIELLE </s>
-0.3010 <s> GEMMA </s>
-0.3010 <s> GEORGE </s>
-0.3010 <s> GEORGIA </s>
-0.3010 <s> GEORGINA </s>
-0.3010 <s> GRACE </s>
-0.3010 <s> HANNAH </s>
-0.3010 <s> HARRIET </s>
-0.3010 <s> HARRISON </s>
-0.3010 <s> HARRY </s>
-0.3010 <s> HAYLEY </s>
-0.3010 <s> HEATHER </s>
-0.3010 <s> HENRY </s>
-0.3010 <s> HOLLIE </s>
-0.3010 <s> HOLLY </s>
-0.3010 <s> IMOGEN </s>
-0.3010 <s> ISOBEL </s>
-0.3010 <s> JACK </s>
-0.3010 <s> JACOB </s>
-0.3010 <s> JADE </s>
-0.3010 <s> JAKE </s>
-0.3010 <s> JAMES </s>
-0.3010 <s> JAMIE </s>
-0.3010 <s> JASMINE </s>
-0.3010 <s> JASON </s>
-0.3010 <s> JAY </s>
-0.3010 <s> JENNIFER </s>
-0.3010 <s> JESSICA </s>
-0.3010 <s> JODIE </s>
-0.3010 <s> JOE </s>
-0.3010 <s> JOEL </s>
-0.3010 <s> JOHN </s>
-0.3010 <s> JONATHAN </s>
-0.3010 <s> JORDAN </s>
-0.3010 <s> JOSEPH </s>
-0.3010 <s> JOSH </s>
-0.3010 <s> JOSHUA </s>
-0.3010 <s> KANE </s>
-0.3010 <s> KATE </s>
-0.3010 <s> KATHERINE </s>
-0.3010 <s> KATHRYN </s>
-0.3010 <s> KATIE </s>
-0.3010 <s> KAYLEIGH </s>
-0.3010 <s> KELLY </s>
-0.3010 <s> KIERAN </s>
-0.3010 <s> KIMBERLEY </s>
-0.3010 <s> KIRSTY </s>
-0.3010 <s> KYLE </s>
-0.3010 <s> LAURA </s>
-0.3010 <s> LAUREN </s>
-0.3010 <s> LEAH </s>
-0.3010 <s> LEANNE </s>
-0.3010 <s> LEE </s>
-0.3010 <s> LEWIS </s>
-0.3010 <s> LIAM </s>
-0.3010 <s> LILY </s>
-0.3010 <s> LOUIS </s>
-0.3010 <s> LOUISE </s>
-0.3010 <s> LUCY </s>
-0.3010 <s> LUKE </s>
-0.3010 <s> LYDIA </s>
-0.3010 <s> MACAULEY </s>
-0.3010 <s> MADELEINE </s>
-0.3010 <s> MARCUS </s>
-0.3010 <s> MARIA </s>
-0.3010 <s> MARK </s>
-0.3010 <s> MATTHEW </s>
-0.3010 <s> MAX </s>
-0.3010 <s> MEGAN </s>
-0.3010 <s> MELISSA </s>
-0.3010 <s> MICHAEL </s>
-0.3010 <s> MITCHELL </s>
-0.3010 <s> MOHAMMAD </s>
-0.3010 <s> MOHAMMED </s>
-0.3010 <s> MOLLIE </s>
-0.3010 <s> MOLLY </s>
-0.3010 <s> NAOMI </s>
-0.3010 <s> NATALIE </s>
-0.3010 <s> NATASHA </s>
-0.3010 <s> NATHAN </s>
-0.3010 <s> NICHOLAS </s>
-0.3010 <s> NICOLA </s>
-0.3010 <s> NICOLE </s>
-0.3010 <s> NO </s>
-0.3010 <s> OLIVER </s>
-0.3010 <s> OLIVIA </s>
-0.3010 <s> OWEN </s>
-0.3010 <s> PAIGE </s>
-0.3010 <s> PATRICK </s>
-0.3010 <s> PAUL </s>
-0.3010 <s> PETER </s>
-0.3010 <s> PHOEBE </s>
-0.3010 <s> POPPY </s>
-0.3010 <s> RACHAEL </s>
-0.3010 <s> RACHEL </s>
-0.3010 <s> REBECCA </s>
-0.3010 <s> REECE </s>
-0.3010 <s> RHIANNON </s>
-0.3010 <s> RHYS </s>
-0.3010 <s> RICHARD </s>
-0.3010 <s> ROBERT </s>
-0.3010 <s> ROBYN </s>
-0.3010 <s> RORY </s>
-0.3010 <s> ROSIE </s>
-0.3010 <s> ROSS </s>
-0.3010 <s> RYAN </s>
-0.3010 <s> SAM </s>
-0.3010 <s> SAMANTHA </s>
-0.3010 <s> SAMUEL </s>
-0.3010 <s> SARAH </s>
-0.3010 <s> SCOTT </s>
-0.3010 <s> SEAN </s>
-0.3010 <s> SHANE </s>
-0.3010 <s> SHANNON </s>
-0.3010 <s> SHAUN </s>
-0.3010 <s> SIAN </s>
-0.3010 <s> SIMON </s>
-0.3010 <s> SOPHIA </s>
-0.3010 <s> SOPHIE </s>
-0.3010 <s> STACEY </s>
-0.3010 <s> STEPHANIE </s>
-0.3010 <s> STEPHEN </s>
-0.3010 <s> STEVEN </s>
-0.3010 <s> THOMAS </s>
-0.3010 <s> TIMOTHY </s>
-0.3010 <s> TOBY </s>
-0.3010 <s> TYLER </s>
-0.3010 <s> VICTORIA </s>
-0.3010 <s> WILLIAM </s>
-0.3010 <s> YASMIN </s>
-0.3010 <s> YES </s>
-0.3010 <s> ZACHARY </s>
-0.3010 <s> ZOE </s>

\end\
