Language model created by QuickLM on Thu Nov 29 09:57:45 EST 2012
Copyright (c) 1996-2010 Carnegie Mellon University and Alexander I. Rudnicky

The model is in standard ARPA format, designed by Doug Paul while he was at MITRE.

The code that was used to produce this language model is available in Open Source.
Please visit http://www.speech.cs.cmu.edu/tools/ for more information

The (fixed) discount mass is 0.5. The backoffs are computed using the ratio method.
This model based on a corpus of 17 sentences and 19 words

\data\
ngram 1=19
ngram 2=34
ngram 3=17

\1-grams:
-0.7782 </s> -0.3010
-0.7782 <s> -0.2218
-2.0086 AFFIRMATIVE -0.2218
-2.0086 AYE -0.2218
-2.0086 CERTAINLY -0.2218
-2.0086 COURSE -0.2218
-2.0086 FINE -0.2218
-2.0086 INDEED -0.2218
-2.0086 INDUBITABLY -0.2218
-2.0086 JA -0.2218
-2.0086 MAYBE -0.2218
-2.0086 OKAY -0.2218
-2.0086 PROBABLY -0.2218
-2.0086 ROGER -0.2218
-2.0086 SI -0.2218
-2.0086 SURE -0.2218
-2.0086 YEAH -0.2218
-2.0086 YEP -0.2218
-2.0086 YES -0.2218

\2-grams:
-1.5315 <s> AFFIRMATIVE 0.0000
-1.5315 <s> AYE 0.0000
-1.5315 <s> CERTAINLY 0.0000
-1.5315 <s> COURSE 0.0000
-1.5315 <s> FINE 0.0000
-1.5315 <s> INDEED 0.0000
-1.5315 <s> INDUBITABLY 0.0000
-1.5315 <s> JA 0.0000
-1.5315 <s> MAYBE 0.0000
-1.5315 <s> OKAY 0.0000
-1.5315 <s> PROBABLY 0.0000
-1.5315 <s> ROGER 0.0000
-1.5315 <s> SI 0.0000
-1.5315 <s> SURE 0.0000
-1.5315 <s> YEAH 0.0000
-1.5315 <s> YEP 0.0000
-1.5315 <s> YES 0.0000
-0.3010 AFFIRMATIVE </s> -0.3010
-0.3010 AYE </s> -0.3010
-0.3010 CERTAINLY </s> -0.3010
-0.3010 COURSE </s> -0.3010
-0.3010 FINE </s> -0.3010
-0.3010 INDEED </s> -0.3010
-0.3010 INDUBITABLY </s> -0.3010
-0.3010 JA </s> -0.3010
-0.3010 MAYBE </s> -0.3010
-0.3010 OKAY </s> -0.3010
-0.3010 PROBABLY </s> -0.3010
-0.3010 ROGER </s> -0.3010
-0.3010 SI </s> -0.3010
-0.3010 SURE </s> -0.3010
-0.3010 YEAH </s> -0.3010
-0.3010 YEP </s> -0.3010
-0.3010 YES </s> -0.3010

\3-grams:
-0.3010 <s> AFFIRMATIVE </s>
-0.3010 <s> AYE </s>
-0.3010 <s> CERTAINLY </s>
-0.3010 <s> COURSE </s>
-0.3010 <s> FINE </s>
-0.3010 <s> INDEED </s>
-0.3010 <s> INDUBITABLY </s>
-0.3010 <s> JA </s>
-0.3010 <s> MAYBE </s>
-0.3010 <s> OKAY </s>
-0.3010 <s> PROBABLY </s>
-0.3010 <s> ROGER </s>
-0.3010 <s> SI </s>
-0.3010 <s> SURE </s>
-0.3010 <s> YEAH </s>
-0.3010 <s> YEP </s>
-0.3010 <s> YES </s>

\end\
