Language model created by QuickLM on Thu Nov 29 10:00:25 EST 2012
Copyright (c) 1996-2010 Carnegie Mellon University and Alexander I. Rudnicky

The model is in standard ARPA format, designed by Doug Paul while he was at MITRE.

The code that was used to produce this language model is available in Open Source.
Please visit http://www.speech.cs.cmu.edu/tools/ for more information

The (fixed) discount mass is 0.5. The backoffs are computed using the ratio method.
This model based on a corpus of 28 sentences and 30 words

\data\
ngram 1=30
ngram 2=56
ngram 3=28

\1-grams:
-0.7782 </s> -0.3010
-0.7782 <s> -0.2218
-2.2253 AFFIRMATIVE -0.2218
-2.2253 AYE -0.2218
-2.2253 CERTAINLY -0.2218
-2.2253 COURSE -0.2218
-2.2253 DONT -0.2218
-2.2253 FALSE -0.2218
-2.2253 FINE -0.2218
-2.2253 INDEED -0.2218
-2.2253 INDUBITABLY -0.2218
-2.2253 JA -0.2218
-2.2253 MAYBE -0.2218
-2.2253 NAY -0.2218
-2.2253 NEGATIVE -0.2218
-2.2253 NEIN -0.2218
-2.2253 NO -0.2218
-2.2253 NON -0.2218
-2.2253 NONE -0.2218
-2.2253 NOPE -0.2218
-2.2253 NOT -0.2218
-2.2253 NOTHING -0.2218
-2.2253 OKAY -0.2218
-2.2253 PROBABLY -0.2218
-2.2253 ROGER -0.2218
-2.2253 SI -0.2218
-2.2253 SURE -0.2218
-2.2253 YEAH -0.2218
-2.2253 YEP -0.2218
-2.2253 YES -0.2218

\2-grams:
-1.7482 <s> AFFIRMATIVE 0.0000
-1.7482 <s> AYE 0.0000
-1.7482 <s> CERTAINLY 0.0000
-1.7482 <s> COURSE 0.0000
-1.7482 <s> DONT 0.0000
-1.7482 <s> FALSE 0.0000
-1.7482 <s> FINE 0.0000
-1.7482 <s> INDEED 0.0000
-1.7482 <s> INDUBITABLY 0.0000
-1.7482 <s> JA 0.0000
-1.7482 <s> MAYBE 0.0000
-1.7482 <s> NAY 0.0000
-1.7482 <s> NEGATIVE 0.0000
-1.7482 <s> NEIN 0.0000
-1.7482 <s> NO 0.0000
-1.7482 <s> NON 0.0000
-1.7482 <s> NONE 0.0000
-1.7482 <s> NOPE 0.0000
-1.7482 <s> NOT 0.0000
-1.7482 <s> NOTHING 0.0000
-1.7482 <s> OKAY 0.0000
-1.7482 <s> PROBABLY 0.0000
-1.7482 <s> ROGER 0.0000
-1.7482 <s> SI 0.0000
-1.7482 <s> SURE 0.0000
-1.7482 <s> YEAH 0.0000
-1.7482 <s> YEP 0.0000
-1.7482 <s> YES 0.0000
-0.3010 AFFIRMATIVE </s> -0.3010
-0.3010 AYE </s> -0.3010
-0.3010 CERTAINLY </s> -0.3010
-0.3010 COURSE </s> -0.3010
-0.3010 DONT </s> -0.3010
-0.3010 FALSE </s> -0.3010
-0.3010 FINE </s> -0.3010
-0.3010 INDEED </s> -0.3010
-0.3010 INDUBITABLY </s> -0.3010
-0.3010 JA </s> -0.3010
-0.3010 MAYBE </s> -0.3010
-0.3010 NAY </s> -0.3010
-0.3010 NEGATIVE </s> -0.3010
-0.3010 NEIN </s> -0.3010
-0.3010 NO </s> -0.3010
-0.3010 NON </s> -0.3010
-0.3010 NONE </s> -0.3010
-0.3010 NOPE </s> -0.3010
-0.3010 NOT </s> -0.3010
-0.3010 NOTHING </s> -0.3010
-0.3010 OKAY </s> -0.3010
-0.3010 PROBABLY </s> -0.3010
-0.3010 ROGER </s> -0.3010
-0.3010 SI </s> -0.3010
-0.3010 SURE </s> -0.3010
-0.3010 YEAH </s> -0.3010
-0.3010 YEP </s> -0.3010
-0.3010 YES </s> -0.3010

\3-grams:
-0.3010 <s> AFFIRMATIVE </s>
-0.3010 <s> AYE </s>
-0.3010 <s> CERTAINLY </s>
-0.3010 <s> COURSE </s>
-0.3010 <s> DONT </s>
-0.3010 <s> FALSE </s>
-0.3010 <s> FINE </s>
-0.3010 <s> INDEED </s>
-0.3010 <s> INDUBITABLY </s>
-0.3010 <s> JA </s>
-0.3010 <s> MAYBE </s>
-0.3010 <s> NAY </s>
-0.3010 <s> NEGATIVE </s>
-0.3010 <s> NEIN </s>
-0.3010 <s> NO </s>
-0.3010 <s> NON </s>
-0.3010 <s> NONE </s>
-0.3010 <s> NOPE </s>
-0.3010 <s> NOT </s>
-0.3010 <s> NOTHING </s>
-0.3010 <s> OKAY </s>
-0.3010 <s> PROBABLY </s>
-0.3010 <s> ROGER </s>
-0.3010 <s> SI </s>
-0.3010 <s> SURE </s>
-0.3010 <s> YEAH </s>
-0.3010 <s> YEP </s>
-0.3010 <s> YES </s>

\end\
