Language model created by QuickLM on Thu Nov 29 05:49:07 EST 2012
Copyright (c) 1996-2010 Carnegie Mellon University and Alexander I. Rudnicky

The model is in standard ARPA format, designed by Doug Paul while he was at MITRE.

The code that was used to produce this language model is available in Open Source.
Please visit http://www.speech.cs.cmu.edu/tools/ for more information

The (fixed) discount mass is 0.5. The backoffs are computed using the ratio method.
This model based on a corpus of 5726 sentences and 5506 words

\data\
ngram 1=5506
ngram 2=11008
ngram 3=5504

\1-grams:
-0.7782 </s> -0.3010
-0.7782 <s> -0.2218
-4.5360 AADAM -0.2218
-4.5360 AADIL -0.2218
-4.5360 AAISHA -0.2218
-4.5360 AAISHAH -0.2218
-4.5360 AAKASH -0.2218
-4.5360 AALIA -0.2218
-4.5360 AALIYA -0.2218
-4.5360 AALIYAH -0.2218
-4.5360 AAMENA -0.2218
-4.5360 AAMENAH -0.2218
-4.5360 AAMINA -0.2218
-4.5360 AAMINAH -0.2218
-4.5360 AAMIR -0.2218
-4.5360 AAMIRAH -0.2218
-4.5360 AAMNA -0.2218
-4.5360 AANISAH -0.2218
-4.5360 AAQIB -0.2218
-4.5360 AARAN -0.2218
-4.5360 AARON -0.2218
-4.5360 AARONDEEP -0.2218
-4.5360 AARRON -0.2218
-4.5360 AARTI -0.2218
-4.5360 AARUN -0.2218
-4.5360 AASIM -0.2218
-4.5360 AATIF -0.2218
-4.5360 AATISH -0.2218
-4.5360 ABAS -0.2218
-4.5360 ABBAS -0.2218
-4.5360 ABBE -0.2218
-4.5360 ABBEY -0.2218
-4.5360 ABBEYGAIL -0.2218
-4.5360 ABBI -0.2218
-4.5360 ABBIE -0.2218
-4.5360 ABBIE-LEIGH -0.2218
-4.5360 ABBIGAIL -0.2218
-4.5360 ABBIGAYLE -0.2218
-4.5360 ABBY -0.2218
-4.5360 ABBYGAIL -0.2218
-4.5360 ABD -0.2218
-4.5360 ABDAL -0.2218
-4.5360 ABDALLAH -0.2218
-4.5360 ABDEL -0.2218
-4.5360 ABDI -0.2218
-4.5360 ABDINASIR -0.2218
-4.5360 ABDIRAHMAN -0.2218
-4.5360 ABDU -0.2218
-4.5360 ABDUL -0.2218
-4.5360 ABDUL-AZEEZ -0.2218
-4.5360 ABDULAZIZ -0.2218
-4.5360 ABDULHAMID -0.2218
-4.5360 ABDULKADIR -0.2218
-4.5360 ABDULLA -0.2218
-4.5360 ABDULLAH -0.2218
-4.5360 ABDULLAHI -0.2218
-4.5360 ABDULRAHMAN -0.2218
-4.5360 ABDUR -0.2218
-4.5360 ABDUR-RAHMAN -0.2218
-4.5360 ABDURAHMAN -0.2218
-4.5360 ABEL -0.2218
-4.5360 ABHINAV -0.2218
-4.5360 ABHISHEK -0.2218
-4.5360 ABI -0.2218
-4.5360 ABID -0.2218
-4.5360 ABIDA -0.2218
-4.5360 ABIDUL -0.2218
-4.5360 ABIGAEL -0.2218
-4.5360 ABIGAIL -0.2218
-4.5360 ABIGALE -0.2218
-4.5360 ABIGAYLE -0.2218
-4.5360 ABIOLA -0.2218
-4.5360 ABIR -0.2218
-4.5360 ABRAHAM -0.2218
-4.5360 ABRAHIM -0.2218
-4.5360 ABRAR -0.2218
-4.5360 ABU -0.2218
-4.5360 ABUBAKAR -0.2218
-4.5360 ABUL -0.2218
-4.5360 ABYGAIL -0.2218
-4.5360 ACACIA -0.2218
-4.5360 ACE -0.2218
-4.5360 ACER -0.2218
-4.5360 ADA -0.2218
-4.5360 ADAEZE -0.2218
-4.5360 ADAL -0.2218
-4.5360 ADAM -0.2218
-4.5360 ADAMA -0.2218
-4.5360 ADAN -0.2218
-4.5360 ADARSH -0.2218
-4.5360 ADDAM -0.2218
-4.5360 ADDISON -0.2218
-4.5360 ADEDAPO -0.2218
-4.5360 ADEEB -0.2218
-4.5360 ADEEBA -0.2218
-4.5360 ADEEL -0.2218
-4.5360 ADEELA -0.2218
-4.5360 ADEKUNLE -0.2218
-4.5360 ADEL -0.2218
-4.5360 ADELAIDE -0.2218
-4.5360 ADELE -0.2218
-4.5360 ADELLE -0.2218
-4.5360 ADEM -0.2218
-4.5360 ADEN -0.2218
-4.5360 ADEOLA -0.2218
-4.5360 ADHAM -0.2218
-4.5360 ADIBA -0.2218
-4.5360 ADIL -0.2218
-4.5360 ADINA -0.2218
-4.5360 ADNAAN -0.2218
-4.5360 ADNAN -0.2218
-4.5360 ADRIAN -0.2218
-4.5360 ADRIANA -0.2218
-4.5360 ADRIANNA -0.2218
-4.5360 ADRIANNE -0.2218
-4.5360 ADRIANO -0.2218
-4.5360 ADRIEN -0.2218
-4.5360 ADRIENNE -0.2218
-4.5360 ADRIS -0.2218
-4.5360 AEDAN -0.2218
-4.5360 AERON -0.2218
-4.5360 AFIFA -0.2218
-4.5360 AFOLABI -0.2218
-4.5360 AFRA -0.2218
-4.5360 AFRAH -0.2218
-4.5360 AFSANA -0.2218
-4.5360 AFUA -0.2218
-4.5360 AFZAL -0.2218
-4.5360 AGATHA -0.2218
-4.5360 AGNES -0.2218
-4.5360 AHAD -0.2218
-4.5360 AHAMED -0.2218
-4.5360 AHARON -0.2218
-4.5360 AHLAM -0.2218
-4.5360 AHMAD -0.2218
-4.5360 AHMED -0.2218
-4.5360 AHMET -0.2218
-4.5360 AHSAN -0.2218
-4.5360 AIDA -0.2218
-4.5360 AIDAN -0.2218
-4.5360 AIDEN -0.2218
-4.5360 AIESHA -0.2218
-4.5360 AILEEN -0.2218
-4.5360 AILIS -0.2218
-4.5360 AILISH -0.2218
-4.5360 AILSA -0.2218
-4.5360 AIMAN -0.2218
-4.5360 AIME -0.2218
-4.5360 AIMEE -0.2218
-4.5360 AIMEN -0.2218
-4.5360 AIMIE -0.2218
-4.5360 AINE -0.2218
-4.2350 AINSLEY -0.2218
-4.5360 AISHA -0.2218
-4.5360 AISHAH -0.2218
-4.5360 AISHIA -0.2218
-4.5360 AISHLING -0.2218
-4.5360 AISLING -0.2218
-4.5360 AISLINN -0.2218
-4.5360 AIYSHA -0.2218
-4.5360 AJAY -0.2218
-4.5360 AJMAL -0.2218
-4.5360 AKAASH -0.2218
-4.5360 AKASH -0.2218
-4.5360 AKBAR -0.2218
-4.5360 AKEEB -0.2218
-4.5360 AKEEL -0.2218
-4.5360 AKEEM -0.2218
-4.5360 AKHIL -0.2218
-4.5360 AKHTAR -0.2218
-4.5360 AKIB -0.2218
-4.5360 AKIF -0.2218
-4.5360 AKIL -0.2218
-4.5360 AKILAH -0.2218
-4.5360 AKIM -0.2218
-4.2350 AKIRA -0.2218
-4.5360 AKLIMA -0.2218
-4.5360 AKRAM -0.2218
-4.5360 AKSA -0.2218
-4.5360 AKSHAY -0.2218
-4.5360 AL -0.2218
-4.2350 ALAA -0.2218
-4.5360 ALAIN -0.2218
-4.5360 ALAINA -0.2218
-4.5360 ALAMIN -0.2218
-4.5360 ALAN -0.2218
-4.5360 ALANA -0.2218
-4.5360 ALANAH -0.2218
-4.5360 ALANIS -0.2218
-4.5360 ALANNA -0.2218
-4.5360 ALANNAH -0.2218
-4.5360 ALANTA -0.2218
-4.5360 ALANYA -0.2218
-4.5360 ALARNA -0.2218
-4.5360 ALASDAIR -0.2218
-4.5360 ALASTAIR -0.2218
-4.5360 ALBA -0.2218
-4.5360 ALBANY -0.2218
-4.5360 ALBERT -0.2218
-4.5360 ALBERTA -0.2218
-4.5360 ALBERTO -0.2218
-4.5360 ALBIE -0.2218
-4.5360 ALBY -0.2218
-4.5360 ALDEN -0.2218
-4.5360 ALEAH -0.2218
-4.5360 ALEASHA -0.2218
-4.5360 ALEC -0.2218
-4.5360 ALECIA -0.2218
-4.5360 ALED -0.2218
-4.5360 ALEEM -0.2218
-4.5360 ALEEMA -0.2218
-4.5360 ALEENA -0.2218
-4.5360 ALEESHA -0.2218
-4.5360 ALEISHA -0.2218
-4.5360 ALEJANDRO -0.2218
-4.5360 ALEKSANDER -0.2218
-4.5360 ALEKSI -0.2218
-4.5360 ALENA -0.2218
-4.5360 ALESHA -0.2218
-4.5360 ALESSANDRA -0.2218
-4.5360 ALESSANDRO -0.2218
-4.5360 ALESSIA -0.2218
-4.5360 ALESSIO -0.2218
-4.5360 ALETHEA -0.2218
-4.2350 ALEX -0.2218
-4.5360 ALEXA -0.2218
-4.5360 ALEXANDA -0.2218
-4.5360 ALEXANDER -0.2218
-4.5360 ALEXANDRA -0.2218
-4.5360 ALEXANDRE -0.2218
-4.5360 ALEXANDREA -0.2218
-4.5360 ALEXANDRIA -0.2218
-4.5360 ALEXANDROS -0.2218
-4.5360 ALEXEI -0.2218
-4.5360 ALEXI -0.2218
-4.5360 ALEXIA -0.2218
-4.2350 ALEXIS -0.2218
-4.5360 ALEXZANDER -0.2218
-4.5360 ALEYSHA -0.2218
-4.5360 ALF -0.2218
-4.5360 ALFIE -0.2218
-4.5360 ALFRED -0.2218
-4.5360 ALI -0.2218
-4.5360 ALIA -0.2218
-4.5360 ALIAH -0.2218
-4.5360 ALICAN -0.2218
-4.5360 ALICE -0.2218
-4.5360 ALICEA -0.2218
-4.5360 ALICIA -0.2218
-4.5360 ALICJA -0.2218
-4.5360 ALIESHA -0.2218
-4.5360 ALIM -0.2218
-4.5360 ALIMA -0.2218
-4.5360 ALINA -0.2218
-4.5360 ALISA -0.2218
-4.5360 ALISDAIR -0.2218
-4.5360 ALISHA -0.2218
-4.5360 ALISHIA -0.2218
-4.5360 ALISIA -0.2218
-4.5360 ALISON -0.2218
-4.5360 ALISSA -0.2218
-4.5360 ALISTAIR -0.2218
-4.5360 ALISTER -0.2218
-4.5360 ALIVIA -0.2218
-4.2350 ALIX -0.2218
-4.5360 ALIXANDRA -0.2218
-4.5360 ALIYA -0.2218
-4.5360 ALIYAH -0.2218
-4.5360 ALLAN -0.2218
-4.5360 ALLANA -0.2218
-4.5360 ALLANAH -0.2218
-4.5360 ALLEGRA -0.2218
-4.5360 ALLEN -0.2218
-4.5360 ALLIE -0.2218
-4.5360 ALLISON -0.2218
-4.5360 ALLISTER -0.2218
-4.5360 ALLYSHA -0.2218
-4.5360 ALLYSON -0.2218
-4.5360 ALMA -0.2218
-4.5360 ALMAS -0.2218
-4.5360 ALUN -0.2218
-4.5360 ALVARO -0.2218
-4.5360 ALVIN -0.2218
-4.5360 ALWYN -0.2218
-4.5360 ALYCE -0.2218
-4.5360 ALYCIA -0.2218
-4.5360 ALYS -0.2218
-4.5360 ALYSHA -0.2218
-4.5360 ALYSHIA -0.2218
-4.5360 ALYSIA -0.2218
-4.5360 ALYSON -0.2218
-4.5360 ALYSSA -0.2218
-4.5360 ALYSSIA -0.2218
-4.5360 ALYX -0.2218
-4.5360 AMAAD -0.2218
-4.5360 AMAAN -0.2218
-4.2350 AMAL -0.2218
-4.5360 AMALIA -0.2218
-4.5360 AMALIE -0.2218
-4.5360 AMAN -0.2218
-4.5360 AMANA -0.2218
-4.5360 AMANDA -0.2218
-4.2350 AMANDEEP -0.2218
-4.2350 AMANI -0.2218
-4.5360 AMANPREET -0.2218
-4.5360 AMANVEER -0.2218
-4.5360 AMAR -0.2218
-4.5360 AMARA -0.2218
-4.5360 AMARAH -0.2218
-4.2350 AMARDEEP -0.2218
-4.5360 AMARI -0.2218
-4.5360 AMARJIT -0.2218
-4.5360 AMARPAL -0.2218
-4.5360 AMARPREET -0.2218
-4.5360 AMBA -0.2218
-4.5360 AMBAR -0.2218
-4.5360 AMBER -0.2218
-4.5360 AMBER-LEIGH -0.2218
-4.5360 AMBER-LOUISE -0.2218
-4.5360 AMBER-ROSE -0.2218
-4.5360 AMBERLEIGH -0.2218
-4.5360 AMBERLEY -0.2218
-4.5360 AMBREEN -0.2218
-4.5360 AMBROSE -0.2218
-4.5360 AMEE -0.2218
-4.5360 AMEEN -0.2218
-4.5360 AMEENA -0.2218
-4.5360 AMEENAH -0.2218
-4.5360 AMEER -0.2218
-4.5360 AMEERA -0.2218
-4.5360 AMELIA -0.2218
-4.5360 AMELIA-ROSE -0.2218
-4.5360 AMELIE -0.2218
-4.5360 AMENA -0.2218
-4.5360 AMER -0.2218
-4.5360 AMEY -0.2218
-4.5360 AMI -0.2218
-4.5360 AMIE -0.2218
-4.5360 AMIEE -0.2218
-4.5360 AMII -0.2218
-4.5360 AMIN -0.2218
-4.5360 AMINA -0.2218
-4.5360 AMINAH -0.2218
-4.5360 AMINAT -0.2218
-4.5360 AMINATA -0.2218
-4.5360 AMINE -0.2218
-4.5360 AMINUR -0.2218
-4.5360 AMIR -0.2218
-4.5360 AMIRA -0.2218
-4.5360 AMIRAH -0.2218
-4.5360 AMISHA -0.2218
-4.5360 AMIT -0.2218
-4.5360 AMJAD -0.2218
-4.5360 AMMAAR -0.2218
-4.5360 AMMAARAH -0.2218
-4.5360 AMMAR -0.2218
-4.5360 AMMARA -0.2218
-4.5360 AMMARAH -0.2218
-4.5360 AMMIE -0.2218
-4.5360 AMNA -0.2218
-4.5360 AMNAH -0.2218
-4.5360 AMOS -0.2218
-4.5360 AMR -0.2218
-4.5360 AMRAN -0.2218
-4.5360 AMREEN -0.2218
-4.5360 AMRIK -0.2218
-4.2350 AMRIT -0.2218
-4.5360 AMRITA -0.2218
-4.5360 AMRITPAL -0.2218
-4.5360 AMY -0.2218
-4.5360 AMY-JANE -0.2218
-4.5360 AMY-JAYNE -0.2218
-4.5360 AMY-JO -0.2218
-4.5360 AMY-LEE -0.2218
-4.5360 AMY-LEIGH -0.2218
-4.5360 AMY-LOUISE -0.2218
-4.5360 AMY-ROSE -0.2218
-4.5360 AMYLEIGH -0.2218
-4.5360 ANA -0.2218
-4.5360 ANABEL -0.2218
-4.5360 ANAIS -0.2218
-4.5360 ANAM -0.2218
-4.5360 ANAMIKA -0.2218
-4.5360 ANAND -0.2218
-4.5360 ANAS -0.2218
-4.5360 ANASTASIA -0.2218
-4.5360 ANASTASIOS -0.2218
-4.5360 ANDERS -0.2218
-4.5360 ANDERSON -0.2218
-4.5360 ANDI -0.2218
-4.5360 ANDIE -0.2218
-4.5360 ANDRE -0.2218
-4.2350 ANDREA -0.2218
-4.5360 ANDREAS -0.2218
-4.5360 ANDREI -0.2218
-4.5360 ANDRES -0.2218
-4.5360 ANDREW -0.2218
-4.5360 ANDY -0.2218
-4.5360 ANEEKA -0.2218
-4.5360 ANEEL -0.2218
-4.5360 ANEELA -0.2218
-4.5360 ANEEQA -0.2218
-4.5360 ANEES -0.2218
-4.5360 ANEESA -0.2218
-4.5360 ANEESAH -0.2218
-4.5360 ANEESHA -0.2218
-4.5360 ANEIL -0.2218
-4.5360 ANEURIN -0.2218
-4.5360 ANGEL -0.2218
-4.5360 ANGELA -0.2218
-4.5360 ANGELICA -0.2218
-4.5360 ANGELINA -0.2218
-4.5360 ANGELINE -0.2218
-4.5360 ANGELO -0.2218
-4.5360 ANGELOS -0.2218
-4.5360 ANGHARAD -0.2218
-4.5360 ANGIE -0.2218
-4.5360 ANGUS -0.2218
-4.5360 ANIA -0.2218
-4.5360 ANIKA -0.2218
-4.5360 ANIL -0.2218
-4.5360 ANILA -0.2218
-4.5360 ANIQA -0.2218
-4.5360 ANIQAH -0.2218
-4.5360 ANIS -0.2218
-4.5360 ANISA -0.2218
-4.5360 ANISAH -0.2218
-4.5360 ANISH -0.2218
-4.5360 ANISHA -0.2218
-4.5360 ANISSA -0.2218
-4.5360 ANITA -0.2218
-4.5360 ANJA -0.2218
-4.5360 ANJALI -0.2218
-4.5360 ANJANA -0.2218
-4.5360 ANJUM -0.2218
-4.5360 ANKIT -0.2218
-4.5360 ANKITA -0.2218
-4.5360 ANKUR -0.2218
-4.5360 ANMOL -0.2218
-4.5360 ANN -0.2218
-4.5360 ANN-MARIE -0.2218
-4.5360 ANNA -0.2218
-4.5360 ANNA-LOUISE -0.2218
-4.5360 ANNA-MARIA -0.2218
-4.5360 ANNA-MARIE -0.2218
-4.5360 ANNA-ROSE -0.2218
-4.5360 ANNABEL -0.2218
-4.5360 ANNABELL -0.2218
-4.5360 ANNABELLA -0.2218
-4.5360 ANNABELLE -0.2218
-4.5360 ANNALEE -0.2218
-4.5360 ANNALIESE -0.2218
-4.5360 ANNALISA -0.2218
-4.5360 ANNALISE -0.2218
-4.5360 ANNAM -0.2218
-4.5360 ANNE -0.2218
-4.5360 ANNE-MARIE -0.2218
-4.5360 ANNEKA -0.2218
-4.5360 ANNELIESE -0.2218
-4.5360 ANNEMARIE -0.2218
-4.5360 ANNETTE -0.2218
-4.5360 ANNICE -0.2218
-4.5360 ANNIE -0.2218
-4.5360 ANNIE-MAY -0.2218
-4.5360 ANNIE-ROSE -0.2218
-4.5360 ANNIKA -0.2218
-4.5360 ANNISA -0.2218
-4.5360 ANNMARIE -0.2218
-4.5360 ANOUSHKA -0.2218
-4.5360 ANOUSKA -0.2218
-4.5360 ANSA -0.2218
-4.5360 ANTHEA -0.2218
-4.5360 ANTHONIA -0.2218
-4.5360 ANTHONY -0.2218
-4.5360 ANTOINE -0.2218
-4.5360 ANTOINETTE -0.2218
-4.5360 ANTON -0.2218
-4.5360 ANTONELLA -0.2218
-4.5360 ANTONI -0.2218
-4.5360 ANTONIA -0.2218
-4.5360 ANTONIO -0.2218
-4.5360 ANTONY -0.2218
-4.5360 ANUJ -0.2218
-4.5360 ANUM -0.2218
-4.5360 ANUSHA -0.2218
-4.5360 ANWAR -0.2218
-4.5360 ANWEN -0.2218
-4.5360 ANYA -0.2218
-4.5360 AOIFE -0.2218
-4.5360 APHRA -0.2218
-4.5360 APRIL -0.2218
-4.5360 AQEEB -0.2218
-4.5360 AQEEL -0.2218
-4.5360 AQIB -0.2218
-4.5360 AQIL -0.2218
-4.5360 AQSA -0.2218
-4.5360 AQUIB -0.2218
-4.5360 ARABELLA -0.2218
-4.5360 ARAMINTA -0.2218
-4.5360 ARAN -0.2218
-4.5360 ARANDEEP -0.2218
-4.5360 ARANJIT -0.2218
-4.5360 ARBAAZ -0.2218
-4.5360 ARCHIBALD -0.2218
-4.5360 ARCHIE -0.2218
-4.5360 AREEBA -0.2218
-4.5360 ARFAN -0.2218
-4.5360 ARI -0.2218
-4.5360 ARIA -0.2218
-4.5360 ARIAN -0.2218
-4.5360 ARIANA -0.2218
-4.5360 ARIANE -0.2218
-4.5360 ARIANNA -0.2218
-4.5360 ARIANNE -0.2218
-4.5360 ARIC -0.2218
-4.5360 ARIEL -0.2218
-4.5360 ARIELLA -0.2218
-4.5360 ARIELLE -0.2218
-4.5360 ARIF -0.2218
-4.5360 ARIFA -0.2218
-4.5360 ARJAN -0.2218
-4.5360 ARJUN -0.2218
-4.5360 ARLEN -0.2218
-4.5360 ARMAAN -0.2218
-4.5360 ARMAN -0.2218
-4.5360 ARMAND -0.2218
-4.2350 ARMANI -0.2218
-4.5360 ARMIN -0.2218
-4.5360 ARMON -0.2218
-4.5360 ARNIE -0.2218
-4.5360 ARNOLD -0.2218
-4.5360 ARON -0.2218
-4.5360 AROOJ -0.2218
-4.5360 AROON -0.2218
-4.5360 AROOSA -0.2218
-4.5360 ARRAN -0.2218
-4.5360 ARRIE -0.2218
-4.5360 ARRON -0.2218
-4.5360 ARRY -0.2218
-4.5360 ARSALAAN -0.2218
-4.5360 ARSALAN -0.2218
-4.5360 ARSHAD -0.2218
-4.5360 ARSLAAN -0.2218
-4.5360 ARSLAN -0.2218
-4.5360 ARTHUR -0.2218
-4.5360 ARUN -0.2218
-4.5360 ARUNDEEP -0.2218
-4.5360 ARUSA -0.2218
-4.5360 ARVINDER -0.2218
-4.5360 ARWEL -0.2218
-4.5360 ARYA -0.2218
-4.5360 ARYAN -0.2218
-4.5360 ASA -0.2218
-4.5360 ASAD -0.2218
-4.5360 ASAM -0.2218
-4.5360 ASH -0.2218
-4.5360 ASHA -0.2218
-4.5360 ASHANTI -0.2218
-4.2350 ASHER -0.2218
-4.5360 ASHFAQ -0.2218
-4.5360 ASHIA -0.2218
-4.5360 ASHISH -0.2218
-4.5360 ASHLEA -0.2218
-4.2350 ASHLEE -0.2218
-4.2350 ASHLEIGH -0.2218
-4.2350 ASHLEY -0.2218
-4.2350 ASHLIE -0.2218
-4.5360 ASHLYN -0.2218
-4.5360 ASHNA -0.2218
-4.5360 ASHRAF -0.2218
-4.5360 ASHRAFUL -0.2218
-4.2350 ASHTON -0.2218
-4.5360 ASHWIN -0.2218
-4.5360 ASIA -0.2218
-4.5360 ASIF -0.2218
-4.5360 ASIM -0.2218
-4.5360 ASIYA -0.2218
-4.5360 ASIYAH -0.2218
-4.5360 ASLAM -0.2218
-4.5360 ASLI -0.2218
-4.5360 ASMA -0.2218
-4.5360 ASMAA -0.2218
-4.5360 ASSAD -0.2218
-4.2350 ASTON -0.2218
-4.5360 ASTRA -0.2218
-4.5360 ASTRID -0.2218
-4.5360 ATALANTA -0.2218
-4.5360 ATHENA -0.2218
-4.5360 ATHINA -0.2218
-4.5360 ATIF -0.2218
-4.5360 ATIYA -0.2218
-4.5360 ATIYAH -0.2218
-4.5360 ATIYYAH -0.2218
-4.5360 ATLANTA -0.2218
-4.5360 ATTIYA -0.2218
-4.5360 AUBERON -0.2218
-4.5360 AUBREY -0.2218
-4.5360 AUDREY -0.2218
-4.5360 AUGUSTA -0.2218
-4.5360 AUGUSTIN -0.2218
-4.5360 AUGUSTINE -0.2218
-4.5360 AUGUSTUS -0.2218
-4.5360 AURELIA -0.2218
-4.5360 AURORA -0.2218
-4.5360 AUSTEN -0.2218
-4.5360 AUSTIN -0.2218
-4.5360 AUSTYN -0.2218
-4.5360 AUTUMN -0.2218
-4.5360 AVA -0.2218
-4.5360 AVALON -0.2218
-4.5360 AVI -0.2218
-4.5360 AVINASH -0.2218
-4.5360 AVNEET -0.2218
-4.5360 AVNI -0.2218
-4.5360 AVRIL -0.2218
-4.5360 AVROHOM -0.2218
-4.5360 AWAIS -0.2218
-4.5360 AWEN -0.2218
-4.5360 AXEL -0.2218
-4.5360 AXL -0.2218
-4.5360 AYA -0.2218
-4.5360 AYAH -0.2218
-4.5360 AYAN -0.2218
-4.5360 AYANNA -0.2218
-4.5360 AYAZ -0.2218
-4.5360 AYDAN -0.2218
-4.5360 AYDEN -0.2218
-4.5360 AYDIN -0.2218
-4.5360 AYEISHA -0.2218
-4.5360 AYESHA -0.2218
-4.5360 AYESHIA -0.2218
-4.5360 AYISHA -0.2218
-4.5360 AYLA -0.2218
-4.5360 AYLISH -0.2218
-4.5360 AYMAN -0.2218
-4.5360 AYODEJI -0.2218
-4.5360 AYODELE -0.2218
-4.5360 AYOKUNLE -0.2218
-4.2350 AYOMIDE -0.2218
-4.5360 AYOOLA -0.2218
-4.5360 AYOUB -0.2218
-4.5360 AYRTON -0.2218
-4.5360 AYSE -0.2218
-4.5360 AYSHA -0.2218
-4.5360 AYUB -0.2218
-4.5360 AYYUB -0.2218
-4.5360 AZAD -0.2218
-4.5360 AZARIA -0.2218
-4.5360 AZEEM -0.2218
-4.5360 AZEEZ -0.2218
-4.5360 AZHAR -0.2218
-4.5360 AZIM -0.2218
-4.5360 AZIZ -0.2218
-4.5360 AZIZA -0.2218
-4.5360 AZIZUR -0.2218
-4.5360 AZRA -0.2218
-4.5360 AZRAA -0.2218
-4.5360 BABAJIDE -0.2218
-4.5360 BABAR -0.2218
-4.5360 BABATUNDE -0.2218
-4.5360 BADEN -0.2218
-4.5360 BAHAR -0.2218
-4.2350 BAILEY -0.2218
-4.5360 BALAL -0.2218
-4.5360 BALDEEP -0.2218
-4.5360 BALRAJ -0.2218
-4.5360 BAMIDELE -0.2218
-4.5360 BARAN -0.2218
-4.5360 BARBARA -0.2218
-4.5360 BARIS -0.2218
-4.5360 BARNABAS -0.2218
-4.5360 BARNABY -0.2218
-4.5360 BARNEY -0.2218
-4.5360 BARRIE -0.2218
-4.5360 BARRY -0.2218
-4.5360 BARTHOLOMEW -0.2218
-4.5360 BASHIR -0.2218
-4.5360 BASIL -0.2218
-4.5360 BASIT -0.2218
-4.5360 BAXTER -0.2218
-4.5360 BAYLEE -0.2218
-4.5360 BAYLEIGH -0.2218
-4.5360 BAYLEY -0.2218
-4.5360 BEATRICE -0.2218
-4.5360 BEATRIX -0.2218
-4.2350 BEAU -0.2218
-4.5360 BECKI -0.2218
-4.5360 BECKIE -0.2218
-4.5360 BECKY -0.2218
-4.5360 BEGUM -0.2218
-4.5360 BELAL -0.2218
-4.5360 BELINDA -0.2218
-4.5360 BELLA -0.2218
-4.5360 BELLE -0.2218
-4.5360 BEN -0.2218
-4.5360 BENEDICT -0.2218
-4.5360 BENITA -0.2218
-4.5360 BENITO -0.2218
-4.5360 BENJAMAN -0.2218
-4.5360 BENJAMEN -0.2218
-4.5360 BENJAMIN -0.2218
-4.5360 BENJIMAN -0.2218
-4.5360 BENN -0.2218
-4.5360 BENNY -0.2218
-4.5360 BENOIT -0.2218
-4.5360 BENSON -0.2218
-4.5360 BENTON -0.2218
-4.5360 BEREN -0.2218
-4.5360 BERFIN -0.2218
-4.5360 BERKAY -0.2218
-4.5360 BERNADETTE -0.2218
-4.5360 BERNARD -0.2218
-4.5360 BERNICE -0.2218
-4.5360 BERTIE -0.2218
-4.5360 BERTRAM -0.2218
-4.5360 BESSIE -0.2218
-4.5360 BETH -0.2218
-4.5360 BETHAN -0.2218
-4.5360 BETHANEY -0.2218
-4.5360 BETHANIE -0.2218
-4.5360 BETHANNIE -0.2218
-4.5360 BETHANY -0.2218
-4.5360 BETHANY-JANE -0.2218
-4.5360 BETHANY-LOUISE -0.2218
-4.5360 BETHANY-ROSE -0.2218
-4.5360 BETHEN -0.2218
-4.5360 BETHENY -0.2218
-4.5360 BETHIA -0.2218
-4.5360 BETHNEY -0.2218
-4.5360 BETSAN -0.2218
-4.5360 BETSY -0.2218
-4.5360 BETTY -0.2218
-4.5360 BETUL -0.2218
-4.5360 BEVAN -0.2218
-4.5360 BEVERLEY -0.2218
-4.5360 BEVERLY -0.2218
-4.5360 BHAKTI -0.2218
-4.5360 BHARAT -0.2218
-4.5360 BHAVIK -0.2218
-4.5360 BHAVIN -0.2218
-4.5360 BHAVINI -0.2218
-4.5360 BHAVISHA -0.2218
-4.5360 BHUPINDER -0.2218
-4.5360 BIANCA -0.2218
-4.5360 BIBI -0.2218
-4.5360 BIJAL -0.2218
-4.5360 BILAAL -0.2218
-4.5360 BILAL -0.2218
-4.5360 BILL -0.2218
-4.5360 BILLAL -0.2218
-4.5360 BILLI -0.2218
-4.2350 BILLIE -0.2218
-4.5360 BILLIE-JEAN -0.2218
-4.5360 BILLIE-JO -0.2218
-4.5360 BILLY -0.2218
-4.5360 BILLY-JOE -0.2218
-4.5360 BILLY-RAY -0.2218
-4.5360 BILLYJOE -0.2218
-4.5360 BINYOMIN -0.2218
-4.5360 BJORN -0.2218
-4.5360 BLADE -0.2218
-4.5360 BLAIN -0.2218
-4.5360 BLAINE -0.2218
-4.2350 BLAIR -0.2218
-4.2350 BLAISE -0.2218
-4.5360 BLAIZE -0.2218
-4.5360 BLAKE -0.2218
-4.5360 BLANE -0.2218
-4.5360 BLAYNE -0.2218
-4.5360 BLEDDYN -0.2218
-4.5360 BLISS -0.2218
-4.5360 BLOSSOM -0.2218
-4.5360 BLUE -0.2218
-4.5360 BLYTHE -0.2218
-4.5360 BOB -0.2218
-4.5360 BOBBI -0.2218
-4.5360 BOBBI-JO -0.2218
-4.2350 BOBBIE -0.2218
-4.5360 BOBBIE-JO -0.2218
-4.2350 BOBBY -0.2218
-4.5360 BODRUL -0.2218
-4.5360 BOLUWATIFE -0.2218
-4.5360 BONITA -0.2218
-4.5360 BONNIE -0.2218
-4.5360 BONNY -0.2218
-4.5360 BORIS -0.2218
-4.5360 BOYD -0.2218
-4.5360 BRAD -0.2218
-4.5360 BRAD-LEE -0.2218
-4.5360 BRADD -0.2218
-4.5360 BRADEN -0.2218
-4.5360 BRADIE -0.2218
-4.5360 BRADLEE -0.2218
-4.5360 BRADLEIGH -0.2218
-4.5360 BRADLEY -0.2218
-4.5360 BRADLY -0.2218
-4.5360 BRADY -0.2218
-4.5360 BRAM -0.2218
-4.5360 BRANDAN -0.2218
-4.5360 BRANDEN -0.2218
-4.5360 BRANDON -0.2218
-4.5360 BRANDON-LEE -0.2218
-4.5360 BRANNON -0.2218
-4.5360 BRAYDEN -0.2218
-4.5360 BRAYDON -0.2218
-4.5360 BREANNA -0.2218
-4.5360 BREE -0.2218
-4.5360 BRENDA -0.2218
-4.5360 BRENDAN -0.2218
-4.5360 BRENDEN -0.2218
-4.5360 BRENDON -0.2218
-4.5360 BRENNA -0.2218
-4.5360 BRENNAN -0.2218
-4.5360 BRENNEN -0.2218
-4.5360 BRENT -0.2218
-4.5360 BRENTON -0.2218
-4.5360 BRET -0.2218
-4.5360 BRETT -0.2218
-4.5360 BRIA -0.2218
-4.5360 BRIAN -0.2218
-4.5360 BRIANA -0.2218
-4.5360 BRIANNA -0.2218
-4.5360 BRIANNE -0.2218
-4.5360 BRIAR -0.2218
-4.5360 BRIDGET -0.2218
-4.5360 BRIDIE -0.2218
-4.5360 BRIGID -0.2218
-4.5360 BRIONY -0.2218
-4.5360 BRITTANIE -0.2218
-4.5360 BRITTANY -0.2218
-4.2350 BRODIE -0.2218
-4.2350 BRODY -0.2218
-4.2350 BROGAN -0.2218
-4.5360 BROGEN -0.2218
-4.5360 BRONAGH -0.2218
-4.5360 BRONIA -0.2218
-4.5360 BRONSON -0.2218
-4.5360 BRONTE -0.2218
-4.5360 BRONWEN -0.2218
-4.5360 BRONWYN -0.2218
-4.5360 BRONYA -0.2218
-4.2350 BROOK -0.2218
-4.2350 BROOKE -0.2218
-4.5360 BROOKLYN -0.2218
-4.5360 BRUCE -0.2218
-4.5360 BRUNO -0.2218
-4.5360 BRYAN -0.2218
-4.5360 BRYANY -0.2218
-4.5360 BRYCE -0.2218
-4.5360 BRYCHAN -0.2218
-4.5360 BRYDIE -0.2218
-4.5360 BRYHER -0.2218
-4.5360 BRYN -0.2218
-4.5360 BRYNLEY -0.2218
-4.5360 BRYNMOR -0.2218
-4.5360 BRYNN -0.2218
-4.5360 BRYONI -0.2218
-4.5360 BRYONIE -0.2218
-4.5360 BRYONNY -0.2218
-4.5360 BRYONY -0.2218
-4.5360 BUDDY -0.2218
-4.5360 BURAK -0.2218
-4.5360 BUSHRA -0.2218
-4.5360 BUSTER -0.2218
-4.5360 BYRON -0.2218
-4.5360 CADE -0.2218
-4.5360 CADIE -0.2218
-4.5360 CADY -0.2218
-4.5360 CAELAN -0.2218
-4.5360 CAEN -0.2218
-4.5360 CAI -0.2218
-4.5360 CAILUM -0.2218
-4.5360 CAIN -0.2218
-4.5360 CAINE -0.2218
-4.5360 CAIO -0.2218
-4.5360 CAIRO -0.2218
-4.5360 CAIT -0.2218
-4.5360 CAITLAN -0.2218
-4.5360 CAITLIN -0.2218
-4.5360 CAITLYN -0.2218
-4.5360 CAITRIONA -0.2218
-4.5360 CAIUS -0.2218
-4.5360 CAL -0.2218
-4.5360 CALAM -0.2218
-4.5360 CALAN -0.2218
-4.5360 CALE -0.2218
-4.5360 CALEB -0.2218
-4.5360 CALEM -0.2218
-4.5360 CALEN -0.2218
-4.5360 CALEY -0.2218
-4.5360 CALLAM -0.2218
-4.5360 CALLAN -0.2218
-4.5360 CALLEN -0.2218
-4.5360 CALLIE -0.2218
-4.5360 CALLUM -0.2218
-4.5360 CALLUMN -0.2218
-4.5360 CALLUN -0.2218
-4.5360 CALLY -0.2218
-4.5360 CALUM -0.2218
-4.5360 CALVIN -0.2218
-4.5360 CALYPSO -0.2218
-4.5360 CAMARA -0.2218
-4.5360 CAMDEN -0.2218
-4.5360 CAMERAN -0.2218
-4.2350 CAMERON -0.2218
-4.5360 CAMILA -0.2218
-4.5360 CAMILLA -0.2218
-4.5360 CAMILLE -0.2218
-4.5360 CAMPBELL -0.2218
-4.5360 CAMRAN -0.2218
-4.5360 CAMRON -0.2218
-4.5360 CAN -0.2218
-4.5360 CANAAN -0.2218
-4.5360 CANDACE -0.2218
-4.5360 CANDICE -0.2218
-4.5360 CANER -0.2218
-4.5360 CAOIMHE -0.2218
-4.5360 CAOLAN -0.2218
-4.5360 CAPRICE -0.2218
-4.5360 CARA -0.2218
-4.5360 CARAGH -0.2218
-4.5360 CAREY -0.2218
-4.5360 CARI -0.2218
-4.5360 CARIAD -0.2218
-4.5360 CARINA -0.2218
-4.5360 CARIS -0.2218
-4.5360 CARISS -0.2218
-4.5360 CARISSA -0.2218
-4.5360 CARL -0.2218
-4.5360 CARLA -0.2218
-4.5360 CARLEY -0.2218
-4.5360 CARLI -0.2218
-4.5360 CARLIE -0.2218
-4.5360 CARLIN -0.2218
-4.5360 CARLO -0.2218
-4.5360 CARLOS -0.2218
-4.5360 CARLTON -0.2218
-4.5360 CARLY -0.2218
-4.5360 CARMEL -0.2218
-4.5360 CARMELA -0.2218
-4.5360 CARMEN -0.2218
-4.5360 CARMINE -0.2218
-4.5360 CAROL -0.2218
-4.5360 CAROL-ANN -0.2218
-4.5360 CAROLANNE -0.2218
-4.5360 CAROLE -0.2218
-4.5360 CAROLINA -0.2218
-4.5360 CAROLINE -0.2218
-4.5360 CAROLYN -0.2218
-4.5360 CARRIANNE -0.2218
-4.5360 CARRICK -0.2218
-4.5360 CARRIE -0.2218
-4.5360 CARRIE-ANN -0.2218
-4.5360 CARRIE-ANNE -0.2218
-4.5360 CARRIGAN -0.2218
-4.5360 CARRIS -0.2218
-4.5360 CARSON -0.2218
-4.5360 CARTER -0.2218
-4.5360 CARWYN -0.2218
-4.5360 CARY -0.2218
-4.5360 CARYL -0.2218
-4.5360 CARYS -0.2218
-4.2350 CASEY -0.2218
-4.5360 CASHEL -0.2218
-4.5360 CASIE -0.2218
-4.5360 CASPAR -0.2218
-4.5360 CASPER -0.2218
-4.5360 CASSANDRA -0.2218
-4.5360 CASSEY -0.2218
-4.5360 CASSIA -0.2218
-4.5360 CASSIAN -0.2218
-4.2350 CASSIDY -0.2218
-4.5360 CASSIE -0.2218
-4.5360 CASSIUS -0.2218
-4.5360 CATARINA -0.2218
-4.5360 CATHAL -0.2218
-4.5360 CATHARINE -0.2218
-4.5360 CATHERINE -0.2218
-4.5360 CATHRINE -0.2218
-4.5360 CATHRYN -0.2218
-4.5360 CATHY -0.2218
-4.5360 CATRIN -0.2218
-4.5360 CATRINA -0.2218
-4.5360 CATRIONA -0.2218
-4.5360 CAVAN -0.2218
-4.5360 CAYLEM -0.2218
-4.5360 CAYLUM -0.2218
-4.5360 CEARA -0.2218
-4.5360 CECELIA -0.2218
-4.5360 CECIL -0.2218
-4.5360 CECILE -0.2218
-4.5360 CECILIA -0.2218
-4.5360 CECILY -0.2218
-4.5360 CEDRIC -0.2218
-4.5360 CEEJAY -0.2218
-4.5360 CEIRAN -0.2218
-4.5360 CEIRON -0.2218
-4.5360 CELESTE -0.2218
-4.5360 CELIA -0.2218
-4.5360 CELINA -0.2218
-4.5360 CELINE -0.2218
-4.5360 CELLAN -0.2218
-4.5360 CELYN -0.2218
-4.5360 CEM -0.2218
-4.5360 CENK -0.2218
-4.5360 CEREN -0.2218
-4.2350 CERI -0.2218
-4.5360 CERI-ANN -0.2218
-4.5360 CERIAN -0.2218
-4.5360 CERIDWEN -0.2218
-4.5360 CERISE -0.2218
-4.5360 CERYS -0.2218
-4.5360 CEYDA -0.2218
-4.5360 CEYHUN -0.2218
-4.5360 CEYLAN -0.2218
-4.5360 CHACE -0.2218
-4.5360 CHAD -0.2218
-4.5360 CHADD -0.2218
-4.5360 CHADLEY -0.2218
-4.5360 CHAE -0.2218
-4.5360 CHAIM -0.2218
-4.5360 CHANA -0.2218
-4.5360 CHANCE -0.2218
-4.5360 CHAND -0.2218
-4.5360 CHANDLER -0.2218
-4.5360 CHANDNI -0.2218
-4.5360 CHANEL -0.2218
-4.5360 CHANELL -0.2218
-4.5360 CHANELLE -0.2218
-4.5360 CHANICE -0.2218
-4.5360 CHANISE -0.2218
-4.5360 CHANNEL -0.2218
-4.5360 CHANNELLE -0.2218
-4.5360 CHANNON -0.2218
-4.5360 CHANTAL -0.2218
-4.5360 CHANTAY -0.2218
-4.5360 CHANTE -0.2218
-4.5360 CHANTEL -0.2218
-4.5360 CHANTELE -0.2218
-4.5360 CHANTELL -0.2218
-4.5360 CHANTELLE -0.2218
-4.5360 CHARALAMBOS -0.2218
-4.5360 CHARELLE -0.2218
-4.5360 CHARIS -0.2218
-4.5360 CHARISSE -0.2218
-4.5360 CHARITY -0.2218
-4.5360 CHARLEA -0.2218
-4.2350 CHARLEE -0.2218
-4.5360 CHARLEEN -0.2218
-4.5360 CHARLEIGH -0.2218
-4.5360 CHARLENE -0.2218
-4.5360 CHARLES -0.2218
-4.2350 CHARLEY -0.2218
-4.5360 CHARLEY-ANN -0.2218
-4.5360 CHARLI -0.2218
-4.2350 CHARLIE -0.2218
-4.5360 CHARLIE-ANN -0.2218
-4.5360 CHARLIE-ANNE -0.2218
-4.5360 CHARLOTTE -0.2218
-4.5360 CHARLOTTE-LOUISE -0.2218
-4.5360 CHARLTON -0.2218
-4.2350 CHARLY -0.2218
-4.5360 CHARMAINE -0.2218
-4.5360 CHAS -0.2218
-4.2350 CHASE -0.2218
-4.5360 CHAUDHARY -0.2218
-4.2350 CHAY -0.2218
-4.5360 CHAYA -0.2218
-4.5360 CHAZ -0.2218
-4.5360 CHE -0.2218
-4.5360 CHELCIE -0.2218
-4.5360 CHELSEA -0.2218
-4.5360 CHELSEA-MARIE -0.2218
-4.5360 CHELSEE -0.2218
-4.5360 CHELSEY -0.2218
-4.5360 CHELSI -0.2218
-4.5360 CHELSIE -0.2218
-4.5360 CHELSY -0.2218
-4.5360 CHENELLE -0.2218
-4.5360 CHENICE -0.2218
-4.5360 CHENISE -0.2218
-4.5360 CHERELLE -0.2218
-4.5360 CHERI -0.2218
-4.5360 CHERIE -0.2218
-4.5360 CHERISE -0.2218
-4.5360 CHERISH -0.2218
-4.5360 CHERISSE -0.2218
-4.5360 CHERRELLE -0.2218
-4.5360 CHERRIE -0.2218
-4.5360 CHERRY -0.2218
-4.5360 CHERYL -0.2218
-4.5360 CHESTER -0.2218
-4.5360 CHETAN -0.2218
-4.5360 CHEY -0.2218
-4.5360 CHEYANNE -0.2218
-4.5360 CHEYENNE -0.2218
-4.5360 CHI -0.2218
-4.5360 CHIAMAKA -0.2218
-4.5360 CHIARA -0.2218
-4.5360 CHIKE -0.2218
-4.5360 CHINA -0.2218
-4.5360 CHIOMA -0.2218
-4.5360 CHIRAG -0.2218
-4.5360 CHLOE -0.2218
-4.5360 CHLOE-ANN -0.2218
-4.5360 CHLOE-ANNE -0.2218
-4.5360 CHLOE-JAYNE -0.2218
-4.5360 CHLOE-LOUISE -0.2218
-4.5360 CHLOE-MARIE -0.2218
-4.5360 CHLOEE -0.2218
-4.5360 CHRIS -0.2218
-4.5360 CHRISSIE -0.2218
-4.5360 CHRISTA -0.2218
-4.5360 CHRISTABEL -0.2218
-4.5360 CHRISTIAN -0.2218
-4.5360 CHRISTIANA -0.2218
-4.5360 CHRISTIANNA -0.2218
-4.2350 CHRISTIE -0.2218
-4.5360 CHRISTINA -0.2218
-4.5360 CHRISTINE -0.2218
-4.5360 CHRISTOPHER -0.2218
-4.5360 CHRISTOS -0.2218
-4.2350 CHRISTY -0.2218
-4.5360 CHRYSTAL -0.2218
-4.5360 CHUKWUEMEKA -0.2218
-4.5360 CHUN -0.2218
-4.5360 CHYNA -0.2218
-4.5360 CHYNNA -0.2218
-4.5360 CIAN -0.2218
-4.5360 CIARA -0.2218
-4.5360 CIARAN -0.2218
-4.5360 CIAREN -0.2218
-4.5360 CIARON -0.2218
-4.5360 CICELY -0.2218
-4.5360 CIERA -0.2218
-4.5360 CIERAN -0.2218
-4.5360 CILLIAN -0.2218
-4.5360 CINDY -0.2218
-4.5360 CLAIR -0.2218
-4.5360 CLAIRA -0.2218
-4.5360 CLAIRE -0.2218
-4.5360 CLARA -0.2218
-4.5360 CLARE -0.2218
-4.5360 CLARENCE -0.2218
-4.5360 CLARICE -0.2218
-4.5360 CLARISSA -0.2218
-4.5360 CLARISSE -0.2218
-4.5360 CLARK -0.2218
-4.5360 CLARKE -0.2218
-4.5360 CLAUDE -0.2218
-4.5360 CLAUDETTE -0.2218
-4.5360 CLAUDIA -0.2218
-4.5360 CLAUDIO -0.2218
-4.5360 CLAY -0.2218
-4.5360 CLAYTON -0.2218
-4.5360 CLEA -0.2218
-4.5360 CLEMENT -0.2218
-4.5360 CLEMENTINE -0.2218
-4.5360 CLEO -0.2218
-4.5360 CLIFFORD -0.2218
-4.5360 CLINT -0.2218
-4.5360 CLINTON -0.2218
-4.5360 CLIONA -0.2218
-4.5360 CLIVE -0.2218
-4.5360 CLODAGH -0.2218
-4.5360 CLOE -0.2218
-4.5360 CLYDE -0.2218
-4.5360 COBI -0.2218
-4.5360 COBIE -0.2218
-4.2350 COBY -0.2218
-4.5360 CODEY -0.2218
-4.5360 CODI -0.2218
-4.2350 CODIE -0.2218
-4.2350 CODY -0.2218
-4.5360 COHEN -0.2218
-4.2350 COLBY -0.2218
-4.5360 COLE -0.2218
-4.5360 COLEEN -0.2218
-4.5360 COLETTE -0.2218
-4.5360 COLIN -0.2218
-4.5360 COLLEEN -0.2218
-4.5360 COLLETTE -0.2218
-4.5360 COLM -0.2218
-4.5360 COLT -0.2218
-4.5360 COLTON -0.2218
-4.5360 COLUM -0.2218
-4.5360 COMFORT -0.2218
-4.5360 CONAGH -0.2218
-4.5360 CONAH -0.2218
-4.5360 CONAL -0.2218
-4.5360 CONALL -0.2218
-4.5360 CONAN -0.2218
-4.5360 CONAR -0.2218
-4.5360 CONER -0.2218
-4.5360 CONNA -0.2218
-4.5360 CONNAGH -0.2218
-4.5360 CONNAH -0.2218
-4.5360 CONNAIRE -0.2218
-4.5360 CONNAL -0.2218
-4.5360 CONNALL -0.2218
-4.5360 CONNAR -0.2218
-4.5360 CONNEL -0.2218
-4.5360 CONNELL -0.2218
-4.5360 CONNER -0.2218
-4.5360 CONNIE -0.2218
-4.5360 CONNOR -0.2218
-4.5360 CONOR -0.2218
-4.5360 CONRAD -0.2218
-4.5360 CONSTANCE -0.2218
-4.5360 CONSTANTINE -0.2218
-4.5360 CONSTANTINOS -0.2218
-4.5360 CORA -0.2218
-4.5360 CORAL -0.2218
-4.5360 CORALIE -0.2218
-4.5360 CORAN -0.2218
-4.5360 CORBIN -0.2218
-4.5360 CORDELIA -0.2218
-4.5360 CORDELL -0.2218
-4.2350 COREY -0.2218
-4.5360 CORI -0.2218
-4.2350 CORIE -0.2218
-4.2350 CORIN -0.2218
-4.5360 CORINA -0.2218
-4.5360 CORINNA -0.2218
-4.5360 CORINNE -0.2218
-4.5360 CORMAC -0.2218
-4.5360 CORNELIUS -0.2218
-4.5360 CORRAN -0.2218
-4.2350 CORRIE -0.2218
-4.5360 CORRIN -0.2218
-4.5360 CORRINA -0.2218
-4.5360 CORRINE -0.2218
-4.5360 CORTNEY -0.2218
-4.2350 CORY -0.2218
-4.5360 COSIMA -0.2218
-4.5360 COSMO -0.2218
-4.5360 COURTENAY -0.2218
-4.5360 COURTENEY -0.2218
-4.5360 COURTNEE -0.2218
-4.2350 COURTNEY -0.2218
-4.5360 COURTNEY-LOUISE -0.2218
-4.5360 COURTNIE -0.2218
-4.5360 CRAIG -0.2218
-4.5360 CRESSIDA -0.2218
-4.5360 CRISPIN -0.2218
-4.5360 CRISTAL -0.2218
-4.5360 CRISTIAN -0.2218
-4.5360 CRISTIANO -0.2218
-4.5360 CRISTINA -0.2218
-4.5360 CRYSTAL -0.2218
-4.5360 CULLAN -0.2218
-4.5360 CULLEN -0.2218
-4.5360 CULLUM -0.2218
-4.5360 CURRAN -0.2218
-4.5360 CURTIS -0.2218
-4.5360 CY -0.2218
-4.5360 CYDNEE -0.2218
-4.5360 CYDNEY -0.2218
-4.5360 CYNTHIA -0.2218
-4.5360 CYRIL -0.2218
-4.5360 CYRUS -0.2218
-4.2350 D'ARCY -0.2218
-4.5360 DAANISH -0.2218
-4.5360 DAANYAAL -0.2218
-4.5360 DAENA -0.2218
-4.5360 DAFYDD -0.2218
-4.5360 DAIN -0.2218
-4.5360 DAINA -0.2218
-4.2350 DAIRE -0.2218
-4.5360 DAISEY -0.2218
-4.5360 DAISIE -0.2218
-4.5360 DAISY -0.2218
-4.5360 DAISY-MAE -0.2218
-4.5360 DAISY-MAY -0.2218
-4.2350 DAKOTA -0.2218
-4.2350 DALE -0.2218
-4.5360 DALEY -0.2218
-4.5360 DALIA -0.2218
-4.5360 DALIAN -0.2218
-4.5360 DALTON -0.2218
-4.5360 DALVIN -0.2218
-4.5360 DAMANI -0.2218
-4.5360 DAMIAN -0.2218
-4.5360 DAMIEN -0.2218
-4.5360 DAMILOLA -0.2218
-4.5360 DAMINI -0.2218
-4.5360 DAMION -0.2218
-4.5360 DAMON -0.2218
-4.5360 DAN -0.2218
-4.5360 DANA -0.2218
-4.5360 DANAE -0.2218
-4.5360 DANAH -0.2218
-4.5360 DANE -0.2218
-4.2350 DANI -0.2218
-4.5360 DANIA -0.2218
-4.5360 DANIAAL -0.2218
-4.5360 DANIAL -0.2218
-4.5360 DANICA -0.2218
-4.5360 DANIEL -0.2218
-4.5360 DANIELA -0.2218
-4.5360 DANIELE -0.2218
-4.5360 DANIELLA -0.2218
-4.5360 DANIELLE -0.2218
-4.5360 DANIKA -0.2218
-4.5360 DANISH -0.2218
-4.5360 DANISHA -0.2218
-4.5360 DANIYAAL -0.2218
-4.5360 DANIYAL -0.2218
-4.5360 DANNI -0.2218
-4.5360 DANNIE -0.2218
-4.5360 DANNIELLA -0.2218
-4.5360 DANNIELLE -0.2218
-4.5360 DANNII -0.2218
-4.5360 DANNY -0.2218
-4.5360 DANTE -0.2218
-4.5360 DANYA -0.2218
-4.5360 DANYAAL -0.2218
-4.5360 DANYAL -0.2218
-4.5360 DANYELLE -0.2218
-4.5360 DARA -0.2218
-4.5360 DARAGH -0.2218
-4.5360 DARBY -0.2218
-4.5360 DARCEY -0.2218
-4.5360 DARCI -0.2218
-4.5360 DARCIE -0.2218
-4.2350 DARCY -0.2218
-4.2350 DARIAN -0.2218
-4.5360 DARIEN -0.2218
-4.5360 DARIO -0.2218
-4.5360 DARION -0.2218
-4.5360 DARIUS -0.2218
-4.5360 DARNEL -0.2218
-4.5360 DARNELL -0.2218
-4.5360 DARRAGH -0.2218
-4.5360 DARRAN -0.2218
-4.5360 DARREL -0.2218
-4.5360 DARRELL -0.2218
-4.5360 DARREN -0.2218
-4.5360 DARRIAN -0.2218
-4.5360 DARRON -0.2218
-4.5360 DARRYL -0.2218
-4.5360 DARSHAN -0.2218
-4.5360 DARWIN -0.2218
-4.2350 DARYL -0.2218
-4.5360 DARYLL -0.2218
-4.5360 DAUD -0.2218
-4.5360 DAULTON -0.2218
-4.5360 DAVEY -0.2218
-4.5360 DAVIAN -0.2218
-4.5360 DAVID -0.2218
-4.5360 DAVIDE -0.2218
-4.5360 DAVIE -0.2218
-4.5360 DAVIN -0.2218
-4.5360 DAVINA -0.2218
-4.5360 DAVINDER -0.2218
-4.5360 DAVY -0.2218
-4.5360 DAWN -0.2218
-4.5360 DAYLE -0.2218
-4.5360 DAYNA -0.2218
-4.5360 DAYNE -0.2218
-4.5360 DEACON -0.2218
-4.5360 DEAN -0.2218
-4.5360 DEANA -0.2218
-4.5360 DEANE -0.2218
-4.5360 DEANNA -0.2218
-4.5360 DEANNE -0.2218
-4.5360 DEBBIE -0.2218
-4.5360 DEBORAH -0.2218
-4.5360 DEBRA -0.2218
-4.5360 DECKLAN -0.2218
-4.5360 DECLAN -0.2218
-4.5360 DECLAND -0.2218
-4.5360 DEE -0.2218
-4.5360 DEEANNA -0.2218
-4.5360 DEEJAY -0.2218
-4.5360 DEENA -0.2218
-4.5360 DEEP -0.2218
-4.5360 DEEPAK -0.2218
-4.5360 DEION -0.2218
-4.5360 DEKLAN -0.2218
-4.5360 DEL -0.2218
-4.5360 DELANEY -0.2218
-4.5360 DELIA -0.2218
-4.5360 DELLA -0.2218
-4.5360 DELPHINE -0.2218
-4.5360 DELYTH -0.2218
-4.5360 DEMELZA -0.2218
-4.5360 DEMETRA -0.2218
-4.5360 DEMETRI -0.2218
-4.5360 DEMETRIUS -0.2218
-4.5360 DEMI -0.2218
-4.5360 DEMI-LEA -0.2218
-4.5360 DEMI-LEE -0.2218
-4.5360 DEMI-LEIGH -0.2218
-4.5360 DEMI-LOUISE -0.2218
-4.5360 DEMI-MARIE -0.2218
-4.5360 DEMILEE -0.2218
-4.5360 DEMILEIGH -0.2218
-4.5360 DEMMI -0.2218
-4.2350 DEMPSEY -0.2218
-4.5360 DENA -0.2218
-4.5360 DENE -0.2218
-4.5360 DENHAM -0.2218
-4.5360 DENHOLM -0.2218
-4.5360 DENI -0.2218
-4.5360 DENIM -0.2218
-4.5360 DENIRO -0.2218
-4.5360 DENIS -0.2218
-4.5360 DENISE -0.2218
-4.2350 DENIZ -0.2218
-4.5360 DENNI -0.2218
-4.5360 DENNIS -0.2218
-4.5360 DENNY -0.2218
-4.5360 DENVER -0.2218
-4.5360 DENZEL -0.2218
-4.5360 DENZIL -0.2218
-4.2350 DEON -0.2218
-4.5360 DEREECE -0.2218
-4.5360 DEREK -0.2218
-4.5360 DERI -0.2218
-4.5360 DERICE -0.2218
-4.5360 DERMOT -0.2218
-4.5360 DERREN -0.2218
-4.5360 DERRICK -0.2218
-4.5360 DERRON -0.2218
-4.5360 DERRY -0.2218
-4.5360 DERRYN -0.2218
-4.5360 DERVLA -0.2218
-4.5360 DERYA -0.2218
-4.5360 DERYN -0.2218
-4.5360 DESIREE -0.2218
-4.5360 DESMOND -0.2218
-4.5360 DESTINY -0.2218
-4.5360 DEV -0.2218
-4.2350 DEVAN -0.2218
-4.5360 DEVANTE -0.2218
-4.5360 DEVEN -0.2218
-4.5360 DEVIN -0.2218
-4.5360 DEVINA -0.2218
-4.5360 DEVLIN -0.2218
-4.2350 DEVON -0.2218
-4.5360 DEVONTE -0.2218
-4.5360 DEVORAH -0.2218
-4.5360 DEVYN -0.2218
-4.5360 DEWAN -0.2218
-4.5360 DEWI -0.2218
-4.5360 DEXTER -0.2218
-4.5360 DHANYAL -0.2218
-4.5360 DHAVAL -0.2218
-4.5360 DHILAN -0.2218
-4.5360 DHILLON -0.2218
-4.5360 DHIREN -0.2218
-4.5360 DHRUV -0.2218
-4.5360 DIANA -0.2218
-4.5360 DIANE -0.2218
-4.5360 DIEGO -0.2218
-4.5360 DIETER -0.2218
-4.2350 DILAN -0.2218
-4.5360 DILARA -0.2218
-4.5360 DILEN -0.2218
-4.5360 DILESH -0.2218
-4.5360 DILLAN -0.2218
-4.5360 DILLON -0.2218
-4.5360 DILPREET -0.2218
-4.5360 DILRAJ -0.2218
-4.5360 DIMITRI -0.2218
-4.5360 DIMITRIOS -0.2218
-4.5360 DIMITRIS -0.2218
-4.5360 DINA -0.2218
-4.5360 DINAH -0.2218
-4.5360 DINESH -0.2218
-4.5360 DINO -0.2218
-4.2350 DION -0.2218
-4.5360 DIONE -0.2218
-4.5360 DIONNE -0.2218
-4.5360 DIPESH -0.2218
-4.5360 DIQUAN -0.2218
-4.5360 DIVA -0.2218
-4.5360 DIVINE -0.2218
-4.5360 DIVYA -0.2218
-4.5360 DJANGO -0.2218
-4.5360 DOLLY -0.2218
-4.5360 DOLORES -0.2218
-4.5360 DOMENIC -0.2218
-4.5360 DOMENICA -0.2218
-4.5360 DOMENICO -0.2218
-4.5360 DOMINIC -0.2218
-4.5360 DOMINICA -0.2218
-4.5360 DOMINICK -0.2218
-4.5360 DOMINIK -0.2218
-4.5360 DOMINIQUE -0.2218
-4.5360 DOMONIC -0.2218
-4.5360 DONAL -0.2218
-4.5360 DONALD -0.2218
-4.5360 DONELL -0.2218
-4.5360 DONNA -0.2218
-4.5360 DONNELL -0.2218
-4.5360 DONOVAN -0.2218
-4.5360 DORA -0.2218
-4.5360 DORCAS -0.2218
-4.5360 DOREEN -0.2218
-4.5360 DORIAN -0.2218
-4.5360 DOROTHY -0.2218
-4.5360 DOUGAL -0.2218
-4.5360 DOUGLAS -0.2218
-4.5360 DOVID -0.2218
-4.5360 DRE -0.2218
-4.2350 DREW -0.2218
-4.5360 DRU -0.2218
-4.5360 DUAINE -0.2218
-4.5360 DUANE -0.2218
-4.5360 DUDLEY -0.2218
-4.5360 DUKE -0.2218
-4.5360 DULCIE -0.2218
-4.5360 DUNCAN -0.2218
-4.5360 DURRELL -0.2218
-4.5360 DUY -0.2218
-4.5360 DWAYNE -0.2218
-4.5360 DWIGHT -0.2218
-4.5360 DYFAN -0.2218
-4.2350 DYLAN -0.2218
-4.5360 DYLLAN -0.2218
-4.5360 DYLON -0.2218
-4.5360 EAMON -0.2218
-4.5360 EAMONN -0.2218
-4.5360 EARL -0.2218
-4.5360 EATHAN -0.2218
-4.5360 EBEN -0.2218
-4.5360 EBENEZER -0.2218
-4.5360 EBONI -0.2218
-4.5360 EBONIE -0.2218
-4.5360 EBONY -0.2218
-4.5360 EBRAHIM -0.2218
-4.5360 EBRU -0.2218
-4.5360 ECHO -0.2218
-4.5360 EDA -0.2218
-4.5360 EDAN -0.2218
-4.5360 EDDIE -0.2218
-4.5360 EDDY -0.2218
-4.2350 EDEN -0.2218
-4.5360 EDGAR -0.2218
-4.5360 EDIE -0.2218
-4.5360 EDISON -0.2218
-4.5360 EDITH -0.2218
-4.5360 EDIZ -0.2218
-4.5360 EDMUND -0.2218
-4.5360 EDNA -0.2218
-4.5360 EDOUARD -0.2218
-4.5360 EDSON -0.2218
-4.5360 EDUARDO -0.2218
-4.5360 EDWARD -0.2218
-4.5360 EDWIN -0.2218
-4.5360 EDWINA -0.2218
-4.5360 EDWYN -0.2218
-4.5360 EFFIE -0.2218
-4.5360 EHLANA -0.2218
-4.5360 EHSAN -0.2218
-4.5360 EIBHLIN -0.2218
-4.5360 EILEEN -0.2218
-4.5360 EILIDH -0.2218
-4.5360 EILIS -0.2218
-4.5360 EILISH -0.2218
-4.5360 EIMEAR -0.2218
-4.5360 EIRA -0.2218
-4.5360 EKATERINA -0.2218
-4.5360 EKTA -0.2218
-4.5360 EKUNDAYO -0.2218
-4.5360 ELA -0.2218
-4.5360 ELAIN -0.2218
-4.5360 ELAINA -0.2218
-4.5360 ELAINE -0.2218
-4.5360 ELAN -0.2218
-4.5360 ELANA -0.2218
-4.5360 ELANOR -0.2218
-4.5360 ELEANA -0.2218
-4.5360 ELEANOR -0.2218
-4.5360 ELEANORE -0.2218
-4.5360 ELEASHA -0.2218
-4.5360 ELEESHA -0.2218
-4.5360 ELEISHA -0.2218
-4.5360 ELEN -0.2218
-4.5360 ELENA -0.2218
-4.5360 ELENI -0.2218
-4.5360 ELENYA -0.2218
-4.5360 ELERI -0.2218
-4.5360 ELGAN -0.2218
-4.5360 ELHAM -0.2218
-4.5360 ELI -0.2218
-4.5360 ELIANA -0.2218
-4.5360 ELIAS -0.2218
-4.5360 ELICIA -0.2218
-4.5360 ELIEZER -0.2218
-4.5360 ELIF -0.2218
-4.5360 ELIJAH -0.2218
-4.5360 ELIN -0.2218
-4.5360 ELINA -0.2218
-4.5360 ELINOR -0.2218
-4.5360 ELIOT -0.2218
-4.5360 ELIOTT -0.2218
-4.5360 ELIS -0.2218
-4.5360 ELISA -0.2218
-4.5360 ELISABETH -0.2218
-4.5360 ELISE -0.2218
-4.2350 ELISHA -0.2218
-4.5360 ELISHEVA -0.2218
-4.5360 ELISHIA -0.2218
-4.5360 ELISIA -0.2218
-4.5360 ELISSA -0.2218
-4.5360 ELIZA -0.2218
-4.5360 ELIZABETH -0.2218
-4.5360 ELLA -0.2218
-4.5360 ELLA-LOUISE -0.2218
-4.5360 ELLE -0.2218
-4.5360 ELLEANOR -0.2218
-4.5360 ELLEE -0.2218
-4.5360 ELLEN -0.2218
-4.5360 ELLENA -0.2218
-4.5360 ELLENOR -0.2218
-4.5360 ELLESE -0.2218
-4.5360 ELLESHA -0.2218
-4.5360 ELLESSE -0.2218
-4.5360 ELLEY -0.2218
-4.5360 ELLI -0.2218
-4.5360 ELLICE -0.2218
-4.5360 ELLICIA -0.2218
-4.5360 ELLIE -0.2218
-4.5360 ELLIE-JANE -0.2218
-4.5360 ELLIE-LOUISE -0.2218
-4.5360 ELLIE-MAE -0.2218
-4.5360 ELLIE-MARIE -0.2218
-4.5360 ELLIE-MAY -0.2218
-4.5360 ELLIE-ROSE -0.2218
-4.5360 ELLIEMAE -0.2218
-4.5360 ELLINOR -0.2218
-4.5360 ELLIOT -0.2218
-4.5360 ELLIOTT -0.2218
-4.2350 ELLIS -0.2218
-4.5360 ELLISE -0.2218
-4.5360 ELLISHA -0.2218
-4.5360 ELLISIA -0.2218
-4.5360 ELLISON -0.2218
-4.5360 ELLOISE -0.2218
-4.5360 ELLOUISE -0.2218
-4.5360 ELLY -0.2218
-4.5360 ELLY-MAY -0.2218
-4.5360 ELLYS -0.2218
-4.5360 ELLYSE -0.2218
-4.5360 ELODIE -0.2218
-4.5360 ELOISA -0.2218
-4.5360 ELOISE -0.2218
-4.5360 ELOUISE -0.2218
-4.5360 ELSA -0.2218
-4.5360 ELSIE -0.2218
-4.5360 ELSPETH -0.2218
-4.5360 ELVIS -0.2218
-4.5360 ELY -0.2218
-4.5360 ELYSE -0.2218
-4.5360 ELYSHA -0.2218
-4.5360 ELYSHIA -0.2218
-4.5360 ELYSIA -0.2218
-4.5360 ELYSSIA -0.2218
-4.5360 EMAD -0.2218
-4.5360 EMAN -0.2218
-4.5360 EMANUEL -0.2218
-4.5360 EMELIA -0.2218
-4.5360 EMELYE -0.2218
-4.5360 EMER -0.2218
-4.5360 EMERALD -0.2218
-4.5360 EMERSON -0.2218
-4.5360 EMIL -0.2218
-4.5360 EMILE -0.2218
-4.5360 EMILEE -0.2218
-4.5360 EMILIA -0.2218
-4.5360 EMILIE -0.2218
-4.5360 EMILIO -0.2218
-4.5360 EMILLIE -0.2218
-4.5360 EMILLY -0.2218
-4.5360 EMILY -0.2218
-4.5360 EMILY-JANE -0.2218
-4.5360 EMILY-JAYNE -0.2218
-4.5360 EMILY-LOUISE -0.2218
-4.5360 EMILY-MAY -0.2218
-4.5360 EMILY-ROSE -0.2218
-4.5360 EMINE -0.2218
-4.5360 EMLYN -0.2218
-4.5360 EMMA -0.2218
-4.5360 EMMA-JANE -0.2218
-4.5360 EMMA-JAYNE -0.2218
-4.5360 EMMA-LEIGH -0.2218
-4.5360 EMMA-LOUISE -0.2218
-4.5360 EMMANUEL -0.2218
-4.5360 EMMANUELA -0.2218
-4.5360 EMMANUELLA -0.2218
-4.5360 EMMANUELLE -0.2218
-4.5360 EMMELINE -0.2218
-4.5360 EMMETT -0.2218
-4.5360 EMMIE -0.2218
-4.5360 EMMY -0.2218
-4.5360 EMRE -0.2218
-4.5360 EMYR -0.2218
-4.5360 ENES -0.2218
-4.5360 ENIOLA -0.2218
-4.5360 ENRICO -0.2218
-4.5360 ENYA -0.2218
-4.5360 ENZO -0.2218
-4.5360 EOGHAN -0.2218
-4.5360 EOIN -0.2218
-4.5360 EPHRAIM -0.2218
-4.5360 ERAM -0.2218
-4.5360 ERAY -0.2218
-4.5360 EREN -0.2218
-4.5360 ERIC -0.2218
-4.5360 ERICA -0.2218
-4.5360 ERIK -0.2218
-4.5360 ERIKA -0.2218
-4.5360 ERIN -0.2218
-4.5360 ERINN -0.2218
-4.5360 ERNEST -0.2218
-4.5360 ERNIE -0.2218
-4.5360 EROL -0.2218
-4.5360 ERRAN -0.2218
-4.5360 ERROL -0.2218
-4.5360 ERYN -0.2218
-4.5360 ESHA -0.2218
-4.5360 ESHAN -0.2218
-4.5360 ESHE -0.2218
-4.5360 ESME -0.2218
-4.5360 ESMEE -0.2218
-4.5360 ESRA -0.2218
-4.5360 ESTA -0.2218
-4.5360 ESTELLE -0.2218
-4.5360 ESTHER -0.2218
-4.5360 ETHAN -0.2218
-4.5360 ETIENNE -0.2218
-4.5360 EUAN -0.2218
-4.5360 EUGENE -0.2218
-4.5360 EUGENIE -0.2218
-4.5360 EUNICE -0.2218
-4.5360 EUPHEMIA -0.2218
-4.5360 EVA -0.2218
-4.2350 EVAN -0.2218
-4.5360 EVANDER -0.2218
-4.5360 EVANGELINE -0.2218
-4.5360 EVE -0.2218
-4.5360 EVELINA -0.2218
-4.5360 EVELYN -0.2218
-4.5360 EVIE -0.2218
-4.5360 EWAN -0.2218
-4.5360 EWEN -0.2218
-4.5360 EZEKIEL -0.2218
-4.5360 EZGI -0.2218
-4.5360 EZME -0.2218
-4.5360 EZRA -0.2218
-4.5360 FAAIZA -0.2218
-4.5360 FAAIZAH -0.2218
-4.5360 FAARIA -0.2218
-4.5360 FAATIMA -0.2218
-4.5360 FAATIMAH -0.2218
-4.5360 FABIAN -0.2218
-4.5360 FABIEN -0.2218
-4.5360 FABIENNE -0.2218
-4.5360 FABIHA -0.2218
-4.5360 FABIO -0.2218
-4.5360 FABRIZIO -0.2218
-4.5360 FAE -0.2218
-4.5360 FAHAD -0.2218
-4.5360 FAHEEM -0.2218
-4.5360 FAHEEMA -0.2218
-4.5360 FAHEMA -0.2218
-4.5360 FAHID -0.2218
-4.5360 FAHIM -0.2218
-4.5360 FAHIMA -0.2218
-4.5360 FAHMIDA -0.2218
-4.5360 FAISAL -0.2218
-4.5360 FAITH -0.2218
-4.5360 FAIZ -0.2218
-4.5360 FAIZA -0.2218
-4.5360 FAIZAAN -0.2218
-4.5360 FAIZAH -0.2218
-4.5360 FAIZAN -0.2218
-4.5360 FALAK -0.2218
-4.5360 FALLON -0.2218
-4.5360 FARAAZ -0.2218
-4.5360 FARAH -0.2218
-4.5360 FARAN -0.2218
-4.5360 FARAZ -0.2218
-4.5360 FARHA -0.2218
-4.5360 FARHAAN -0.2218
-4.5360 FARHAD -0.2218
-4.5360 FARHAN -0.2218
-4.5360 FARHANA -0.2218
-4.5360 FARHAT -0.2218
-4.5360 FARHEEN -0.2218
-4.5360 FARID -0.2218
-4.5360 FARIDA -0.2218
-4.5360 FARIDAH -0.2218
-4.5360 FARIHA -0.2218
-4.5360 FARIS -0.2218
-4.5360 FARJANA -0.2218
-4.5360 FARON -0.2218
-4.5360 FAROOQ -0.2218
-4.5360 FARRAH -0.2218
-4.5360 FARRELL -0.2218
-4.5360 FARREN -0.2218
-4.5360 FARRIS -0.2218
-4.5360 FARYAL -0.2218
-4.5360 FARZANA -0.2218
-4.5360 FATEHA -0.2218
-4.5360 FATEMA -0.2218
-4.5360 FATEMAH -0.2218
-4.5360 FATHEMA -0.2218
-4.5360 FATHIMA -0.2218
-4.5360 FATIMA -0.2218
-4.5360 FATIMAH -0.2218
-4.5360 FATMA -0.2218
-4.5360 FATUMA -0.2218
-4.5360 FAWAD -0.2218
-4.5360 FAWAZ -0.2218
-4.5360 FAY -0.2218
-4.5360 FAYE -0.2218
-4.5360 FAYSAL -0.2218
-4.5360 FAZAL -0.2218
-4.5360 FEDERICO -0.2218
-4.5360 FELICIA -0.2218
-4.5360 FELICITY -0.2218
-4.5360 FELIPE -0.2218
-4.5360 FELIX -0.2218
-4.5360 FENELLA -0.2218
-4.5360 FENTON -0.2218
-4.5360 FERDINAND -0.2218
-4.5360 FERGAL -0.2218
-4.5360 FERGUS -0.2218
-4.5360 FERHAT -0.2218
-4.5360 FERN -0.2218
-4.5360 FERNANDO -0.2218
-4.5360 FERNE -0.2218
-4.5360 FFION -0.2218
-4.5360 FIDEL -0.2218
-4.5360 FILIP -0.2218
-4.5360 FILIPE -0.2218
-4.5360 FILIPPO -0.2218
-4.5360 FINBAR -0.2218
-4.5360 FINBARR -0.2218
-4.5360 FINDLAY -0.2218
-4.5360 FINIAN -0.2218
-4.2350 FINLAY -0.2218
-4.5360 FINLEY -0.2218
-4.5360 FINN -0.2218
-4.5360 FINNIAN -0.2218
-4.5360 FINOLA -0.2218
-4.5360 FINTAN -0.2218
-4.5360 FIONA -0.2218
-4.5360 FIONN -0.2218
-4.5360 FIONNUALA -0.2218
-4.5360 FIRAS -0.2218
-4.5360 FIRAT -0.2218
-4.5360 FIRDAUS -0.2218
-4.5360 FLAVIA -0.2218
-4.5360 FLETCHER -0.2218
-4.5360 FLEUR -0.2218
-4.5360 FLORA -0.2218
-4.5360 FLORENCE -0.2218
-4.5360 FLORIAN -0.2218
-4.5360 FLORRIE -0.2218
-4.5360 FLOYD -0.2218
-4.5360 FLYNN -0.2218
-4.5360 FOLASADE -0.2218
-4.5360 FOLASHADE -0.2218
-4.5360 FORD -0.2218
-4.5360 FORIDA -0.2218
-4.5360 FORREST -0.2218
-4.5360 FOUZIA -0.2218
-4.5360 FOX -0.2218
-4.5360 FOZIA -0.2218
-4.5360 FRANCES -0.2218
-4.5360 FRANCESCA -0.2218
-4.5360 FRANCESCO -0.2218
-4.5360 FRANCESSCA -0.2218
-4.5360 FRANCHESCA -0.2218
-4.5360 FRANCINE -0.2218
-4.2350 FRANCIS -0.2218
-4.5360 FRANCISCO -0.2218
-4.5360 FRANCOIS -0.2218
-4.5360 FRANK -0.2218
-4.2350 FRANKIE -0.2218
-4.5360 FRANKLIN -0.2218
-4.5360 FRASER -0.2218
-4.5360 FRASIER -0.2218
-4.5360 FRAZER -0.2218
-4.5360 FRAZIER -0.2218
-4.5360 FRED -0.2218
-4.5360 FREDA -0.2218
-4.2350 FREDDIE -0.2218
-4.5360 FREDDY -0.2218
-4.5360 FREDERIC -0.2218
-4.5360 FREDERICA -0.2218
-4.5360 FREDERICK -0.2218
-4.5360 FREDERIK -0.2218
-4.5360 FREDRIC -0.2218
-4.5360 FREDRICK -0.2218
-4.5360 FREDRIK -0.2218
-4.5360 FREJA -0.2218
-4.5360 FREYA -0.2218
-4.5360 FREYJA -0.2218
-4.5360 FUAD -0.2218
-4.5360 FURQAN -0.2218
-4.5360 FYNN -0.2218
-4.5360 GABRIEL -0.2218
-4.5360 GABRIELA -0.2218
-4.5360 GABRIELE -0.2218
-4.5360 GABRIELLA -0.2218
-4.5360 GABRIELLE -0.2218
-4.5360 GABY -0.2218
-4.5360 GAGAN -0.2218
-4.5360 GAGANDEEP -0.2218
-4.5360 GAGE -0.2218
-4.5360 GAIA -0.2218
-4.5360 GAIL -0.2218
-4.5360 GARETH -0.2218
-4.5360 GARIN -0.2218
-4.5360 GARION -0.2218
-4.5360 GARRETT -0.2218
-4.5360 GARRICK -0.2218
-4.5360 GARRY -0.2218
-4.5360 GARTH -0.2218
-4.5360 GARY -0.2218
-4.5360 GARYN -0.2218
-4.5360 GAURAV -0.2218
-4.5360 GAVIN -0.2218
-4.5360 GAVINDEEP -0.2218
-4.5360 GAYLE -0.2218
-4.5360 GAYNOR -0.2218
-4.5360 GED -0.2218
-4.5360 GEENA -0.2218
-4.5360 GEMMA -0.2218
-4.5360 GENE -0.2218
-4.5360 GENEVA -0.2218
-4.5360 GENEVIEVE -0.2218
-4.5360 GENNA -0.2218
-4.5360 GENO -0.2218
-4.5360 GEOFFREY -0.2218
-4.5360 GEORDIE -0.2218
-4.5360 GEORGA -0.2218
-4.5360 GEORGE -0.2218
-4.5360 GEORGEA -0.2218
-4.5360 GEORGENA -0.2218
-4.5360 GEORGES -0.2218
-4.5360 GEORGETTE -0.2218
-4.5360 GEORGI -0.2218
-4.5360 GEORGIA -0.2218
-4.5360 GEORGIA-LEIGH -0.2218
-4.5360 GEORGIA-LOUISE -0.2218
-4.5360 GEORGIA-MAE -0.2218
-4.5360 GEORGIA-MAY -0.2218
-4.5360 GEORGIANA -0.2218
-4.2350 GEORGIE -0.2218
-4.5360 GEORGINA -0.2218
-4.5360 GEORGIO -0.2218
-4.5360 GEORGIOS -0.2218
-4.5360 GERAINT -0.2218
-4.5360 GERALD -0.2218
-4.5360 GERALDINE -0.2218
-4.5360 GERARD -0.2218
-4.5360 GERRY -0.2218
-4.5360 GERWYN -0.2218
-4.5360 GETHIN -0.2218
-4.5360 GETHYN -0.2218
-4.5360 GHAZI -0.2218
-4.5360 GHULAM -0.2218
-4.5360 GIACOMO -0.2218
-4.5360 GIAN -0.2218
-4.5360 GIANLUCA -0.2218
-4.5360 GIANNA -0.2218
-4.5360 GIANNI -0.2218
-4.5360 GIDEON -0.2218
-4.5360 GIL -0.2218
-4.5360 GILBERT -0.2218
-4.5360 GILES -0.2218
-4.5360 GILLIAN -0.2218
-4.5360 GINA -0.2218
-4.5360 GINO -0.2218
-4.5360 GIORGIA -0.2218
-4.5360 GIORGIO -0.2218
-4.5360 GIOVANNA -0.2218
-4.5360 GIOVANNI -0.2218
-4.5360 GISELLE -0.2218
-4.5360 GITTEL -0.2218
-4.5360 GITTY -0.2218
-4.5360 GIULIA -0.2218
-4.5360 GIUSEPPE -0.2218
-4.5360 GIZEM -0.2218
-4.5360 GLEN -0.2218
-4.5360 GLENN -0.2218
-4.5360 GLESNI -0.2218
-4.5360 GLORIA -0.2218
-4.5360 GLYN -0.2218
-4.5360 GLYNN -0.2218
-4.5360 GORDON -0.2218
-4.5360 GOVIND -0.2218
-4.5360 GRACE -0.2218
-4.5360 GRACIE -0.2218
-4.5360 GRADY -0.2218
-4.5360 GRAEME -0.2218
-4.5360 GRAHAM -0.2218
-4.5360 GRAHAME -0.2218
-4.5360 GRAINNE -0.2218
-4.5360 GRANT -0.2218
-4.5360 GREG -0.2218
-4.5360 GREGG -0.2218
-4.5360 GREGOR -0.2218
-4.5360 GREGORY -0.2218
-4.5360 GRETA -0.2218
-4.5360 GRIFFIN -0.2218
-4.5360 GRIFFITH -0.2218
-4.5360 GRUFFUDD -0.2218
-4.5360 GRUFFYDD -0.2218
-4.5360 GUILLAUME -0.2218
-4.5360 GULAM -0.2218
-4.5360 GULED -0.2218
-4.5360 GULSEN -0.2218
-4.5360 GURCHARAN -0.2218
-4.5360 GURDEEP -0.2218
-4.5360 GURDEV -0.2218
-4.5360 GURINDER -0.2218
-4.5360 GURJEEVAN -0.2218
-4.5360 GURJINDER -0.2218
-4.5360 GURJIT -0.2218
-4.5360 GURKIRAN -0.2218
-4.5360 GURKIRAT -0.2218
-4.5360 GURMINDER -0.2218
-4.5360 GURPAL -0.2218
-4.2350 GURPREET -0.2218
-4.5360 GURSHARAN -0.2218
-4.5360 GURSHARON -0.2218
-4.5360 GURSIMRAN -0.2218
-4.5360 GURVEER -0.2218
-4.5360 GURVINDER -0.2218
-4.5360 GURVIR -0.2218
-4.5360 GUS -0.2218
-4.5360 GUSTAVO -0.2218
-4.5360 GUTO -0.2218
-4.5360 GUY -0.2218
-4.5360 GWAWR -0.2218
-4.5360 GWEN -0.2218
-4.5360 GWENAN -0.2218
-4.5360 GWENLLIAN -0.2218
-4.5360 GWENNAN -0.2218
-4.5360 GWENNO -0.2218
-4.5360 GWILYM -0.2218
-4.5360 GWION -0.2218
-4.5360 GWYDION -0.2218
-4.5360 GWYN -0.2218
-4.5360 GWYNETH -0.2218
-4.5360 HAARIS -0.2218
-4.5360 HAAROON -0.2218
-4.5360 HABEEB -0.2218
-4.5360 HABEEBA -0.2218
-4.5360 HABEEBAH -0.2218
-4.5360 HABIB -0.2218
-4.5360 HABIBA -0.2218
-4.5360 HADASSAH -0.2218
-4.5360 HADEN -0.2218
-4.5360 HADLEY -0.2218
-4.5360 HADYN -0.2218
-4.5360 HAFEEZ -0.2218
-4.5360 HAFIZA -0.2218
-4.5360 HAFSA -0.2218
-4.5360 HAFSAH -0.2218
-4.5360 HAIDAR -0.2218
-4.5360 HAIDEE -0.2218
-4.5360 HAIDEN -0.2218
-4.5360 HAIDER -0.2218
-4.5360 HAILEY -0.2218
-4.5360 HAIQA -0.2218
-4.5360 HAITHAM -0.2218
-4.5360 HAJAR -0.2218
-4.5360 HAJERA -0.2218
-4.5360 HAJIRA -0.2218
-4.5360 HAJRA -0.2218
-4.5360 HAJRAH -0.2218
-4.5360 HAKAN -0.2218
-4.5360 HAKEEM -0.2218
-4.5360 HAKIM -0.2218
-4.5360 HAL -0.2218
-4.5360 HALEEMA -0.2218
-4.5360 HALEEMAH -0.2218
-4.5360 HALEIGH -0.2218
-4.5360 HALEMA -0.2218
-4.5360 HALEY -0.2218
-4.5360 HALIL -0.2218
-4.5360 HALIMA -0.2218
-4.5360 HALIMAH -0.2218
-4.5360 HALLAM -0.2218
-4.5360 HALLE -0.2218
-4.5360 HAMAAD -0.2218
-4.5360 HAMAD -0.2218
-4.5360 HAMAS -0.2218
-4.5360 HAMDA -0.2218
-4.5360 HAMED -0.2218
-4.5360 HAMEED -0.2218
-4.5360 HAMID -0.2218
-4.5360 HAMIDA -0.2218
-4.5360 HAMISH -0.2218
-4.5360 HAMMAAD -0.2218
-4.5360 HAMMAD -0.2218
-4.5360 HAMSA -0.2218
-4.5360 HAMSE -0.2218
-4.5360 HAMZA -0.2218
-4.5360 HAMZAH -0.2218
-4.5360 HANA -0.2218
-4.5360 HANAA -0.2218
-4.5360 HANAD -0.2218
-4.5360 HANAN -0.2218
-4.5360 HANEEN -0.2218
-4.5360 HANI -0.2218
-4.5360 HANIF -0.2218
-4.5360 HANIFA -0.2218
-4.5360 HANIFAH -0.2218
-4.5360 HANNA -0.2218
-4.5360 HANNAH -0.2218
-4.5360 HANNAH-LOUISE -0.2218
-4.5360 HANNAH-MAY -0.2218
-4.5360 HANNAH-ROSE -0.2218
-4.2350 HANNAN -0.2218
-4.5360 HANS -0.2218
-4.5360 HANYA -0.2218
-4.5360 HARAN -0.2218
-4.2350 HARDEEP -0.2218
-4.5360 HARDEV -0.2218
-4.5360 HARI -0.2218
-4.5360 HARINDER -0.2218
-4.5360 HARIS -0.2218
-4.5360 HARISH -0.2218
-4.5360 HARJINDER -0.2218
-4.5360 HARJOT -0.2218
-4.5360 HARKARAN -0.2218
-4.5360 HARKIRAN -0.2218
-4.5360 HARLEEN -0.2218
-4.5360 HARLEIGH -0.2218
-4.2350 HARLEY -0.2218
-4.2350 HARLIE -0.2218
-4.5360 HARMAN -0.2218
-4.5360 HARMEET -0.2218
-4.5360 HARMINDER -0.2218
-4.5360 HARMONY -0.2218
-4.5360 HAROLD -0.2218
-4.5360 HAROON -0.2218
-4.2350 HARPREET -0.2218
-4.5360 HARRI -0.2218
-4.5360 HARRIE -0.2218
-4.5360 HARRIET -0.2218
-4.5360 HARRIETT -0.2218
-4.5360 HARRIETTE -0.2218
-4.5360 HARRIS -0.2218
-4.5360 HARRISON -0.2218
-4.5360 HARRY -0.2218
-4.5360 HARSH -0.2218
-4.5360 HARSHIL -0.2218
-4.5360 HARSIMRAN -0.2218
-4.5360 HARUN -0.2218
-4.5360 HARVEER -0.2218
-4.5360 HARVEY -0.2218
-4.5360 HARVIE -0.2218
-4.2350 HARVINDER -0.2218
-4.5360 HARVIR -0.2218
-4.5360 HASAN -0.2218
-4.5360 HASEEB -0.2218
-4.5360 HASEENA -0.2218
-4.5360 HASHAM -0.2218
-4.5360 HASHIM -0.2218
-4.5360 HASIB -0.2218
-4.5360 HASINA -0.2218
-4.5360 HASNA -0.2218
-4.5360 HASNAIN -0.2218
-4.5360 HASSAAN -0.2218
-4.5360 HASSAN -0.2218
-4.5360 HATICE -0.2218
-4.5360 HATIM -0.2218
-4.5360 HATTIE -0.2218
-4.5360 HAWA -0.2218
-4.5360 HAYDAN -0.2218
-4.5360 HAYDEN -0.2218
-4.5360 HAYDER -0.2218
-4.5360 HAYDN -0.2218
-4.5360 HAYDON -0.2218
-4.5360 HAYLEIGH -0.2218
-4.5360 HAYLEY -0.2218
-4.5360 HAYLIE -0.2218
-4.5360 HAZAL -0.2218
-4.5360 HAZEL -0.2218
-4.5360 HAZERA -0.2218
-4.5360 HEATH -0.2218
-4.5360 HEATHER -0.2218
-4.5360 HEBA -0.2218
-4.5360 HEBE -0.2218
-4.5360 HECTOR -0.2218
-4.5360 HEENA -0.2218
-4.5360 HEIDI -0.2218
-4.5360 HELAINA -0.2218
-4.5360 HELEDD -0.2218
-4.5360 HELEENA -0.2218
-4.5360 HELEN -0.2218
-4.5360 HELENA -0.2218
-4.5360 HELENE -0.2218
-4.5360 HELOISE -0.2218
-4.5360 HEMA -0.2218
-4.5360 HENA -0.2218
-4.5360 HENDRIK -0.2218
-4.5360 HENNA -0.2218
-4.5360 HENNAH -0.2218
-4.5360 HENRI -0.2218
-4.5360 HENRIETTA -0.2218
-4.5360 HENRIK -0.2218
-4.5360 HENRY -0.2218
-4.5360 HERBERT -0.2218
-4.5360 HERBIE -0.2218
-4.5360 HERMAN -0.2218
-4.5360 HERMIONE -0.2218
-4.5360 HERSH -0.2218
-4.5360 HESTER -0.2218
-4.5360 HETAL -0.2218
-4.5360 HETTY -0.2218
-4.5360 HEULWEN -0.2218
-4.5360 HIBA -0.2218
-4.5360 HIBAH -0.2218
-4.5360 HIFSA -0.2218
-4.5360 HILARY -0.2218
-4.5360 HINA -0.2218
-4.5360 HINNA -0.2218
-4.5360 HIRA -0.2218
-4.5360 HIRAM -0.2218
-4.5360 HIRAN -0.2218
-4.5360 HIREN -0.2218
-4.5360 HIRRA -0.2218
-4.5360 HISHAAM -0.2218
-4.5360 HISHAM -0.2218
-4.5360 HITEN -0.2218
-4.5360 HO -0.2218
-4.5360 HODA -0.2218
-4.5360 HODAN -0.2218
-4.5360 HOLLI -0.2218
-4.5360 HOLLIE -0.2218
-4.5360 HOLLY -0.2218
-4.5360 HOLLY-ANN -0.2218
-4.5360 HONEY -0.2218
-4.5360 HONOR -0.2218
-4.5360 HOPE -0.2218
-4.5360 HORATIO -0.2218
-4.5360 HOWARD -0.2218
-4.5360 HUBERT -0.2218
-4.5360 HUDA -0.2218
-4.5360 HUGH -0.2218
-4.5360 HUGO -0.2218
-4.5360 HUMA -0.2218
-4.5360 HUMAIRA -0.2218
-4.5360 HUMAIRAA -0.2218
-4.5360 HUMAIRAH -0.2218
-4.5360 HUMAYRA -0.2218
-4.5360 HUMAYRAA -0.2218
-4.5360 HUMERA -0.2218
-4.5360 HUMZA -0.2218
-4.5360 HUMZAH -0.2218
-4.5360 HUNTER -0.2218
-4.5360 HUSAIN -0.2218
-4.5360 HUSAM -0.2218
-4.5360 HUSEYIN -0.2218
-4.5360 HUSNA -0.2218
-4.5360 HUSNAIN -0.2218
-4.5360 HUSSAIN -0.2218
-4.5360 HUSSAN -0.2218
-4.5360 HUSSEIN -0.2218
-4.5360 HUSSNAIN -0.2218
-4.5360 HUW -0.2218
-4.5360 HUY -0.2218
-4.5360 HUZAIFA -0.2218
-4.5360 HUZAIFAH -0.2218
-4.5360 HYWEL -0.2218
-4.5360 IAIN -0.2218
-4.5360 IAN -0.2218
-4.5360 IANTO -0.2218
-4.5360 IBRAHEEM -0.2218
-4.5360 IBRAHIM -0.2218
-4.5360 IBRAR -0.2218
-4.5360 IDIL -0.2218
-4.5360 IDREES -0.2218
-4.5360 IDRIS -0.2218
-4.5360 IESHA -0.2218
-4.5360 IESTYN -0.2218
-4.5360 IEUAN -0.2218
-4.5360 IFAN -0.2218
-4.5360 IFEOLUWA -0.2218
-4.5360 IFEOMA -0.2218
-4.5360 IFRA -0.2218
-4.5360 IFRAH -0.2218
-4.5360 IHSAAN -0.2218
-4.5360 IHSAN -0.2218
-4.5360 IHTISHAAM -0.2218
-4.5360 IHTISHAM -0.2218
-4.5360 IKE -0.2218
-4.5360 IKECHUKWU -0.2218
-4.5360 IKENNA -0.2218
-4.5360 IKRA -0.2218
-4.5360 IKRAA -0.2218
-4.5360 IKRAH -0.2218
-4.2350 IKRAM -0.2218
-4.5360 ILANA -0.2218
-4.5360 ILAYDA -0.2218
-4.5360 ILIAS -0.2218
-4.5360 ILONA -0.2218
-4.5360 ILYAS -0.2218
-4.5360 IMAAD -0.2218
-4.2350 IMAAN -0.2218
-4.5360 IMAD -0.2218
-4.5360 IMAM -0.2218
-4.2350 IMAN -0.2218
-4.2350 IMANI -0.2218
-4.5360 IMMANUEL -0.2218
-4.5360 IMMOGEN -0.2218
-4.5360 IMOGEN -0.2218
-4.5360 IMRAN -0.2218
-4.5360 IMTIYAZ -0.2218
-4.5360 INAAM -0.2218
-4.5360 INAYAH -0.2218
-4.5360 INDER -0.2218
-4.5360 INDERPAL -0.2218
-4.5360 INDIA -0.2218
-4.2350 INDIANA -0.2218
-4.5360 INDIANNA -0.2218
-4.5360 INDIGO -0.2218
-4.5360 INDYA -0.2218
-4.5360 INES -0.2218
-4.5360 INGRID -0.2218
-4.5360 INIGO -0.2218
-4.5360 INNES -0.2218
-4.5360 IOAN -0.2218
-4.5360 IOANNIS -0.2218
-4.5360 IOLA -0.2218
-4.5360 IOLO -0.2218
-4.5360 IONA -0.2218
-4.5360 IONE -0.2218
-4.5360 IQBAL -0.2218
-4.5360 IQRA -0.2218
-4.5360 IQRAA -0.2218
-4.5360 IQRAH -0.2218
-4.5360 IRAM -0.2218
-4.5360 IRENE -0.2218
-4.5360 IRFAN -0.2218
-4.5360 IRIS -0.2218
-4.5360 IRUM -0.2218
-4.2350 ISA -0.2218
-4.5360 ISAAC -0.2218
-4.5360 ISABEL -0.2218
-4.5360 ISABELLA -0.2218
-4.5360 ISABELLE -0.2218
-4.5360 ISADORA -0.2218
-4.5360 ISAIAH -0.2218
-4.5360 ISAM -0.2218
-4.5360 ISHA -0.2218
-4.5360 ISHAAQ -0.2218
-4.5360 ISHAN -0.2218
-4.5360 ISHAQ -0.2218
-4.5360 ISHBEL -0.2218
-4.5360 ISHMAEL -0.2218
-4.5360 ISHMAIL -0.2218
-4.5360 ISHRAT -0.2218
-4.5360 ISHTIAQ -0.2218
-4.5360 ISIAH -0.2218
-4.5360 ISIS -0.2218
-4.5360 ISLA -0.2218
-4.5360 ISLAM -0.2218
-4.5360 ISMA -0.2218
-4.5360 ISMAEEL -0.2218
-4.5360 ISMAEL -0.2218
-4.5360 ISMAIL -0.2218
-4.5360 ISMAY -0.2218
-4.5360 ISOBEL -0.2218
-4.5360 ISOBELLA -0.2218
-4.5360 ISOBELLE -0.2218
-4.5360 ISRA -0.2218
-4.5360 ISRAEL -0.2218
-4.5360 ISRAR -0.2218
-4.5360 ISSAC -0.2218
-4.5360 IVAN -0.2218
-4.5360 IVANA -0.2218
-4.5360 IVO -0.2218
-4.5360 IVY -0.2218
-4.5360 IWAN -0.2218
-4.5360 IZAAC -0.2218
-4.5360 IZAAK -0.2218
-4.5360 IZAAZ -0.2218
-4.5360 IZABELLA -0.2218
-4.5360 IZABELLE -0.2218
-4.5360 JABBAR -0.2218
-4.5360 JABIR -0.2218
-4.5360 JAC -0.2218
-4.5360 JACE -0.2218
-4.5360 JACEY -0.2218
-4.5360 JACINTA -0.2218
-4.5360 JACK -0.2218
-4.2350 JACKIE -0.2218
-4.5360 JACKSON -0.2218
-4.5360 JACKY -0.2218
-4.5360 JACOB -0.2218
-4.5360 JACQUE -0.2218
-4.5360 JACQUELINE -0.2218
-4.5360 JACQUES -0.2218
-4.5360 JACQUI -0.2218
-4.5360 JAD -0.2218
-4.5360 JADA -0.2218
-4.2350 JADE -0.2218
-4.5360 JADE-LOUISE -0.2218
-4.5360 JADE-MARIE -0.2218
-4.5360 JADEN -0.2218
-4.5360 JADENE -0.2218
-4.5360 JADESOLA -0.2218
-4.5360 JADIE -0.2218
-4.5360 JADINE -0.2218
-4.5360 JADON -0.2218
-4.5360 JAE -0.2218
-4.5360 JAGDEEP -0.2218
-4.5360 JAGJEEVAN -0.2218
-4.5360 JAGJIT -0.2218
-4.5360 JAGO -0.2218
-4.5360 JAGRAJ -0.2218
-4.5360 JAGROOP -0.2218
-4.5360 JAHANGIR -0.2218
-4.5360 JAHANZEB -0.2218
-4.5360 JAHID -0.2218
-4.5360 JAHMAL -0.2218
-4.5360 JAHMEL -0.2218
-4.2350 JAI -0.2218
-4.5360 JAIDE -0.2218
-4.5360 JAIDEEP -0.2218
-4.5360 JAIDEN -0.2218
-4.2350 JAIME -0.2218
-4.5360 JAIME-LEE -0.2218
-4.5360 JAIME-LEIGH -0.2218
-4.5360 JAIMEE -0.2218
-4.2350 JAIMIE -0.2218
-4.5360 JAIMIN -0.2218
-4.5360 JAIMINI -0.2218
-4.5360 JAINA -0.2218
-4.5360 JAK -0.2218
-4.5360 JAKE -0.2218
-4.5360 JAKIA -0.2218
-4.5360 JAKIR -0.2218
-4.5360 JAKOB -0.2218
-4.5360 JAKUB -0.2218
-4.5360 JALAL -0.2218
-4.5360 JAMAAL -0.2218
-4.5360 JAMAHL -0.2218
-4.5360 JAMAINE -0.2218
-4.5360 JAMAL -0.2218
-4.5360 JAMAR -0.2218
-4.5360 JAMEEL -0.2218
-4.5360 JAMEELAH -0.2218
-4.5360 JAMEL -0.2218
-4.5360 JAMES -0.2218
-4.5360 JAMESON -0.2218
-4.5360 JAMEY -0.2218
-4.2350 JAMIE -0.2218
-4.2350 JAMIE-LEE -0.2218
-4.5360 JAMIE-LEIGH -0.2218
-4.5360 JAMIELEE -0.2218
-4.5360 JAMIL -0.2218
-4.5360 JAMILA -0.2218
-4.5360 JAMILLA -0.2218
-4.5360 JAN -0.2218
-4.5360 JANA -0.2218
-4.5360 JANAID -0.2218
-4.5360 JANAY -0.2218
-4.5360 JANE -0.2218
-4.5360 JANELLE -0.2218
-4.5360 JANET -0.2218
-4.5360 JANICE -0.2218
-4.5360 JANIE -0.2218
-4.5360 JANINE -0.2218
-4.5360 JANKI -0.2218
-4.5360 JANNA -0.2218
-4.5360 JANNAH -0.2218
-4.5360 JANNAT -0.2218
-4.5360 JARAD -0.2218
-4.5360 JARED -0.2218
-4.5360 JARETH -0.2218
-4.5360 JARON -0.2218
-4.5360 JARRAD -0.2218
-4.5360 JARRED -0.2218
-4.5360 JARREN -0.2218
-4.5360 JARRET -0.2218
-4.5360 JARRETT -0.2218
-4.5360 JARROD -0.2218
-4.5360 JARRYD -0.2218
-4.5360 JARVIS -0.2218
-4.2350 JASDEEP -0.2218
-4.5360 JASKARAN -0.2218
-4.5360 JASKIRAN -0.2218
-4.5360 JASLEEN -0.2218
-4.5360 JASMEET -0.2218
-4.5360 JASMIN -0.2218
-4.5360 JASMINA -0.2218
-4.5360 JASMINDER -0.2218
-4.5360 JASMINE -0.2218
-4.5360 JASMYN -0.2218
-4.5360 JASNEET -0.2218
-4.5360 JASON -0.2218
-4.5360 JASPAL -0.2218
-4.5360 JASPER -0.2218
-4.2350 JASPREET -0.2218
-4.5360 JASRAJ -0.2218
-4.5360 JASWINDER -0.2218
-4.5360 JATINDER -0.2218
-4.5360 JAVAIRIA -0.2218
-4.5360 JAVAN -0.2218
-4.5360 JAVED -0.2218
-4.5360 JAVERIA -0.2218
-4.5360 JAVIER -0.2218
-4.5360 JAWAAD -0.2218
-4.5360 JAWAD -0.2218
-4.5360 JAWWAD -0.2218
-4.5360 JAXON -0.2218
-4.2350 JAY -0.2218
-4.5360 JAY-JAY -0.2218
-4.5360 JAYA -0.2218
-4.5360 JAYAN -0.2218
-4.5360 JAYCE -0.2218
-4.5360 JAYCEE -0.2218
-4.5360 JAYCIE -0.2218
-4.5360 JAYDA -0.2218
-4.5360 JAYDE -0.2218
-4.2350 JAYDEN -0.2218
-4.5360 JAYDENE -0.2218
-4.5360 JAYDN -0.2218
-4.5360 JAYDON -0.2218
-4.2350 JAYE -0.2218
-4.5360 JAYED -0.2218
-4.5360 JAYESH -0.2218
-4.5360 JAYKE -0.2218
-4.2350 JAYME -0.2218
-4.2350 JAYMEE -0.2218
-4.2350 JAYMIE -0.2218
-4.5360 JAYMIE-LEIGH -0.2218
-4.5360 JAYNA -0.2218
-4.5360 JAYNE -0.2218
-4.5360 JAYSON -0.2218
-4.5360 JAZ -0.2218
-4.5360 JAZMIN -0.2218
-4.5360 JAZMINE -0.2218
-4.5360 JAZMYN -0.2218
-4.2350 JAZZ -0.2218
-4.5360 JAZZMIN -0.2218
-4.2350 JEAN -0.2218
-4.5360 JEAN-JACQUES -0.2218
-4.5360 JEAN-LUC -0.2218
-4.5360 JEAN-PAUL -0.2218
-4.5360 JEANETTE -0.2218
-4.5360 JEANNIE -0.2218
-4.5360 JED -0.2218
-4.5360 JEDD -0.2218
-4.5360 JEDIAH -0.2218
-4.5360 JEDIDIAH -0.2218
-4.5360 JEEVAN -0.2218
-4.5360 JEFF -0.2218
-4.5360 JEFFERSON -0.2218
-4.5360 JEFFERY -0.2218
-4.5360 JEFFREY -0.2218
-4.5360 JELANI -0.2218
-4.5360 JEM -0.2218
-4.5360 JEMAINE -0.2218
-4.5360 JEMAL -0.2218
-4.5360 JEMILA -0.2218
-4.5360 JEMIMA -0.2218
-4.5360 JEMIMAH -0.2218
-4.5360 JEMMA -0.2218
-4.5360 JENA -0.2218
-4.5360 JENESSA -0.2218
-4.5360 JENIKA -0.2218
-4.5360 JENNA -0.2218
-4.5360 JENNI -0.2218
-4.5360 JENNIE -0.2218
-4.5360 JENNIFER -0.2218
-4.5360 JENNY -0.2218
-4.5360 JENS -0.2218
-4.5360 JENSEN -0.2218
-4.5360 JENSON -0.2218
-4.5360 JEORGIA -0.2218
-4.5360 JEREMIAH -0.2218
-4.5360 JEREMY -0.2218
-4.5360 JERMAIN -0.2218
-4.5360 JERMAINE -0.2218
-4.5360 JEROME -0.2218
-4.2350 JERRY -0.2218
-4.5360 JESAMINE -0.2218
-4.2350 JESS -0.2218
-4.5360 JESSAMINE -0.2218
-4.5360 JESSAMY -0.2218
-4.2350 JESSE -0.2218
-4.5360 JESSI -0.2218
-4.5360 JESSICA -0.2218
-4.5360 JESSICCA -0.2218
-4.2350 JESSIE -0.2218
-4.5360 JESSIKA -0.2218
-4.5360 JESSY -0.2218
-4.5360 JETHRO -0.2218
-4.5360 JEVAN -0.2218
-4.5360 JEVON -0.2218
-4.5360 JEYDA -0.2218
-4.5360 JEZ -0.2218
-4.5360 JIA -0.2218
-4.5360 JIBRAN -0.2218
-4.5360 JIBRIL -0.2218
-4.5360 JILL -0.2218
-4.5360 JILLIAN -0.2218
-4.5360 JILLY -0.2218
-4.5360 JIM -0.2218
-4.5360 JIMI -0.2218
-4.5360 JIMMIE -0.2218
-4.5360 JIMMY -0.2218
-4.5360 JITEN -0.2218
-4.5360 JIVAN -0.2218
-4.2350 JO -0.2218
-4.5360 JOAB -0.2218
-4.5360 JOACHIM -0.2218
-4.5360 JOAN -0.2218
-4.5360 JOANNA -0.2218
-4.5360 JOANNE -0.2218
-4.5360 JOAO -0.2218
-4.5360 JOBE -0.2218
-4.5360 JOBIE -0.2218
-4.5360 JOBY -0.2218
-4.2350 JOCELYN -0.2218
-4.2350 JODI -0.2218
-4.5360 JODIE -0.2218
-4.5360 JODIE-LEE -0.2218
-4.5360 JODIE-LEIGH -0.2218
-4.2350 JODY -0.2218
-4.5360 JOE -0.2218
-4.5360 JOEL -0.2218
-4.5360 JOELLE -0.2218
-4.5360 JOELY -0.2218
-4.5360 JOESPH -0.2218
-4.5360 JOEY -0.2218
-4.5360 JOHAN -0.2218
-4.5360 JOHANN -0.2218
-4.5360 JOHANNA -0.2218
-4.5360 JOHANNES -0.2218
-4.5360 JOHN -0.2218
-4.5360 JOHN-LUKE -0.2218
-4.5360 JOHN-PAUL -0.2218
-4.5360 JOHNATHAN -0.2218
-4.5360 JOHNATHON -0.2218
-4.5360 JOHNNIE -0.2218
-4.5360 JOHNNY -0.2218
-4.5360 JOHNSON -0.2218
-4.5360 JOLENE -0.2218
-4.5360 JOLIE -0.2218
-4.5360 JOLON -0.2218
-4.5360 JOLYON -0.2218
-4.5360 JON -0.2218
-4.5360 JON-LUC -0.2218
-4.5360 JON-PAUL -0.2218
-4.5360 JONAH -0.2218
-4.5360 JONAS -0.2218
-4.5360 JONATHAN -0.2218
-4.5360 JONATHON -0.2218
-4.5360 JONI -0.2218
-4.5360 JONJO -0.2218
-4.5360 JONNY -0.2218
-4.5360 JONOTHAN -0.2218
-4.5360 JONTY -0.2218
-4.5360 JOOLS -0.2218
-4.2350 JORDAN -0.2218
-4.5360 JORDAN-LEE -0.2218
-4.5360 JORDANA -0.2218
-4.5360 JORDANE -0.2218
-4.5360 JORDANN -0.2218
-4.5360 JORDANNA -0.2218
-4.5360 JORDANNE -0.2218
-4.2350 JORDEN -0.2218
-4.5360 JORDI -0.2218
-4.2350 JORDON -0.2218
-4.5360 JORDY -0.2218
-4.5360 JORDYN -0.2218
-4.5360 JORGE -0.2218
-4.5360 JORGIE -0.2218
-4.5360 JORJA -0.2218
-4.5360 JORY -0.2218
-4.5360 JOSE -0.2218
-4.5360 JOSEF -0.2218
-4.5360 JOSEFF -0.2218
-4.5360 JOSEPH -0.2218
-4.5360 JOSEPHINE -0.2218
-4.5360 JOSH -0.2218
-4.5360 JOSHAN -0.2218
-4.5360 JOSHUA -0.2218
-4.5360 JOSHUA-JAMES -0.2218
-4.5360 JOSHUAH -0.2218
-4.5360 JOSIAH -0.2218
-4.5360 JOSIE -0.2218
-4.5360 JOSS -0.2218
-4.5360 JOTHAM -0.2218
-4.5360 JOURDAN -0.2218
-4.5360 JOVAN -0.2218
-4.5360 JOVI -0.2218
-4.5360 JOY -0.2218
-4.5360 JOYCE -0.2218
-4.5360 JOZEF -0.2218
-4.5360 JUAN -0.2218
-4.5360 JUANITA -0.2218
-4.5360 JUDAH -0.2218
-4.5360 JUDD -0.2218
-4.2350 JUDE -0.2218
-4.5360 JUDITH -0.2218
-4.5360 JUDY -0.2218
-4.5360 JULES -0.2218
-4.5360 JULIA -0.2218
-4.5360 JULIAN -0.2218
-4.5360 JULIANA -0.2218
-4.5360 JULIANNE -0.2218
-4.5360 JULIE -0.2218
-4.5360 JULIEN -0.2218
-4.5360 JULIET -0.2218
-4.5360 JULIETTE -0.2218
-4.5360 JULIUS -0.2218
-4.5360 JUN -0.2218
-4.5360 JUNAID -0.2218
-4.5360 JUNED -0.2218
-4.5360 JUNIOR -0.2218
-4.2350 JUSTICE -0.2218
-4.5360 JUSTIN -0.2218
-4.5360 JUSTINA -0.2218
-4.5360 JUSTINE -0.2218
-4.5360 JUSTUS -0.2218
-4.5360 JYOTI -0.2218
-4.2350 KA -0.2218
-4.5360 KAAN -0.2218
-4.5360 KAASHIF -0.2218
-4.5360 KABIR -0.2218
-4.2350 KACEY -0.2218
-4.5360 KACIE -0.2218
-4.5360 KADE -0.2218
-4.5360 KADEEM -0.2218
-4.5360 KADIE -0.2218
-4.5360 KADIR -0.2218
-4.5360 KADY -0.2218
-4.5360 KAELAN -0.2218
-4.5360 KAELEM -0.2218
-4.2350 KAI -0.2218
-4.5360 KAIA -0.2218
-4.5360 KAILAN -0.2218
-4.5360 KAILEM -0.2218
-4.5360 KAILEN -0.2218
-4.5360 KAILUM -0.2218
-4.5360 KAIN -0.2218
-4.5360 KAINAAT -0.2218
-4.5360 KAINAT -0.2218
-4.5360 KAINE -0.2218
-4.5360 KAIRO -0.2218
-4.5360 KAIS -0.2218
-4.5360 KAISHA -0.2218
-4.5360 KAITLAN -0.2218
-4.5360 KAITLIN -0.2218
-4.5360 KAITLYN -0.2218
-4.5360 KAIYA -0.2218
-4.5360 KAJ -0.2218
-4.5360 KAJAL -0.2218
-4.5360 KAJOL -0.2218
-4.5360 KALA -0.2218
-4.5360 KALAN -0.2218
-4.5360 KALEB -0.2218
-4.5360 KALEEM -0.2218
-4.5360 KALEIGH -0.2218
-4.5360 KALEM -0.2218
-4.5360 KALEN -0.2218
-4.5360 KALEY -0.2218
-4.5360 KALI -0.2218
-4.5360 KALIB -0.2218
-4.5360 KALILA -0.2218
-4.5360 KALIM -0.2218
-4.5360 KALISHA -0.2218
-4.5360 KALLAM -0.2218
-4.5360 KALLAN -0.2218
-4.5360 KALLIE -0.2218
-4.5360 KALLUM -0.2218
-4.5360 KALON -0.2218
-4.5360 KALUM -0.2218
-4.5360 KALVIN -0.2218
-4.5360 KAMAAL -0.2218
-4.5360 KAMAL -0.2218
-4.5360 KAMAR -0.2218
-4.5360 KAMARA -0.2218
-4.5360 KAMEN -0.2218
-4.5360 KAMERON -0.2218
-4.5360 KAMIL -0.2218
-4.5360 KAMILAH -0.2218
-4.5360 KAMRAAN -0.2218
-4.5360 KAMRAN -0.2218
-4.5360 KAMRON -0.2218
-4.5360 KAMRUL -0.2218
-4.5360 KANE -0.2218
-4.5360 KANISHA -0.2218
-4.5360 KAPIL -0.2218
-4.5360 KARA -0.2218
-4.5360 KARAM -0.2218
-4.5360 KARAN -0.2218
-4.5360 KARANDEEP -0.2218
-4.5360 KARANVEER -0.2218
-4.5360 KAREEM -0.2218
-4.5360 KAREL -0.2218
-4.5360 KAREN -0.2218
-4.5360 KARENA -0.2218
-4.5360 KARIM -0.2218
-4.5360 KARIN -0.2218
-4.5360 KARINA -0.2218
-4.5360 KARIS -0.2218
-4.5360 KARISHMA -0.2218
-4.5360 KARISMA -0.2218
-4.5360 KARL -0.2218
-4.5360 KARLA -0.2218
-4.5360 KARLEY -0.2218
-4.5360 KARLIE -0.2218
-4.5360 KARLY -0.2218
-4.5360 KARN -0.2218
-4.5360 KARRIE -0.2218
-4.5360 KARUN -0.2218
-4.5360 KARYN -0.2218
-4.5360 KASAM -0.2218
-4.2350 KASEY -0.2218
-4.5360 KASH -0.2218
-4.5360 KASHIF -0.2218
-4.5360 KASIA -0.2218
-4.5360 KASIM -0.2218
-4.5360 KASSIE -0.2218
-4.5360 KASSIM -0.2218
-4.5360 KATARINA -0.2218
-4.5360 KATE -0.2218
-4.5360 KATELYN -0.2218
-4.5360 KATERINA -0.2218
-4.5360 KATEY -0.2218
-4.5360 KATHARINE -0.2218
-4.5360 KATHERINE -0.2218
-4.5360 KATHERYN -0.2218
-4.5360 KATHLEEN -0.2218
-4.5360 KATHRINE -0.2218
-4.5360 KATHRYN -0.2218
-4.5360 KATHY -0.2218
-4.5360 KATIA -0.2218
-4.5360 KATIE -0.2218
-4.5360 KATIE-ANN -0.2218
-4.5360 KATIE-JANE -0.2218
-4.5360 KATIE-LOUISE -0.2218
-4.5360 KATIE-MARIE -0.2218
-4.5360 KATJA -0.2218
-4.5360 KATRIN -0.2218
-4.5360 KATRINA -0.2218
-4.5360 KATRIONA -0.2218
-4.5360 KATY -0.2218
-4.5360 KATYA -0.2218
-4.5360 KAUSAR -0.2218
-4.5360 KAVAN -0.2218
-4.5360 KAVI -0.2218
-4.5360 KAVITA -0.2218
-4.5360 KAY -0.2218
-4.2350 KAYA -0.2218
-4.5360 KAYDEN -0.2218
-4.5360 KAYLA -0.2218
-4.5360 KAYLAN -0.2218
-4.5360 KAYLEE -0.2218
-4.5360 KAYLEIGH -0.2218
-4.5360 KAYLEIGH-ANNE -0.2218
-4.5360 KAYLEM -0.2218
-4.5360 KAYLEN -0.2218
-4.5360 KAYLEY -0.2218
-4.5360 KAYLIE -0.2218
-4.5360 KAYLIEGH -0.2218
-4.5360 KAYLUM -0.2218
-4.5360 KAYLUN -0.2218
-4.5360 KAYNE -0.2218
-4.5360 KAYSHA -0.2218
-4.2350 KAZI -0.2218
-4.5360 KAZIA -0.2218
-4.5360 KAZIM -0.2218
-4.5360 KAZUKI -0.2218
-4.5360 KEAGAN -0.2218
-4.5360 KEAH -0.2218
-4.5360 KEALAN -0.2218
-4.5360 KEALEY -0.2218
-4.5360 KEANA -0.2218
-4.5360 KEANE -0.2218
-4.5360 KEANNA -0.2218
-4.5360 KEANO -0.2218
-4.5360 KEANU -0.2218
-4.5360 KEARA -0.2218
-4.5360 KEARON -0.2218
-4.5360 KEATON -0.2218
-4.5360 KEEGAN -0.2218
-4.5360 KEELAN -0.2218
-4.5360 KEELEIGH -0.2218
-4.5360 KEELEY -0.2218
-4.5360 KEELIE -0.2218
-4.5360 KEELY -0.2218
-4.5360 KEENAN -0.2218
-4.5360 KEESHA -0.2218
-4.5360 KEGAN -0.2218
-4.2350 KEHINDE -0.2218
-4.5360 KEIFER -0.2218
-4.5360 KEIGHLEY -0.2218
-4.5360 KEILAN -0.2218
-4.5360 KEIR -0.2218
-4.5360 KEIRA -0.2218
-4.5360 KEIRAN -0.2218
-4.5360 KEIREN -0.2218
-4.5360 KEIRON -0.2218
-4.5360 KEISHA -0.2218
-4.5360 KEITH -0.2218
-4.5360 KELAN -0.2218
-4.5360 KELCIE -0.2218
-4.5360 KELEIGH -0.2218
-4.5360 KELLAN -0.2218
-4.5360 KELLEN -0.2218
-4.5360 KELLEY -0.2218
-4.5360 KELLI -0.2218
-4.5360 KELLIE -0.2218
-4.5360 KELLY -0.2218
-4.5360 KELLY-ANN -0.2218
-4.5360 KELLY-ANNE -0.2218
-4.5360 KELLY-MARIE -0.2218
-4.5360 KELSEA -0.2218
-4.2350 KELSEY -0.2218
-4.5360 KELSI -0.2218
-4.5360 KELSIE -0.2218
-4.5360 KELVIN -0.2218
-4.5360 KEMAL -0.2218
-4.5360 KEN -0.2218
-4.5360 KENAN -0.2218
-4.2350 KENDAL -0.2218
-4.5360 KENDALL -0.2218
-4.5360 KENDELL -0.2218
-4.5360 KENDRA -0.2218
-4.5360 KENNA -0.2218
-4.5360 KENNADY -0.2218
-4.2350 KENNEDY -0.2218
-4.5360 KENNETH -0.2218
-4.5360 KENNY -0.2218
-4.5360 KENT -0.2218
-4.5360 KENTON -0.2218
-4.5360 KENYA -0.2218
-4.5360 KENZIE -0.2218
-4.5360 KEON -0.2218
-4.5360 KEREM -0.2218
-4.5360 KEREN -0.2218
-4.5360 KERENSA -0.2218
-4.5360 KERENZA -0.2218
-4.5360 KERI -0.2218
-4.5360 KERIM -0.2218
-4.5360 KERN -0.2218
-4.5360 KERRI -0.2218
-4.5360 KERRIE -0.2218
-4.5360 KERRIN -0.2218
-4.5360 KERRIS -0.2218
-4.2350 KERRY -0.2218
-4.5360 KERRY-ANN -0.2218
-4.5360 KERRY-ANNE -0.2218
-4.5360 KERRYN -0.2218
-4.5360 KERSTIN -0.2218
-4.5360 KERYS -0.2218
-4.5360 KESHAV -0.2218
-4.5360 KESHIA -0.2218
-4.5360 KESTER -0.2218
-4.5360 KETAN -0.2218
-4.5360 KEVAL -0.2218
-4.5360 KEVAN -0.2218
-4.5360 KEVIN -0.2218
-4.5360 KEYLEIGH -0.2218
-4.5360 KEZIA -0.2218
-4.5360 KEZIAH -0.2218
-4.5360 KHADEEJA -0.2218
-4.5360 KHADEEJAH -0.2218
-4.5360 KHADEJA -0.2218
-4.5360 KHADIJA -0.2218
-4.5360 KHADIJAH -0.2218
-4.5360 KHADIZA -0.2218
-4.5360 KHAI -0.2218
-4.5360 KHALED -0.2218
-4.5360 KHALEEL -0.2218
-4.5360 KHALID -0.2218
-4.5360 KHALIL -0.2218
-4.5360 KHAN -0.2218
-4.5360 KHARI -0.2218
-4.5360 KHIZAR -0.2218
-4.5360 KHIZER -0.2218
-4.5360 KHLOE -0.2218
-4.5360 KHURAM -0.2218
-4.5360 KHURUM -0.2218
-4.5360 KHUSHAL -0.2218
-4.5360 KI -0.2218
-4.2350 KIA -0.2218
-4.5360 KIAH -0.2218
-4.5360 KIAL -0.2218
-4.5360 KIALL -0.2218
-4.5360 KIAN -0.2218
-4.5360 KIANA -0.2218
-4.5360 KIANNA -0.2218
-4.5360 KIARA -0.2218
-4.5360 KIARAN -0.2218
-4.5360 KIAYA -0.2218
-4.5360 KIE -0.2218
-4.5360 KIEFER -0.2218
-4.5360 KIER -0.2218
-4.5360 KIERA -0.2218
-4.5360 KIERAN -0.2218
-4.5360 KIEREN -0.2218
-4.5360 KIERIAN -0.2218
-4.5360 KIERON -0.2218
-4.5360 KIERRA -0.2218
-4.5360 KIERRAN -0.2218
-4.5360 KILE -0.2218
-4.5360 KILIAN -0.2218
-4.5360 KILLIAN -0.2218
-4.2350 KIM -0.2218
-4.5360 KIMBERLEY -0.2218
-4.5360 KIMBERLY -0.2218
-4.5360 KIN -0.2218
-4.5360 KINGSLEY -0.2218
-4.5360 KINZA -0.2218
-4.5360 KIRA -0.2218
-4.2350 KIRAN -0.2218
-4.5360 KIRANDEEP -0.2218
-4.5360 KIRANJIT -0.2218
-4.5360 KIRANPREET -0.2218
-4.5360 KIRBIE -0.2218
-4.2350 KIRBY -0.2218
-4.5360 KIREN -0.2218
-4.5360 KIRI -0.2218
-4.5360 KIRK -0.2218
-4.5360 KIRON -0.2218
-4.5360 KIRSTEN -0.2218
-4.5360 KIRSTI -0.2218
-4.5360 KIRSTIE -0.2218
-4.5360 KIRSTIN -0.2218
-4.5360 KIRSTY -0.2218
-4.5360 KIRSTYN -0.2218
-4.5360 KISHAN -0.2218
-4.5360 KISHEN -0.2218
-4.5360 KIT -0.2218
-4.5360 KITTY -0.2218
-4.5360 KIYA -0.2218
-4.5360 KIZZY -0.2218
-4.5360 KLARA -0.2218
-4.5360 KLAY -0.2218
-4.5360 KLEIN -0.2218
-4.5360 KLINE -0.2218
-4.5360 KLOE -0.2218
-4.5360 KOBI -0.2218
-4.5360 KODIE -0.2218
-4.5360 KODY -0.2218
-4.5360 KOFI -0.2218
-4.5360 KOJO -0.2218
-4.5360 KOMAL -0.2218
-4.5360 KONNA -0.2218
-4.5360 KONNER -0.2218
-4.5360 KONNOR -0.2218
-4.5360 KONRAD -0.2218
-4.5360 KORAY -0.2218
-4.5360 KOREN -0.2218
-4.5360 KOREY -0.2218
-4.5360 KORI -0.2218
-4.5360 KORY -0.2218
-4.5360 KOURTNEY -0.2218
-4.5360 KRIS -0.2218
-4.5360 KRISHAN -0.2218
-4.2350 KRISHNA -0.2218
-4.5360 KRISTA -0.2218
-4.5360 KRISTAL -0.2218
-4.2350 KRISTEN -0.2218
-4.5360 KRISTI -0.2218
-4.5360 KRISTIAN -0.2218
-4.5360 KRISTIANA -0.2218
-4.5360 KRISTIE -0.2218
-4.5360 KRISTIN -0.2218
-4.5360 KRISTINA -0.2218
-4.5360 KRISTINE -0.2218
-4.5360 KRISTOFER -0.2218
-4.5360 KRISTOFFER -0.2218
-4.5360 KRISTOPHER -0.2218
-4.5360 KRISTY -0.2218
-4.5360 KRUPA -0.2218
-4.5360 KRYSTAL -0.2218
-4.5360 KRYSTINA -0.2218
-4.5360 KRYSTYNA -0.2218
-4.5360 KUBRA -0.2218
-4.5360 KULSOOM -0.2218
-4.5360 KULSUM -0.2218
-4.5360 KULSUMA -0.2218
-4.5360 KUNAL -0.2218
-4.5360 KURAN -0.2218
-4.5360 KURRAN -0.2218
-4.5360 KURT -0.2218
-4.5360 KURTIS -0.2218
-4.5360 KUSH -0.2218
-4.5360 KUSHAL -0.2218
-4.5360 KWABENA -0.2218
-4.5360 KWAKU -0.2218
-4.5360 KWAME -0.2218
-4.5360 KWOK -0.2218
-4.5360 KYA -0.2218
-4.5360 KYAH -0.2218
-4.5360 KYAL -0.2218
-4.5360 KYAN -0.2218
-4.5360 KYE -0.2218
-4.5360 KYLA -0.2218
-4.5360 KYLAN -0.2218
-4.5360 KYLE -0.2218
-4.5360 KYLER -0.2218
-4.5360 KYLIE -0.2218
-4.5360 KYM -0.2218
-4.5360 KYMBERLEY -0.2218
-4.5360 KYNA -0.2218
-4.5360 KYNAN -0.2218
-4.5360 KYRA -0.2218
-4.5360 KYRAN -0.2218
-4.5360 KYRIACOS -0.2218
-4.5360 KYRON -0.2218
-4.5360 LABIB -0.2218
-4.5360 LACE -0.2218
-4.5360 LACEY -0.2218
-4.5360 LACHLAN -0.2218
-4.5360 LACIE -0.2218
-4.5360 LAILA -0.2218
-4.5360 LAINA -0.2218
-4.5360 LAINE -0.2218
-4.5360 LAITH -0.2218
-4.5360 LAKEISHA -0.2218
-4.5360 LAKSHMI -0.2218
-4.5360 LAMAR -0.2218
-4.5360 LAMIN -0.2218
-4.5360 LANA -0.2218
-4.5360 LANCE -0.2218
-4.5360 LANE -0.2218
-4.5360 LARA -0.2218
-4.5360 LARAIB -0.2218
-4.5360 LARISA -0.2218
-4.5360 LARISSA -0.2218
-4.5360 LARRY -0.2218
-4.5360 LARS -0.2218
-4.5360 LATASHA -0.2218
-4.5360 LATIF -0.2218
-4.5360 LATIFAH -0.2218
-4.5360 LATISHA -0.2218
-4.5360 LAURA -0.2218
-4.5360 LAURA-BETH -0.2218
-4.5360 LAURA-JANE -0.2218
-4.5360 LAURA-JAYNE -0.2218
-4.5360 LAURAN -0.2218
-4.5360 LAUREL -0.2218
-4.5360 LAUREN -0.2218
-4.5360 LAURENCE -0.2218
-4.5360 LAURENS -0.2218
-4.5360 LAURENT -0.2218
-4.2350 LAURIE -0.2218
-4.5360 LAURISSA -0.2218
-4.5360 LAURYN -0.2218
-4.5360 LAVINIA -0.2218
-4.5360 LAWRENCE -0.2218
-4.5360 LAWRIE -0.2218
-4.5360 LAWSON -0.2218
-4.5360 LAYLA -0.2218
-4.5360 LAYNE -0.2218
-4.5360 LAYTON -0.2218
-4.5360 LEA -0.2218
-4.5360 LEAH -0.2218
-4.5360 LEAM -0.2218
-4.5360 LEANA -0.2218
-4.5360 LEANN -0.2218
-4.5360 LEANNA -0.2218
-4.5360 LEANNE -0.2218
-4.2350 LEE -0.2218
-4.5360 LEEANN -0.2218
-4.5360 LEEANNE -0.2218
-4.5360 LEENA -0.2218
-4.5360 LEIA -0.2218
-4.5360 LEIF -0.2218
-4.2350 LEIGH -0.2218
-4.5360 LEIGH-ANN -0.2218
-4.5360 LEIGH-ANNE -0.2218
-4.5360 LEIGHA -0.2218
-4.5360 LEIGHANN -0.2218
-4.5360 LEIGHANNE -0.2218
-4.5360 LEIGHTON -0.2218
-4.5360 LEILA -0.2218
-4.5360 LEILAH -0.2218
-4.5360 LEISHA -0.2218
-4.5360 LEMAR -0.2218
-4.5360 LENA -0.2218
-4.5360 LENNIE -0.2218
-4.5360 LENNON -0.2218
-4.5360 LENNOX -0.2218
-4.5360 LENNY -0.2218
-4.5360 LEO -0.2218
-4.5360 LEON -0.2218
-4.5360 LEONA -0.2218
-4.5360 LEONARD -0.2218
-4.5360 LEONARDO -0.2218
-4.5360 LEONI -0.2218
-4.5360 LEONIE -0.2218
-4.5360 LEONNIE -0.2218
-4.5360 LEONORA -0.2218
-4.5360 LEROY -0.2218
-4.5360 LESLEY -0.2218
-4.5360 LESLIE -0.2218
-4.5360 LESTER -0.2218
-4.5360 LETICIA -0.2218
-4.5360 LETISHA -0.2218
-4.5360 LETITIA -0.2218
-4.5360 LEVENT -0.2218
-4.2350 LEVI -0.2218
-4.5360 LEWES -0.2218
-4.5360 LEWIS -0.2218
-4.5360 LEWYS -0.2218
-4.5360 LEYLA -0.2218
-4.5360 LEYTON -0.2218
-4.5360 LIA -0.2218
-4.5360 LIAH -0.2218
-4.5360 LIAM -0.2218
-4.5360 LIAN -0.2218
-4.5360 LIANA -0.2218
-4.5360 LIANE -0.2218
-4.5360 LIANNA -0.2218
-4.5360 LIANNE -0.2218
-4.5360 LIBAN -0.2218
-4.5360 LIBBIE -0.2218
-4.5360 LIBBY -0.2218
-4.5360 LIBERTY -0.2218
-4.5360 LIDIA -0.2218
-4.5360 LIIBAN -0.2218
-4.5360 LILA -0.2218
-4.5360 LILI -0.2218
-4.5360 LILIA -0.2218
-4.5360 LILIAN -0.2218
-4.5360 LILIANA -0.2218
-4.5360 LILITH -0.2218
-4.5360 LILLI -0.2218
-4.5360 LILLIAN -0.2218
-4.5360 LILLIE -0.2218
-4.5360 LILLY -0.2218
-4.5360 LILY -0.2218
-4.5360 LILY-ANN -0.2218
-4.5360 LILY-ANNE -0.2218
-4.5360 LILY-MAY -0.2218
-4.5360 LINA -0.2218
-4.5360 LINCOLN -0.2218
-4.5360 LINDA -0.2218
-4.5360 LINDEN -0.2218
-4.5360 LINDON -0.2218
-4.5360 LINDSAY -0.2218
-4.5360 LINDSEY -0.2218
-4.5360 LINFORD -0.2218
-4.5360 LINSEY -0.2218
-4.5360 LINUS -0.2218
-4.5360 LINZI -0.2218
-4.5360 LIONEL -0.2218
-4.5360 LISA -0.2218
-4.5360 LISA-MARIE -0.2218
-4.5360 LISHA -0.2218
-4.5360 LIVIA -0.2218
-4.5360 LIYAH -0.2218
-4.5360 LIZA -0.2218
-4.5360 LIZZIE -0.2218
-4.5360 LLEWELLYN -0.2218
-4.5360 LLEWELYN -0.2218
-4.5360 LLIAM -0.2218
-4.5360 LLINOS -0.2218
-4.5360 LLION -0.2218
-4.5360 LLOYD -0.2218
-4.5360 LLYR -0.2218
-4.5360 LLYWELYN -0.2218
-4.5360 LOGAN -0.2218
-4.5360 LOIC -0.2218
-4.5360 LOIS -0.2218
-4.5360 LOLA -0.2218
-4.5360 LORA -0.2218
-4.5360 LORAN -0.2218
-4.5360 LORCAN -0.2218
-4.5360 LORD -0.2218
-4.5360 LOREN -0.2218
-4.5360 LORENZO -0.2218
-4.5360 LORETTA -0.2218
-4.5360 LORI -0.2218
-4.5360 LORIEN -0.2218
-4.5360 LORNA -0.2218
-4.5360 LORRAINE -0.2218
-4.5360 LORREN -0.2218
-4.5360 LOTTE -0.2218
-4.5360 LOTTIE -0.2218
-4.5360 LOUI -0.2218
-4.5360 LOUIE -0.2218
-4.5360 LOUIS -0.2218
-4.5360 LOUISA -0.2218
-4.5360 LOUISE -0.2218
-4.5360 LOWELL -0.2218
-4.5360 LOWENA -0.2218
-4.5360 LOWRI -0.2218
-4.5360 LUBNA -0.2218
-4.5360 LUC -0.2218
-4.5360 LUCA -0.2218
-4.5360 LUCAS -0.2218
-4.5360 LUCI -0.2218
-4.5360 LUCIA -0.2218
-4.5360 LUCIAN -0.2218
-4.5360 LUCIANO -0.2218
-4.5360 LUCIE -0.2218
-4.5360 LUCIEN -0.2218
-4.5360 LUCILLE -0.2218
-4.5360 LUCINDA -0.2218
-4.5360 LUCUS -0.2218
-4.5360 LUCY -0.2218
-4.5360 LUCY-ANN -0.2218
-4.5360 LUCY-ANNE -0.2218
-4.5360 LUI -0.2218
-4.5360 LUIGI -0.2218
-4.5360 LUIS -0.2218
-4.5360 LUISA -0.2218
-4.5360 LUKA -0.2218
-4.5360 LUKAS -0.2218
-4.5360 LUKE -0.2218
-4.5360 LUQMAAN -0.2218
-4.5360 LUQMAN -0.2218
-4.5360 LUTHER -0.2218
-4.5360 LYALL -0.2218
-4.5360 LYDIA -0.2218
-4.5360 LYLE -0.2218
-4.5360 LYNDON -0.2218
-4.5360 LYNDSAY -0.2218
-4.5360 LYNDSEY -0.2218
-4.5360 LYNETTE -0.2218
-4.5360 LYNSEY -0.2218
-4.5360 LYNTON -0.2218
-4.5360 MAARIA -0.2218
-4.5360 MAARIYA -0.2218
-4.5360 MAARIYAH -0.2218
-4.5360 MABEL -0.2218
-4.5360 MAC -0.2218
-4.5360 MACAULAY -0.2218
-4.5360 MACAULEE -0.2218
-4.5360 MACAULEY -0.2218
-4.5360 MACAULLEY -0.2218
-4.5360 MACAULLY -0.2218
-4.5360 MACAULY -0.2218
-4.2350 MACKENZIE -0.2218
-4.5360 MACORLEY -0.2218
-4.5360 MACSEN -0.2218
-4.5360 MADALAINE -0.2218
-4.5360 MADDIE -0.2218
-4.5360 MADDISON -0.2218
-4.5360 MADEEHA -0.2218
-4.5360 MADELAINE -0.2218
-4.5360 MADELEINE -0.2218
-4.5360 MADELINE -0.2218
-4.5360 MADELYN -0.2218
-4.5360 MADIHA -0.2218
-4.5360 MADISON -0.2218
-4.5360 MAE -0.2218
-4.5360 MAEGAN -0.2218
-4.5360 MAEVE -0.2218
-4.5360 MAGDALENA -0.2218
-4.5360 MAGGIE -0.2218
-4.5360 MAGNUS -0.2218
-4.5360 MAHA -0.2218
-4.5360 MAHAD -0.2218
-4.5360 MAHAMED -0.2218
-4.5360 MAHAMMED -0.2218
-4.5360 MAHBUB -0.2218
-4.5360 MAHDI -0.2218
-4.5360 MAHER -0.2218
-4.5360 MAHFUZ -0.2218
-4.5360 MAHIR -0.2218
-4.5360 MAHMOOD -0.2218
-4.5360 MAHMOUD -0.2218
-4.5360 MAHMUDA -0.2218
-4.5360 MAHNOOR -0.2218
-4.5360 MAHOMED -0.2218
-4.5360 MAHUM -0.2218
-4.5360 MAI -0.2218
-4.5360 MAIA -0.2218
-4.5360 MAIR -0.2218
-4.5360 MAIRA -0.2218
-4.5360 MAIREAD -0.2218
-4.5360 MAIRI -0.2218
-4.5360 MAISHA -0.2218
-4.5360 MAISIE -0.2218
-4.5360 MAISON -0.2218
-4.5360 MAISY -0.2218
-4.5360 MAIZIE -0.2218
-4.5360 MAJA -0.2218
-4.5360 MAJED -0.2218
-4.5360 MAJID -0.2218
-4.5360 MAKEDA -0.2218
-4.5360 MAKENZIE -0.2218
-4.5360 MAKHAN -0.2218
-4.5360 MALACHI -0.2218
-4.5360 MALACHY -0.2218
-4.5360 MALAK -0.2218
-4.5360 MALCOLM -0.2218
-4.5360 MALEEHA -0.2218
-4.5360 MALEK -0.2218
-4.5360 MALIHA -0.2218
-4.5360 MALIK -0.2218
-4.5360 MALIKA -0.2218
-4.5360 MALIQUE -0.2218
-4.5360 MALKA -0.2218
-4.5360 MAN -0.2218
-4.5360 MANAV -0.2218
-4.2350 MANDEEP -0.2218
-4.5360 MANDY -0.2218
-4.5360 MANINDER -0.2218
-4.5360 MANISH -0.2218
-4.5360 MANISHA -0.2218
-4.5360 MANJINDER -0.2218
-4.5360 MANNAN -0.2218
-4.5360 MANOJ -0.2218
-4.5360 MANON -0.2218
-4.2350 MANPREET -0.2218
-4.5360 MANRAJ -0.2218
-4.5360 MANSOOR -0.2218
-4.5360 MANU -0.2218
-4.5360 MANUEL -0.2218
-4.5360 MANVEER -0.2218
-4.5360 MANVINDER -0.2218
-4.5360 MANVIR -0.2218
-4.5360 MARA -0.2218
-4.5360 MARC -0.2218
-4.5360 MARCEL -0.2218
-4.5360 MARCELL -0.2218
-4.5360 MARCELLA -0.2218
-4.5360 MARCELLO -0.2218
-4.5360 MARCIA -0.2218
-4.5360 MARCIN -0.2218
-4.5360 MARCO -0.2218
-4.5360 MARCOS -0.2218
-4.5360 MARCUS -0.2218
-4.5360 MARED -0.2218
-4.5360 MAREK -0.2218
-4.5360 MARGARET -0.2218
-4.5360 MARGOT -0.2218
-4.5360 MARI -0.2218
-4.5360 MARIA -0.2218
-4.5360 MARIAH -0.2218
-4.5360 MARIAM -0.2218
-4.5360 MARIAMA -0.2218
-4.5360 MARIAN -0.2218
-4.5360 MARIANA -0.2218
-4.5360 MARIANNA -0.2218
-4.5360 MARIANNE -0.2218
-4.5360 MARIE -0.2218
-4.5360 MARIELLA -0.2218
-4.5360 MARIKA -0.2218
-4.5360 MARINA -0.2218
-4.5360 MARIO -0.2218
-4.5360 MARION -0.2218
-4.5360 MARIOS -0.2218
-4.5360 MARISA -0.2218
-4.5360 MARISSA -0.2218
-4.5360 MARIUM -0.2218
-4.5360 MARIUS -0.2218
-4.5360 MARIYA -0.2218
-4.5360 MARIYAH -0.2218
-4.5360 MARIYAM -0.2218
-4.5360 MARJANA -0.2218
-4.5360 MARK -0.2218
-4.5360 MARKO -0.2218
-4.5360 MARKUS -0.2218
-4.5360 MARLA -0.2218
-4.2350 MARLEY -0.2218
-4.5360 MARLON -0.2218
-4.5360 MARNI -0.2218
-4.5360 MARNIE -0.2218
-4.5360 MARRIYAH -0.2218
-4.5360 MARSHA -0.2218
-4.5360 MARSHALL -0.2218
-4.5360 MARTA -0.2218
-4.5360 MARTELL -0.2218
-4.5360 MARTHA -0.2218
-4.5360 MARTI -0.2218
-4.5360 MARTIN -0.2218
-4.5360 MARTINA -0.2218
-4.5360 MARTINE -0.2218
-4.5360 MARTY -0.2218
-4.5360 MARTYN -0.2218
-4.5360 MARUF -0.2218
-4.5360 MARVIN -0.2218
-4.5360 MARWA -0.2218
-4.5360 MARWAN -0.2218
-4.5360 MARY -0.2218
-4.5360 MARY-ANN -0.2218
-4.5360 MARY-ANNE -0.2218
-4.5360 MARY-JANE -0.2218
-4.5360 MARYA -0.2218
-4.5360 MARYAM -0.2218
-4.5360 MARYAN -0.2218
-4.5360 MARYANN -0.2218
-4.5360 MARYANNE -0.2218
-4.5360 MARYUM -0.2218
-4.5360 MASON -0.2218
-4.5360 MASSIMO -0.2218
-4.5360 MASUD -0.2218
-4.5360 MASUMA -0.2218
-4.5360 MATHEW -0.2218
-4.5360 MATHIAS -0.2218
-4.5360 MATHILDA -0.2218
-4.5360 MATHILDE -0.2218
-4.5360 MATIAS -0.2218
-4.5360 MATILDA -0.2218
-4.5360 MATT -0.2218
-4.5360 MATTEO -0.2218
-4.5360 MATTHEW -0.2218
-4.5360 MATTHIAS -0.2218
-4.5360 MATTHIEU -0.2218
-4.5360 MAUREEN -0.2218
-4.5360 MAURICE -0.2218
-4.5360 MAVERICK -0.2218
-4.5360 MAX -0.2218
-4.5360 MAXIM -0.2218
-4.5360 MAXIME -0.2218
-4.5360 MAXIMILIAN -0.2218
-4.5360 MAXIMILIEN -0.2218
-4.5360 MAXIMILLIAN -0.2218
-4.5360 MAXINE -0.2218
-4.5360 MAXWELL -0.2218
-4.5360 MAY -0.2218
-4.5360 MAYA -0.2218
-4.5360 MAYANK -0.2218
-4.5360 MAYSON -0.2218
-4.5360 MAYUR -0.2218
-4.5360 MCAULEY -0.2218
-4.5360 MCCAULEY -0.2218
-4.5360 MCCAULLEY -0.2218
-4.5360 MCCAWLEY -0.2218
-4.5360 MCKENZIE -0.2218
-4.5360 MD -0.2218
-4.5360 MD. -0.2218
-4.5360 MEAGAN -0.2218
-4.5360 MEAGHAN -0.2218
-4.5360 MEENA -0.2218
-4.5360 MEERA -0.2218
-4.5360 MEG -0.2218
-4.5360 MEGAN -0.2218
-4.5360 MEGGAN -0.2218
-4.5360 MEGHAN -0.2218
-4.5360 MEGHANN -0.2218
-4.5360 MEHDI -0.2218
-4.5360 MEHMET -0.2218
-4.5360 MEHRAN -0.2218
-4.5360 MEHREEN -0.2218
-4.5360 MEHUL -0.2218
-4.5360 MEHVISH -0.2218
-4.5360 MEHWISH -0.2218
-4.5360 MELANIE -0.2218
-4.5360 MELINA -0.2218
-4.5360 MELINDA -0.2218
-4.5360 MELIS -0.2218
-4.5360 MELISA -0.2218
-4.5360 MELISSA -0.2218
-4.5360 MELIZ -0.2218
-4.5360 MELLISA -0.2218
-4.5360 MELLISSA -0.2218
-4.5360 MELODY -0.2218
-4.5360 MELVIN -0.2218
-4.5360 MENACHEM -0.2218
-4.5360 MENNA -0.2218
-4.5360 MERCEDES -0.2218
-4.5360 MERCY -0.2218
-4.5360 MEREDITH -0.2218
-4.5360 MERLIN -0.2218
-4.5360 MERRICK -0.2218
-4.5360 MERRYN -0.2218
-4.5360 MERT -0.2218
-4.5360 MERVE -0.2218
-4.5360 MERYEM -0.2218
-4.5360 MERYL -0.2218
-4.5360 MESHACH -0.2218
-4.5360 METIN -0.2218
-4.5360 MHAIRI -0.2218
-4.5360 MIA -0.2218
-4.5360 MIAH -0.2218
-4.5360 MICA -0.2218
-4.5360 MICAELA -0.2218
-4.5360 MICAH -0.2218
-4.5360 MICHA -0.2218
-4.5360 MICHAEL -0.2218
-4.5360 MICHAELA -0.2218
-4.5360 MICHAELLA -0.2218
-4.5360 MICHAL -0.2218
-4.5360 MICHEAL -0.2218
-4.5360 MICHEALA -0.2218
-4.5360 MICHELA -0.2218
-4.2350 MICHELE -0.2218
-4.5360 MICHELLE -0.2218
-4.5360 MICKEY -0.2218
-4.5360 MICKY -0.2218
-4.5360 MIGUEL -0.2218
-4.5360 MIHIR -0.2218
-4.5360 MIKAEL -0.2218
-4.5360 MIKAELA -0.2218
-4.5360 MIKAIL -0.2218
-4.5360 MIKAYLA -0.2218
-4.5360 MIKE -0.2218
-4.5360 MIKESH -0.2218
-4.5360 MIKEY -0.2218
-4.5360 MIKHAIL -0.2218
-4.5360 MILAD -0.2218
-4.2350 MILAN -0.2218
-4.5360 MILES -0.2218
-4.5360 MILLICENT -0.2218
-4.5360 MILLIE -0.2218
-4.5360 MILLY -0.2218
-4.5360 MILO -0.2218
-4.5360 MIMI -0.2218
-4.5360 MINA -0.2218
-4.5360 MINESH -0.2218
-4.5360 MINHAJ -0.2218
-4.5360 MIR -0.2218
-4.5360 MIRA -0.2218
-4.5360 MIRAJ -0.2218
-4.5360 MIRANDA -0.2218
-4.5360 MIRIAM -0.2218
-4.5360 MIRREN -0.2218
-4.5360 MIRZA -0.2218
-4.5360 MISBA -0.2218
-4.5360 MISBAH -0.2218
-4.5360 MISCHA -0.2218
-4.5360 MISHA -0.2218
-4.5360 MISTY -0.2218
-4.5360 MITCH -0.2218
-4.5360 MITCHEL -0.2218
-4.5360 MITCHELL -0.2218
-4.5360 MITEN -0.2218
-4.5360 MITESH -0.2218
-4.5360 MITUL -0.2218
-4.5360 MIZAN -0.2218
-4.5360 MOBEEN -0.2218
-4.5360 MOESHA -0.2218
-4.5360 MOHAMAD -0.2218
-4.5360 MOHAMED -0.2218
-4.5360 MOHAMMAD -0.2218
-4.5360 MOHAMMED -0.2218
-4.5360 MOHAMMMED -0.2218
-4.5360 MOHAMMOD -0.2218
-4.5360 MOHAMOD -0.2218
-4.5360 MOHD -0.2218
-4.5360 MOHEEN -0.2218
-4.5360 MOHIB -0.2218
-4.5360 MOHIMA -0.2218
-4.5360 MOHINI -0.2218
-4.5360 MOHIT -0.2218
-4.5360 MOHMED -0.2218
-4.5360 MOHMMED -0.2218
-4.5360 MOHSAN -0.2218
-4.5360 MOHSIN -0.2218
-4.5360 MOIN -0.2218
-4.5360 MOISHE -0.2218
-4.5360 MOIZ -0.2218
-4.5360 MOLLI -0.2218
-4.5360 MOLLIE -0.2218
-4.5360 MOLLY -0.2218
-4.5360 MOLLY-ANN -0.2218
-4.5360 MOMINA -0.2218
-4.5360 MONA -0.2218
-4.5360 MONEEB -0.2218
-4.5360 MONET -0.2218
-4.5360 MONICA -0.2218
-4.5360 MONIKA -0.2218
-4.5360 MONIQUE -0.2218
-4.5360 MONIRA -0.2218
-4.5360 MONISHA -0.2218
-4.5360 MONTAGUE -0.2218
-4.5360 MONTANA -0.2218
-4.5360 MONTEL -0.2218
-4.5360 MONTELL -0.2218
-4.5360 MONTGOMERY -0.2218
-4.5360 MONTY -0.2218
-4.5360 MOONISAH -0.2218
-4.5360 MORDECHAI -0.2218
-4.5360 MORENIKE -0.2218
-4.2350 MORGAN -0.2218
-4.5360 MORRIS -0.2218
-4.5360 MORTIMER -0.2218
-4.5360 MORVEN -0.2218
-4.5360 MORWENNA -0.2218
-4.5360 MOSES -0.2218
-4.5360 MOSHE -0.2218
-4.5360 MOSTAFA -0.2218
-4.5360 MUBARAK -0.2218
-4.5360 MUBEEN -0.2218
-4.5360 MUDASSAR -0.2218
-4.5360 MUHAMAD -0.2218
-4.5360 MUHAMMAD -0.2218
-4.5360 MUHAMMED -0.2218
-4.5360 MUHAMMOD -0.2218
-4.5360 MUHIBUR -0.2218
-4.5360 MUHSIN -0.2218
-4.5360 MUJAHID -0.2218
-4.5360 MUJTABA -0.2218
-4.5360 MUKESH -0.2218
-4.5360 MUKHTAR -0.2218
-4.5360 MUMINAH -0.2218
-4.5360 MUNA -0.2218
-4.5360 MUNEEB -0.2218
-4.5360 MUNEEBA -0.2218
-4.5360 MUNEEBAH -0.2218
-4.5360 MUNIR -0.2218
-4.5360 MURAD -0.2218
-4.5360 MURAT -0.2218
-4.5360 MURRAY -0.2218
-4.5360 MURSHED -0.2218
-4.5360 MURTAZA -0.2218
-4.5360 MUSA -0.2218
-4.5360 MUSAMMAT -0.2218
-4.5360 MUSTAF -0.2218
-4.5360 MUSTAFA -0.2218
-4.5360 MUSTAPHA -0.2218
-4.5360 MUZZAMMIL -0.2218
-4.5360 MYA -0.2218
-4.5360 MYAH -0.2218
-4.5360 MYFANWY -0.2218
-4.5360 MYLES -0.2218
-4.5360 MYLO -0.2218
-4.5360 MYRA -0.2218
-4.5360 MYRON -0.2218
-4.5360 NABEEL -0.2218
-4.5360 NABEELA -0.2218
-4.5360 NABEELAH -0.2218
-4.5360 NABIEL -0.2218
-4.5360 NABIHA -0.2218
-4.5360 NABIL -0.2218
-4.5360 NABILA -0.2218
-4.5360 NABILAH -0.2218
-4.5360 NADA -0.2218
-4.5360 NADEEM -0.2218
-4.5360 NADIA -0.2218
-4.5360 NADIM -0.2218
-4.5360 NADINE -0.2218
-4.5360 NADIR -0.2218
-4.5360 NADIYA -0.2218
-4.5360 NADJA -0.2218
-4.5360 NADYA -0.2218
-4.5360 NAEEM -0.2218
-4.5360 NAEEMA -0.2218
-4.5360 NAFEES -0.2218
-4.5360 NAFEESA -0.2218
-4.5360 NAFISA -0.2218
-4.5360 NAFISAH -0.2218
-4.5360 NAGINA -0.2218
-4.5360 NAHEEM -0.2218
-4.5360 NAHID -0.2218
-4.5360 NAHIDA -0.2218
-4.5360 NAHIM -0.2218
-4.5360 NAHUM -0.2218
-4.5360 NAILA -0.2218
-4.5360 NAILAH -0.2218
-4.5360 NAIM -0.2218
-4.5360 NAIMA -0.2218
-4.5360 NAIMAH -0.2218
-4.5360 NAJMA -0.2218
-4.5360 NAKISHA -0.2218
-4.5360 NAKITA -0.2218
-4.2350 NANA -0.2218
-4.5360 NANCY -0.2218
-4.5360 NANDINI -0.2218
-4.5360 NAOMI -0.2218
-4.5360 NASEEM -0.2218
-4.5360 NASIM -0.2218
-4.5360 NASIMA -0.2218
-4.5360 NASIR -0.2218
-4.5360 NASRA -0.2218
-4.5360 NASREEN -0.2218
-4.5360 NASSER -0.2218
-4.5360 NASSIM -0.2218
-4.5360 NATACHA -0.2218
-4.5360 NATALIA -0.2218
-4.5360 NATALIE -0.2218
-4.5360 NATALYA -0.2218
-4.5360 NATASHA -0.2218
-4.5360 NATASHIA -0.2218
-4.5360 NATASJA -0.2218
-4.5360 NATHALIE -0.2218
-4.5360 NATHAN -0.2218
-4.5360 NATHANAEL -0.2218
-4.5360 NATHANIAL -0.2218
-4.5360 NATHANIEL -0.2218
-4.5360 NATHEN -0.2218
-4.5360 NAUMAN -0.2218
-4.5360 NAVDEEP -0.2218
-4.5360 NAVEED -0.2218
-4.5360 NAVEENA -0.2218
-4.5360 NAVJOT -0.2218
-4.5360 NAVNEET -0.2218
-4.5360 NAVPREET -0.2218
-4.5360 NAVRAJ -0.2218
-4.5360 NAWAL -0.2218
-4.5360 NAYAN -0.2218
-4.5360 NAYIM -0.2218
-4.5360 NAZIA -0.2218
-4.5360 NAZIFA -0.2218
-4.5360 NAZIM -0.2218
-4.5360 NAZIR -0.2218
-4.5360 NAZISH -0.2218
-4.5360 NAZMA -0.2218
-4.5360 NAZMEEN -0.2218
-4.5360 NAZMIN -0.2218
-4.5360 NAZMUL -0.2218
-4.5360 NAZNEEN -0.2218
-4.5360 NAZREEN -0.2218
-4.5360 NEAL -0.2218
-4.5360 NEAVE -0.2218
-4.5360 NED -0.2218
-4.5360 NEEL -0.2218
-4.5360 NEELAM -0.2218
-4.5360 NEERAJ -0.2218
-4.5360 NEESHA -0.2218
-4.5360 NEEVE -0.2218
-4.5360 NEHA -0.2218
-4.5360 NEHEMIAH -0.2218
-4.5360 NEIL -0.2218
-4.5360 NEISHA -0.2218
-4.5360 NELLIE -0.2218
-4.5360 NELSON -0.2218
-4.5360 NENEH -0.2218
-4.5360 NERISSA -0.2218
-4.5360 NERYS -0.2218
-4.5360 NEVAN -0.2218
-4.5360 NIA -0.2218
-4.5360 NIAL -0.2218
-4.5360 NIALL -0.2218
-4.5360 NIAM -0.2218
-4.5360 NIAMH -0.2218
-4.5360 NICHOLA -0.2218
-4.5360 NICHOLAS -0.2218
-4.5360 NICHOLE -0.2218
-4.5360 NICK -0.2218
-4.5360 NICKI -0.2218
-4.5360 NICKOLAS -0.2218
-4.5360 NICKY -0.2218
-4.5360 NICO -0.2218
-4.5360 NICOL -0.2218
-4.5360 NICOLA -0.2218
-4.5360 NICOLAI -0.2218
-4.5360 NICOLAS -0.2218
-4.5360 NICOLE -0.2218
-4.5360 NICOLETTE -0.2218
-4.5360 NICOLLE -0.2218
-4.5360 NIDA -0.2218
-4.5360 NIGEL -0.2218
-4.5360 NIK -0.2218
-4.5360 NIKESH -0.2218
-4.5360 NIKHIL -0.2218
-4.5360 NIKHITA -0.2218
-4.2350 NIKI -0.2218
-4.5360 NIKISHA -0.2218
-4.2350 NIKITA -0.2218
-4.5360 NIKKI -0.2218
-4.5360 NIKKITA -0.2218
-4.5360 NIKO -0.2218
-4.5360 NIKOLA -0.2218
-4.5360 NIKOLAI -0.2218
-4.5360 NIKOLAOS -0.2218
-4.5360 NIKOLAS -0.2218
-4.5360 NILE -0.2218
-4.5360 NILES -0.2218
-4.5360 NILIMA -0.2218
-4.5360 NILS -0.2218
-4.5360 NIMA -0.2218
-4.5360 NIMRA -0.2218
-4.5360 NIMRAH -0.2218
-4.5360 NINA -0.2218
-4.5360 NIOMI -0.2218
-4.5360 NIRAJ -0.2218
-4.5360 NISA -0.2218
-4.5360 NISHA -0.2218
-4.5360 NISHAN -0.2218
-4.5360 NISHANT -0.2218
-4.5360 NISHAT -0.2218
-4.5360 NIZAMUDDIN -0.2218
-4.5360 NO -0.2218
-4.5360 NOAH -0.2218
-4.5360 NOEL -0.2218
-4.5360 NOMAN -0.2218
-4.2350 NOOR -0.2218
-4.5360 NORA -0.2218
-4.5360 NOREEN -0.2218
-4.5360 NORMAN -0.2218
-4.5360 NORTON -0.2218
-4.5360 NOSHEEN -0.2218
-4.5360 NOSHIN -0.2218
-4.5360 NUALA -0.2218
-4.5360 NUHA -0.2218
-4.5360 NUMAAN -0.2218
-4.5360 NUMAN -0.2218
-4.2350 NUR -0.2218
-4.2350 NURUL -0.2218
-4.5360 NUSAYBAH -0.2218
-4.5360 NUSRAT -0.2218
-4.5360 NYALL -0.2218
-4.5360 NYE -0.2218
-4.5360 NYLE -0.2218
-4.5360 NYOMI -0.2218
-4.5360 NYREE -0.2218
-4.5360 OAKLEY -0.2218
-4.5360 OBINNA -0.2218
-4.2350 OCEAN -0.2218
-4.5360 OCTAVIA -0.2218
-4.5360 ODETTE -0.2218
-4.5360 ODIN -0.2218
-4.5360 OGHENETEGA -0.2218
-4.5360 OISIN -0.2218
-4.5360 OKAN -0.2218
-4.5360 OLADELE -0.2218
-4.2350 OLAMIDE -0.2218
-4.5360 OLAOLUWA -0.2218
-4.5360 OLGA -0.2218
-4.5360 OLIVE -0.2218
-4.5360 OLIVER -0.2218
-4.5360 OLIVIA -0.2218
-4.5360 OLIVIER -0.2218
-4.5360 OLLIE -0.2218
-4.5360 OLUFEMI -0.2218
-4.5360 OLUMIDE -0.2218
-4.5360 OLUSEGUN -0.2218
-4.5360 OLUWADAMILARE -0.2218
-4.2350 OLUWADAMILOLA -0.2218
-4.5360 OLUWADEMILADE -0.2218
-4.5360 OLUWAFEMI -0.2218
-4.5360 OLUWAKOREDE -0.2218
-4.5360 OLUWAROTIMI -0.2218
-4.2350 OLUWASEUN -0.2218
-4.5360 OLUWASEYI -0.2218
-4.5360 OLUWATIMILEYIN -0.2218
-4.2350 OLUWATOBI -0.2218
-4.2350 OLUWATOSIN -0.2218
-4.5360 OLUWATOYOSI -0.2218
-4.5360 OMAR -0.2218
-4.5360 OMARI -0.2218
-4.5360 OMER -0.2218
-4.5360 ONKAR -0.2218
-4.5360 ONUR -0.2218
-4.5360 OONAGH -0.2218
-4.5360 OPAL -0.2218
-4.5360 OPEYEMI -0.2218
-4.5360 OPHELIA -0.2218
-4.5360 ORAN -0.2218
-4.5360 OREN -0.2218
-4.5360 ORIANA -0.2218
-4.5360 ORLA -0.2218
-4.5360 ORLAITH -0.2218
-4.5360 ORLANDO -0.2218
-4.5360 ORRIN -0.2218
-4.5360 OSAMA -0.2218
-4.5360 OSCAR -0.2218
-4.5360 OSIAN -0.2218
-4.5360 OSKAR -0.2218
-4.5360 OSMAN -0.2218
-4.5360 OTIS -0.2218
-4.5360 OTTILIE -0.2218
-4.5360 OTTO -0.2218
-4.5360 OWAIN -0.2218
-4.5360 OWAIS -0.2218
-4.5360 OWEN -0.2218
-4.5360 OYINKANSOLA -0.2218
-4.5360 OZAN -0.2218
-4.5360 OZCAN -0.2218
-4.5360 OZGE -0.2218
-4.5360 PABLO -0.2218
-4.5360 PADDY -0.2218
-4.5360 PADRAIC -0.2218
-4.5360 PADRAIG -0.2218
-4.5360 PAGAN -0.2218
-4.5360 PAGE -0.2218
-4.5360 PAIGE -0.2218
-4.5360 PAIGHTON -0.2218
-4.5360 PAISLEY -0.2218
-4.5360 PALOMA -0.2218
-4.5360 PAMELA -0.2218
-4.5360 PANAYIOTIS -0.2218
-4.5360 PANDORA -0.2218
-4.5360 PAOLO -0.2218
-4.5360 PARAM -0.2218
-4.5360 PARDEEP -0.2218
-4.2350 PARIS -0.2218
-4.5360 PARISA -0.2218
-4.5360 PARISS -0.2218
-4.5360 PARMINDER -0.2218
-4.5360 PARRIS -0.2218
-4.5360 PARTH -0.2218
-4.5360 PASCAL -0.2218
-4.5360 PASCALE -0.2218
-4.5360 PASQUALE -0.2218
-4.5360 PATIENCE -0.2218
-4.5360 PATRICE -0.2218
-4.5360 PATRICIA -0.2218
-4.5360 PATRICK -0.2218
-4.5360 PATRIK -0.2218
-4.5360 PATSY -0.2218
-4.5360 PAUL -0.2218
-4.5360 PAULA -0.2218
-4.5360 PAULINE -0.2218
-4.5360 PAULO -0.2218
-4.2350 PAVAN -0.2218
-4.2350 PAVANDEEP -0.2218
-4.5360 PAVLOS -0.2218
-4.5360 PAWANDEEP -0.2218
-4.5360 PAYAL -0.2218
-4.5360 PAYTON -0.2218
-4.5360 PEARCE -0.2218
-4.5360 PEARL -0.2218
-4.5360 PEDRO -0.2218
-4.5360 PEGGY -0.2218
-4.5360 PENELOPE -0.2218
-4.5360 PENNY -0.2218
-4.5360 PEREZ -0.2218
-4.5360 PERI -0.2218
-4.5360 PERRAN -0.2218
-4.2350 PERRI -0.2218
-4.2350 PERRIE -0.2218
-4.5360 PERRY -0.2218
-4.5360 PETAR -0.2218
-4.5360 PETE -0.2218
-4.5360 PETER -0.2218
-4.5360 PETRA -0.2218
-4.5360 PETROS -0.2218
-4.5360 PEYTON -0.2218
-4.5360 PHEBE -0.2218
-4.5360 PHEOBE -0.2218
-4.5360 PHILIP -0.2218
-4.5360 PHILIPPA -0.2218
-4.5360 PHILIPPE -0.2218
-4.5360 PHILLIP -0.2218
-4.5360 PHILLIPA -0.2218
-4.5360 PHILLIPPA -0.2218
-4.5360 PHILOMENA -0.2218
-4.5360 PHINEAS -0.2218
-4.5360 PHOEBE -0.2218
-4.2350 PHOENIX -0.2218
-4.5360 PIA -0.2218
-4.5360 PIERCE -0.2218
-4.5360 PIERRE -0.2218
-4.5360 PIERS -0.2218
-4.5360 PIETRO -0.2218
-4.5360 PINAR -0.2218
-4.5360 PINCHAS -0.2218
-4.5360 PIPPA -0.2218
-4.5360 POLLY -0.2218
-4.5360 POLLYANNA -0.2218
-4.5360 POOJA -0.2218
-4.5360 POONAM -0.2218
-4.5360 POPPIE -0.2218
-4.5360 POPPY -0.2218
-4.5360 PORSCHA -0.2218
-4.5360 PORTIA -0.2218
-4.5360 PRABHJOT -0.2218
-4.5360 PRANAV -0.2218
-4.5360 PRANAY -0.2218
-4.5360 PRASHANT -0.2218
-4.5360 PRATIK -0.2218
-4.5360 PRECIOUS -0.2218
-4.5360 PREETI -0.2218
-4.5360 PREM -0.2218
-4.5360 PRESTON -0.2218
-4.5360 PRIMROSE -0.2218
-4.5360 PRINCE -0.2218
-4.5360 PRINCESS -0.2218
-4.5360 PRISCILLA -0.2218
-4.5360 PRITESH -0.2218
-4.5360 PRITPAL -0.2218
-4.5360 PRIYA -0.2218
-4.5360 PRIYANKA -0.2218
-4.5360 PRIYEN -0.2218
-4.5360 PRIYESH -0.2218
-4.5360 PTOLEMY -0.2218
-4.5360 PUJA -0.2218
-4.5360 QAASIM -0.2218
-4.5360 QAIS -0.2218
-4.5360 QAISER -0.2218
-4.5360 QAMAR -0.2218
-4.5360 QASIM -0.2218
-4.5360 QUADE -0.2218
-4.5360 QUAZI -0.2218
-4.5360 QUENTIN -0.2218
-4.5360 QUINCY -0.2218
-4.5360 QUINLAN -0.2218
-4.5360 QUINN -0.2218
-4.5360 QUINTON -0.2218
-4.5360 QUOC -0.2218
-4.5360 RABIA -0.2218
-4.5360 RABIYA -0.2218
-4.5360 RACHAEL -0.2218
-4.5360 RACHEAL -0.2218
-4.5360 RACHEL -0.2218
-4.5360 RACHELLE -0.2218
-4.5360 RADHA -0.2218
-4.5360 RADHIKA -0.2218
-4.5360 RADWAN -0.2218
-4.5360 RAE -0.2218
-4.5360 RAEES -0.2218
-4.5360 RAEESA -0.2218
-4.5360 RAEESAH -0.2218
-4.5360 RAEGAN -0.2218
-4.5360 RAEKWON -0.2218
-4.5360 RAFAEL -0.2218
-4.5360 RAFE -0.2218
-4.5360 RAFFAELE -0.2218
-4.5360 RAFI -0.2218
-4.5360 RAFIA -0.2218
-4.5360 RAFIQ -0.2218
-4.5360 RAHAT -0.2218
-4.5360 RAHATH -0.2218
-4.5360 RAHEEL -0.2218
-4.5360 RAHEEM -0.2218
-4.5360 RAHEEMA -0.2218
-4.5360 RAHIL -0.2218
-4.5360 RAHIM -0.2218
-4.5360 RAHIMA -0.2218
-4.5360 RAHMA -0.2218
-4.5360 RAHMAN -0.2218
-4.5360 RAHUL -0.2218
-4.5360 RAIHAN -0.2218
-4.5360 RAIN -0.2218
-4.5360 RAINE -0.2218
-4.5360 RAIS -0.2218
-4.5360 RAIYAN -0.2218
-4.5360 RAJ -0.2218
-4.5360 RAJA -0.2218
-4.5360 RAJAN -0.2218
-4.5360 RAJANDEEP -0.2218
-4.5360 RAJEEV -0.2218
-4.5360 RAJESH -0.2218
-4.5360 RAJINDER -0.2218
-4.5360 RAJIV -0.2218
-4.5360 RAJNI -0.2218
-4.5360 RAJVEER -0.2218
-4.5360 RAJVIR -0.2218
-4.5360 RAKEEM -0.2218
-4.5360 RAKESH -0.2218
-4.5360 RALPH -0.2218
-4.5360 RAM -0.2218
-4.5360 RAMAN -0.2218
-4.2350 RAMANDEEP -0.2218
-4.5360 RAMEEZ -0.2218
-4.5360 RAMEL -0.2218
-4.5360 RAMEZ -0.2218
-4.5360 RAMI -0.2218
-4.5360 RAMLA -0.2218
-4.5360 RAMON -0.2218
-4.5360 RAMONE -0.2218
-4.5360 RAMZAN -0.2218
-4.5360 RAMZI -0.2218
-4.5360 RANA -0.2218
-4.5360 RANDALL -0.2218
-4.5360 RANDEEP -0.2218
-4.5360 RANIA -0.2218
-4.5360 RANJIT -0.2218
-4.5360 RANVEER -0.2218
-4.5360 RANVIR -0.2218
-4.5360 RAOUL -0.2218
-4.5360 RAPHAEL -0.2218
-4.5360 RAPHAELLA -0.2218
-4.5360 RAQUEL -0.2218
-4.5360 RASHAUN -0.2218
-4.5360 RASHED -0.2218
-4.5360 RASHEL -0.2218
-4.5360 RASHID -0.2218
-4.5360 RAUL -0.2218
-4.5360 RAVEENA -0.2218
-4.5360 RAVEN -0.2218
-4.5360 RAVI -0.2218
-4.5360 RAVINA -0.2218
-4.2350 RAVINDER -0.2218
-4.5360 RAVNEET -0.2218
-4.5360 RAY -0.2218
-4.5360 RAYA -0.2218
-4.5360 RAYAN -0.2218
-4.5360 RAYANNE -0.2218
-4.5360 RAYHAAN -0.2218
-4.5360 RAYHAN -0.2218
-4.5360 RAYMOND -0.2218
-4.5360 RAYNA -0.2218
-4.5360 RAYON -0.2218
-4.5360 RAZA -0.2218
-4.5360 RAZIA -0.2218
-4.5360 REA -0.2218
-4.5360 REACE -0.2218
-4.2350 REAGAN -0.2218
-4.5360 REAGEN -0.2218
-4.5360 REAH -0.2218
-4.5360 REANNA -0.2218
-4.5360 REANNE -0.2218
-4.5360 REBBECCA -0.2218
-4.5360 REBECA -0.2218
-4.5360 REBECCA -0.2218
-4.5360 REBECKA -0.2218
-4.5360 REBECKAH -0.2218
-4.5360 REBEKA -0.2218
-4.5360 REBEKAH -0.2218
-4.5360 REBEKKA -0.2218
-4.5360 REBEKKAH -0.2218
-4.5360 RED -0.2218
-4.5360 REDD -0.2218
-4.5360 REDFORD -0.2218
-4.2350 REECE -0.2218
-4.5360 REED -0.2218
-4.5360 REEGAN -0.2218
-4.5360 REEM -0.2218
-4.5360 REEMA -0.2218
-4.5360 REENA -0.2218
-4.5360 REES -0.2218
-4.2350 REESE -0.2218
-4.5360 REEVE -0.2218
-4.2350 REGAN -0.2218
-4.5360 REGGIE -0.2218
-4.5360 REGINA -0.2218
-4.5360 REGINALD -0.2218
-4.5360 REHAAN -0.2218
-4.5360 REHAN -0.2218
-4.5360 REHMAN -0.2218
-4.5360 REICE -0.2218
-4.5360 REID -0.2218
-4.5360 REILLY -0.2218
-4.5360 REIS -0.2218
-4.5360 REISS -0.2218
-4.5360 REMA -0.2218
-4.5360 REMEL -0.2218
-4.2350 REMI -0.2218
-4.5360 REMIE -0.2218
-4.5360 REMMIE -0.2218
-4.2350 REMY -0.2218
-4.5360 RENAE -0.2218
-4.2350 RENE -0.2218
-4.5360 RENEE -0.2218
-4.5360 RENU -0.2218
-4.5360 RENUKA -0.2218
-4.5360 RESHAM -0.2218
-4.5360 REUBEN -0.2218
-4.5360 REX -0.2218
-4.5360 REZWAN -0.2218
-4.5360 REZWANA -0.2218
-4.5360 RHEA -0.2218
-4.5360 RHEANNA -0.2218
-4.5360 RHEANNE -0.2218
-4.5360 RHETT -0.2218
-4.5360 RHIA -0.2218
-4.5360 RHIAN -0.2218
-4.5360 RHIANA -0.2218
-4.5360 RHIANE -0.2218
-4.5360 RHIANN -0.2218
-4.5360 RHIANNA -0.2218
-4.5360 RHIANNAN -0.2218
-4.5360 RHIANNE -0.2218
-4.5360 RHIANNON -0.2218
-4.5360 RHIANON -0.2218
-4.5360 RHIDIAN -0.2218
-4.5360 RHODA -0.2218
-4.5360 RHODRI -0.2218
-4.5360 RHONA -0.2218
-4.5360 RHYAN -0.2218
-4.5360 RHYANNA -0.2218
-4.5360 RHYANNE -0.2218
-4.5360 RHYANNON -0.2218
-4.5360 RHYCE -0.2218
-4.5360 RHYDIAN -0.2218
-4.5360 RHYS -0.2218
-4.5360 RHYSE -0.2218
-4.5360 RIA -0.2218
-4.5360 RIAH -0.2218
-4.2350 RIAN -0.2218
-4.5360 RIANA -0.2218
-4.5360 RIANNA -0.2218
-4.5360 RIANNE -0.2218
-4.5360 RIANNON -0.2218
-4.5360 RIAZ -0.2218
-4.5360 RICARDO -0.2218
-4.5360 RICCARDO -0.2218
-4.5360 RICCI -0.2218
-4.5360 RICHARD -0.2218
-4.5360 RICHELLE -0.2218
-4.5360 RICHIE -0.2218
-4.5360 RICK -0.2218
-4.2350 RICKI -0.2218
-4.5360 RICKIE -0.2218
-4.5360 RICKY -0.2218
-4.5360 RICKY-LEE -0.2218
-4.5360 RICO -0.2218
-4.5360 RIDA -0.2218
-4.5360 RIDHA -0.2218
-4.5360 RIDHWAN -0.2218
-4.5360 RIDWAN -0.2218
-4.5360 RIECE -0.2218
-4.5360 RIFAT -0.2218
-4.5360 RIKESH -0.2218
-4.5360 RIKIN -0.2218
-4.2350 RIKKI -0.2218
-4.2350 RILEY -0.2218
-4.5360 RIMA -0.2218
-4.5360 RINA -0.2218
-4.2350 RIO -0.2218
-4.5360 RIONA -0.2218
-4.5360 RIORDAN -0.2218
-4.5360 RISHABH -0.2218
-4.5360 RISHI -0.2218
-4.5360 RITA -0.2218
-4.5360 RITCHIE -0.2218
-4.5360 RIVER -0.2218
-4.5360 RIVKA -0.2218
-4.5360 RIYA -0.2218
-4.5360 RIZWAAN -0.2218
-4.5360 RIZWAN -0.2218
-4.5360 RIZWANA -0.2218
-4.5360 ROAN -0.2218
-4.5360 ROANNA -0.2218
-4.5360 ROB -0.2218
-4.5360 ROBBIE -0.2218
-4.5360 ROBBY -0.2218
-4.5360 ROBERT -0.2218
-4.5360 ROBERTA -0.2218
-4.5360 ROBERTO -0.2218
-4.2350 ROBIN -0.2218
-4.5360 ROBSON -0.2218
